create_expense -0.018677 -0.006244 0.001020 0.006458 0.007818 -0.001925 -0.006968 -0.014099 -0.002598 0.008185 0.001790 0.002157 0.004534 -0.003432 0.006898 0.005315 -0.015538 0.003914 0.003745 0.004908 -0.004960 -0.017096 -0.001388 0.001394 0.008592 -0.004681 -0.006066 -0.003891 0.007030 -0.012570 0.004766 0.003845 -0.009271 0.009203 -0.006623 0.002678 -0.006014 0.002119 0.007539 -0.004525 -0.007850 -0.001612 0.011873 0.002024 -0.007704 -0.000564 -0.000422 0.008914 -0.001396 -0.002607
expense -0.006397 -0.034094 -0.011695 0.018709 0.036617 -0.010006 -0.000330 -0.010419 0.023226 0.000910 -0.013094 -0.025809 0.019039 -0.030430 0.035096 0.025733 0.011531 -0.002796 -0.055002 0.041979 -0.003891 0.014328 -0.000560 0.014538 0.023791 -0.041681 0.012727 -0.018501 0.014833 0.029043 0.023624 -0.017245 0.020564 0.004403 -0.020024 0.034534 0.024053 -0.014973 -0.008617 0.020961 -0.000081 -0.014869 0.006437 -0.021331 0.019037 -0.010386 0.002918 -0.037580 -0.009212 0.041622
for -0.004382 0.007536 -0.012788 -0.003636 0.009128 0.006128 -0.001316 -0.010704 -0.006691 0.000794 0.003950 -0.027357 0.019136 -0.008756 0.003104 0.036616 0.006949 -0.012557 -0.045946 0.029465 -0.000040 -0.009335 0.012783 -0.007966 0.005750 -0.006636 0.005189 0.008125 0.025688 0.051481 0.006172 0.019652 0.009305 -0.001326 -0.021330 0.037941 -0.014882 -0.028795 -0.004527 -0.001437 -0.014167 0.003718 0.007737 0.004776 0.031307 0.014042 -0.001578 -0.013234 -0.038824 0.026339
other_operations_on_expense 0.001790 -0.012530 0.006573 0.002991 -0.001769 -0.005618 -0.014249 0.000283 -0.014189 -0.008598 0.007785 0.009346 0.009095 0.011214 -0.001453 -0.001777 -0.003978 -0.010563 0.001837 0.010733 0.003460 -0.002698 0.005175 -0.009226 0.005115 0.007396 -0.006020 -0.001129 0.010562 0.000105 0.014007 -0.008913 -0.012736 -0.009629 -0.010266 -0.010635 -0.012245 0.005126 0.007208 -0.008102 -0.010134 -0.009611 0.010348 0.002590 -0.004512 -0.008172 -0.006554 -0.000364 0.006402 -0.005734
$20 0.006370 0.015217 -0.001655 0.012381 -0.005812 0.016485 0.015827 -0.018459 -0.022370 0.002942 0.000283 -0.001018 0.015015 -0.005572 -0.013777 -0.007302 -0.007110 -0.001169 0.006293 0.007450 0.017281 0.002125 -0.001494 -0.000196 -0.016351 0.021061 -0.027414 0.008307 0.007264 -0.014745 -0.018237 0.005880 0.019738 -0.031855 0.022500 -0.013464 0.002677 -0.019663 -0.002337 -0.023947 -0.003214 0.000915 0.013197 -0.011977 -0.022449 -0.019409 0.003075 0.013276 0.002473 -0.000899
my 0.004979 -0.024002 -0.022115 0.014020 0.019554 -0.011844 0.009571 -0.000101 0.020467 0.006631 -0.018306 -0.025989 0.011527 -0.020722 0.017251 0.017276 -0.002425 0.001122 -0.038423 0.039339 0.005798 0.020074 -0.005175 0.018499 0.026708 -0.024395 0.016592 -0.013748 0.007702 0.018979 0.015254 -0.012035 0.013889 0.007274 -0.018491 0.029185 0.020431 -0.026615 -0.020000 0.012542 0.008250 -0.010551 0.007239 -0.015104 0.012194 -0.018487 0.000083 -0.026078 -0.009106 0.047473
taxi -0.012749 -0.008151 0.009819 0.014180 0.020491 0.003167 -0.001566 -0.021482 0.013391 -0.003788 0.008001 -0.003790 0.023948 -0.015304 0.017034 0.012536 0.029823 0.004539 -0.022144 0.012583 -0.002582 -0.002929 0.002589 -0.008494 0.006534 -0.015278 0.010557 -0.008912 -0.000024 0.016871 0.003879 -0.003745 0.031870 -0.008535 -0.002519 0.007772 0.000329 0.002598 0.015126 0.015879 -0.001515 0.001551 0.001711 -0.007449 0.009591 -0.013122 0.014154 -0.017726 -0.012971 -0.002708
20 -0.003316 0.026440 -0.008514 -0.018236 0.000222 0.000188 0.004924 -0.005844 -0.005886 0.001136 0.000234 -0.024074 0.000119 -0.011261 -0.008323 0.030688 -0.001614 -0.004698 -0.029447 0.017824 -0.003211 -0.022214 0.016070 -0.008303 0.001845 0.009006 0.009150 0.012883 0.020641 0.039983 0.001020 0.032679 -0.010708 0.004188 -0.014016 0.017724 -0.021834 -0.024020 0.000731 -0.012376 -0.015953 0.014402 -0.009101 0.012083 0.020281 0.017649 -0.004705 -0.001817 -0.029608 0.018990
to 0.013936 -0.014799 -0.001332 0.006663 -0.005233 -0.013210 -0.022712 0.000421 0.005096 0.008067 -0.006940 0.023954 0.006631 0.013062 -0.005032 -0.020167 -0.012474 0.020636 0.022136 -0.006768 -0.011580 -0.014929 -0.014301 0.016256 0.006875 0.014018 0.003477 0.005931 -0.033785 -0.015385 -0.010723 0.005015 0.003261 -0.000614 -0.006321 -0.039869 -0.018022 0.031377 0.000451 0.032893 0.017796 -0.015711 -0.015797 0.009962 -0.020839 0.022592 0.019190 -0.002712 0.033273 -0.022741
a 0.010247 0.002165 0.007834 0.012716 -0.015797 0.008651 0.003974 0.008008 -0.012153 0.015509 -0.008217 0.003764 0.008459 -0.005054 0.015494 -0.014773 0.013106 -0.010539 0.026750 -0.000821 0.003703 -0.007672 0.005035 -0.016004 0.009628 -0.009436 -0.001061 0.009447 -0.007395 -0.007871 -0.008600 0.012971 0.001624 0.003240 0.001879 -0.006077 0.012502 0.012620 0.019451 -0.003109 -0.019916 0.005372 0.002590 -0.024164 -0.010996 -0.000757 0.017859 -0.009287 -0.025385 0.004554
on -0.000857 0.010827 0.002928 0.001589 0.003372 0.001959 0.011275 -0.026702 0.000702 -0.005414 0.012185 0.002939 0.017737 -0.010950 -0.005920 0.014026 0.009668 0.007633 -0.005989 0.008119 0.001803 0.004242 -0.002738 -0.004936 0.001301 0.008995 -0.010243 0.000196 -0.011481 -0.007462 -0.009638 -0.005341 0.026446 -0.026249 0.011999 -0.007973 -0.003986 -0.009743 0.008271 -0.011688 0.008569 -0.007481 0.005775 -0.001313 -0.010472 -0.021431 0.009303 -0.000152 -0.000864 -0.013909
at 0.002419 0.000898 -0.013742 -0.001784 -0.003478 -0.000480 -0.004655 -0.004682 -0.010763 -0.007453 -0.004100 -0.012155 -0.012109 0.011598 -0.002145 0.007354 -0.012443 -0.009327 -0.004547 -0.002004 -0.001699 0.024435 -0.015555 0.024867 -0.010577 -0.001270 0.010929 0.011585 0.014531 -0.003007 0.007500 -0.003192 -0.015557 -0.003537 0.010908 0.009611 0.012275 0.000520 -0.014156 -0.014304 -0.010112 -0.005901 0.015998 -0.001078 -0.003058 0.005072 0.000800 0.009022 0.008609 0.006503
create 0.000689 0.003070 0.006739 0.016824 -0.002411 0.005236 0.007915 -0.004161 -0.001560 0.007075 -0.005311 0.002749 0.009125 -0.004105 0.003302 -0.013191 0.020089 -0.011249 0.014323 -0.008678 -0.005196 0.005306 -0.000189 -0.002457 0.013406 -0.017391 -0.002653 -0.002750 -0.009060 -0.011159 0.003005 -0.003894 0.013881 0.000236 -0.010243 -0.018226 0.019555 0.017734 0.008958 -0.010275 -0.001524 0.013501 0.012338 -0.025102 -0.004530 -0.012893 0.017181 -0.005504 -0.003210 0.006168
Parking -0.001887 0.004982 0.001218 0.013612 0.007608 0.013997 0.003173 -0.013345 -0.022204 0.006272 -0.007975 0.001711 0.001911 -0.007547 0.002134 -0.021135 0.005715 0.000866 0.002048 0.005169 0.013429 -0.007895 0.005779 0.000362 -0.018127 0.003430 -0.018817 0.002918 0.008699 -0.009257 -0.010673 0.005173 0.013708 -0.014667 0.017140 -0.007357 0.015663 -0.010227 -0.001974 -0.001433 -0.012272 -0.004054 0.017175 -0.017173 -0.012044 -0.006087 -0.008491 0.012211 0.002041 -0.000141
yesterday 0.000148 0.019651 -0.010545 -0.006667 -0.005251 0.007588 -0.006827 -0.007093 -0.005957 -0.004700 -0.007667 -0.002025 -0.005850 0.002555 -0.016258 0.007361 -0.013335 0.009455 0.012629 -0.003049 -0.002963 0.015508 -0.003839 0.004547 -0.001909 0.012440 -0.000192 0.010003 0.006993 -0.014257 -0.010393 -0.002904 -0.022025 -0.020565 0.010362 -0.004391 0.007551 -0.004009 -0.000937 -0.026710 0.004846 0.002366 0.005251 0.003276 -0.010909 0.008755 -0.007535 0.009181 0.005621 -0.009128
parking -0.004095 -0.001890 -0.009187 0.013444 -0.001020 0.011694 -0.017727 -0.008201 -0.014800 -0.010462 -0.003583 -0.008823 0.000062 0.004272 -0.013410 0.004433 -0.006804 -0.012795 -0.022477 0.003357 0.012748 0.017133 -0.009336 0.001335 -0.006109 0.002730 -0.008091 0.012396 0.013087 0.017028 0.010208 0.003990 0.016907 -0.012204 0.005140 0.015864 -0.005872 -0.002670 -0.015392 -0.007119 -0.005826 0.005894 0.017643 -0.008725 0.021527 0.015724 -0.007609 -0.004231 -0.003829 0.005635
I 0.010973 -0.005824 -0.007198 -0.006666 -0.006509 0.003283 -0.015939 0.009867 0.013637 0.016767 -0.008415 0.025315 -0.013889 0.002093 -0.008076 -0.005351 -0.009450 0.019386 0.001961 -0.008707 0.003762 -0.000506 -0.001883 0.010130 -0.009407 0.004757 0.005230 0.015854 -0.003496 -0.009189 0.002537 0.004695 0.000004 0.013089 0.009205 -0.019443 -0.012172 0.024204 -0.000418 0.020954 0.012836 0.003938 -0.001036 0.006902 -0.005099 0.014116 0.012263 0.002452 0.007879 -0.007731
i 0.004390 0.007372 0.010957 0.007986 -0.024926 0.019939 0.018569 0.010534 -0.013858 0.008308 -0.006600 0.015000 -0.000737 -0.001859 0.003889 0.000290 0.009186 -0.021214 0.026087 -0.001400 0.010824 -0.000421 0.004654 -0.024880 0.006971 -0.004466 0.013143 0.008460 -0.005407 -0.017678 -0.018051 0.004852 -0.002067 -0.008050 -0.004122 0.009464 -0.000433 0.012840 -0.000409 -0.011408 -0.012217 -0.000347 -0.000725 -0.012674 -0.009127 -0.007190 0.007500 0.003774 -0.029194 0.004999
the 0.000695 0.002418 0.007355 0.006325 -0.002895 -0.002106 -0.011319 -0.004459 -0.007652 0.004750 0.004187 0.000076 -0.004305 0.001768 0.012105 -0.000932 -0.015359 0.010998 -0.004297 -0.015688 -0.016340 -0.005169 0.002759 -0.008944 -0.000735 -0.012306 0.012493 0.005886 0.000604 -0.003448 -0.005912 -0.003033 -0.004120 0.001164 -0.010936 -0.003225 -0.013615 0.000965 -0.000252 0.000513 0.003399 -0.001689 0.004981 0.008395 -0.006408 -0.004792 -0.013662 -0.007545 0.009077 0.006213
today -0.014348 0.011783 0.012587 -0.011739 0.000903 -0.008542 -0.008242 0.017365 -0.002682 -0.005164 -0.010311 -0.010278 0.002778 -0.008504 0.004182 0.009048 0.001085 -0.001166 -0.005008 0.005517 0.000126 -0.012466 -0.009470 0.007269 0.004334 -0.005722 0.006472 -0.011092 0.002753 0.007709 -0.009961 0.013442 0.001322 -0.009406 -0.004709 -0.008087 -0.007349 -0.007480 -0.008793 0.008679 -0.005446 0.003774 -0.021539 0.016049 0.004849 0.009763 -0.005275 0.006019 0.009495 0.006365
unresolvedintent -0.006032 -0.002615 -0.012916 -0.005047 -0.011652 0.005314 -0.006181 -0.018675 0.010521 0.005576 -0.007356 -0.001008 -0.000252 0.006935 0.009793 0.000820 0.009382 -0.000825 0.010719 0.014733 -0.004470 -0.002310 0.001099 0.012696 0.002406 -0.005315 0.007582 -0.005429 -0.003718 -0.002939 0.004544 -0.005936 -0.014123 -0.007191 -0.000797 -0.003089 0.005320 0.000260 -0.001925 -0.000632 -0.011455 -0.006665 -0.002357 -0.015611 -0.005360 -0.017886 -0.010653 0.001077 -0.000597 -0.005202
Taxi 0.003440 -0.007403 -0.001328 -0.001589 0.004483 -0.003705 -0.004514 -0.004574 0.002838 -0.009411 0.002593 0.005241 0.004227 -0.003063 -0.000259 -0.002677 -0.004598 0.007675 0.008692 -0.012615 0.009903 -0.010123 0.000671 0.014753 0.012632 0.002713 0.010305 -0.007082 0.000712 -0.014259 -0.009224 -0.008715 -0.002109 0.005750 0.018143 -0.002366 -0.003837 0.003157 0.015492 -0.002188 0.011199 -0.011635 -0.001234 -0.002605 -0.012281 -0.008725 0.000275 -0.010751 -0.008127 0.006023
city 0.003373 0.001242 0.005613 0.011409 -0.006507 -0.016397 -0.011476 0.003657 -0.001454 0.004508 -0.001420 0.001476 0.007197 0.008597 -0.006815 -0.019232 -0.017624 -0.002067 0.011048 -0.001623 -0.006642 -0.016866 -0.006556 0.001431 0.003730 0.002517 -0.001475 0.014253 -0.033787 -0.007026 -0.009910 0.003621 -0.008022 0.001991 -0.005471 -0.032195 -0.013131 0.029711 -0.000633 0.008546 -0.003249 -0.019432 -0.020117 0.001246 -0.019827 0.019311 0.018587 0.014588 0.019619 -0.023771
paid 0.012668 0.003170 -0.005472 -0.012055 -0.002588 0.004166 -0.008122 0.010692 0.014274 0.007422 -0.005519 0.004825 -0.014682 0.001434 -0.011434 0.012907 -0.001506 0.004946 -0.006796 0.004449 0.004845 -0.002344 0.009272 0.001779 -0.013325 0.006600 0.005327 0.011525 0.005921 0.003447 0.000613 0.002737 -0.004523 0.025593 -0.000045 -0.015322 -0.020163 0.008519 -0.006728 0.008545 -0.008055 0.010731 0.000462 0.007803 -0.002399 0.008442 -0.004422 0.005114 -0.015710 -0.006577
status 0.013531 -0.010050 -0.002502 0.001123 0.008639 -0.001206 0.002603 -0.001425 -0.005963 -0.007480 -0.000812 -0.024163 0.009936 -0.011438 0.014411 0.002554 -0.003184 -0.018381 -0.025589 0.013122 -0.006886 0.011136 -0.010177 0.004003 0.010113 -0.014077 0.013677 -0.001875 -0.009318 -0.005848 0.005128 -0.002993 0.008493 -0.001159 0.008400 0.007649 0.003556 -0.006451 -0.003653 -0.002485 -0.006491 0.007966 -0.008340 -0.003291 0.011458 0.003319 -0.013425 0.002815 0.007313 0.012502
$10 0.009908 -0.013380 -0.000975 -0.006825 -0.002250 -0.015604 -0.002212 -0.005943 0.011290 -0.009829 0.007266 0.004176 0.008095 -0.007649 0.006986 0.003494 -0.014974 0.003055 0.007651 0.003444 -0.000531 0.016152 -0.006016 0.024154 -0.015595 0.008333 0.019049 0.002908 -0.008407 0.005417 -0.000100 0.004181 -0.006668 0.013488 0.003399 0.014404 -0.010096 0.014258 -0.004983 0.006121 -0.004317 -0.001721 0.000095 0.014851 -0.001302 -0.011974 0.012529 0.004869 0.011053 -0.000818
$30 -0.016728 0.003223 0.002979 0.004894 0.000643 0.010919 0.008750 -0.000965 0.010042 0.002970 0.011205 -0.006307 0.000625 0.012800 -0.007511 -0.012182 -0.007188 -0.003600 0.012498 -0.002672 -0.000244 0.000948 -0.008841 0.002261 0.001560 0.008279 -0.000497 -0.010103 0.002465 0.001398 -0.005238 -0.003473 -0.007748 0.001791 0.006220 -0.004401 -0.004578 -0.012876 0.000267 -0.013979 0.012891 -0.001792 -0.013037 0.002654 0.005472 -0.011718 0.016693 0.000298 0.013368 0.008497
Meal 0.012526 0.007182 0.008096 -0.000762 -0.014574 0.005384 0.011879 0.009666 -0.012572 0.003356 0.009748 0.014324 0.002006 0.002306 0.005453 -0.007765 -0.012630 -0.008142 0.004166 -0.001813 0.005626 -0.004960 -0.008310 0.000310 -0.014990 0.002731 -0.006995 -0.001782 0.013142 -0.001766 0.008078 -0.007384 0.015492 0.008798 0.006909 -0.010286 -0.001494 0.003802 -0.003257 -0.009402 -0.001064 -0.011309 -0.010659 -0.007551 -0.008722 -0.006163 0.009858 0.000759 -0.000902 0.011693
charges -0.002589 -0.002698 0.001688 0.009446 0.010170 0.005848 -0.005383 -0.007387 0.003096 -0.007907 0.009903 -0.005732 0.008964 0.006767 0.001075 0.011348 0.015240 -0.002499 0.014004 -0.010443 0.002422 -0.014900 -0.001036 -0.005484 0.010492 -0.006578 -0.001443 0.001096 0.016358 0.002163 -0.006753 0.001159 -0.003463 -0.000977 0.014987 -0.017429 -0.000358 0.003796 0.009446 -0.003651 0.004395 -0.002657 -0.017320 0.005041 -0.012546 0.003377 -0.003657 -0.012912 -0.015329 0.001239
file 0.002399 0.000943 0.005800 0.007853 -0.006941 -0.000511 -0.010585 0.003011 -0.009677 -0.009656 0.001991 0.005507 0.005996 -0.011714 0.017750 0.007606 -0.001863 -0.001431 -0.015502 -0.003228 -0.010177 0.000998 0.002497 0.016408 -0.014072 -0.008060 -0.003267 0.008119 0.015213 -0.003163 0.012273 -0.001070 -0.016734 -0.006644 0.012734 -0.003688 -0.011550 0.015550 -0.002873 -0.006409 -0.006856 0.001442 -0.004121 -0.004720 0.004851 0.002426 -0.016657 0.000439 0.002268 -0.003895
from 0.010384 -0.011403 -0.002686 -0.000243 -0.004836 -0.008663 -0.011725 0.013442 -0.002104 -0.007939 -0.002883 0.012409 -0.009651 0.008536 -0.005728 -0.010535 -0.004078 0.019181 0.011631 0.001182 0.005197 0.006252 -0.012545 0.002106 0.008057 -0.001829 0.007856 -0.002207 -0.000638 -0.020165 -0.001917 -0.007878 -0.001660 0.003799 -0.010700 -0.012039 -0.012172 -0.001719 0.003122 0.020843 0.017213 -0.000498 -0.010626 -0.000552 -0.006473 0.000180 0.014335 -0.010192 0.008098 -0.008506
know 0.014578 0.016775 0.005555 0.002887 -0.014905 -0.001442 0.020397 0.006329 -0.013079 -0.006171 -0.005041 -0.009818 -0.009298 0.002187 0.001401 -0.015573 0.001553 -0.021836 0.000286 -0.008869 0.009382 0.017538 -0.002680 -0.018651 0.010364 0.000376 0.014245 0.007946 -0.007610 0.000452 -0.011286 -0.002523 -0.001309 -0.000894 -0.008798 0.014217 0.004338 -0.004140 0.001606 -0.004502 -0.005728 0.003105 -0.000017 -0.004221 0.000314 -0.023782 -0.009029 0.014705 -0.022737 0.017202
meal -0.005809 -0.000668 -0.006116 -0.002419 -0.007246 -0.005115 0.009692 0.002903 -0.009401 0.009607 0.014999 -0.010896 -0.008014 0.003001 -0.009499 0.000147 0.002315 -0.004073 -0.005546 -0.005842 -0.009620 -0.007270 -0.003214 0.001941 -0.005612 -0.005589 0.007819 0.013337 0.000262 0.003497 -0.000769 -0.000671 -0.018147 -0.001858 -0.006194 0.008424 -0.009142 -0.013234 -0.003076 0.007459 0.016054 0.006448 -0.004288 0.005352 0.017466 -0.010697 0.007015 -0.011974 -0.005237 -0.018380
<unk> 0.001260 -0.000329 -0.001030 0.003268 -0.000514 0.000714 -0.001318 -0.002804 -0.002092 0.000510 -0.000831 -0.001948 0.003557 -0.002068 0.001870 0.001726 -0.000986 -0.001440 -0.002673 0.003914 0.000584 -0.000180 -0.001725 0.001985 0.001618 -0.002101 0.002957 0.002505 0.001828 0.000496 -0.000751 0.000695 0.001076 -0.001859 -0.000051 -0.000912 -0.002263 0.000077 -0.000220 -0.000477 -0.001515 -0.001285 0.000016 -0.002474 -0.001173 -0.002105 0.002120 -0.001895 -0.002595 0.003008
