expense -0.002166 0.013691 -0.017803 -0.015563 -0.015003 -0.033960 -0.017412 -0.022245 -0.025609 -0.006992 0.005861 -0.008735 -0.000492 0.007521 0.009696 0.016723 -0.019050 -0.005606 0.028803 0.020102 0.008579 0.004097 -0.012413 -0.020073 0.052210 0.014727 0.020654 -0.054247 -0.022604 0.020591 -0.010132 0.012567 -0.079316 0.015336 -0.008172 -0.009710 -0.029105 0.023318 -0.045871 -0.012932 -0.012054 -0.034146 -0.019657 -0.016182 0.012474 -0.010630 -0.004122 0.049710 0.035227 0.043261
for 0.003093 0.014870 -0.016891 -0.001971 -0.009288 -0.001313 -0.013364 -0.050278 -0.021190 0.009737 -0.003107 -0.006293 -0.008810 0.024377 0.001696 0.001444 -0.020249 0.016388 0.023054 0.017112 0.009632 0.020021 -0.016468 -0.000182 0.039947 0.022090 0.016180 -0.037573 -0.030781 0.004433 -0.020343 -0.005474 -0.029329 0.008878 0.002072 -0.029758 -0.017463 0.028129 -0.046818 -0.022968 -0.012600 -0.034220 -0.011528 -0.000321 0.034266 0.015296 -0.014340 0.036393 -0.008351 0.033757
$20 -0.005952 0.028499 0.016997 0.012945 0.005395 0.012473 -0.006296 0.001418 0.035693 -0.023169 -0.001772 0.019549 0.014851 -0.010292 -0.007837 -0.004696 -0.018315 0.003694 -0.027058 -0.000891 -0.010360 0.007251 -0.009851 0.009674 -0.007973 -0.013241 -0.019997 0.011137 0.000477 -0.005869 -0.014467 -0.016873 0.019808 -0.016302 0.019580 0.000223 0.026792 -0.025769 0.005078 0.004443 -0.008116 0.016841 0.006807 -0.011535 -0.004781 0.024229 0.014206 -0.041279 -0.005714 -0.003641
my -0.013800 0.002806 -0.005882 -0.014059 -0.008508 -0.030419 -0.014738 -0.012793 -0.007951 -0.016097 0.005381 0.001918 0.007297 -0.003791 0.006075 0.017460 -0.018621 -0.002948 0.017058 0.005912 0.009410 0.004883 -0.007979 -0.017864 0.029661 0.012392 0.009999 -0.031889 -0.002736 0.009711 0.004291 0.010463 -0.051304 0.017337 -0.010431 0.002466 -0.019511 -0.000059 -0.033579 -0.004486 -0.010609 -0.014120 -0.009510 -0.021898 -0.008497 -0.007096 0.010439 0.029458 0.036091 0.007075
taxi 0.013744 0.015312 -0.008792 -0.009629 -0.013971 -0.021671 -0.002255 -0.016438 -0.008826 0.005378 -0.002664 -0.010896 -0.011366 0.020097 0.020293 -0.000770 0.010738 -0.001357 0.012555 0.009576 -0.008476 -0.000933 -0.012125 0.003550 0.030325 -0.002625 0.002849 -0.039113 -0.034321 0.017847 -0.023995 0.018203 -0.041748 0.010119 0.004080 -0.019439 -0.010963 0.013604 -0.033206 0.003811 -0.010083 -0.021963 -0.015348 0.005145 0.018963 0.007052 -0.022695 0.031892 0.010298 0.043582
20 -0.007036 0.009855 -0.018183 0.012213 0.006259 0.013993 0.004349 -0.060206 -0.003595 0.007331 -0.006481 0.003471 -0.004343 0.013692 -0.012969 0.004822 -0.028195 0.029849 0.014988 0.017712 0.017986 0.020980 -0.014183 -0.003185 0.024599 0.031449 0.011055 -0.003212 -0.005174 -0.007202 -0.012102 -0.015896 0.002290 0.000826 -0.007203 -0.021785 -0.005000 0.024037 -0.020471 -0.029140 -0.013196 -0.005539 0.000666 -0.000828 0.037712 0.019671 -0.006740 0.010852 -0.030673 0.013480
on -0.003543 0.021211 0.003830 0.001976 -0.001844 0.009843 -0.004556 -0.001657 0.029179 -0.021259 -0.011410 0.013178 0.006190 0.002242 0.011631 -0.020593 -0.010125 -0.000963 -0.019329 0.007706 0.001123 -0.007501 -0.005942 0.001998 0.000881 -0.013523 -0.005904 -0.011789 -0.021736 -0.002782 -0.017299 -0.010281 0.001641 0.006248 0.016511 -0.012553 0.009026 -0.021688 -0.007843 -0.000413 -0.008827 0.012477 -0.003084 0.004482 -0.003798 0.024527 -0.006572 -0.009978 -0.007836 -0.000350
Parking 0.011189 0.005358 0.013961 0.005021 0.005334 -0.000672 -0.009840 0.014919 0.020205 -0.011223 0.003777 0.011549 0.003482 -0.018191 -0.023050 0.006534 -0.004388 -0.009081 -0.004375 0.008274 -0.013848 0.018402 -0.008455 0.017672 -0.012951 -0.018418 -0.028977 0.017760 0.013918 -0.003876 -0.014093 -0.011404 0.007829 -0.025997 -0.002233 0.003112 0.004599 0.007611 0.009789 0.014936 -0.007376 0.015546 -0.003220 0.002681 -0.011737 -0.002263 0.015190 -0.027384 0.010604 -0.002569
a 0.001144 -0.028893 0.004982 0.001598 -0.010420 -0.006968 0.004317 0.021342 0.002527 0.001261 -0.008677 -0.011373 0.005261 0.024118 -0.005649 0.004057 0.003331 -0.009988 -0.002071 0.002317 -0.032309 0.011423 0.008188 0.023536 -0.005748 -0.015080 0.013581 0.006431 0.017235 -0.000796 0.007610 0.025839 -0.003931 0.018041 0.011742 -0.006908 -0.007246 0.009541 0.020312 0.018193 -0.001861 0.000900 -0.020841 0.024140 -0.018781 -0.014102 0.017611 -0.008361 0.005957 0.010610
to 0.010879 -0.014648 0.014673 -0.004676 0.007944 -0.009554 0.018370 0.007273 -0.010578 -0.010161 0.023620 -0.002226 0.000790 -0.001803 -0.016312 -0.009836 0.029705 0.011666 -0.006413 -0.017106 0.003656 -0.010030 0.013219 0.004520 0.000697 0.001818 0.002549 0.021507 0.016877 0.013084 -0.003691 0.004243 0.021914 -0.011749 0.009474 0.012244 -0.006901 -0.002776 -0.005824 -0.012148 0.005075 -0.002236 0.001945 -0.004514 0.009684 -0.012733 -0.010880 0.017767 -0.000632 -0.006157
at 0.001200 0.004844 0.007524 -0.000563 0.003805 0.005569 -0.009622 0.005735 -0.007328 0.002144 -0.025773 -0.000697 -0.013308 -0.000604 0.005362 0.005291 -0.011294 -0.006832 -0.010560 0.002875 -0.018259 0.017154 0.012948 -0.010555 -0.003302 -0.013242 -0.027582 0.011105 -0.005931 -0.007678 -0.002816 -0.005547 -0.016923 -0.019632 -0.015223 -0.002341 -0.002432 -0.000403 0.024318 0.020857 0.002031 0.021894 0.012824 0.004686 -0.020121 0.016210 0.014553 -0.001337 0.007833 -0.001496
create -0.004463 -0.013029 0.015496 0.000771 -0.002701 0.002698 0.012432 0.018340 0.014781 -0.001086 0.005736 -0.007621 -0.000423 0.014419 0.001082 -0.001437 -0.008116 -0.007700 -0.002945 0.013545 -0.017061 0.011344 0.009302 -0.001180 0.006771 -0.003385 0.001690 0.003814 0.017328 0.011464 0.008160 0.018216 -0.014083 0.010042 -0.007648 0.002131 0.001438 0.001619 0.013783 0.013661 -0.005876 0.008534 -0.010300 0.011994 -0.023463 -0.007913 0.020734 0.003265 0.014959 0.014426
$30 0.008376 0.005449 -0.003655 0.007938 0.010291 -0.007129 0.014445 -0.005768 -0.005938 -0.001060 -0.004276 -0.015396 -0.006498 0.006127 0.016902 -0.002861 0.011608 0.002980 0.006236 0.002932 0.008082 -0.001068 -0.017240 0.000311 0.005290 -0.000883 -0.004654 -0.011151 -0.008821 0.001117 -0.001233 0.003045 -0.010067 0.005145 -0.006187 0.000885 0.006114 0.002493 -0.013986 0.012771 0.001046 0.005870 0.002385 0.008051 0.002725 0.005884 -0.000997 -0.014086 0.007618 0.003773
today -0.004703 0.000012 -0.000120 0.010092 -0.007004 -0.000369 0.003955 -0.004857 0.005662 -0.013603 0.003190 -0.001833 -0.008980 0.003428 0.002478 -0.002888 0.011067 -0.002422 -0.002719 -0.010626 0.000473 -0.002197 0.007121 -0.004914 0.003640 0.010299 0.011037 0.001079 0.009226 -0.009323 -0.000855 -0.000101 0.011398 -0.010802 0.001744 -0.005402 0.001396 0.012449 0.004200 0.014308 -0.007047 -0.002735 0.006660 -0.016446 0.001014 -0.005187 0.000742 -0.013460 0.000231 -0.011713
yesterday -0.009673 0.017003 0.007435 -0.008759 0.016004 -0.002544 -0.013453 0.007057 0.018074 -0.000931 -0.016936 -0.002410 -0.004059 0.007745 -0.006037 0.001005 -0.010262 0.001887 0.008014 -0.006726 -0.001220 0.000775 -0.007808 -0.012301 -0.019656 -0.001276 -0.016060 -0.002059 0.002080 -0.005577 0.016129 -0.002566 -0.011133 -0.002859 0.007206 0.011408 0.009372 -0.015661 0.023705 0.005451 0.000184 0.018811 0.001306 -0.019152 -0.011612 0.011612 0.011460 -0.008387 0.003356 0.002163
i -0.002087 0.017707 -0.001098 0.006059 -0.002352 -0.005924 -0.004354 0.004208 -0.000103 0.016703 0.017363 0.016908 -0.014169 -0.001051 0.012549 -0.009839 -0.018640 0.018747 0.012506 -0.008380 -0.009548 -0.013384 -0.011374 0.003746 -0.008744 0.007782 -0.003476 0.012219 0.014357 -0.007874 -0.000104 -0.008511 0.014896 0.003402 -0.008262 -0.003744 -0.005415 -0.018185 -0.016419 0.015216 0.005438 0.006679 0.000871 0.021567 -0.021598 0.003845 0.008916 -0.016477 0.001261 -0.012911
I 0.007588 -0.024532 -0.008424 0.003190 0.006833 0.003697 -0.000622 0.021722 -0.006088 0.012769 0.011193 0.002009 -0.001244 0.001646 -0.011470 -0.002615 0.008643 0.018634 -0.008375 -0.004661 -0.019117 0.002696 0.000142 0.021403 -0.015933 0.002170 -0.003234 0.013874 0.027421 0.003362 0.018288 -0.009280 0.030794 0.006651 0.004236 0.000368 -0.007182 -0.002974 0.015182 -0.013918 -0.002203 0.004362 -0.003427 0.004522 0.014674 -0.012402 0.009768 0.002429 -0.027313 -0.014467
Taxi -0.014648 -0.006119 0.023139 0.007104 0.005545 -0.004472 0.007884 0.000347 0.001545 0.002238 0.002547 0.003923 0.014043 -0.011959 -0.010829 0.007122 0.002431 -0.004986 -0.025769 -0.004729 -0.013312 0.000763 -0.002227 0.008483 -0.004379 -0.002510 -0.010240 0.004248 -0.008545 0.001729 -0.000346 0.011011 0.025337 0.011718 0.012208 -0.006923 0.025566 -0.020734 0.004197 -0.002135 0.007055 0.003587 -0.002037 0.002297 -0.000791 0.008806 0.004762 -0.017923 0.012293 -0.015836
the -0.010332 -0.007210 0.008954 0.014631 0.001092 -0.010608 0.000685 -0.011027 0.003745 0.005537 0.007231 0.015338 0.007435 -0.002259 -0.020104 0.003542 0.001735 -0.004173 0.006931 -0.005568 -0.002777 0.003979 -0.012078 -0.019394 0.008356 -0.009804 0.001537 0.019588 0.010615 0.016746 0.007701 0.003441 0.009269 0.001208 -0.007383 0.020351 -0.011211 -0.002469 0.000083 -0.014494 0.005465 -0.004928 0.007852 -0.004550 -0.002393 0.013138 0.003810 -0.000532 -0.001276 -0.001493
dollars -0.014901 0.013217 -0.009035 0.002817 0.006372 0.011366 0.011921 -0.047813 -0.001813 0.007217 0.005110 0.012460 0.002198 0.006762 -0.005809 0.002359 -0.018629 0.025339 0.000624 0.009198 0.019891 0.006520 -0.005620 -0.005937 0.020282 0.014555 0.003633 0.002016 -0.005993 -0.003018 0.001151 -0.003387 0.000087 0.002827 0.001627 -0.015510 0.010543 0.003418 -0.023370 -0.022236 -0.001409 -0.004125 0.001918 0.002200 0.022386 0.007817 0.001741 0.005465 -0.025038 0.017627
fee 0.010372 0.005534 0.009548 -0.001861 -0.002842 0.010792 -0.003785 0.003592 0.009855 0.003304 -0.011736 0.005166 -0.013192 -0.005336 -0.012143 0.003586 -0.005250 -0.013592 -0.008245 0.001727 -0.015181 0.009484 0.005550 0.007950 0.000961 -0.012694 -0.028404 0.018025 -0.005217 0.003043 -0.015857 -0.014192 -0.001331 -0.018801 -0.001814 -0.012852 -0.006300 0.008209 0.010248 0.023349 -0.004830 0.014133 0.001694 0.020289 -0.016178 0.011637 0.009151 -0.012753 0.015285 0.006465
parking 0.011652 0.000725 -0.002151 -0.000595 0.002964 0.008576 -0.007500 -0.019796 -0.002967 0.007477 -0.005329 -0.009852 -0.007078 -0.000175 0.008791 -0.005606 -0.000406 0.001781 0.002390 0.006724 0.009409 0.002373 0.002375 0.004712 0.003467 0.007901 -0.002022 -0.015944 -0.007285 -0.008110 0.009099 -0.006828 0.006253 -0.001317 -0.002285 -0.004063 0.013356 -0.006763 -0.008306 -0.000082 0.009911 -0.002586 0.010837 -0.016335 -0.000378 0.004824 -0.002862 0.022032 0.011509 -0.010986
Meal -0.006044 0.007287 -0.002694 -0.009289 -0.006840 0.001290 -0.010558 0.008444 0.001175 0.004056 -0.000384 -0.008818 -0.007433 -0.003707 0.008071 0.015371 -0.007111 0.006116 0.003960 0.004011 -0.001980 0.007283 0.006012 0.013691 0.011525 -0.003162 0.009299 -0.003273 0.007110 0.014376 -0.003959 -0.013940 -0.002419 -0.003128 0.001333 0.003851 -0.002770 -0.021281 -0.004455 -0.012435 -0.007673 -0.008132 -0.013684 -0.003619 0.003284 -0.002365 0.015653 -0.007574 -0.006859 0.009206
file 0.015854 0.007244 -0.001578 -0.011459 0.010043 -0.005465 0.006048 -0.010089 -0.011229 -0.000895 -0.002101 -0.005605 0.016471 -0.004266 0.004860 -0.003448 -0.010739 -0.015310 -0.001766 -0.015537 0.002751 -0.007211 -0.011681 -0.006892 -0.000083 -0.000572 -0.012774 -0.008421 -0.008009 -0.004067 -0.006160 -0.010439 -0.010678 -0.004179 -0.001358 0.007041 0.014264 -0.013756 -0.009686 -0.010609 -0.010852 0.002204 0.004806 0.000451 0.007897 0.011852 0.000053 0.005284 0.007147 0.010731
paid 0.009063 -0.019605 -0.014114 0.020236 0.008518 0.005833 -0.010462 0.005789 -0.008909 0.008616 0.000773 -0.000064 -0.001347 0.012305 -0.016137 -0.003382 0.003579 0.002423 -0.008140 0.002410 -0.012245 -0.002146 0.000711 0.018193 -0.003199 0.005244 -0.002033 0.016205 0.018039 -0.014036 0.014579 -0.021765 0.028764 0.008316 -0.003031 -0.010695 -0.005964 -0.008153 0.023520 -0.019318 -0.001782 0.020118 -0.010177 0.009922 0.011310 -0.006738 0.001594 -0.002014 -0.026634 -0.016218
status -0.003812 0.000142 -0.006831 -0.011928 -0.001325 -0.014331 -0.002891 -0.011854 -0.014977 -0.008510 0.002913 0.001250 0.000407 -0.007485 -0.006974 0.005201 0.002367 -0.008510 0.000878 0.002207 0.003239 0.006506 0.001893 -0.003248 0.005693 0.001706 0.018664 -0.003757 -0.001428 -0.007499 -0.006615 -0.006626 -0.026602 0.021638 0.001938 0.001457 0.002891 0.005003 -0.007076 -0.012113 0.013888 -0.003187 -0.004237 -0.002769 -0.001207 -0.012010 0.012321 0.009920 0.010891 0.021644
$10 -0.010410 -0.007048 -0.000497 0.009432 0.004114 0.002293 -0.013628 0.000126 -0.016151 0.014338 -0.014683 -0.006817 -0.008031 0.011253 0.013060 0.011389 -0.003119 0.004869 -0.010171 0.002124 -0.000366 0.016146 0.014493 -0.003458 -0.009434 -0.000130 0.005699 0.009801 0.000115 -0.000997 -0.006260 -0.002678 -0.018851 -0.015386 -0.018113 -0.009313 -0.015358 0.004038 -0.004477 0.006249 -0.000986 0.005166 0.006794 -0.000540 0.002626 0.008981 0.006965 0.011782 0.015796 0.001264
Can 0.011722 0.007575 -0.003431 -0.002312 0.001455 0.002321 -0.008316 -0.000598 0.000594 0.009023 0.017489 -0.003594 -0.008214 -0.006040 0.011648 -0.017155 -0.015973 0.007616 0.009065 0.005929 0.004709 -0.013377 -0.007122 0.000442 -0.009306 0.002037 -0.004819 0.005785 0.002488 -0.009877 -0.008351 0.002506 0.002983 -0.006089 0.003134 -0.011130 -0.009137 -0.012409 -0.003007 0.002134 -0.002591 0.002753 0.001455 0.024064 -0.016352 -0.012007 0.015588 -0.019286 -0.001286 0.000947
Expense -0.001779 0.002744 -0.001438 -0.011361 -0.015904 -0.009402 -0.005340 0.002507 -0.000749 -0.008141 -0.003297 -0.010765 0.004840 -0.012666 0.011469 0.006601 0.000637 0.004017 -0.002519 0.003280 0.006474 -0.003823 0.000128 0.010886 -0.002794 0.010710 -0.001803 -0.006450 0.006001 -0.004961 0.005620 -0.009425 -0.004039 -0.004066 -0.006665 -0.001483 0.009204 -0.011256 0.013008 0.006807 0.004076 0.019811 -0.008555 -0.002862 0.001740 -0.007054 -0.008803 -0.011633 0.002341 -0.001916
File -0.000995 -0.018318 0.001956 -0.006122 -0.005964 -0.000048 -0.011176 0.024522 0.012232 0.003112 -0.010562 -0.006233 0.007848 0.014931 0.003153 0.001269 0.004258 0.000792 -0.003194 0.008709 -0.024999 0.003903 0.007050 0.009223 -0.022072 -0.005488 -0.000345 0.007115 0.009767 -0.012159 0.007791 0.014398 0.003084 0.014257 0.006239 -0.001892 -0.010618 -0.008279 0.025105 0.017370 -0.003295 -0.003290 -0.010982 0.011117 -0.019655 -0.008406 0.013002 -0.018191 -0.003137 -0.011270
city 0.006327 -0.006691 0.016377 -0.000872 0.004236 -0.009828 0.021260 0.005165 0.001435 -0.004452 0.005061 0.004746 -0.013909 0.002281 -0.011142 -0.002216 0.020006 0.012229 -0.009991 -0.001395 0.009737 -0.000748 0.011029 0.006230 0.004781 -0.000966 0.009169 0.028983 0.006147 0.006117 -0.006610 0.004557 0.011199 -0.011583 -0.001251 0.012680 -0.000515 -0.002849 0.005078 -0.000219 -0.001781 0.004617 0.011835 -0.000585 -0.002203 0.007915 -0.008873 -0.003988 -0.007551 0.002419
claim 0.012429 -0.007598 0.005904 0.011223 -0.000746 -0.002233 -0.003709 0.019532 -0.007461 0.005060 -0.001157 -0.008889 0.005181 0.001952 -0.015563 0.006465 -0.003268 0.002458 0.005644 -0.007301 -0.022275 0.015199 0.007457 0.021106 0.000048 -0.002286 0.015327 0.007656 0.011066 -0.011913 0.002479 0.008050 0.003839 0.001950 0.018495 -0.005237 -0.011518 -0.000147 -0.005881 0.007389 -0.003791 -0.006417 0.002242 0.019159 -0.012045 -0.008892 0.008761 -0.005011 0.003460 -0.000302
from -0.012411 -0.010092 0.008158 -0.011701 0.010471 -0.000725 0.001890 0.019353 -0.000444 -0.009984 0.016828 -0.009635 -0.001282 -0.010558 -0.005800 -0.011653 0.013492 -0.005291 -0.003713 -0.010601 0.000175 -0.010097 0.008029 0.007413 -0.015561 -0.004274 -0.006210 -0.003835 0.007871 0.000606 -0.005167 0.006676 0.023144 -0.000914 0.014969 -0.005922 -0.011411 -0.004728 0.006845 -0.014793 0.008373 0.004259 -0.015024 0.003487 0.001066 -0.021470 -0.007129 0.008421 0.009641 -0.020400
know -0.013016 0.005288 0.005042 0.010533 -0.006756 0.000029 0.009493 -0.003148 -0.002769 0.012987 -0.002750 0.019498 -0.000371 -0.008963 0.007387 -0.004229 -0.005761 -0.002118 0.001343 -0.013972 -0.006114 0.009829 -0.009426 -0.001396 0.000660 0.001964 -0.014372 0.009652 0.007106 -0.003146 0.000331 0.012308 -0.007217 0.005000 -0.013173 0.008523 -0.001231 -0.007958 -0.014851 0.012127 -0.002085 0.007564 0.003302 0.019336 -0.025349 0.014740 0.006677 -0.012534 0.017357 -0.006670
last 0.005332 -0.000636 -0.001887 -0.006022 0.007539 0.008841 -0.011226 0.001714 0.012584 -0.005021 -0.000795 0.013909 0.007291 0.017610 -0.013720 -0.018292 0.018199 0.007706 0.000687 -0.011430 0.004638 -0.008256 -0.012566 0.001746 0.007266 0.011067 -0.001870 0.001764 -0.008841 0.000330 0.011898 -0.007880 -0.005232 -0.006675 0.014634 0.012073 0.016926 0.013192 0.001831 -0.001792 0.008801 -0.007890 -0.001738 -0.007266 -0.008300 0.001471 -0.003353 0.009349 -0.002034 -0.000357
meal -0.007444 -0.007301 0.015057 -0.004262 -0.008528 -0.001335 0.007755 -0.005804 -0.010765 0.001684 0.012977 0.004720 -0.015392 0.020255 0.008749 -0.007454 0.009142 -0.016423 0.004371 -0.005412 0.009125 0.010013 -0.007365 0.009351 0.006660 -0.004734 0.004585 -0.006765 -0.012165 -0.000749 0.008526 -0.013035 -0.014978 -0.004528 -0.008934 -0.007006 0.014796 0.010090 -0.014801 -0.010368 -0.000904 -0.004621 -0.017737 0.004382 0.007612 0.008734 0.009291 0.017657 0.000248 -0.012051
sunday 0.009454 0.007954 0.001766 -0.014984 0.006936 0.008814 -0.003944 0.001758 0.004859 -0.001147 0.016293 0.011221 0.002712 0.009172 -0.002261 -0.023071 0.010529 0.006640 0.005993 -0.016201 0.007670 -0.012649 -0.006329 -0.006664 0.016320 0.010424 -0.002193 -0.000035 -0.012869 -0.012676 0.007071 -0.011652 -0.010847 0.004812 -0.000549 0.009849 0.014970 0.012777 0.004327 -0.007352 -0.000591 -0.005189 -0.007010 -0.010387 -0.000613 0.000758 -0.016093 -0.009364 -0.011750 0.003608
<unk> 0.000006 0.001151 0.001522 -0.000276 0.000301 -0.001907 -0.001736 -0.002419 -0.000035 -0.000102 0.000796 0.000623 -0.001180 0.003048 -0.001050 -0.000859 -0.002055 0.001852 0.000209 0.000374 -0.002505 0.003179 -0.002233 0.002394 0.003754 0.001082 -0.001066 -0.000263 0.000075 -0.000531 -0.001344 -0.001412 -0.003662 0.000263 0.000576 -0.002568 -0.000432 -0.000778 -0.002955 -0.000672 -0.001921 0.000832 -0.002754 0.001735 -0.001092 0.002101 0.003230 0.000274 0.001982 0.002574
