alarm -1.169761 0.218992 0.739710 -0.151641 -0.465488 0.082230 -0.262973 -0.539180 0.133168 0.045167 -0.747423 0.181085 -0.187472 -0.104858 -0.886459 1.117408 -0.199596 1.119784 -0.197244 -0.417801 -0.123556 -0.002441 -0.519141 -0.455516 -0.717502 0.307217 -0.818836 -0.608091 -0.079391 0.687189 0.523238 -0.168705 -0.435782 0.358878 0.183624 -0.590650 0.934385 0.019875 -0.431053 0.244468 -1.429313 -0.279111 -0.466126 0.604550 -0.190025 -0.821938 0.629039 0.548962 -1.295964 -0.252076
<TIME>#0 -0.989676 -0.268260 0.717206 -0.357299 0.261719 -0.381685 0.039504 -0.255606 0.812687 -0.850290 -1.219359 -0.244070 -0.139642 -0.337514 -0.403932 0.352363 -1.338420 0.866048 0.154441 0.718357 0.047453 0.171572 0.270151 -0.622087 0.442850 0.789784 -1.085567 -0.241737 -0.734583 0.171254 0.649211 -0.125018 -0.883005 0.821447 0.053323 -0.396371 1.037995 0.472189 -0.361349 0.808654 -0.777364 0.577129 -0.705335 0.261529 -0.131529 -0.456700 1.026633 -0.350945 -0.570053 -0.447633
<DAY>#0 -0.697854 -0.121274 -0.317011 -0.127058 0.268706 -0.666135 -0.061793 -0.177280 0.404393 -0.712726 -0.779999 -0.620905 0.185330 0.453843 -0.795416 0.484143 -1.082282 0.686247 0.001109 0.821828 0.735963 0.378898 -0.243853 -0.993879 0.427443 0.343603 -0.444455 0.298531 -0.893795 0.739174 1.240800 0.145310 0.328106 -0.657517 0.276314 0.249312 1.109697 1.291413 0.497422 0.695802 -0.344965 0.422324 -0.519691 0.255946 -0.147528 -1.051370 0.783610 0.727445 -0.072128 -0.239284
the -1.020093 0.280252 -0.743885 0.304248 -0.063474 -0.307743 0.050707 0.032860 -0.421031 0.472998 0.130346 0.106190 0.871491 -0.506831 -0.343834 0.655330 -0.633345 1.900847 -0.010994 -0.175817 -0.348769 -0.248723 -0.470924 0.032920 0.501179 0.687830 -0.984122 -0.513272 -0.217963 -0.007794 0.612400 0.550966 0.032156 0.162729 0.891522 0.170470 0.262261 -0.466443 -0.264179 0.129155 -1.459348 -0.066339 0.083881 0.436935 -0.109470 0.039978 1.658263 0.896439 1.078095 -0.336529
<TIME_SPAN>#0 -0.971899 -0.186820 -0.251734 -0.304208 0.427822 -1.137970 -0.893689 0.712629 -0.110073 0.061040 -0.553592 -0.247953 0.133498 0.165221 -1.305258 0.394759 -1.334102 1.432220 -0.260917 0.600733 0.260243 0.098210 -0.715219 -0.228823 -0.140940 0.167496 -0.275486 -0.219992 -0.557838 1.016964 0.464146 0.461358 0.881523 -0.378354 0.586615 0.191859 0.345417 0.713032 -0.252362 0.966418 -0.615935 0.705768 -0.789461 0.158873 0.556290 -0.507978 0.884403 1.049231 0.182178 -0.001602
my -1.615743 0.653714 0.235828 0.113043 0.609659 1.075187 -0.683271 -1.336827 0.351378 -1.015256 -0.229679 -0.479717 0.101897 -0.634689 -1.018522 0.590915 -0.437977 0.610793 0.067553 -0.139392 -0.259750 1.068556 -0.515515 0.116772 0.295336 1.406873 -0.506515 0.192647 -0.435366 0.823511 0.197830 0.433097 0.535036 0.532269 0.600690 -0.014655 0.082728 -0.016506 -0.269200 -0.005540 -1.110449 -0.517192 -0.768057 0.401601 -0.049696 -0.674944 1.061893 0.272832 0.164604 0.455728
for -0.874088 0.245353 -0.481571 0.196889 -0.495428 -0.243783 0.180536 -0.119854 0.497479 -0.089190 -0.994637 -0.346579 0.257309 0.359607 -0.521944 0.467042 -0.633312 0.767013 -0.336990 0.168016 0.180423 -0.372781 -0.122157 -0.994491 -0.440916 0.257156 -0.783387 -0.446271 -0.566834 0.230887 0.701287 -0.217342 -0.514705 0.601682 0.618787 0.162104 1.492327 0.359884 -0.849623 0.291318 -1.081869 0.274245 -0.605507 0.234768 -0.469984 -0.384717 0.419106 0.192113 -0.056041 -0.328564
to 0.360748 0.342278 0.887244 -0.324280 0.343540 0.295018 0.054348 -1.165812 -0.309219 -0.283482 -0.245789 -0.044354 0.611288 -0.293681 -0.856954 0.757240 -0.666629 1.418508 0.203390 0.833257 -0.293750 0.275015 -0.165159 0.098084 -0.913075 0.631801 -0.080022 0.305778 -0.546063 0.153503 -0.016799 0.058541 0.201180 0.138932 0.535765 -2.069866 0.327864 -0.285863 -0.204191 0.267694 -0.963455 -0.602023 -0.853294 0.561158 0.132949 -0.530504 0.963198 0.472664 -0.390285 -0.941290
alarms -0.868391 0.626034 -0.869875 0.343387 0.318911 0.558183 -0.255352 -0.825520 0.256009 -1.314562 -0.047317 -1.131401 0.456495 -0.099490 -0.255042 -0.631677 -0.899384 -0.419823 0.374133 0.552057 -0.381066 -0.140420 0.975671 -0.170075 0.590112 0.462975 -0.465144 0.681437 -0.513720 -0.179281 0.061302 -0.169800 0.155166 0.964327 0.766976 0.199801 0.007973 0.313927 -0.377796 -0.551546 -0.195100 0.429778 -0.798146 0.133136 -0.388142 -0.629326 0.986503 -0.310013 0.432965 0.964575
i 0.448501 -0.095845 -0.658474 -0.206316 -0.811579 0.138967 0.018459 -0.945942 -1.367266 -0.323474 0.121122 -0.310264 0.491659 -0.207574 -0.800153 0.315408 -0.975945 0.859296 0.323082 1.007921 -0.838078 0.043286 0.503598 -0.212705 -0.182152 -0.338798 -0.427487 0.677193 -0.236590 -0.365235 0.556168 -0.725445 0.347224 -0.063134 0.113512 -0.633428 0.983878 -0.629711 -0.487417 0.002600 0.192514 0.852968 -0.601904 1.052251 -0.019869 -1.012523 1.445908 0.489803 -0.809673 0.576547
on -0.631538 -0.332306 -0.282687 0.564892 -0.486259 -0.439229 -0.369777 -0.080510 -0.080058 -0.724627 -0.003410 -0.382459 -0.129122 0.470506 0.613979 0.545402 -0.766940 0.783087 -0.284055 1.104777 -0.302256 -0.850033 0.104887 -0.172371 -0.057789 -0.271566 -1.607459 -0.396013 -0.634723 -0.003763 0.438713 0.094383 -0.422689 0.110214 -0.068390 -0.387430 0.469292 0.534943 -0.342922 -0.861544 -1.269554 0.547696 -0.133826 0.106048 -0.414120 -1.039892 0.773969 0.271456 0.131646 -0.067572
at -0.456070 -0.354626 1.475094 -0.195394 -0.104185 -0.548528 -0.165877 0.286816 0.651009 -0.293423 -0.963649 -0.261032 0.084601 -0.033119 0.205214 0.387984 -0.563983 0.538792 0.124453 0.857707 -0.462642 -0.765510 -0.195030 -0.539872 -0.011292 0.086438 -0.793102 -0.522127 -0.615255 -0.158845 0.346224 -0.217353 -0.547085 0.621025 0.018578 -1.193183 0.889555 0.183597 -0.390132 0.669018 -0.734943 0.088824 -0.497892 0.144094 -0.467062 -0.627728 0.646753 -0.290056 -0.348461 -0.756736
and 0.313987 -0.056673 -0.215822 0.376060 -0.301841 -0.972864 0.034482 0.691631 1.296140 -0.271663 -0.532964 -0.007380 0.361926 0.073016 0.121796 0.432241 -1.057444 0.896013 0.142881 1.063431 0.041504 -0.581833 -0.289673 -0.746486 0.085158 0.445205 -1.235793 -0.540946 -0.470937 -0.684524 1.045787 0.297712 -0.449004 0.591791 0.050917 0.151383 0.524905 0.822131 -1.018375 0.261173 -0.732402 0.415072 0.120615 0.141637 -0.400615 -0.243230 0.125625 0.315785 0.540343 -0.420997
set -0.317101 0.162162 -0.397807 0.185314 -0.592895 0.027068 0.224774 -0.521982 -0.089694 0.271219 -0.798530 -0.371276 0.608798 0.408167 -0.503824 0.451056 -0.252101 0.944646 -0.078147 0.326506 -0.065285 -0.466055 0.109867 -0.769838 -0.523713 0.148088 -0.325830 -0.164996 -0.449713 -0.213198 0.432015 -0.512431 -0.380513 0.590839 0.771013 -0.583955 1.337109 -0.037026 -0.784813 0.002041 -0.897213 0.077210 -0.604442 0.461274 -0.514377 -0.644152 0.575778 0.176766 -0.093120 -0.589661
<DATE>#0 -1.012297 0.342686 0.579106 0.362455 -0.086097 -0.170284 0.030026 0.249431 0.135412 -1.073883 0.048165 -0.523149 -0.294344 -0.348509 0.324661 0.388881 -0.552175 0.954873 -0.115942 0.562805 -1.078688 -0.660720 -0.635145 -0.033663 -0.497431 0.081023 -1.519370 -0.218703 -0.170200 0.233923 0.326230 0.315583 0.166243 0.792014 0.004802 -0.177383 0.415347 0.126726 -0.050218 0.019147 -1.227458 0.734318 -0.783818 0.216107 0.218482 -0.869007 1.111124 0.131753 0.401409 0.373212
an -0.158251 0.114779 0.333213 -0.377469 -0.972639 -0.843184 0.173409 0.159404 0.377871 0.162451 -0.506899 0.109133 -0.027331 0.179176 -0.700489 0.674669 0.062549 0.338893 0.509062 -0.191385 -0.007392 -0.715356 0.285579 -1.017984 -0.973844 -0.419899 -0.561646 -0.304952 0.195612 0.361428 0.845352 -0.705263 -0.540380 0.502398 0.166821 -0.415578 1.119246 0.264128 -0.248556 0.128284 -0.599424 0.385438 -0.102088 0.637982 -0.180174 -0.691560 0.420898 0.446468 -1.896857 -0.200173
all -0.840289 0.847944 -0.605699 0.258403 0.737332 0.605056 -0.688704 -0.869029 0.875649 -0.849031 -0.096664 -0.673151 0.737981 -0.426993 -0.476209 -0.085365 -1.144401 0.125071 0.576402 0.142594 -0.155631 0.278214 0.924479 0.279361 1.317503 1.182518 -0.270135 0.321929 -0.334903 -0.261214 0.055097 0.206140 0.009909 1.302808 0.812912 0.031043 -1.055915 -0.026161 -0.941657 -0.420400 -0.569872 -0.271250 -0.218832 0.277769 -0.425525 -0.041404 1.047542 -0.170756 0.630209 0.611358
one 0.071385 0.854376 0.670399 -0.277577 0.483466 -0.124868 0.970737 -0.159331 0.877132 -0.638795 -0.246300 0.065898 0.246174 -1.372251 -0.256629 0.325962 -1.188919 0.934032 0.488510 0.464109 -0.605424 0.365778 -0.500799 -0.492901 -0.250883 0.852398 -0.760552 0.139808 -0.374732 0.358463 0.698941 0.374042 0.083864 0.775113 0.342974 0.102794 0.132257 -0.242253 0.085620 0.886751 -0.911580 0.401354 -0.160328 0.264387 0.835712 0.674281 0.636459 -0.424960 0.045358 -0.043585
<NAME>#0 -0.356764 0.632306 -0.467096 0.048382 -0.951735 -0.008218 0.951453 -1.003635 0.933179 0.157054 -0.901768 0.083077 0.722976 -0.069895 0.173587 0.677949 0.253906 0.368216 0.479241 0.429336 0.727799 0.438687 -0.234017 -0.914925 0.838337 0.208853 -0.474452 -0.280487 -0.909443 0.002044 1.236475 -0.042528 -1.221541 0.531133 -0.205529 0.183970 1.113892 -0.600577 -1.005791 -0.290081 -1.691251 -0.643803 0.783338 0.211825 -0.486362 0.577770 0.091687 0.278691 -0.557174 -0.261155
every -0.493387 -0.012417 1.648320 -0.622230 0.162582 -0.259012 -0.185553 0.384444 0.881362 -0.704052 -0.630563 -0.265127 -0.518567 -0.377885 -0.173891 0.856013 -0.283229 -0.205107 0.099438 0.340332 -0.339040 0.371912 -0.933083 -0.459773 -0.563840 0.286819 -0.343890 -0.431379 -0.216039 1.230113 0.715021 0.379109 0.585198 -0.111413 -0.398069 -0.268423 1.051209 0.017705 0.242982 1.170857 -0.122543 -0.308501 -0.285713 0.497200 0.306422 0.048435 0.601860 -0.025263 -0.371330 -0.301529
me -1.861166 -1.646168 0.586405 0.047940 -0.542653 -0.403629 -1.619722 -0.227549 -0.478231 -0.297375 0.015707 0.534915 0.156555 -0.012928 -1.229111 -0.325772 0.235873 -0.257922 0.340280 0.998913 -0.132198 0.517335 -0.229045 -0.620134 1.500048 0.453376 -0.806214 0.030102 -0.217894 -0.426058 0.294085 0.114887 0.079102 0.201790 0.576362 -0.531596 0.119502 0.350916 -0.565467 0.258815 0.277973 0.321647 0.001186 -0.378569 -1.494739 -1.219273 0.178636 0.359894 -0.509952 0.441246
up -0.539186 -1.419895 0.446701 -0.155943 -0.371140 -0.867128 -0.913257 -0.115012 -0.548308 0.455561 -0.575738 0.421255 0.547785 0.149427 -0.684982 0.259589 -0.194818 0.648461 0.214854 1.575171 0.190776 0.530410 -0.707003 -0.434705 1.439326 -0.129739 0.081829 -0.050083 -0.719741 -0.087891 0.560575 -0.077219 0.203155 -0.650865 0.170848 -0.639754 0.642038 -0.055304 -0.664555 0.779599 0.156036 0.212184 0.286156 0.137578 -0.472191 -0.931995 0.432873 0.551850 -0.335211 -0.475143
need 0.826295 0.420121 -0.058090 -0.291036 -0.237129 -0.138561 0.400673 -0.786800 -0.786637 -0.410236 0.021754 0.051646 0.414541 -0.757829 -0.879529 0.438269 -1.190701 1.594237 0.568407 1.081468 -0.870250 -0.090675 0.207754 -0.005864 -0.483292 0.210949 -0.496319 0.528140 -0.059963 -0.289699 0.502505 -0.259466 0.200272 0.072381 0.152698 -1.084295 0.360124 -0.530794 -0.267914 0.311424 -0.403562 0.625079 -0.424634 0.895712 0.535125 -0.520107 1.318439 0.619800 -0.897437 0.145213
<DAY>#1 0.317535 -0.030941 0.222251 0.346908 -0.225780 -1.526308 0.394983 0.775061 0.868156 -0.714879 -0.466004 -0.569050 -0.035443 0.463384 0.600661 0.125328 -0.634586 0.212608 0.162232 1.469698 0.263015 -0.968033 -0.219797 -0.810513 0.227959 -0.583033 -0.871364 -0.036067 -0.857159 -0.076317 1.059161 -0.139335 -0.320851 -0.351929 -0.408332 -0.238098 0.805544 1.333686 0.283946 0.385001 -0.446764 0.672798 -0.047590 -0.127180 -0.273772 -1.063845 0.087802 0.627442 -0.167733 -0.309876
<ORDINAL>#0 -0.066616 0.820297 0.546054 -0.221634 0.613463 -0.123503 0.596671 -0.134277 0.440199 -0.868326 0.427179 0.236842 -0.052552 -1.550360 -0.774340 0.606660 -0.980781 1.375828 0.497283 0.077245 -0.718803 0.622274 -0.988479 -0.000737 -0.340245 1.244631 -1.096038 0.147562 0.229647 0.471243 0.816871 0.814871 0.677245 0.279432 0.058832 0.339689 -0.195063 -0.127626 0.416308 0.850952 -0.746641 0.343051 -0.093601 0.504658 1.074445 0.421045 1.096752 0.486687 0.176373 0.324960
that -0.917857 0.565417 0.209985 0.182669 -0.574946 0.172888 -0.344193 0.401140 0.229836 -0.607073 -0.192995 -1.009146 -0.221067 0.389657 0.450355 0.390913 0.371859 -0.414560 -0.144225 -0.335942 -0.764722 -1.188083 0.164490 -0.145563 -0.713951 -0.042720 -0.656924 -0.549179 0.079739 0.242999 0.231038 -0.075261 0.091452 0.608154 -0.062804 -0.045350 0.973623 0.065681 0.148806 -0.416793 -0.453110 -0.167579 -0.575158 0.506598 -0.461855 -0.656779 1.101778 0.083013 -0.044388 0.361240
delete -0.256484 0.965968 -0.412364 -0.213342 0.313627 0.539643 0.171198 -0.632870 0.390764 -0.651332 0.229942 -0.049230 0.339534 -0.948474 -1.014015 0.047834 -0.911282 0.555514 0.373039 -0.429951 -0.169538 0.444943 0.388332 0.104987 0.072812 1.182691 -0.535269 0.379022 0.207363 -0.339227 0.265413 0.307397 -0.139844 1.053735 0.379390 0.355847 -0.114075 -0.280889 -0.328730 0.302472 -0.167889 0.136818 -0.378463 0.470864 0.192016 0.434327 0.628734 0.105522 -0.207697 0.662036
make -0.363240 -0.213216 0.192766 -0.154783 -0.727086 -0.442175 -0.184509 -0.147336 0.317842 -0.410339 -0.751562 0.078870 -0.283777 0.056500 -0.503313 0.285759 -0.174372 0.537024 0.355080 0.246672 -0.099967 -0.321897 0.238539 -0.481711 -0.014990 0.000367 -0.701034 -0.286970 0.011079 0.167144 0.528398 -0.314453 -0.532295 0.416024 -0.062853 -0.187798 0.430467 0.086003 -0.757027 -0.055425 -0.799284 0.473561 -0.079912 0.246453 -0.332068 -0.393198 0.192877 0.157264 -1.056317 0.111196
off -0.539948 -0.229973 0.461165 -0.139017 0.150207 0.477535 -1.300856 -0.073768 0.732254 -0.452894 -0.744413 -0.890220 0.059097 0.389254 0.468276 1.494338 -1.217141 -0.273456 -0.202203 -0.136979 -0.485323 -0.282500 0.950063 0.130941 -0.366492 -0.123742 -0.360268 -0.926697 -0.649903 1.083650 -0.141817 -0.019763 0.496889 0.215788 -0.014417 -0.535622 0.368659 -0.085382 -0.732244 -0.500638 -0.606289 -1.036493 0.098355 1.142433 -0.259329 -0.156941 1.638799 -0.477084 0.258773 -0.756201
it 0.855161 -0.035904 -0.452900 0.037237 -0.747730 0.016442 0.074833 -0.450342 0.551255 -0.493488 -0.989150 -0.438870 -0.196785 0.451350 0.359267 0.759320 0.023968 0.703554 -0.001773 0.809614 0.061047 -0.080893 0.029344 0.148967 -0.268429 0.049275 -0.190621 -0.441510 -0.330858 -0.217053 0.500804 -0.042574 -0.454835 -0.259722 -0.969672 -0.191228 0.949321 -0.379464 -1.203433 -0.466462 -0.601583 -0.259819 0.057551 0.553986 -0.045036 0.085180 0.159767 0.635118 0.170530 -0.299492
a -0.132819 -0.248751 0.575112 -0.336937 -0.316072 -0.260554 0.433868 -0.391680 -0.386205 0.730278 -0.651008 0.588730 -0.140385 0.037433 -0.565835 -0.432505 -0.259704 0.387817 0.069455 0.427426 0.105925 -0.038127 0.170887 -1.052740 -0.123188 -0.314481 0.290936 0.326510 0.058828 0.140571 0.221566 -0.732535 -0.431642 0.258121 0.849197 -0.607260 0.419660 -0.140369 0.037490 0.355847 -0.319868 0.681467 -0.231292 -0.350959 -0.317835 -0.273600 -0.498182 -0.795294 -1.147296 -0.414066
wake -0.531445 -1.362567 0.387162 -0.168295 -0.438922 -0.435821 -1.076101 -0.504721 -0.490238 -0.199176 -0.279105 0.378678 0.185711 -0.195565 -0.715683 -0.069799 0.007526 0.180971 0.406887 1.513858 0.067197 0.726995 -0.311494 -0.316348 1.601100 0.403904 -0.287854 0.146243 -0.341730 -0.139937 0.483583 -0.009821 0.109990 -0.633741 0.142315 -0.410838 0.416908 -0.049521 -0.530778 0.465642 0.443596 0.209251 0.468440 -0.033620 -0.697279 -0.747475 0.303816 0.330563 -0.442370 -0.200661
recurring -0.335019 0.615428 1.612184 -0.512873 0.831808 0.237032 0.255019 0.162997 0.651745 -0.942455 0.002073 -0.229624 -0.767687 -0.871953 -0.254199 0.416842 -0.514242 0.087355 -0.020970 -0.296620 -0.541134 0.514607 -0.952092 -0.047066 -1.078969 0.599754 -0.287060 0.068762 0.128545 1.238588 0.167867 0.543593 0.760450 0.206418 -0.161668 -0.031879 0.179818 0.144796 0.903059 1.049655 -0.145000 -0.032377 -0.717512 0.229065 1.000694 0.185165 0.412830 -0.341134 -0.294072 0.088023
is -0.844183 -0.345574 -1.089294 0.219406 -0.371563 -0.207188 0.165486 0.036261 -0.936808 1.540511 0.378830 0.423720 0.329861 0.693773 -0.232593 0.515424 0.535728 0.416340 -0.191601 -0.661849 0.627826 0.348717 -0.415380 -0.589122 -0.111555 -0.497171 0.221384 -0.059595 -0.071420 0.599947 0.481208 0.014595 0.328955 -0.552583 0.527356 0.816494 0.536322 0.190834 0.619029 -0.144979 -0.365057 -0.100392 0.299950 0.011557 -0.202059 -0.293864 0.422567 0.442972 0.157873 -0.442934
request_entity 0.664467 0.010002 -0.584621 0.100485 -0.520945 -0.269354 0.395022 -0.204311 0.475709 -0.347569 -0.550347 -0.071958 -0.111939 0.182119 -0.069134 0.141729 -0.300868 0.671973 0.031111 0.532083 0.375459 -0.038974 0.268913 -0.151853 -0.116139 0.161134 -0.377670 -0.157387 -0.208955 -0.417717 0.426818 -0.152235 -0.734588 0.122188 -0.412281 0.018622 0.510011 0.073538 -0.891395 -0.215559 -0.461287 0.450035 0.036626 0.098294 -0.007418 0.240953 -0.346462 0.267106 -0.066934 -0.124696
you -0.503559 -0.649499 -0.654054 -0.266287 -0.603376 0.550814 -0.834612 -0.588879 -0.891033 -0.053133 0.472067 0.654696 -0.047971 -0.392702 -1.672512 -0.116471 -0.060451 0.341582 -0.055691 -0.661176 0.032976 0.342726 0.839917 0.194584 0.218107 1.435306 -0.682112 -0.130522 0.897510 -0.991408 -0.336111 0.130549 -0.730048 0.375679 0.659423 -0.161639 0.649202 -0.236111 -0.612623 -0.041601 0.788270 0.127416 -0.025291 0.389508 -0.746320 0.250371 0.108819 0.134390 -0.638107 0.173618
in -0.301601 -0.733281 -0.037135 -0.096842 -0.177039 -1.186329 -0.353000 0.705895 -0.193123 0.117690 -0.204353 0.268985 0.037605 0.173359 -0.198471 0.299610 -0.857580 0.970874 -0.082276 0.679459 0.084545 -0.595152 0.008851 -0.219193 0.096998 -0.121370 -0.969211 -0.493758 -0.339074 0.035700 0.254741 0.096234 -0.269890 -0.220947 0.102195 -0.366421 0.459094 0.510102 -0.225293 0.258190 -0.456059 0.645938 -0.004036 -0.025632 -0.123790 -0.229258 0.617058 0.384567 -0.139538 -0.425949
please -0.287626 0.116255 -0.037175 -0.098364 -0.229273 -0.180475 -0.297733 0.056493 0.387927 -0.283189 0.255844 0.363264 0.164583 -0.628603 -0.982900 0.222243 -0.711666 0.689985 0.373526 -0.300936 -0.118358 -0.090675 0.402980 -0.144224 0.066496 0.977232 -0.764562 -0.119808 0.460123 -0.434000 0.307603 0.092251 -0.315393 0.806673 0.595341 0.068113 -0.036798 0.150466 -0.621265 0.324208 -0.149034 0.395126 0.042019 0.347392 -0.200272 0.188081 0.319613 0.189634 -0.533242 0.231438
want 0.972756 -0.137530 0.104573 -0.284920 -0.457393 -0.038784 -0.166449 -0.849977 -0.754239 -0.118213 -0.011876 0.112903 0.166841 -0.148323 -0.373261 0.493672 -0.731882 1.033576 0.384495 1.118996 -0.506225 -0.168014 0.606049 0.178984 -0.178766 -0.266333 -0.230266 0.357613 -0.227268 -0.452712 0.096839 -0.595963 -0.164687 -0.165091 -0.163804 -1.423476 0.233775 -0.535270 -0.476893 -0.152928 -0.174733 0.336130 -0.218539 0.653182 0.018219 -0.765011 0.881980 0.402926 -1.066687 -0.131002
create -0.233482 0.276251 0.179090 -0.236234 -0.570527 -0.832502 0.272540 0.159006 0.781786 -0.136169 -0.564262 0.072237 -0.166027 0.037449 -0.948400 0.122298 -0.250010 0.360600 0.345807 -0.047065 0.318738 -0.557400 0.262304 -0.965279 -0.630730 0.206723 -0.517473 -0.244593 0.227154 0.219109 0.790423 -0.419738 -0.643339 0.655905 0.408387 -0.062222 0.807496 0.553938 -0.354844 0.246168 -0.504991 0.649125 -0.269332 0.183841 -0.181011 -0.266478 -0.101174 0.288769 -1.377594 0.050570
of -0.981838 0.318241 0.200068 0.416404 0.254947 0.284022 -0.063210 0.145979 0.010861 0.700809 -0.253733 -0.166013 0.802009 -0.039280 0.283397 -0.262517 -0.488645 0.501374 0.082597 -0.011940 -0.353540 -0.375322 0.076341 0.093385 0.956908 -0.343835 0.423299 0.130974 -0.373014 -0.683108 -0.255038 -0.290558 0.058658 1.400535 0.755037 -0.139049 -0.806440 -0.321545 -0.427341 -0.061551 -0.807450 0.107665 -0.571037 -0.146033 -0.520320 -0.711480 0.600830 -0.473097 0.631550 0.499873
deactivate -0.086158 0.902087 0.095057 -0.052265 0.465020 0.391160 0.181050 -0.351270 0.312046 -0.901745 0.377819 -0.345923 0.060369 -0.840100 -0.474299 0.322137 -1.120733 0.611895 0.276488 -0.175207 -0.676140 0.114955 0.136996 0.168691 -0.487792 0.715321 -0.651372 0.301099 0.119320 0.199256 0.247971 0.266329 0.472122 0.709825 0.234886 0.136146 -0.185310 -0.022822 0.036256 0.265189 -0.307893 0.261885 -0.515741 0.647397 0.561894 0.015670 1.082778 0.024210 0.029047 0.507593
activate 0.531938 0.745834 -0.153118 -0.044171 0.130671 0.300491 0.548214 -0.422606 0.121640 -1.279402 0.068060 -0.359208 -0.358454 -0.689875 -0.102012 0.117916 -0.642065 0.850003 0.157866 0.429274 -0.601107 0.145416 -0.149917 0.368827 -0.294804 0.760328 -0.723620 0.323364 0.168578 -0.073829 0.374784 0.335631 0.186005 0.002478 -0.456969 0.154576 0.148352 -0.141916 0.007529 0.095681 -0.265386 0.443179 -0.401748 0.386170 0.657074 0.185442 0.630556 0.353463 0.220737 0.728757
<TIME>#1 0.181301 -0.236396 0.612201 0.122501 0.221106 -0.662566 0.345882 0.205774 0.770590 -0.406970 -0.665102 -0.102097 -0.037053 0.073570 0.491059 0.160126 -0.626502 0.684100 -0.097692 0.919917 0.195721 -0.332254 -0.277798 -0.307854 -0.008765 0.045295 -0.733766 -0.264115 -0.770801 -0.148076 0.312830 0.124854 -0.706837 0.155934 -0.315173 -0.485736 0.310812 0.652744 -0.156170 0.305617 -0.698609 0.198346 -0.266226 -0.304582 -0.057829 -0.320202 -0.080954 -0.001458 0.127068 -0.781386
change 0.050172 0.463769 0.223060 -0.114831 0.359231 0.601101 0.171318 -0.926950 0.080291 -0.646173 0.273048 0.062966 -0.232124 -0.785692 -0.723213 0.634637 -0.196147 0.836464 0.161328 -0.497739 -0.121837 0.730400 -0.244932 0.317100 -0.790505 0.931554 -0.438407 0.156499 0.160608 0.576378 0.070283 0.331098 0.031124 -0.060668 -0.075010 -0.178882 0.002478 -0.060778 0.225092 0.044187 -0.654142 -0.291899 -0.252713 0.382454 0.675670 0.223280 0.462349 0.526120 -0.346439 -0.090217
if -0.615770 -0.925899 -0.708667 -0.136469 -0.119418 -0.313699 -0.647590 0.219378 -1.809743 1.187929 0.398458 0.286319 0.374592 0.554594 -0.813240 -0.078783 0.033256 0.396274 -0.485962 -0.019007 0.304278 0.457641 -0.402922 -0.154160 0.486026 -0.575307 0.620220 0.254322 0.017729 0.474230 0.015619 0.018863 1.110742 -1.285736 0.705467 0.251855 0.227361 0.090729 0.677432 0.359024 0.681487 0.252846 -0.001834 0.073807 -0.135477 -0.578207 0.529891 0.540532 0.368145 -0.142145
inactive -0.765746 0.714414 -0.638513 0.149370 -0.024433 -0.025911 0.049199 -0.236181 0.742021 -0.625959 -0.318388 -0.679514 0.296690 0.166028 -0.540095 -0.367230 -0.176012 -0.210057 0.452981 -0.202625 0.227941 -0.291105 0.595548 -0.380315 0.119601 0.218716 -0.098757 0.250185 -0.102788 0.077825 0.407856 -0.263645 -0.229179 1.074629 0.580512 0.479873 0.073930 0.422271 -0.416902 -0.321940 -0.479872 0.347963 -0.566630 0.019877 -0.285855 -0.440409 0.305561 0.139432 -0.254733 0.667746
active -0.666860 0.659749 -0.814953 0.216089 0.164193 -0.199781 -0.018824 -0.273837 0.624323 -0.739868 -0.301614 -0.784405 0.270929 0.260552 -0.455505 -0.468167 -0.066426 -0.254905 0.519026 0.080119 0.196874 -0.171803 0.618383 -0.190651 0.401626 0.473346 -0.054126 0.270135 -0.189664 0.021997 0.346666 -0.057302 -0.088987 0.671374 0.442842 0.422994 -0.076901 0.524913 -0.376773 -0.478317 -0.299485 0.292004 -0.493327 -0.024173 -0.249520 -0.368126 0.333856 0.335581 0.087415 0.687211
<TIME_SPAN>#1 -0.338181 -0.196812 -0.426758 -0.047478 0.210655 -0.577379 -0.329932 0.745856 -0.414365 0.631741 -0.387673 -0.028473 0.266869 0.519609 -0.310043 0.399766 0.010165 0.584288 -0.554811 0.100169 0.314830 0.254172 -1.209886 -0.063261 0.191733 -0.456763 0.668045 -0.305076 -0.270569 0.700378 0.380208 0.359603 0.928339 -1.158203 -0.041626 0.556678 0.452932 0.209746 0.248492 0.819420 0.122208 0.003525 -0.117042 0.169307 0.341945 -0.340510 0.220052 0.968911 0.614886 0.053099
turn -0.407054 0.139981 -0.235549 0.328172 0.205859 0.421995 -0.776418 -0.146833 0.601601 -0.708600 0.042041 -0.546266 0.116380 -0.098392 0.444390 0.713547 -1.065900 0.261343 -0.151583 -0.083939 -0.477857 -0.369277 0.632670 0.404294 0.198933 0.523405 -0.886609 -0.424883 -0.211695 -0.032814 -0.157956 0.320226 0.019802 0.498332 0.072604 0.010576 -0.308868 -0.010640 -0.633884 -0.589091 -0.581335 -0.404362 0.104386 0.565202 -0.254633 0.004514 1.089102 -0.140451 0.677526 0.047815
be 0.752901 -0.445443 0.124538 -0.166186 0.411994 -0.221812 -0.283341 -0.566838 -0.756264 -0.241338 -0.163053 0.175356 0.155297 -0.141886 -0.391372 0.137773 -0.777516 1.025597 -0.169866 1.341446 -0.093979 0.561750 -0.255362 0.718054 0.074909 -0.013154 0.329901 0.211557 -0.642245 -0.032513 -0.504901 0.120231 0.287329 -0.972254 -0.273592 -1.026314 -0.253346 -0.139698 -0.325876 0.365105 0.102159 0.226719 -0.282745 0.194164 0.698505 -0.316317 0.085340 0.593415 -0.133860 -0.440249
have -0.151204 -0.137116 -0.909973 -0.059834 -1.135944 0.261461 0.054661 -0.624185 -1.108919 -0.397176 -0.048360 -0.606313 0.203419 0.683882 -0.451207 -0.219842 -0.183875 -0.195653 -0.153815 0.421115 -0.249359 -0.416450 0.777624 -0.678703 -0.591632 -0.685425 -0.349052 0.486275 -0.064323 -0.285468 0.312998 -0.946653 -0.056940 0.226916 0.328747 -0.299841 1.528661 -0.150568 -0.392648 -0.481110 0.282574 0.865169 -0.777980 0.568826 -0.524229 -1.045068 0.676920 -0.035717 -0.755241 0.497942
are -1.063887 0.212886 -1.052721 0.380849 0.122935 0.522735 -0.189994 -0.270769 -0.430465 -0.071360 0.127421 -0.737681 0.308670 0.695581 -0.244089 -0.512131 0.494002 -0.637889 -0.123800 -0.675574 0.213871 -0.238650 0.484488 -0.085488 -0.026776 0.234003 0.386004 0.228601 0.027458 0.137032 -0.274684 -0.086614 0.282299 0.325758 0.902251 0.557995 0.428105 0.417050 0.171403 -0.614259 0.179395 -0.093616 -0.608044 -0.063708 -0.422817 -0.507313 0.254610 -0.057435 0.715141 0.240590
day -0.389858 -0.657698 1.693598 -0.644561 0.058876 -0.412381 -0.161932 0.383255 0.885309 -0.198971 -0.736271 0.029060 -0.384313 -0.167638 0.249545 0.516787 -0.023677 -0.959623 0.193970 0.309077 -0.223856 0.254621 -0.263173 -0.747638 0.145662 -0.135421 -0.114704 -0.284255 -0.249526 0.790667 0.531883 -0.190591 0.158473 -0.116163 -0.379886 -0.200065 0.864582 -0.021516 0.371733 1.020440 0.492462 -0.181675 0.102495 0.250211 -0.250128 -0.151563 0.324227 -0.628360 -0.602964 -0.556531
earlier -0.635254 -0.707225 0.449206 0.000225 0.295569 -0.677265 -0.854373 0.680503 -0.851244 0.325553 -0.072806 0.221080 -0.134916 0.481112 -0.220135 0.210572 0.067554 0.706472 -0.503878 0.662328 -0.011055 0.120398 -1.289735 0.212943 0.245351 -0.717624 0.232410 -0.248857 -0.284724 0.825555 -0.044107 0.438098 0.897494 -1.195789 -0.140114 -0.290045 -0.136112 0.332221 0.344722 0.562875 -0.102218 0.108045 -0.139149 -0.090593 0.309605 -0.783851 0.169931 0.768386 0.272568 -0.103149
ring -0.918077 -0.511888 0.737294 0.129188 -0.095533 -0.034622 -0.715495 -0.001184 -0.126064 -0.803165 -0.545428 -0.352600 -0.598044 0.267834 0.297979 0.401723 0.213780 0.396634 -0.331315 0.875170 -0.322354 -0.197705 -0.847844 0.085820 -0.079677 -0.076561 -0.788388 -0.384497 -0.507766 0.680853 0.216217 0.311733 0.157321 -0.542028 -0.449326 -0.468893 0.586025 0.227774 0.077541 -0.093548 -0.888275 -0.065656 -0.430355 -0.060701 -0.130958 -0.921876 0.489896 0.366349 0.110365 -0.030691
what -0.868367 -0.160521 -0.932625 0.383638 -0.118491 0.643868 -0.120658 -0.447215 -0.826576 0.240686 0.560387 -0.223279 0.287709 0.336069 -0.240699 0.029475 0.561703 -0.381135 -0.149077 -0.725136 -0.131830 0.326622 -0.003351 -0.119660 -0.306543 0.005826 0.119411 0.287822 0.012224 0.331948 -0.121995 -0.130649 0.571744 -0.071505 0.603121 0.607615 0.383860 -0.027914 0.225147 -0.377252 0.183889 -0.138777 -0.336390 0.095907 -0.434994 -0.534080 0.406156 0.072455 0.603322 0.184992
called -0.074877 0.290575 -0.133868 -0.032134 -0.796384 -0.491554 0.805205 -0.185282 0.747442 0.308335 -0.412607 0.249556 0.303505 -0.077508 0.047771 0.421906 0.127652 0.235910 0.305982 0.209226 0.499104 -0.126021 -0.194168 -0.989663 -0.133883 -0.082571 -0.627258 -0.362550 -0.526914 0.213473 0.995767 -0.105382 -0.920516 0.418959 0.076068 0.164610 0.994890 0.004747 -0.345064 -0.121226 -1.136801 -0.082695 0.536502 0.055425 -0.224603 0.292914 -0.142437 0.150900 -0.798359 -0.405701
volume 0.468641 0.394675 0.794767 0.157901 -0.251192 -0.145645 0.986886 0.364789 0.204826 1.418076 -0.456988 0.334147 0.778910 0.089820 0.585353 0.026832 0.298847 0.774831 -0.012393 -0.302575 -0.111700 -1.047092 -0.198490 -0.371877 -0.287320 -0.543746 0.484263 -0.352167 -0.076105 -0.805773 -0.089821 -0.604330 -0.755212 0.954788 0.532523 -0.881599 0.086362 -0.633964 -0.106602 0.236979 -0.839587 -0.367691 -0.007770 -0.137559 -0.427942 0.005410 -0.225372 -0.459402 0.001277 -0.995185
show -1.080531 0.028604 -0.527097 0.335220 0.429728 -0.111776 -0.782932 -0.046189 0.614834 -0.676106 0.139853 -0.284351 0.457450 -0.156464 -0.666142 -0.539183 -0.623561 -0.260155 0.404764 0.338928 0.066757 0.228627 0.372432 -0.122524 1.208172 0.833533 -0.378741 0.314634 -0.179933 -0.423290 0.178471 0.339397 0.275909 0.832015 0.743044 0.506478 -0.705438 0.606176 -0.474261 -0.044795 0.137263 0.324071 -0.269426 -0.250740 -0.678410 -0.372946 0.325530 0.097011 0.597246 0.787702
next -0.444583 0.288750 -0.209688 -0.002534 0.163597 0.126229 -0.340590 -0.003942 -0.128018 0.273079 -0.059617 0.020870 -0.085950 0.038355 -0.367397 0.951822 0.071671 0.777122 -0.617843 -0.755666 0.202538 0.424620 -0.898081 0.281992 -0.570848 0.185474 0.057064 -0.585195 -0.030364 1.001727 -0.000872 0.451198 0.506649 -0.857646 -0.043245 0.376472 0.269153 -0.038092 0.138740 0.283371 -0.669781 -0.557812 0.001442 0.325425 0.535798 0.101784 0.335610 0.937811 0.172123 -0.212310
<VOLUME_LEVEL>#0 0.742167 0.670107 0.852401 0.183534 -0.187115 -0.065646 1.268604 0.322918 0.425607 0.957901 -0.734442 0.052391 0.593696 0.204905 1.029479 -0.005963 0.420488 0.651436 -0.069113 0.023241 -0.116554 -1.197411 -0.328021 -0.293404 -0.498506 -0.763481 0.441513 -0.257926 -0.238406 -0.733658 -0.000053 -0.661660 -0.750965 0.752744 0.130194 -0.955264 0.185977 -0.509791 -0.000800 0.145953 -1.077173 -0.333487 -0.186646 -0.192934 -0.198682 -0.089889 -0.323884 -0.467343 0.072999 -0.818290
any -0.779966 0.471240 -0.671109 0.021124 -0.249429 0.446315 0.355737 -0.321757 -0.454229 -0.336961 0.217760 -0.546687 0.004167 0.189796 -0.315940 -0.504331 -0.518703 -0.398165 -0.041016 -0.584213 -0.149622 -0.220091 0.797290 -0.567351 -0.304386 -0.406121 -0.101078 0.662223 0.126851 0.005314 0.112672 -0.593775 0.041632 0.985893 0.652804 0.607399 0.460188 0.187038 0.192620 -0.354139 0.207801 0.811155 -0.819844 0.136105 -0.207331 -0.636071 0.469353 -0.564220 -0.512978 0.919796
except -0.587630 0.517261 -0.057920 0.158053 0.142543 -0.295700 0.391115 0.116558 1.387882 -0.643186 -0.532967 -0.556515 0.179710 -0.106871 0.589703 0.234084 -0.340004 -0.350714 0.182671 0.290039 0.248196 0.000011 -0.129184 -0.569116 0.624974 0.256471 -0.630330 -0.207324 -0.689829 0.307707 0.806061 0.276558 -0.322736 0.319994 -0.087939 0.622545 0.435871 0.311945 -0.102237 0.172641 -0.725534 -0.189980 0.281656 -0.043075 -0.104926 0.221276 0.296803 -0.093407 0.503068 -0.060135
<SOURCE>#0 0.516357 0.332849 1.078242 -0.182392 -0.023929 -0.601119 0.527657 1.297218 0.546926 0.702717 -0.560711 -0.152877 -0.117525 0.530225 0.517907 0.162069 0.665101 -0.084676 -0.432506 -0.312766 0.031453 -0.968907 -0.920498 -0.403860 -1.244115 -0.658694 0.630923 -0.605884 0.095246 0.360260 -0.026924 -0.167493 0.267796 -0.329743 -0.109877 -0.432762 0.646008 0.183293 0.514277 0.806381 -0.004741 -0.214890 -0.348532 -0.053589 0.149790 -0.054746 -0.593761 0.033022 0.045718 -0.749556
go -0.004655 -0.326002 0.510884 -0.141995 0.056142 0.389713 -0.627088 -0.293058 0.449407 -0.330373 -0.752691 -0.435789 -0.209653 0.334681 0.404033 1.083071 -0.423854 0.059652 -0.134307 0.022761 -0.012502 0.045182 0.314081 0.265077 -0.580628 -0.016507 -0.132257 -0.725598 -0.579940 0.863641 -0.093387 0.062654 0.021009 -0.259008 -0.371923 -0.668026 0.478578 -0.129271 -0.588627 -0.366300 -0.682532 -0.906077 0.116010 0.554914 -0.042902 0.058093 0.596531 -0.042861 0.218801 -1.030298
later -0.864450 -0.842855 0.774096 -0.131332 0.338851 -0.517284 -0.939691 0.711595 -0.695476 0.518004 -0.089787 0.279598 -0.290448 0.431826 -0.192192 0.205559 0.396625 0.303909 -0.525231 0.317855 0.095317 0.152687 -1.202011 0.155741 0.147239 -0.517949 0.319437 -0.398137 -0.168717 0.957323 -0.200509 0.365156 0.833450 -1.156926 -0.045861 -0.291346 0.002452 0.300544 0.585850 0.541239 0.012459 -0.171490 -0.069659 -0.250505 0.158258 -0.631281 0.043636 0.465311 0.096621 -0.283005
do 0.028825 0.123165 -1.137906 0.168231 -0.935682 0.312925 0.478643 -0.575381 -0.805737 -0.936333 0.009629 -0.721239 -0.303631 0.389493 0.116099 -0.499363 0.127216 -0.253097 -0.175288 0.329975 -0.194802 -0.295095 0.721480 -0.255805 -0.118512 -0.298061 -0.550460 0.457640 0.063188 -0.342645 0.344954 -0.504242 -0.380669 -0.054864 -0.244707 0.452010 1.154423 -0.060906 -0.082882 -0.691270 0.259401 0.900007 -0.426914 0.180853 -0.228538 -0.520512 0.197708 0.042779 -0.313618 0.909004
<DAY>#2 0.036753 -0.203513 0.043127 0.163693 -0.199623 -1.399670 0.042771 1.178073 0.551222 -0.049359 -0.313561 -0.204911 -0.094431 0.408108 0.286447 0.275526 -0.828148 0.659359 -0.111742 0.752349 0.102282 -0.985915 -0.333035 -0.535928 -0.133077 -0.513864 -0.894789 -0.415833 -0.362616 -0.022313 0.634644 -0.025133 -0.106324 -0.120038 -0.168767 0.123515 0.508005 0.954413 0.080001 0.453708 -0.423708 0.805010 -0.156133 -0.035676 -0.044599 -0.695413 0.313398 0.571252 0.025634 -0.211246
by -0.586754 -0.742086 0.171169 -0.118958 0.606571 -0.670329 -0.851799 0.681807 -0.887658 0.715860 -0.048992 0.392499 0.101792 0.236399 -0.468833 0.294550 -0.274169 0.855504 -0.580443 0.392129 0.163910 0.455925 -1.156872 0.427290 0.370886 -0.415076 0.503764 -0.278753 -0.320616 0.718742 -0.302666 0.455548 0.953087 -1.201332 0.034045 -0.138866 -0.312034 0.210282 0.289370 0.811107 0.069325 0.082645 -0.133830 -0.052174 0.535526 -0.524662 0.260995 0.768265 0.345904 -0.231465
don't 0.224206 -0.241631 0.173316 0.204439 -0.323067 0.315446 -0.522949 -0.352673 -0.804908 -1.247601 0.231739 -0.586996 -0.647919 0.015534 0.863106 -0.219307 0.386573 0.098828 -0.092810 1.207588 -0.941107 -0.508560 -0.001011 0.880802 0.387699 -0.293513 -0.663025 0.253979 -0.105838 -0.253560 -0.181196 0.071558 0.225618 -0.688787 -0.928078 -0.485252 -0.188435 -0.435619 0.228280 -0.701640 -0.055266 0.332210 -0.192678 -0.014544 0.046143 -0.712793 0.702245 0.302953 0.229580 0.803663
get -0.436727 -0.922264 0.455076 0.053768 0.392462 -0.244987 -0.771929 0.156268 -0.449018 0.823210 -0.185240 0.321253 0.759058 -0.177688 -0.215785 -0.074905 -0.937482 0.375081 0.151641 0.859887 -0.160242 0.496378 -0.132666 0.300943 1.638166 -0.387696 0.775068 0.309526 -0.548137 -0.755882 -0.240745 -0.138809 0.521491 0.469507 0.315029 -0.280901 -0.992876 -0.257370 -0.609620 0.664518 0.460137 0.220007 -0.221814 0.052608 -0.352606 -0.678846 0.444854 -0.229400 0.478862 0.359315
new 0.183041 -0.022519 0.323425 -0.387481 -0.573366 -0.293980 0.579380 -0.422319 0.215657 0.030073 -0.696014 0.524688 -0.284545 -0.319071 -0.666669 -0.138413 -0.590741 0.414293 0.347396 0.334423 -0.046302 -0.194015 0.566135 -1.135781 -0.561047 0.028751 -0.468514 0.155169 0.177497 -0.007113 0.477904 -0.724798 -0.806774 0.677263 0.565721 -0.423268 0.580434 0.097719 -0.341921 0.246875 -0.535686 0.879858 -0.133602 0.000468 -0.096992 -0.089836 -0.352405 -0.708522 -1.608217 -0.212681
this 0.243600 0.176015 -0.710067 -0.079188 -0.418799 -0.089678 0.160569 0.053205 -0.193184 0.709024 0.223895 0.639800 0.146288 -0.100955 -0.721215 0.292799 -0.192863 0.408748 -0.099457 -0.543764 0.264031 0.043268 0.037770 -0.129949 -0.546097 0.134891 -0.226484 -0.199784 0.422845 -0.269164 0.189695 -0.047847 -0.210769 0.134137 0.159806 0.353435 0.271930 -0.184380 -0.431382 0.080060 -0.026774 0.138866 0.123388 0.383335 0.002828 0.280576 -0.251488 0.381378 -0.390886 -0.045248
but 0.350083 0.500319 -0.445018 0.047930 -0.207946 0.077949 0.659944 -0.241988 0.374455 -0.746994 -0.732129 -0.548506 -0.157566 0.045725 0.679624 -0.362303 0.403156 0.156496 -0.011740 0.529050 0.122578 -0.159474 -0.079667 0.151280 0.672013 -0.019087 -0.005826 0.075455 -0.194664 -0.220273 0.434483 -0.052960 -0.572001 -0.324024 -0.624127 0.433187 0.333437 -0.284758 -0.098585 -0.146014 -0.407473 0.166525 0.050514 -0.228441 0.105053 0.216978 -0.215154 0.231303 0.243168 0.534384
time -0.376278 0.178123 -0.611673 0.357338 0.601027 0.242912 0.001937 -0.144972 -0.332792 0.498425 0.571308 0.023037 0.342305 0.232946 -0.191530 0.062444 0.268790 -0.030999 -0.189713 -0.738843 0.310298 0.374442 0.036524 0.250105 -0.307169 0.066239 0.377119 0.142911 -0.134013 0.522241 -0.388736 0.258578 0.386525 -0.166274 0.414153 0.254642 -0.667772 0.348739 0.459147 -0.302776 -0.174523 -0.401298 -0.028888 -0.262442 0.030338 0.235646 0.020521 0.176250 0.786951 -0.241335
can -0.404932 -0.519527 -0.631429 -0.223722 -0.577971 0.464441 -0.743077 -0.653800 -0.696214 -0.110011 0.281373 0.543293 0.053995 -0.405384 -1.400928 0.057461 -0.198500 0.370849 0.017298 -0.515865 0.002550 0.418677 0.710047 0.128208 0.259136 1.158336 -0.588333 -0.044954 0.609988 -0.768046 -0.198888 0.114319 -0.577204 0.322221 0.530801 -0.146846 0.397831 -0.327521 -0.745722 -0.014989 0.431820 0.099107 0.021289 0.348158 -0.553035 0.297509 0.140401 0.212309 -0.607189 0.234266
named -0.182388 0.323551 -0.414570 0.123594 -0.694966 -0.222040 0.803508 -0.509918 0.468937 0.233118 -0.370334 0.196917 0.340851 0.000402 0.079569 0.302145 0.345556 0.205764 0.318789 0.125540 0.564161 0.107960 -0.120868 -0.775714 0.342963 0.002967 -0.489912 -0.142038 -0.392454 -0.032307 0.934153 -0.131871 -0.873711 0.263746 -0.049797 0.298448 0.711156 -0.049523 -0.306934 -0.299613 -1.046323 -0.172771 0.586952 -0.080576 -0.281375 0.216062 -0.181441 0.165751 -0.568540 -0.152405
not -0.077892 0.210572 -0.605719 0.348503 -0.381739 0.133796 0.408019 -0.362633 -0.052314 -1.354011 -0.068770 -0.816373 -0.434533 0.248861 0.732025 -0.497892 0.471096 -0.311553 0.047709 0.620808 -0.181761 -0.379235 0.252411 0.144485 0.467831 0.104577 -0.679168 0.223638 -0.103463 -0.256118 0.315653 0.012743 -0.390645 -0.284214 -0.655168 0.417539 0.500626 0.197634 0.165422 -0.780044 -0.114768 0.413579 -0.094834 -0.229520 -0.159783 -0.305828 0.133650 0.217692 0.289428 0.806118
call 0.651877 -0.923035 0.092721 -0.083161 -0.787057 -0.751135 -0.032295 -0.127846 0.370454 0.349725 -0.750910 0.510507 0.311394 0.116200 0.102125 0.374278 0.059816 0.399818 0.220529 1.438822 0.467537 0.349386 -0.523808 -0.503159 0.919158 -0.144408 -0.136659 -0.271208 -0.559511 -0.581196 0.786084 -0.120418 -0.572868 -0.473120 -0.604520 -0.221691 0.761433 -0.203965 -0.982588 0.349096 -0.060226 -0.021490 0.793707 -0.011967 -0.355603 0.003791 -0.485317 0.369749 -0.220460 -0.684036
display -0.328541 0.527699 -0.665410 0.209625 0.749213 0.132727 -0.204264 -0.129321 0.437795 -0.262430 0.116586 -0.364027 0.448099 -0.110731 -0.358803 -0.340828 -0.366841 -0.131512 0.207962 -0.122411 0.240574 0.350663 0.266117 0.173631 0.473728 0.588757 0.224106 0.326032 -0.210377 0.024548 -0.104605 0.289405 0.270644 0.362271 0.527590 0.430733 -0.768556 0.341337 -0.094518 -0.064222 0.003166 -0.111434 -0.226836 -0.183407 0.046846 0.162182 0.161672 0.034722 0.727770 0.289888
with -0.158270 -0.251319 0.630686 0.001748 -0.184821 -0.488733 0.406360 0.302616 0.170204 1.074483 -0.625483 0.465367 0.470518 0.136394 0.179752 -0.077613 0.273179 0.321634 0.080888 0.147048 0.363422 -0.325820 -0.349564 -0.588794 0.433145 -0.478882 0.445400 -0.253525 -0.284742 -0.386858 0.119616 -0.476319 -0.523035 0.243743 0.361589 -0.538465 0.204456 -0.173084 -0.022967 0.463437 -0.418788 -0.158121 0.181342 -0.295711 -0.627839 -0.287783 -0.413829 -0.151593 -0.216074 -0.767289
from 0.076398 -0.263260 1.153173 -0.170606 0.262927 -0.324728 0.084736 -0.093482 0.682395 -1.088043 -0.167603 -0.128777 -0.573293 -0.202916 0.317293 0.247642 -0.202102 -0.394482 0.203529 0.625997 -0.063754 -0.026476 -0.100597 -0.193477 -0.128620 0.026805 -0.634514 0.102554 -0.320113 0.308886 0.376233 0.092629 -0.197517 -0.274683 -0.617257 -0.486250 0.182734 0.717373 0.523135 0.324319 -0.043751 0.058264 -0.144639 -0.134861 0.046118 -0.477697 -0.025258 0.038971 -0.475821 -0.215273
cancel 0.159347 0.340706 -0.096657 -0.023966 0.137532 0.506893 -0.179341 -0.477231 0.056390 -0.196926 0.157730 -0.049761 0.255102 -0.303504 -0.210120 0.188770 -0.423531 0.252886 0.094307 -0.108199 -0.271115 0.111459 0.360803 0.374380 -0.083656 0.519207 -0.171238 0.041209 0.096160 -0.321416 -0.258457 0.061654 -0.078433 0.458781 0.201786 -0.411991 -0.300927 -0.321157 -0.511962 -0.147607 -0.123125 -0.285178 -0.139342 0.356046 -0.019204 0.161713 0.385407 -0.067239 0.149670 -0.052624
tell -1.123291 -0.855815 -0.750781 0.074563 -0.470261 0.297570 -1.039443 -0.370811 -1.077691 0.030959 0.650641 0.542162 0.208016 -0.136763 -1.238612 -0.331482 0.218514 -0.168765 0.024343 -0.346842 -0.029934 0.481295 0.353299 0.032267 0.793082 0.639241 -0.422550 0.248918 0.502959 -0.596423 -0.170718 0.133402 0.110853 0.073604 0.702166 0.214262 -0.038690 -0.058418 -0.355752 -0.117189 0.607557 0.318741 -0.023817 -0.021797 -0.833356 -0.325477 0.176754 0.246043 -0.151098 0.713537
remove -0.379771 0.453743 -0.301699 0.033504 0.453253 0.250740 -0.167801 -0.222279 0.555710 -0.266888 0.037057 -0.173292 0.330103 -0.422219 -0.325034 -0.187161 -0.490902 0.062468 0.334333 -0.271796 0.067828 0.290827 0.370495 0.211195 0.625623 0.720590 -0.003870 0.181196 0.047502 -0.160984 0.010611 0.169183 -0.051871 0.649638 0.393535 0.372975 -0.674963 -0.012046 -0.369130 0.038338 -0.104208 -0.083118 -0.083679 0.005510 -0.028682 0.337603 0.294808 -0.121144 0.287950 0.348550
hey 0.828780 0.462903 -0.121501 -0.119938 -0.385066 0.069173 0.636233 -0.310024 0.181648 -0.166061 0.170716 0.106295 -0.133707 -0.328888 -0.152578 0.029559 0.203639 0.062899 0.434399 -0.301240 -0.079296 -0.114707 0.268410 -0.144428 -0.521183 -0.062182 -0.144612 0.197201 0.309120 -0.093956 0.193993 -0.424771 -0.368793 0.160514 -0.316361 0.004373 0.043159 -0.176919 0.030187 -0.137677 -0.080193 0.267795 0.162280 0.188161 0.381041 0.216563 -0.282911 0.172006 -0.908289 0.242353
how -0.482820 -0.252745 -0.522615 0.065291 -0.064199 0.598901 -0.292360 -0.125491 -0.288560 0.184174 0.182897 0.123119 -0.463494 0.308368 -0.417030 -0.425156 0.791031 -1.003793 -0.336769 -1.049076 0.569660 0.483677 0.121269 -0.034019 -0.189811 0.277955 0.396934 -0.087215 0.517042 0.236680 -0.308120 0.065840 -0.041056 -0.360141 -0.111263 0.853795 0.155808 0.340201 0.413205 -0.251149 0.740462 -0.229129 0.174323 -0.160162 -0.249735 0.297045 -0.740810 -0.132342 -0.133181 0.154175
everyday -0.139119 0.404808 1.236456 -0.255985 0.516032 0.070421 0.328026 0.228054 1.082373 -0.424953 -0.253605 -0.034751 -0.418220 -0.546338 0.394964 0.403142 -0.031972 -0.316919 0.016675 -0.287110 -0.105504 0.313275 -0.668709 -0.046500 -0.352970 0.356476 -0.130540 -0.307174 -0.107018 0.767168 0.196225 0.430169 0.122264 0.192269 -0.401558 0.088373 -0.005220 0.011347 0.442191 0.555160 -0.317395 -0.517457 0.017148 -0.006397 0.501138 0.553143 -0.090478 -0.424038 0.000452 -0.262664
week -0.165110 0.298832 1.448145 -0.443513 0.652628 0.091600 0.195717 0.319906 0.857635 -0.633491 -0.198487 -0.103367 -0.698509 -0.540760 0.119335 0.376925 -0.078033 -0.435913 -0.012132 -0.258057 -0.188555 0.482238 -0.743367 -0.047253 -0.619373 0.342021 -0.020503 -0.175088 0.065923 1.069447 0.168995 0.451897 0.464351 -0.067934 -0.453892 0.068426 0.210587 0.126378 0.721569 0.833042 0.095845 -0.318036 -0.200613 0.074124 0.651506 0.402066 -0.054787 -0.380689 -0.102590 -0.177785
play 0.432316 0.427765 0.277619 0.059779 0.317977 0.046579 0.402231 0.473653 0.356298 0.374220 -0.211723 -0.297642 0.168245 0.432654 0.236978 0.015376 0.363975 -0.149469 -0.269183 -0.437138 0.059912 -0.469615 -0.478450 -0.122090 -1.074141 -0.244394 0.649877 -0.143725 0.001235 0.204144 -0.272930 -0.158573 0.379070 0.003171 0.171083 -0.173312 0.246800 0.256917 0.256376 0.301363 0.109310 -0.334395 -0.492803 -0.040821 0.168788 -0.035530 -0.397902 -0.078138 0.527083 -0.528540
will -0.409233 -0.260099 0.095317 0.166701 0.168096 0.780910 -0.567596 -0.476685 -0.320895 -0.075835 0.061703 0.046837 -0.456764 0.155061 -0.115748 0.279731 0.543334 -0.288579 -0.362227 -0.575464 0.054353 0.411215 -0.299200 0.374091 -0.623580 0.241688 0.127304 -0.252185 0.027608 0.700202 -0.545749 0.134482 0.260412 -0.569629 -0.024754 0.025378 0.049238 0.047265 0.132487 -0.430082 -0.074370 -0.708657 -0.078021 -0.018049 -0.077913 -0.192140 -0.233225 0.041874 0.139508 -0.383759
forget -0.065840 -0.084500 -0.228280 -0.067823 0.055004 0.318467 -0.083899 -0.118850 -0.288834 0.230619 0.451925 0.451979 -0.071749 -0.315026 -0.544471 -0.304927 0.169103 -0.065010 -0.018378 -0.720577 0.079812 0.260536 0.270861 0.177834 0.053516 0.519699 0.138753 0.132185 0.597596 -0.383585 -0.389956 0.095177 -0.149797 0.162626 0.325614 0.274806 -0.279151 -0.132349 0.061998 0.068989 0.516399 0.004601 0.064765 -0.101413 -0.071143 0.457194 -0.325013 -0.118985 -0.089425 0.148054
it's -0.001567 -0.654670 -0.001006 -0.245522 0.108860 -0.253259 -0.123731 0.311299 -0.869584 0.884942 0.184158 0.374485 -0.093099 0.418593 -0.346246 -0.527955 0.414832 -0.394700 -0.282950 -0.126798 0.585460 0.455602 -0.230943 -0.234008 0.220824 -0.532182 0.905206 0.378530 0.132678 0.550123 -0.178082 -0.080320 0.621614 -0.972411 0.316447 0.200946 -0.165956 0.292764 0.867501 0.307674 0.832783 0.080510 0.152037 -0.479173 -0.010028 -0.010551 -0.565998 -0.121023 -0.049304 -0.232216
edit -0.322588 0.250446 -0.015627 -0.078148 0.224005 0.391714 -0.096201 -0.743464 0.225682 -0.374948 -0.053124 0.070582 0.191466 -0.601195 -0.508536 0.328483 -0.338835 0.477981 0.266656 0.007112 -0.020503 0.662391 -0.030006 0.077535 0.252119 0.817755 -0.365933 0.049015 -0.108941 0.139947 0.230812 0.220196 -0.069245 0.226813 0.204834 -0.014096 -0.030089 -0.175648 -0.297288 0.052919 -0.457318 -0.298786 0.041250 0.247086 0.072743 0.173023 0.457897 0.150116 0.007243 -0.046441
should 0.770606 -0.771623 -0.260837 -0.311336 -0.009032 -0.226050 -0.389582 -0.314045 -1.169976 0.123979 0.274528 0.374394 0.325060 -0.390195 -0.539366 0.036690 -0.798856 0.882041 0.169812 1.245845 -0.306950 0.785344 -0.206679 0.511674 0.712478 -0.147858 0.317638 0.491748 -0.317633 -0.411002 -0.077415 0.041485 0.554697 -0.817589 -0.210607 -0.332859 -0.355592 -0.471948 -0.347780 0.559533 0.787660 0.556486 0.086763 0.327671 0.485066 -0.205849 0.388448 0.500455 -0.028957 0.177799
daily -0.059894 0.263407 0.396874 -0.197010 -0.138946 -0.008078 0.596144 -0.307557 0.384941 -0.110478 -0.704981 -0.036458 -0.233479 -0.050679 -0.116144 -0.263586 -0.434503 -0.169575 0.052025 0.069444 -0.009756 -0.261714 0.479164 -0.858345 -0.449512 -0.131869 -0.089382 0.250730 -0.062182 0.007082 0.209329 -0.634737 -0.581151 0.737815 0.395718 -0.188053 0.539657 0.175686 -0.006364 0.242812 -0.166820 0.536576 -0.501156 -0.118735 -0.182501 -0.261498 -0.356754 -0.810729 -0.882729 -0.146226
each -0.207744 -0.812591 1.284677 -0.342948 -0.082245 -0.593715 -0.400181 0.577907 0.794994 -0.205517 -0.931674 -0.125937 -0.439452 0.389895 0.617095 0.307608 -0.049316 -0.808704 -0.098285 0.556464 0.031881 -0.199825 -0.118408 -0.491972 0.243178 -0.451350 -0.065015 -0.488450 -0.407004 0.466736 0.224340 -0.156278 -0.141156 -0.281529 -0.580936 -0.285936 0.569136 0.261136 0.024181 0.519096 0.334629 -0.122038 0.132157 0.002353 -0.392389 -0.332875 -0.101897 -0.394531 -0.348015 -0.597908
goes -0.226521 -0.050013 1.034390 -0.327019 -0.247643 0.213609 -0.521915 0.251893 0.812853 -0.788811 -0.647675 -0.868797 -0.521546 0.352355 0.829001 0.722115 -0.144113 -1.088353 0.139785 -0.030376 -0.617877 -0.620519 0.664672 0.042783 -0.528204 -0.333501 -0.207662 -0.612780 -0.204595 0.746970 0.061046 -0.288099 0.127495 0.291880 -0.674617 -0.404408 0.543496 -0.138403 -0.158598 -0.219883 -0.036945 -0.524518 -0.098377 0.614811 -0.167858 -0.178004 0.880807 -0.487081 -0.429984 -0.166633
missed -0.015624 0.434463 -0.459317 0.048417 0.142838 0.643313 -0.208517 -0.428874 -0.323296 -0.549167 0.463533 -0.544277 0.116627 -0.178909 -0.015773 -0.151890 -0.553504 -0.383123 0.148389 -0.189282 -0.516998 -0.001004 0.730569 0.380535 0.019350 0.047007 -0.034634 0.419919 0.091527 -0.066851 -0.226241 -0.156064 0.447921 0.395679 0.167284 0.163116 -0.373462 -0.284579 -0.115095 -0.471029 0.308678 0.138824 -0.299945 0.401818 0.085392 -0.106435 0.726793 -0.276205 0.171859 0.752568
repeating -0.811282 -0.160268 0.300209 0.158597 0.074826 0.370657 -0.481796 -0.127942 -0.088710 0.122875 -0.201188 -0.173390 -0.202304 0.293592 -0.044848 -0.151157 0.380160 -0.469502 -0.268356 -0.326419 0.002805 0.021494 -0.199489 -0.167909 -0.012177 -0.095824 0.231659 -0.138674 -0.047636 0.513715 -0.260737 -0.172353 0.189257 -0.031614 0.345666 0.106869 0.111218 0.163789 0.137676 -0.113254 -0.049077 -0.198895 -0.175363 -0.161352 -0.368586 -0.508927 -0.141772 -0.210999 -0.025660 -0.084879
changed 0.587691 0.320610 0.681224 -0.280477 0.335071 0.013821 0.430163 -0.072660 -0.156709 -0.290683 0.258096 0.268130 -0.010952 -0.874857 -0.226125 0.388381 -0.552842 0.929230 0.187197 0.246862 -0.621505 0.183823 -0.414013 0.207902 -0.628883 0.363088 -0.331685 0.193340 0.078622 0.131833 0.021833 0.298143 0.363100 -0.012214 -0.084660 -0.550432 -0.116227 -0.290696 0.335597 0.596903 -0.238403 0.142802 -0.148180 0.428941 0.764014 0.209978 0.551484 0.101007 -0.169860 -0.179342
could -0.045433 -0.107464 -0.571628 -0.167865 -0.246162 0.533485 -0.180572 -0.450409 -0.405297 0.068493 0.384213 0.503625 -0.097127 -0.338495 -0.900006 -0.212206 0.106956 0.091012 -0.029120 -0.754429 0.111665 0.295052 0.585079 0.241501 0.021977 0.930347 -0.190950 0.033367 0.693350 -0.640200 -0.378539 0.071415 -0.554548 0.315794 0.331871 0.120245 0.132065 -0.293235 -0.323459 -0.106622 0.525090 0.009594 0.065599 0.166777 -0.266526 0.556324 -0.204376 -0.076804 -0.395199 0.201096
there -0.444740 0.226968 -0.931674 0.107704 -0.426146 0.152416 0.524803 -0.102841 -0.412486 0.517550 0.210745 -0.013729 0.031936 0.650854 -0.030326 -0.130360 0.375741 -0.265426 -0.156689 -0.854218 0.508816 -0.186828 0.446739 -0.539240 -0.345478 -0.505064 0.136469 0.053910 0.181535 0.157697 0.141066 -0.412514 -0.320163 0.157538 0.426125 0.653572 0.522204 0.362901 0.329378 -0.528744 -0.082859 0.218862 -0.000841 -0.064100 -0.246462 -0.167826 -0.175084 -0.182445 -0.359348 0.068352
through 0.405062 -0.279906 0.612668 -0.040395 -0.065062 -0.929547 0.339474 0.647187 0.563055 -0.640782 -0.403629 -0.356491 -0.499300 0.387468 0.759881 0.162493 -0.221869 -0.089468 -0.071784 0.977291 0.167847 -0.478813 -0.409270 -0.433525 -0.031531 -0.666465 -0.459006 -0.078749 -0.508184 0.225305 0.591449 -0.015740 -0.138514 -0.704125 -0.919905 -0.068692 0.612187 0.902216 0.578540 0.378768 0.070086 0.348117 0.045223 -0.248679 0.131616 -0.536246 -0.140410 0.273921 -0.207157 -0.267820
end -0.262885 0.204997 -0.218800 0.610246 -0.341745 0.276021 -0.102119 0.204514 -0.444155 -1.110885 0.563729 -0.819842 -0.654111 0.271413 1.342425 -0.180664 0.456945 -0.282803 -0.315246 0.369303 -0.840397 -0.946675 -0.037959 0.594525 -0.204309 -0.534974 -0.930544 0.011236 0.038222 -0.038848 -0.190498 0.186734 0.179671 -0.206991 -0.729640 0.217023 -0.089731 0.015691 0.404680 -1.027465 -0.422777 0.339954 -0.187602 -0.125710 0.081369 -0.572630 0.564590 0.107698 0.594211 0.892864
like 1.218880 0.181168 -0.050089 -0.568902 -0.155249 0.758574 0.174605 -0.709727 -0.866806 -0.026216 0.408830 0.297093 -0.158752 -0.274790 -0.574071 -0.094685 0.034120 0.416472 -0.171391 -0.210660 -0.203741 0.477156 0.484253 0.416570 -0.792791 0.366661 0.341642 0.348082 0.659480 -0.326914 -0.579969 -0.202454 -0.191723 -0.128618 0.041311 -1.153612 -0.170369 -0.449825 -0.154423 -0.256091 0.621531 -0.130871 -0.240288 0.203198 0.398674 0.517460 -0.236811 -0.166003 -0.593181 -0.049693
snooze -0.177663 -0.115402 -0.301096 0.023015 -0.189243 -0.340767 -0.061559 0.187437 -0.028148 0.351234 0.025232 0.361351 0.159266 0.069650 -0.393496 0.135477 -0.206439 0.280063 -0.061729 -0.045944 0.209225 -0.080075 -0.025787 -0.294833 -0.096379 0.028611 -0.335027 -0.156336 0.007465 -0.157847 0.247958 0.066157 -0.173727 0.081631 0.281338 0.038853 0.193746 0.187302 -0.293552 0.108398 -0.191873 0.142015 0.033174 0.044729 -0.178292 -0.059807 -0.144581 0.257199 -0.180648 -0.114813
month -0.126719 0.304913 1.394158 -0.345077 0.643126 0.127456 0.129892 0.454018 0.828319 -0.266824 -0.027198 -0.064324 -0.624686 -0.453846 0.374043 0.348371 0.249583 -0.674304 -0.075594 -0.574079 -0.243195 0.283202 -0.774253 0.009042 -0.646162 0.211670 0.161715 -0.248461 0.193684 0.926057 -0.045077 0.437109 0.483844 -0.040615 -0.355179 0.130808 -0.099040 -0.032114 0.725856 0.640585 0.132199 -0.542629 -0.025067 -0.063012 0.555944 0.564976 -0.233755 -0.453960 0.025251 -0.200075
name 0.167809 0.001290 -0.487206 0.335798 -0.441132 -0.051045 0.212519 -0.087670 0.509435 0.309878 -0.273864 0.102152 0.422695 0.078357 0.491501 0.165135 0.107255 0.232396 0.220482 0.306007 0.162297 -0.020821 -0.045836 0.021259 0.795346 0.002659 -0.083464 -0.193350 -0.171033 -0.774567 0.388339 0.018513 -0.462199 0.493528 -0.261961 0.380960 -0.130098 -0.391303 -0.863060 -0.390291 -0.468071 -0.291206 0.462497 -0.073244 -0.441239 0.164807 -0.124687 0.089995 0.590531 -0.000622
out -0.332419 -0.120230 0.181385 -0.023197 0.709478 0.058451 -0.443898 0.285585 -0.455486 0.754901 0.304317 0.397043 0.071909 -0.173558 -0.428716 -0.043488 0.032975 0.236756 -0.365568 -0.575252 0.192768 0.546233 -0.587604 0.626613 0.014191 0.025278 0.810799 -0.113712 0.132982 0.380117 -0.682156 0.373033 0.646363 -0.451075 0.278521 0.106597 -0.892723 -0.047610 0.266059 0.416652 0.137125 -0.333584 -0.105402 -0.271939 0.420295 0.214837 -0.249395 0.246720 0.354129 -0.037412
which -0.461763 -0.028285 -0.517725 0.285288 0.093634 0.448793 -0.129128 -0.095951 -0.503393 -0.124717 0.419311 -0.284346 0.089888 0.208678 0.173454 -0.713425 0.364884 -0.748284 -0.084533 -0.313330 -0.113603 -0.112367 0.383102 0.247608 0.335120 -0.113396 0.219405 0.307653 0.178493 -0.250343 -0.486564 -0.089924 0.215622 0.154942 0.265054 0.365220 -0.381134 0.100363 0.233820 -0.510433 0.478878 0.101825 -0.209430 -0.304803 -0.325926 -0.204233 -0.066629 -0.277992 0.507069 0.575795
stop -0.205174 0.477510 -0.360329 0.312331 0.133995 0.260348 0.200362 0.155985 0.206255 0.081019 0.364093 -0.104161 0.051835 -0.057935 0.443002 -0.136615 0.307449 -0.220015 0.022796 -0.614774 -0.036066 -0.208819 0.156729 0.319735 0.105540 -0.000734 -0.076173 -0.086217 0.269218 -0.078816 -0.209707 0.154711 -0.076187 0.267813 0.087130 0.487949 -0.604151 -0.145908 0.080607 -0.427989 -0.252237 -0.215873 0.308797 -0.169304 0.058656 0.376246 -0.080576 -0.190716 0.468860 0.198162
them 0.134151 0.522648 -0.314203 0.227075 0.579862 0.458081 -0.060432 -0.148091 0.481852 -0.284443 0.424757 -0.119878 0.310486 -0.341918 0.033580 -0.232801 -0.569881 -0.234268 0.207766 -0.307006 -0.152216 0.081007 0.421994 0.367689 0.172534 0.478917 0.038357 0.257723 0.114632 -0.429213 -0.245404 0.248316 0.175115 0.695402 0.243729 0.324487 -0.900700 0.017782 -0.232907 -0.154457 0.198110 -0.126831 -0.080630 0.062708 -0.006267 0.361015 0.093540 -0.259383 0.623776 0.421578
reminder -0.256393 0.419441 -0.110823 -0.060331 0.162333 0.107224 0.323868 -0.219284 0.550498 0.030645 -0.355054 0.048109 0.204050 -0.216472 -0.311682 -0.058210 -0.189567 0.162909 0.013498 -0.304840 0.297420 0.108962 0.156436 -0.361443 0.107332 0.540460 -0.119461 -0.101453 -0.139770 -0.096305 0.112987 0.041568 -0.559142 0.585202 0.398769 0.119809 0.250561 0.024747 -0.186800 0.181662 -0.386658 -0.111634 -0.067048 -0.110146 -0.155789 0.423183 -0.186883 -0.230690 0.024710 -0.251043
ones -0.437772 0.321844 -0.615820 0.388919 0.272408 -0.370063 -0.133933 0.769929 0.361237 -0.185902 0.349030 -0.368596 0.101696 0.112071 0.411041 -0.053141 -0.131300 -0.078229 -0.125998 -0.181886 -0.089575 -0.478521 -0.199342 0.130150 0.192399 0.063592 -0.391045 -0.226516 -0.018688 0.097505 0.102458 0.480369 0.410244 0.011702 0.087740 0.821097 -0.338397 0.305650 0.212002 -0.197357 -0.191996 0.045936 0.139805 -0.120471 0.138664 0.205641 0.414798 0.247938 1.106139 0.290492
<DATE>#1 0.274636 0.067413 0.242019 0.332003 -0.258418 -0.454767 0.356319 0.649270 0.671794 -0.671801 -0.207224 -0.520617 -0.431043 0.422458 1.249256 0.081811 -0.014352 -0.149257 -0.233135 0.573191 -0.251461 -0.980483 -0.111478 -0.135161 -0.318286 -0.503354 -0.813459 -0.304594 -0.237844 -0.220142 0.238328 0.036227 -0.363899 0.059073 -0.668106 -0.005343 0.347943 0.466615 0.116640 -0.273334 -0.363563 0.362034 -0.048032 -0.134184 -0.067793 -0.424234 -0.124267 -0.076163 0.304466 -0.081365
move -0.252082 -0.115265 0.194552 -0.085118 0.156100 0.141875 -0.354863 -0.260731 0.050749 0.178272 0.068953 0.343857 0.058756 -0.305142 -0.518740 0.302422 0.097077 0.182793 0.001833 -0.381455 0.176734 0.438586 -0.298736 0.204018 0.133186 0.354827 0.150508 -0.171205 0.138201 0.188685 -0.129686 0.136649 0.088952 -0.161471 0.121062 0.002505 -0.212106 -0.129148 -0.164924 0.200488 -0.072157 -0.324180 0.169782 0.034201 0.069194 0.073365 -0.114973 0.330674 -0.196196 -0.009793
plays -0.119557 0.318838 0.692385 -0.006285 -0.085734 -0.509204 0.210730 1.233779 0.721406 0.438798 -0.249501 -0.293583 -0.249494 0.531413 0.512258 0.121001 0.659359 -0.669428 -0.306437 -0.692988 0.044091 -1.003897 -0.522578 -0.492637 -1.032943 -0.506550 0.241412 -0.596013 0.221481 0.403784 0.036900 -0.073888 0.149870 0.016528 -0.087707 0.128845 0.545692 0.466279 0.579669 0.339217 0.031691 -0.175892 -0.200722 -0.051847 -0.064285 -0.103223 -0.360930 0.002207 -0.087181 -0.293805
traffic -0.296402 -0.373417 -0.749120 0.080895 -0.125038 -0.266258 -0.006750 0.368861 -0.593680 0.962570 0.431245 0.266609 0.033665 0.541815 -0.137580 -0.300225 0.630148 -0.379509 -0.219036 -0.521404 0.647325 0.247506 -0.120754 -0.261747 0.348459 -0.303694 0.507324 0.148910 0.220433 0.164172 0.012851 0.057279 0.416542 -0.595838 0.279203 0.853389 -0.033549 0.286559 0.661175 -0.024509 0.577885 0.106051 0.377112 -0.346561 -0.159997 0.122102 -0.318318 0.059594 0.302380 -0.008209
<ORDINAL>#1 0.123530 0.516288 0.243477 0.160040 0.579419 -0.507115 0.640629 0.776392 1.065736 -0.269392 0.140431 -0.042405 0.008839 -0.646257 0.537661 0.074896 -0.434739 0.128892 0.141885 0.025122 -0.130667 -0.083935 -0.610689 -0.145252 0.183494 0.447574 -0.437883 -0.142454 -0.138840 0.144348 0.378566 0.643594 0.224170 0.273537 -0.106697 0.787527 -0.411999 0.187790 0.392277 0.440828 -0.325816 0.083722 0.383578 -0.190731 0.571555 0.753797 0.080711 -0.185153 0.939272 -0.072404
about -0.442791 0.029052 -0.239548 -0.092375 0.060257 0.557482 -0.236588 -0.190610 -0.037225 0.164243 0.217881 0.335077 -0.233100 -0.173660 -0.654125 -0.253180 0.454779 -0.609459 -0.080982 -1.003493 0.371794 0.500223 0.181099 0.080533 -0.098720 0.660127 0.165629 -0.079135 0.558415 -0.012941 -0.246356 0.185905 -0.163763 0.120721 0.019456 0.506329 -0.102754 0.070760 0.187434 -0.009919 0.430483 -0.260524 0.152107 0.002779 -0.126638 0.506641 -0.505428 -0.128735 -0.328599 0.175833
see 0.171384 -0.137235 -0.055608 -0.112355 0.430798 0.423267 -0.497655 -0.705865 -0.476407 -0.263701 0.425947 0.152182 0.383631 -0.447828 -0.612752 -0.392503 -0.183511 -0.059943 0.460387 0.594396 -0.229189 0.779367 0.288727 0.516892 0.738064 0.371835 0.478027 0.681903 -0.029757 -0.367710 -0.371386 0.016702 0.518643 -0.118760 0.174293 -0.514556 -0.935711 -0.334646 -0.130925 0.070152 0.602532 -0.010016 -0.083475 0.006885 -0.024611 -0.108129 0.131770 0.075162 0.004299 0.458618
rid -0.488485 -0.334412 0.340757 0.260080 0.657652 0.270929 -0.490080 0.362392 -0.182119 0.963888 -0.025147 0.150049 0.745410 -0.141236 0.279236 -0.222970 -0.685976 0.169336 0.104235 -0.006818 -0.102028 0.172436 0.016464 0.611405 1.248623 -0.379757 1.013764 0.183858 -0.215646 -0.682550 -0.512729 -0.101820 0.418353 0.860623 0.432901 -0.002031 -1.467200 -0.291709 -0.393490 0.346363 0.107851 -0.221983 -0.253927 -0.161360 -0.222906 -0.312302 0.343329 -0.509960 0.886971 0.380716
keep -0.030108 0.715599 -0.533329 0.039871 0.146128 0.287402 0.720546 -0.444874 0.433745 -0.183967 -0.152334 -0.112488 0.193957 -0.270835 0.169131 -0.238198 0.540210 -0.181903 0.139023 -0.308136 0.378521 0.343440 0.022895 0.080602 0.532001 0.390966 0.111782 0.062147 -0.023277 -0.015830 0.195103 0.162926 -0.467930 0.035326 -0.128979 0.600401 -0.093837 -0.232031 0.146296 -0.285293 -0.374812 -0.264732 0.318083 -0.306408 0.093799 0.700517 -0.394494 0.006498 0.250967 0.275984
instead -0.081621 -0.123045 0.893304 -0.109515 0.633938 -0.120264 0.012056 0.205313 0.663997 -0.091764 -0.471144 -0.116501 -0.118080 0.053176 0.492841 0.041513 -0.212352 -0.240410 -0.074855 0.127785 0.123973 0.002609 -0.058302 -0.082697 -0.081635 -0.051260 0.118101 -0.090136 -0.430075 0.262605 -0.233751 0.029124 -0.224575 0.086293 -0.228107 -0.445850 -0.171636 0.424068 0.285036 0.377103 -0.095346 -0.255974 -0.219013 -0.255395 -0.008781 -0.024619 -0.143748 -0.445766 0.142368 -0.683317
sunny 0.358561 -0.427352 0.312974 -0.237267 0.220407 -0.459232 0.078659 0.615508 -0.269531 0.488558 -0.053442 0.219231 -0.218386 0.290865 0.091101 -0.348224 0.185462 -0.366956 -0.283817 0.138355 0.351085 0.163284 -0.313056 -0.099610 0.045108 -0.578330 0.718265 0.133064 0.022925 0.329921 -0.173002 -0.031702 0.394299 -0.793915 -0.117179 0.087999 -0.117911 0.289591 0.615940 0.504627 0.709245 0.132960 0.087728 -0.399216 0.269540 0.081304 -0.639232 -0.161635 -0.032922 -0.258134
sound -0.658118 0.249953 -0.139092 0.157222 0.365818 0.499500 -0.187030 -0.173456 -0.137736 0.048506 0.220809 -0.177213 0.008103 0.047003 -0.169191 0.163276 0.225364 -0.059005 -0.159401 -0.674194 -0.010338 0.226206 -0.287717 0.137759 -0.384361 0.123595 0.175590 -0.005303 0.022233 0.610133 -0.211225 0.060321 0.492605 -0.069583 0.319579 0.247713 -0.127589 0.176544 0.368614 -0.106156 -0.237356 -0.335156 -0.311692 0.023975 0.032600 -0.307406 0.169459 0.137190 0.275684 0.072120
so 0.031081 0.034960 0.000004 0.109011 -0.341495 0.370702 -0.059351 -0.131324 0.232225 -0.498699 -0.136402 -0.483621 -0.283259 0.274933 0.720192 0.299032 0.314925 -0.546431 -0.021535 0.100513 -0.200494 -0.216230 0.135189 0.165617 -0.061539 -0.158540 -0.250759 -0.210047 -0.158559 0.059423 0.091389 -0.042410 -0.135425 -0.049863 -0.620924 0.114667 0.328562 -0.149577 -0.030553 -0.460813 -0.080079 -0.347084 0.078760 0.092846 -0.130412 -0.054750 0.195503 -0.086274 0.133040 0.155687
would 0.768859 -0.127889 -0.609275 -0.352537 -0.454701 0.576569 -0.037864 -0.727875 -0.996552 0.044255 0.562545 0.433083 -0.033562 -0.316327 -0.880190 -0.194927 -0.030779 0.366097 -0.017797 -0.273149 -0.161170 0.353168 0.684502 0.317355 -0.344212 0.535671 -0.003011 0.353049 0.739146 -0.756615 -0.447290 -0.220992 -0.353968 0.030489 0.194698 -0.588366 0.046498 -0.501059 -0.395191 -0.275842 0.707743 0.188479 -0.098107 0.266909 0.054775 0.389041 -0.109684 0.055756 -0.677110 0.283925
rings -0.601404 -0.121929 0.959459 -0.245806 -0.087134 -0.288292 -0.390645 0.650328 0.426283 -0.358940 -0.433268 -0.374456 -0.614779 0.235434 0.330897 0.490435 0.115000 -0.369603 -0.135553 0.036371 -0.229424 -0.341912 -0.509372 -0.112031 -0.456344 -0.168034 -0.313973 -0.580576 -0.109037 0.797381 0.297756 0.103185 0.254004 -0.198204 -0.522836 -0.069721 0.644343 0.244181 0.307327 0.413086 -0.176306 -0.138393 -0.185045 0.193135 0.122424 -0.284915 0.390217 0.119514 -0.272958 -0.076667
alexa 0.424254 0.437371 -0.168026 -0.093662 -0.245907 0.112287 0.444978 -0.358950 0.169139 -0.139406 0.073138 0.025446 -0.091047 -0.211962 -0.251887 0.032584 0.138922 0.032175 0.236145 -0.373247 -0.001517 -0.052238 0.291240 -0.106393 -0.457217 0.087428 -0.079592 0.149958 0.287192 -0.084244 0.151956 -0.264572 -0.305695 0.219489 -0.098507 0.065075 0.086111 -0.097993 -0.019627 -0.182745 -0.103564 0.106029 -0.003028 0.165181 0.202162 0.133968 -0.155628 0.083582 -0.651040 0.249906
start -0.057444 0.002674 0.248972 0.185153 -0.106765 0.218034 -0.302414 -0.111098 0.104630 -0.824454 0.150391 -0.346760 -0.454206 0.078600 0.570086 0.074648 0.097366 -0.150884 -0.037167 0.350375 -0.408565 -0.389277 0.134153 0.315926 -0.124092 -0.061431 -0.605346 -0.058126 -0.040063 0.040375 -0.116458 0.073420 -0.070861 -0.064782 -0.481330 -0.224685 -0.114028 0.105001 0.081144 -0.556509 -0.288073 0.055295 -0.075871 0.015289 -0.060141 -0.461069 0.241606 0.020205 -0.017732 0.247624
switch -0.230017 0.122236 0.027511 0.186993 0.259856 0.399776 -0.413850 -0.257352 0.162434 -0.383071 0.120529 -0.319309 0.056547 -0.020072 0.285484 0.416066 -0.387150 0.066237 -0.079860 -0.087387 -0.282839 -0.129618 0.345728 0.425598 -0.017824 0.215811 -0.313679 -0.211301 -0.168830 0.219185 -0.204252 0.190779 0.113483 0.178516 -0.015253 -0.209439 -0.353051 -0.052702 -0.189533 -0.502934 -0.427618 -0.481114 0.028769 0.248927 0.000678 0.033493 0.620909 -0.068748 0.403800 -0.118367
timer 0.023213 0.374946 -0.262376 0.130502 -0.141814 -0.175797 0.490887 0.223680 0.143788 0.578002 -0.128507 0.091962 0.085795 0.195964 0.053764 0.019346 0.195146 0.157604 -0.169808 -0.332531 0.294489 -0.258114 -0.150413 -0.283985 -0.461261 -0.281470 0.081845 -0.167056 0.020045 0.220028 0.109076 -0.206549 -0.230874 0.047831 0.221570 0.191799 0.165091 0.048090 -0.002902 -0.072605 -0.483023 0.047827 0.056951 -0.114386 0.059923 0.170968 -0.387480 0.037129 -0.053769 -0.204614
disable -0.012605 -0.095171 0.013741 0.013963 0.188451 0.172849 -0.303770 0.111931 0.322408 -0.125771 0.106218 0.112251 -0.129513 -0.109875 0.118665 0.005150 0.033669 -0.321155 0.023138 -0.172037 0.091586 0.182497 0.053471 0.238295 0.314425 0.382133 -0.058983 -0.150188 0.148806 -0.078322 -0.127247 0.238800 -0.051149 0.028751 -0.107775 0.244868 -0.317915 0.015133 -0.171520 0.019132 0.255312 -0.247020 0.289900 -0.023453 -0.079411 0.337898 -0.183638 -0.170795 0.249333 0.033524
more 0.764651 -0.516148 0.277863 -0.082961 -0.017234 -0.395945 -0.154975 0.383199 -0.392908 0.314009 0.262387 0.322229 -0.270881 0.218625 0.487599 -0.151095 0.262852 -0.111933 -0.052759 0.507197 -0.012924 -0.201150 -0.106254 0.349141 0.073919 -0.567642 0.380271 0.043804 0.075798 -0.150886 -0.368194 -0.069847 0.182036 -0.669303 -0.432883 -0.397514 -0.346113 -0.113088 0.196743 -0.027946 0.487947 0.155964 0.338748 -0.246412 0.173574 0.049694 -0.457555 -0.025295 -0.074251 -0.183690
i'd 1.146423 0.052121 -0.021626 -0.554782 -0.031406 0.724741 0.127689 -0.778058 -0.911323 0.089114 0.490999 0.497351 -0.088876 -0.408448 -0.617088 -0.133880 0.087286 0.401347 -0.113461 -0.224634 -0.142379 0.664481 0.438254 0.478124 -0.516673 0.408790 0.400219 0.413169 0.621362 -0.368532 -0.639679 -0.129855 -0.175029 -0.227430 0.054408 -1.038562 -0.370200 -0.492578 -0.076744 -0.200512 0.678119 -0.178889 -0.063175 0.086803 0.398563 0.616715 -0.333046 -0.175520 -0.532678 -0.097943
google 1.040869 0.501680 -0.264042 -0.080400 -0.491490 0.218068 0.746433 -0.443354 0.097769 -0.187186 0.205930 0.057224 -0.131555 -0.310606 -0.052485 -0.080842 0.282492 -0.010485 0.462752 -0.327070 -0.145726 -0.156627 0.437039 -0.064404 -0.505493 -0.127269 -0.061143 0.286568 0.385427 -0.280128 0.080808 -0.499771 -0.443807 0.248981 -0.410834 0.003147 -0.015039 -0.332928 -0.078378 -0.345687 0.020500 0.247032 0.194750 0.184371 0.332522 0.309842 -0.347565 0.086810 -0.892851 0.352264
erase -0.289475 0.218613 -0.288276 0.033634 0.337984 0.372263 -0.261957 -0.263547 0.333504 -0.055299 0.119029 -0.003571 0.220719 -0.267055 -0.235888 -0.203052 -0.142152 -0.290453 0.218014 -0.378787 0.165061 0.315549 0.386623 0.206648 0.556585 0.542609 0.122465 0.090450 0.152360 -0.196798 -0.136525 0.084308 -0.118537 0.475878 0.299657 0.294578 -0.578200 -0.060504 -0.309860 -0.090275 0.096196 -0.258908 0.107899 -0.044666 -0.146457 0.357297 0.001158 -0.193330 0.224183 0.231248
siri 0.482333 0.319644 -0.096562 -0.101144 -0.319648 0.075898 0.417327 -0.301444 0.014868 -0.028766 0.075116 0.109644 -0.019300 -0.229895 -0.273988 0.110194 0.097929 0.182409 0.244544 -0.206335 -0.059946 -0.065053 0.205326 -0.123109 -0.510304 0.011788 -0.063636 0.124094 0.265907 -0.092094 0.167947 -0.299854 -0.265138 0.171668 -0.056385 -0.109101 0.206656 -0.182621 -0.056950 -0.102590 -0.121912 0.155942 0.013574 0.249360 0.193413 0.066714 -0.048526 0.134650 -0.684164 0.136700
when -0.343500 -0.149589 -0.299330 0.144696 0.076034 0.529231 -0.336592 -0.273741 -0.356525 0.406576 0.440254 0.416040 -0.137536 -0.095608 -0.225560 0.126605 0.545966 -0.224589 -0.127400 -0.706228 0.130236 0.568768 -0.285508 0.316126 -0.008285 0.219654 0.195848 -0.045652 0.288397 0.223208 -0.268238 0.190570 0.281989 -0.325973 0.039175 0.468855 -0.364893 -0.195953 0.082429 -0.279462 0.059092 -0.468515 0.253477 -0.086642 -0.035605 0.165578 -0.202385 0.126660 0.190382 0.095501
who 0.237295 -0.196718 -0.292195 -0.152022 -0.030048 0.278771 -0.092335 -0.068464 -0.640136 0.338608 0.562538 0.378448 -0.191031 0.004604 -0.300206 -0.199010 0.437017 -0.269729 -0.152139 -0.592556 0.110920 0.263629 0.178228 0.271779 -0.261145 0.138329 0.263145 0.126277 0.529866 -0.122147 -0.484577 0.053052 0.059696 -0.355814 0.038750 0.107635 -0.138411 -0.126670 0.321429 -0.097802 0.688694 -0.078944 0.155513 -0.075700 0.102936 0.403056 -0.356267 -0.063831 -0.175835 0.007310
add 0.139147 0.121643 0.321087 -0.123871 -0.266925 -0.277474 0.466311 0.122641 0.528921 0.197802 -0.412774 0.202608 -0.101423 -0.008231 -0.068256 -0.066704 0.005814 -0.187215 0.178768 -0.219557 0.121397 -0.360665 0.280041 -0.626756 -0.411227 -0.106882 -0.065156 -0.089682 0.176973 -0.074113 0.229459 -0.399263 -0.543214 0.550077 0.159485 -0.052341 0.322407 0.128684 -0.126301 0.149502 -0.175808 0.216581 0.003126 -0.029309 -0.140452 0.113726 -0.395565 -0.446071 -0.728655 -0.229622
that's -0.121750 0.118270 -0.128003 0.084424 -0.294082 -0.007201 0.237912 -0.187107 0.247748 0.073316 -0.224167 0.000756 -0.028065 0.170970 0.231200 0.424275 0.084503 0.290729 -0.122702 -0.107304 0.276291 -0.139283 -0.027985 -0.143009 -0.194170 0.023525 -0.436157 -0.403231 -0.220553 0.197815 0.267539 -0.011820 -0.531222 0.037681 -0.060541 -0.034121 0.405992 0.072848 -0.149960 -0.324804 -0.754928 -0.280651 0.221204 0.001913 -0.058107 0.074434 -0.009241 0.137901 -0.191906 -0.317713
another 0.436519 0.225010 0.017574 -0.008808 -0.003451 -0.474980 0.738070 0.383635 0.665432 0.424899 -0.307323 0.267829 0.124812 -0.090979 0.348539 -0.047721 -0.058650 0.166046 -0.095030 0.067544 0.337337 -0.215370 -0.252205 -0.416127 -0.296761 -0.081984 -0.087098 -0.242130 -0.257222 -0.119647 0.189547 0.058165 -0.530539 0.260520 -0.005083 0.239900 0.224009 0.138419 -0.056776 0.202474 -0.360008 0.087992 0.174854 -0.336404 0.182631 0.606240 -0.654789 -0.199139 0.134071 -0.478166
let -0.207854 -0.785456 0.083090 -0.082135 0.121182 0.163770 -0.782485 -0.267077 -0.477330 0.124948 0.420643 0.622295 0.115278 -0.292656 -0.616015 -0.428822 0.265024 -0.422774 0.209857 0.289166 0.014872 0.663704 0.133362 0.298658 0.810449 0.316677 0.272360 0.344416 0.234976 -0.588704 -0.435823 0.094002 0.216724 -0.205244 0.124897 -0.323961 -0.720824 -0.160940 -0.220867 0.136405 0.799281 -0.024480 0.203573 -0.281031 -0.365346 0.058971 -0.441831 -0.039393 -0.103524 0.330168
level 0.673939 0.331305 1.042841 -0.029564 0.096086 0.102556 0.738310 0.327764 0.295256 0.811790 -0.377553 0.201900 0.241925 0.042217 0.771118 -0.062973 0.521983 0.064918 -0.121504 -0.291588 -0.102396 -0.653313 -0.262065 -0.009551 -0.544323 -0.553975 0.576713 -0.282997 0.009582 -0.336837 -0.404914 -0.396917 -0.440773 0.452358 -0.001923 -0.852868 -0.112945 -0.405739 0.166516 0.216973 -0.392952 -0.548103 -0.010409 -0.244870 -0.063073 0.243075 -0.534667 -0.611802 -0.051942 -0.821724
going 0.560650 -0.169399 0.295001 -0.240108 0.136675 0.238445 -0.027225 -0.222029 -0.241906 0.136906 0.020780 0.028475 -0.049012 0.131510 0.106029 0.095536 0.015310 -0.196823 -0.071129 -0.065949 0.140840 0.197453 0.236297 0.190441 -0.308213 -0.148426 0.488800 0.081025 -0.023826 0.304305 -0.297432 -0.049101 0.135728 -0.437246 -0.062768 -0.481008 -0.124779 -0.058319 0.241103 -0.084176 0.326732 -0.442924 0.103738 0.053340 0.131740 0.196834 -0.165151 -0.150667 -0.122574 -0.495082
also 0.107365 0.183222 -0.060250 0.450907 -0.167096 -0.583628 0.282165 0.749133 0.754607 -0.567166 -0.088414 -0.483917 -0.278087 0.377809 1.087449 0.147974 -0.204872 -0.039105 -0.176091 0.489628 -0.173031 -0.939782 -0.206364 -0.232300 -0.205936 -0.395700 -0.849636 -0.287315 -0.265697 -0.118165 0.379950 0.168608 -0.221581 0.078484 -0.464387 0.244188 0.232770 0.639798 0.041988 -0.275619 -0.500665 0.347199 0.059772 -0.097971 -0.048380 -0.347500 0.008035 0.100567 0.446372 0.070038
give -0.438657 -0.956637 0.164797 -0.107508 -0.397465 -0.367927 -0.629773 0.043227 -0.402814 0.346729 0.046879 0.657234 0.027603 0.025397 -0.751794 -0.249365 0.249156 -0.139320 0.141893 0.261547 0.189308 0.213304 0.037138 -0.340735 0.527703 0.029563 -0.061197 0.010723 0.207733 -0.332928 0.018599 -0.085554 -0.082347 -0.087649 0.308125 -0.205351 0.008391 0.166553 -0.297689 0.174010 0.404592 0.266437 0.226585 -0.208249 -0.585257 -0.315051 -0.375135 0.077864 -0.595990 0.060831
must 0.572070 -0.578049 0.363436 -0.312048 0.081609 -0.078481 -0.310573 -0.118484 -0.450484 0.050712 0.039319 0.400040 -0.073950 -0.296875 -0.169370 -0.208237 -0.173774 0.015197 0.164156 0.486189 -0.138395 0.398948 0.139944 0.370085 0.401784 -0.099673 0.362745 0.250675 0.072692 -0.295529 -0.313471 -0.096615 0.087305 -0.299710 -0.297389 -0.450055 -0.482699 -0.272984 -0.171361 0.305860 0.632710 0.187189 0.099951 0.024898 0.222311 0.035930 -0.219488 -0.090975 -0.418187 0.017379
no 0.292696 -0.270954 -0.234568 0.026231 -0.022687 0.036996 -0.141502 0.163375 -0.356543 0.023686 0.336728 0.010598 -0.168806 0.165676 0.275395 -0.393730 0.244569 -0.570521 -0.030894 0.002296 -0.044872 -0.043132 0.273564 0.282018 0.144548 -0.301798 0.279919 0.199152 0.209881 -0.260452 -0.364471 -0.082154 0.153897 -0.222796 -0.208650 0.127297 -0.330561 -0.025331 0.138974 -0.223689 0.697679 0.185095 0.118275 -0.179849 0.017794 0.036942 -0.305906 -0.178199 0.119188 0.243334
freeway -0.125279 -0.036081 -0.894012 0.142150 -0.021587 -0.074850 0.179679 0.254767 -0.515612 0.903772 0.482647 0.266814 0.266160 0.199693 -0.079827 -0.072196 0.419748 0.092213 -0.182575 -0.667087 0.372937 0.223783 -0.161311 0.035090 0.277653 -0.116263 0.373017 0.018980 0.199431 -0.012295 -0.018434 0.185571 0.297678 -0.372755 0.286748 0.798564 -0.197888 -0.051564 0.369240 -0.084251 0.250129 -0.114139 0.396035 -0.171046 0.047802 0.398055 -0.041484 0.181904 0.615114 -0.066744
other -0.043320 0.508249 -0.517303 0.193417 0.546285 0.089065 0.086419 0.314804 0.607576 0.024427 0.280377 -0.015311 0.255749 -0.076880 0.268376 -0.478613 0.114316 -0.456812 0.095093 -0.612847 0.271510 0.034547 0.128356 0.299874 0.459330 0.215292 0.272464 0.020865 0.175208 -0.304186 -0.213423 0.324380 -0.125753 0.376190 0.058305 0.694764 -0.805523 0.010874 -0.025945 -0.151384 0.197606 -0.247103 0.272249 -0.255517 0.139718 0.725279 -0.383198 -0.207784 0.760311 0.246657
ringer -0.034236 0.032195 0.159646 -0.079470 0.073352 0.053933 0.110475 -0.047780 0.119933 0.113443 -0.169319 0.097192 -0.003989 -0.023737 -0.010978 -0.015291 -0.087488 -0.028434 0.027094 -0.073848 0.084083 0.066447 0.104779 -0.125996 0.023032 0.020466 0.106925 -0.005781 -0.009285 0.085652 -0.012960 -0.126155 -0.116017 0.141194 0.131915 -0.042792 -0.028746 0.001907 0.006768 0.095279 -0.059048 0.004025 0.018951 -0.021441 -0.057928 0.077366 -0.086310 -0.289880 -0.078068 -0.201187
bit 0.137485 -0.556922 0.293680 -0.008142 -0.128483 -0.140399 -0.105776 0.282689 -0.367668 0.507505 0.049803 0.379557 -0.216318 0.390802 0.354120 -0.442682 0.677212 -0.564887 -0.121467 0.124476 0.190183 -0.164353 -0.019796 -0.076037 0.203265 -0.598344 0.487881 0.057836 0.169789 -0.154993 -0.341717 -0.259989 -0.040811 -0.364940 -0.026584 -0.173545 -0.210150 0.061850 0.260480 -0.056803 0.415833 0.079236 0.277927 -0.475484 -0.207538 -0.058408 -0.747310 -0.425186 -0.149812 -0.165369
made 0.873387 0.112364 -0.858395 -0.049016 -0.477676 0.295201 0.344955 -0.296587 -0.878594 0.169891 0.454877 0.018830 0.093712 0.174375 -0.086190 -0.403803 0.139565 -0.260678 -0.016731 -0.201495 -0.097197 -0.063638 0.545678 0.104045 -0.394291 -0.497572 0.343989 0.491307 0.332108 -0.483828 -0.198335 -0.487349 -0.037950 -0.177272 -0.083296 -0.008215 0.187403 -0.427697 -0.159378 -0.418802 0.707285 0.333790 -0.058688 0.243399 0.086734 -0.023773 -0.158678 0.025894 -0.388217 0.400062
only 0.105193 0.305416 -0.602651 0.091504 0.128359 -0.122206 0.291448 -0.055934 0.024418 0.027453 0.092989 -0.094341 0.249341 -0.055769 -0.048136 -0.245036 -0.042245 0.097809 0.093464 -0.025738 0.162493 0.045939 0.090232 0.040436 0.304150 0.095836 0.087994 0.154017 0.020959 -0.172262 0.097224 0.118390 -0.045443 -0.061942 0.087704 0.403769 -0.223146 0.009179 0.056412 -0.158528 0.032353 0.080982 0.087329 -0.128340 0.074961 0.232939 -0.055572 0.191283 0.296353 0.242352
did 0.598796 0.094429 -0.852940 -0.045352 -0.254738 0.557206 0.203570 -0.466778 -0.914896 0.221637 0.609808 0.161636 0.066846 -0.045550 -0.351382 -0.264098 0.261372 -0.159241 -0.005804 -0.411116 -0.111352 0.259638 0.378338 0.273216 -0.313951 -0.073443 0.339909 0.439478 0.459111 -0.340560 -0.260890 -0.300588 0.134067 -0.191649 0.058599 0.217485 -0.052748 -0.431317 0.028830 -0.314966 0.687986 0.201627 -0.024951 0.194923 0.150672 0.063434 -0.193600 0.074760 -0.182685 0.432361
again -0.085743 -0.341970 -0.028109 0.302188 -0.171572 -0.456126 -0.151012 0.590371 0.408445 -0.139870 -0.033517 -0.012174 -0.163545 0.297833 0.603743 -0.114295 0.027041 -0.185580 -0.144488 0.379803 0.059378 -0.474891 -0.126478 -0.116105 0.228479 -0.207368 -0.494732 -0.262741 -0.115821 -0.299124 0.109797 0.151060 -0.217736 0.015327 -0.219991 0.195195 -0.056290 0.455216 -0.140794 -0.158246 -0.132057 0.191203 0.179999 -0.271847 -0.269889 -0.216433 -0.320506 0.003227 0.299989 -0.000249
enable 0.221654 -0.053331 0.090290 -0.142648 0.037735 0.351142 -0.148574 -0.310164 -0.281963 0.203828 0.212578 0.275068 0.028884 -0.158883 -0.218091 0.045131 0.122514 -0.017248 0.021175 -0.288992 -0.025698 0.207629 0.229237 0.331803 -0.047436 0.183192 0.220262 0.028655 0.259802 -0.160760 -0.335726 -0.030646 -0.075749 0.007020 0.078902 -0.339124 -0.268066 -0.359376 -0.064923 -0.059023 0.227781 -0.315472 0.089819 0.100342 -0.011951 0.243656 -0.084141 -0.138750 -0.220315 -0.135909
scheduled -0.060714 0.259064 -0.515378 0.048110 -0.425092 0.081047 0.392469 -0.282441 -0.011853 0.118777 -0.138440 0.010143 0.066197 0.136462 -0.096323 0.075846 0.166981 0.078251 -0.106336 -0.179033 0.256755 0.010803 0.080734 -0.400313 -0.282858 -0.104212 -0.195228 -0.103621 -0.095719 0.074400 0.266126 -0.145445 -0.428743 0.045330 0.122209 0.189382 0.661162 -0.032481 -0.156094 -0.217692 -0.381147 0.027186 0.063201 0.041463 -0.115655 0.081512 -0.164311 0.096566 -0.257012 -0.097888
sleep 0.378615 -0.742953 0.475490 -0.206934 -0.108012 -0.114523 -0.463503 -0.122627 -0.491630 0.391509 0.112215 0.640921 -0.042666 -0.025478 -0.229380 -0.093475 0.336598 -0.070885 0.113878 0.488544 0.003443 0.197762 -0.026461 0.235982 0.204580 -0.108629 0.359641 0.079521 0.113599 -0.407419 -0.386383 -0.168482 -0.003358 -0.389561 -0.162428 -0.795342 -0.257691 -0.293244 -0.179933 0.181842 0.457020 -0.027793 0.218954 -0.115653 -0.144545 -0.032314 -0.465465 0.007711 -0.489811 -0.219858
ringing -0.099240 0.416067 -0.235238 0.154046 0.287024 0.306827 0.154588 0.107316 0.197510 0.197053 0.418686 0.009485 0.099805 -0.191672 0.288192 -0.068612 0.262839 -0.326277 0.091846 -0.773173 0.001629 0.034921 0.203108 0.370076 0.109514 0.118463 0.119068 -0.061760 0.308957 -0.002698 -0.273311 0.204601 0.053595 0.226826 0.119131 0.461560 -0.746558 -0.223620 0.147940 -0.287063 -0.035709 -0.361710 0.397905 -0.115970 0.186795 0.597445 -0.115058 -0.264177 0.464931 0.068176
already 1.000332 -0.103461 -0.427455 -0.152449 -0.558509 0.128008 0.214089 -0.287294 -0.954782 0.044758 0.427762 0.084938 -0.019936 0.161052 -0.045025 -0.385172 0.228439 -0.307328 0.062312 0.075077 -0.233926 -0.147634 0.564711 0.113478 -0.407724 -0.616089 0.322267 0.516064 0.350730 -0.492374 -0.237476 -0.549822 -0.019293 -0.269229 -0.243533 -0.417777 0.152557 -0.480661 -0.136227 -0.415260 0.772519 0.377417 -0.027131 0.253746 0.067050 -0.129856 -0.110540 -0.014350 -0.681952 0.334414
know 0.866665 -0.148783 -0.051275 -0.207148 0.093173 0.347288 -0.018263 -0.416722 -0.976470 0.206505 0.511337 0.339587 0.168436 -0.329335 -0.239713 -0.267029 -0.001904 0.209817 0.132283 0.231508 -0.311855 0.332507 0.227991 0.569309 0.011020 -0.134866 0.531611 0.503874 0.232803 -0.388928 -0.500026 -0.143716 0.331591 -0.389215 -0.041524 -0.572689 -0.567976 -0.529939 0.095963 -0.000542 0.625658 0.039246 0.014820 0.110147 0.302984 0.038784 -0.002041 0.032411 -0.192250 0.068036
awake 0.557676 -0.302096 0.371922 -0.300617 0.159949 -0.164824 -0.234352 -0.246268 -0.595441 -0.050610 -0.041947 0.306169 0.108650 -0.222910 -0.491655 0.158954 -0.373435 0.717060 0.031740 0.795146 -0.180629 0.452836 -0.385342 0.347059 -0.017807 -0.019373 0.277158 0.170025 -0.215067 0.014958 -0.188664 0.068453 0.322165 -0.677363 -0.206326 -0.800159 -0.156513 -0.184165 -0.137543 0.488827 0.265080 0.107926 -0.096659 0.224931 0.430604 -0.241839 0.046526 0.488217 -0.371441 -0.226116
clock 0.457734 0.446233 -0.113286 -0.004233 0.423421 0.561185 0.223829 -0.408606 -0.433078 0.149445 0.551781 0.166067 0.207500 -0.385099 -0.302924 0.094653 0.098716 0.327911 0.018306 -0.565107 -0.171045 0.412072 0.030879 0.500397 -0.577792 0.289662 0.401479 0.309237 0.269158 0.147994 -0.443118 0.122930 0.349774 -0.029915 0.193592 -0.236460 -0.571778 -0.296313 0.263637 -0.096377 -0.021416 -0.302198 -0.086315 0.147551 0.487347 0.440797 0.113070 0.023422 0.203822 -0.058487
deactivated 0.635144 0.032905 -0.060540 -0.091038 -0.067686 0.062669 0.175749 -0.020457 -0.069493 -0.103663 -0.131554 -0.024337 -0.253366 0.149817 0.368295 -0.116922 0.204076 -0.055294 -0.137021 0.115587 0.028775 0.000764 0.025125 0.340624 -0.130538 -0.188660 0.318229 -0.018704 0.070682 -0.175278 -0.233654 -0.014792 -0.169625 -0.339237 -0.503033 -0.086350 -0.041983 -0.220793 -0.046526 -0.098470 0.254881 -0.021392 0.058981 -0.043111 0.229387 0.255603 -0.446071 0.079930 -0.004563 -0.004685
rest 1.138109 -0.123070 -0.023538 -0.131051 -0.326118 0.059203 0.369222 -0.183204 -0.896910 0.588164 0.425774 0.557943 -0.020961 0.044042 0.100790 -0.006008 0.349220 0.402622 -0.024547 0.092498 -0.094402 -0.106484 0.149585 0.290488 -0.547846 -0.438750 0.357647 0.132835 0.253295 -0.317268 -0.393518 -0.274045 -0.165868 -0.495913 -0.150114 -0.750444 -0.088339 -0.528103 0.083642 -0.223270 0.184740 0.044002 0.253039 0.067263 0.253455 0.202623 -0.288821 0.038505 -0.456283 -0.406673
roads -0.358969 0.062691 -1.016555 0.275569 0.079083 0.082997 0.088350 0.262943 -0.419205 0.534311 0.498623 -0.029943 0.244452 0.364154 0.010028 -0.454448 0.519901 -0.359703 -0.196311 -0.751730 0.342198 -0.005825 0.100611 0.084482 0.355817 -0.049589 0.423273 0.126190 0.253262 -0.078337 -0.218685 0.109792 0.287789 -0.105224 0.441173 0.927661 -0.228771 0.114700 0.359701 -0.334052 0.391829 -0.047960 0.172214 -0.309598 -0.131426 0.212637 -0.174224 0.005332 0.826661 0.220611
than 0.177234 0.252354 0.061889 0.105729 0.611402 -0.196944 0.021655 0.589001 0.317751 0.082200 0.205517 0.124486 0.005402 0.040920 0.333377 -0.411824 0.282212 -0.274054 -0.045837 -0.233459 0.211436 0.078248 -0.545893 0.366767 0.207724 -0.224992 0.501300 -0.077902 0.069669 0.073802 -0.201802 0.456613 0.097069 -0.236350 -0.311213 0.320457 -0.725298 0.047022 0.207333 0.147233 0.250821 -0.203247 0.262192 -0.303367 0.444943 0.553597 -0.633952 0.047870 0.604637 0.143418
bad -0.126804 -0.197026 -0.553699 0.100190 -0.068776 -0.229258 0.079259 0.373334 -0.265914 0.519211 0.212310 0.108972 0.000709 0.438256 0.098005 -0.175018 0.449812 -0.281699 -0.167177 -0.247599 0.450814 0.119687 -0.142945 -0.189040 0.226479 -0.354783 0.303283 0.032345 0.068195 0.121014 0.119528 0.069110 0.189727 -0.476365 0.014664 0.660640 0.046819 0.309711 0.437502 -0.031011 0.369175 0.064917 0.305207 -0.242878 -0.055550 0.047536 -0.289305 0.081118 0.278792 -0.008337
current -0.075897 0.287210 -0.262457 0.206347 0.140391 0.215541 0.140621 -0.105577 -0.047759 0.202507 0.286487 0.075495 0.093600 -0.150914 0.052099 -0.086947 0.209529 0.130916 -0.067472 -0.302515 0.068142 0.152613 -0.124003 0.232451 0.059676 0.115441 0.013134 0.001610 0.082350 0.043819 -0.153717 0.096101 -0.012247 -0.000706 0.124421 0.209747 -0.385517 -0.102735 0.053115 -0.255696 -0.218813 -0.180317 0.157418 -0.149041 0.085227 0.237043 -0.124438 0.072379 0.337440 0.043553
excluding 0.062121 -0.451040 0.427229 -0.067363 0.188932 -0.739253 -0.074267 0.640356 0.394374 -0.213148 -0.292057 -0.150152 -0.295827 0.255619 0.441124 -0.064615 -0.111729 -0.348387 -0.101792 0.590290 0.253206 -0.072532 -0.330673 -0.246748 0.373150 -0.329682 -0.000314 -0.094073 -0.317981 0.253208 0.294096 0.107917 0.088199 -0.637101 -0.476154 0.201224 0.195108 0.628058 0.457115 0.467752 0.434056 0.189816 0.176608 -0.313127 0.022375 -0.203936 -0.287013 0.093881 0.147856 -0.268434
now 0.024347 -0.149178 0.226304 -0.022779 0.066363 -0.147329 0.006107 0.131202 0.072038 -0.096493 0.081710 0.030980 -0.179164 0.023962 0.187340 -0.056025 0.103677 -0.242517 -0.028930 0.029163 0.025139 -0.096831 0.003704 0.003886 -0.025283 -0.194977 -0.078742 0.013023 -0.006833 0.047368 -0.046592 0.026439 -0.064287 -0.130763 -0.178603 -0.043951 -0.104298 0.173387 0.240299 -0.008199 0.081451 0.022813 0.041178 -0.152385 0.038212 -0.068175 -0.124133 -0.023881 -0.092766 -0.017088
push 0.092995 0.427073 -0.267782 0.049596 0.371154 0.525147 0.009462 -0.044726 -0.243412 0.277953 0.509797 0.103707 0.028339 -0.263073 -0.093758 0.046514 0.230982 0.013075 -0.181695 -0.910392 -0.029995 0.310286 -0.121951 0.597372 -0.358976 0.187400 0.445042 -0.023487 0.383578 0.185000 -0.488848 0.260985 0.374072 -0.131964 0.123368 0.309918 -0.623046 -0.296434 0.232707 -0.119166 0.041727 -0.415796 0.058027 0.023945 0.434499 0.505768 -0.056912 0.096670 0.356527 0.180510
titled 0.123366 0.147044 0.018681 -0.094341 -0.427317 -0.018763 0.424634 -0.411582 0.408904 0.252585 -0.353465 0.289898 0.142580 -0.116252 0.050942 0.268287 0.315562 0.100874 0.186675 0.060168 0.430147 0.273911 -0.075486 -0.282596 0.213760 0.037721 -0.152893 -0.263301 -0.195393 -0.038720 0.436550 -0.077827 -0.777965 0.151632 -0.254782 0.001421 0.376762 -0.295288 -0.388683 -0.140960 -0.557031 -0.358595 0.520443 -0.037868 -0.109762 0.417367 -0.337813 0.048950 -0.453719 -0.320894
until -0.251659 -0.280817 0.549980 -0.126610 0.479849 -0.451642 -0.440670 0.745754 0.239396 0.022061 -0.160995 -0.194702 -0.205949 0.251847 0.108767 0.167425 -0.144047 -0.213735 -0.227315 0.164770 0.163460 0.087384 -0.625801 -0.033300 -0.015697 -0.255330 0.334495 -0.180232 -0.225527 0.786604 0.046042 0.325568 0.724584 -0.608114 -0.153018 0.152194 -0.078950 0.492816 0.489770 0.548997 0.279709 -0.106455 -0.050899 -0.124261 0.231829 -0.160544 -0.012438 0.209793 0.306400 -0.146937
good -0.138313 -0.182801 -0.426699 0.080899 0.035501 -0.188615 0.031244 0.394738 -0.234064 0.654666 0.270074 0.172644 -0.067806 0.453117 0.154579 -0.191851 0.586577 -0.392002 -0.183106 -0.408477 0.502401 0.155638 -0.192241 -0.102222 0.144649 -0.326838 0.419132 -0.017138 0.101585 0.219477 -0.027365 0.125766 0.225762 -0.496818 -0.020995 0.636348 -0.115901 0.287117 0.521894 -0.040659 0.403892 -0.067685 0.326108 -0.331947 -0.017525 0.180526 -0.451222 0.031579 0.297603 -0.085472
list -0.288790 0.435073 -0.154513 0.115857 0.423993 0.581630 -0.112551 -0.276714 0.177143 -0.105349 0.249416 -0.146885 0.135346 -0.278262 -0.088648 -0.357834 -0.048769 -0.363488 0.156603 -0.473161 -0.066324 0.229846 0.296954 0.276430 0.312955 0.330786 0.301812 0.287731 0.199050 -0.137768 -0.336649 0.040596 0.111617 0.586594 0.340738 0.297485 -0.716150 -0.124250 -0.047558 -0.207407 0.090676 -0.165068 -0.127347 -0.139974 -0.039925 0.206989 -0.046660 -0.360902 0.268786 0.445783
shut -0.078401 -0.171870 0.365569 -0.001226 0.202563 0.348884 -0.594029 0.014896 0.347649 -0.113130 -0.131932 -0.241952 0.003460 0.137709 0.481616 0.435490 -0.155400 -0.509517 -0.043796 -0.188430 -0.181938 -0.021002 0.321596 0.283686 0.065790 -0.033211 0.145919 -0.304047 -0.159720 0.309737 -0.274670 0.056260 0.260267 0.042483 -0.140279 -0.218837 -0.255461 -0.119408 -0.282492 -0.253379 -0.008629 -0.572718 0.219538 0.291486 -0.100428 0.100859 0.310619 -0.304357 0.284338 -0.237240
those 0.098001 0.380363 -0.367092 0.305676 0.114642 0.073683 0.139046 0.183764 0.597262 -0.433868 0.101042 -0.392673 -0.128639 0.162392 0.642993 -0.039723 -0.026183 -0.405889 -0.030292 -0.090712 0.006288 -0.264971 0.168090 0.064622 0.004011 0.083040 -0.282909 -0.055140 -0.059259 -0.035926 0.069763 0.211364 -0.059662 0.122591 -0.205748 0.504582 -0.201482 0.291082 0.009462 -0.390242 -0.068557 -0.134365 0.164600 -0.084638 0.011348 0.192140 -0.063267 -0.148411 0.569403 0.220879
as 0.396310 0.246768 -0.269931 0.121198 0.059414 0.259407 0.407034 0.004686 0.227154 0.084042 0.184392 -0.072225 -0.071187 0.145650 0.541796 -0.103872 0.352507 -0.477832 -0.087879 -0.384368 0.250789 0.025038 0.277103 0.270650 -0.137897 -0.087383 0.052590 0.034016 0.061644 -0.153581 -0.242032 0.076927 -0.272789 0.065802 -0.381274 0.234479 -0.308975 -0.026331 0.057237 -0.408868 0.060631 -0.305435 0.256426 -0.248241 0.101181 0.566054 -0.460966 -0.198611 0.275597 -0.093475
clear -0.270863 0.001536 -0.534101 0.100393 0.252885 -0.017800 -0.064838 0.338264 -0.251030 0.444802 0.296353 0.039896 0.040932 0.327094 -0.021364 -0.179248 0.423997 -0.241888 -0.210102 -0.525985 0.348706 0.177562 -0.183873 0.086264 0.155281 -0.123153 0.449207 0.020706 0.144774 0.276624 -0.137664 0.217679 0.388013 -0.395687 0.175253 0.638195 -0.223281 0.212325 0.451600 -0.065015 0.345728 -0.152565 0.156399 -0.232483 0.061533 0.138627 -0.222858 0.086473 0.532294 0.023874
long -0.273033 0.132176 -0.161486 0.167618 0.296287 0.580864 -0.105906 0.026168 -0.072264 0.178774 0.228689 -0.071424 -0.297167 0.169975 0.099767 -0.362374 0.618933 -0.837747 -0.249901 -0.848056 0.257442 0.295142 -0.130338 0.187614 -0.210455 -0.007951 0.573473 0.022882 0.260428 0.415872 -0.401636 0.073123 0.275455 -0.238564 -0.032201 0.668164 -0.316181 0.168160 0.467649 -0.199207 0.407038 -0.346703 0.059198 -0.233531 0.037754 0.208806 -0.525247 -0.245250 0.266031 0.141784
modify -0.094789 0.317850 -0.034096 -0.022783 0.222849 0.262432 0.179382 -0.196089 0.075057 0.021890 0.157968 0.146816 0.111121 -0.417572 -0.209060 0.025333 -0.083115 0.246218 0.076243 -0.396173 -0.057122 0.192887 0.056201 0.153727 0.005843 0.413814 -0.080573 -0.011942 0.166886 -0.052823 -0.071858 0.126582 -0.088810 0.306390 0.216955 0.132658 -0.230691 -0.228106 0.005836 0.058242 -0.171777 -0.125100 0.000072 0.052690 0.176942 0.373487 0.162907 -0.100764 0.122492 0.018115
or 0.024348 0.018510 0.068194 0.113423 -0.015157 -0.644334 0.329718 0.506940 0.598530 -0.275562 -0.384721 -0.405107 -0.172267 0.449057 0.541915 -0.183265 -0.084873 -0.330704 -0.032051 0.465504 0.297942 -0.497943 -0.079621 -0.475497 0.074378 -0.526464 -0.136400 -0.046035 -0.356009 0.127959 0.379292 -0.159127 -0.220208 -0.154953 -0.317281 0.196243 0.356386 0.720454 0.319226 0.098855 -0.053091 0.353215 -0.037698 -0.341013 -0.133378 -0.337542 -0.311086 0.013378 0.009236 -0.054821
repeat 0.429594 -0.088269 0.428232 -0.165467 -0.081776 -0.017389 0.053237 0.052157 0.011987 -0.083197 -0.121885 -0.035140 -0.253464 0.088168 0.317539 0.181867 0.125480 -0.081396 -0.037739 0.192052 -0.114085 -0.049227 -0.051266 0.098116 -0.332875 -0.282008 0.136050 -0.073587 0.006046 0.165148 0.002834 -0.054910 0.036825 -0.273103 -0.417288 -0.336439 0.160514 -0.085914 0.124331 0.023677 0.104563 -0.160263 0.037801 0.074346 0.162149 -0.020699 -0.099397 -0.007587 -0.196547 -0.216538
snowy 0.230046 -0.294733 0.228153 -0.132832 0.060760 -0.232764 0.015488 0.337699 -0.191612 0.329611 0.148356 0.214632 -0.152746 0.014118 0.189673 -0.207954 0.141232 -0.286420 -0.081855 -0.015465 0.078171 0.054499 -0.042985 0.005335 0.108217 -0.306717 0.236169 0.079561 0.109947 0.096321 -0.111604 0.000388 0.168196 -0.381335 -0.085584 0.086188 -0.193205 -0.014000 0.394942 0.176670 0.451609 0.084493 0.227660 -0.206558 0.085854 0.191022 -0.240117 -0.204021 -0.013120 -0.124237
sounds -0.226901 0.125228 -0.396818 0.075462 0.121884 0.586161 -0.158881 -0.084578 -0.313272 0.115471 0.543682 0.035812 -0.031365 -0.039197 -0.071680 -0.177337 0.521640 -0.423843 -0.155821 -0.778948 -0.016306 0.267750 0.056267 0.349454 -0.017838 0.234666 0.242920 0.061483 0.425656 0.013154 -0.376254 0.177301 0.279400 -0.007141 0.148748 0.378884 -0.374402 -0.155382 0.214848 -0.314014 0.327162 -0.301417 0.072130 -0.078401 0.001431 0.290515 -0.114846 -0.085673 0.394956 0.311775
anyway 0.011849 0.328108 0.412731 -0.093145 0.424098 -0.115026 0.424343 0.261656 0.454136 -0.089724 0.057671 0.140413 -0.128838 -0.568084 -0.032225 0.011583 -0.075916 0.027903 0.087308 -0.176720 -0.065797 0.278173 -0.502684 -0.117544 -0.095554 0.313736 -0.034782 0.031888 0.083324 0.309293 0.130362 0.348122 0.218700 0.105257 -0.020335 0.376425 -0.174095 -0.014184 0.430627 0.441414 -0.061607 0.013095 0.102013 -0.110506 0.500977 0.476072 -0.119465 -0.184222 0.199913 0.006178
busy -0.002489 0.036295 -0.440102 0.094944 0.092000 -0.089158 0.068877 0.382469 -0.281365 0.202062 0.247786 -0.103469 -0.062668 0.379790 0.167157 -0.235601 0.296577 -0.296992 -0.217716 -0.299248 0.170130 -0.060151 -0.099675 0.074409 -0.014228 -0.308974 0.363342 0.071200 0.110857 0.207554 -0.104430 0.086961 0.317033 -0.386798 -0.019252 0.515659 -0.090391 0.227390 0.411856 -0.053111 0.374168 0.053597 0.027873 -0.186155 0.124084 0.024859 -0.175309 0.104067 0.370018 0.149845
ends -0.211714 -0.114197 0.674208 0.029288 -0.259894 -0.289924 0.011597 0.470748 0.216337 -0.226626 -0.269022 -0.258380 -0.428327 0.333523 0.523501 0.146812 0.379261 -0.287409 -0.168942 0.120965 -0.197255 -0.608207 -0.304957 -0.257172 -0.488554 -0.401703 -0.314275 -0.337775 -0.069344 0.330122 0.091420 -0.093428 -0.071153 -0.105634 -0.322212 -0.217122 0.522630 0.250098 0.301005 0.051270 -0.213025 0.061155 -0.140070 -0.062572 -0.105950 -0.404264 -0.023935 -0.054001 -0.250414 -0.218004
your 0.072535 -0.224814 0.122595 -0.051226 0.108998 -0.091837 -0.046353 0.326248 0.104907 0.264395 0.124738 0.190136 -0.131610 0.042072 0.251498 -0.133252 0.337333 -0.500576 -0.044393 -0.193914 0.160585 0.145096 -0.087436 0.057048 0.228442 -0.099217 0.259497 -0.057937 0.157881 -0.015774 -0.107249 0.150651 0.071753 -0.195621 -0.195078 0.315299 -0.268706 -0.016337 0.245269 0.091840 0.415666 -0.174527 0.322250 -0.233487 -0.005242 0.316608 -0.379520 -0.154380 0.209145 -0.090427
<NAME>#1 0.750332 0.217736 -0.161248 0.008543 -0.403408 -0.051609 0.628001 -0.035880 0.186554 0.233461 0.090006 0.237771 -0.065265 0.067646 0.654817 -0.004342 0.481098 -0.244792 -0.052906 -0.009593 0.244336 -0.283789 0.163486 -0.064793 -0.381612 -0.361176 -0.075343 -0.149473 -0.086421 -0.188416 0.010590 -0.086572 -0.612917 -0.070041 -0.333208 -0.070483 0.113106 -0.142510 0.029935 -0.535390 -0.316278 -0.177064 0.496340 -0.166659 0.080327 0.552441 -0.665663 -0.169169 -0.265296 -0.256679
before 0.184326 0.233110 -0.360423 0.188397 0.664822 0.050457 -0.114857 0.499633 0.331033 -0.189613 0.288901 -0.148685 -0.014924 0.128185 0.410468 -0.571906 0.141891 -0.745476 -0.070031 -0.373160 0.160771 0.018400 -0.059147 0.479251 0.293883 -0.079635 0.540798 0.058573 0.135013 -0.091858 -0.406352 0.345751 0.267159 -0.114230 -0.244620 0.636929 -0.858101 0.178850 0.214957 -0.097846 0.623328 -0.014322 0.101196 -0.362338 0.234512 0.442324 -0.558499 -0.050325 0.819565 0.544252
date -0.223352 0.248510 -0.406703 0.318699 0.019938 0.316874 0.142259 0.104057 -0.261197 0.365780 0.390464 -0.023986 0.217212 0.007828 0.358284 -0.099217 0.257448 0.018964 -0.108994 -0.501700 -0.146282 -0.164721 -0.057832 0.297375 0.094728 -0.169265 0.124195 -0.029428 0.164331 -0.196445 -0.195886 0.085746 0.114938 0.266935 0.140853 0.413896 -0.387393 -0.279681 0.062003 -0.325104 -0.158270 -0.164938 0.040519 -0.114603 -0.003720 0.137149 0.126628 -0.082250 0.633093 0.250879
starting -0.083136 -0.077719 0.117457 0.185208 -0.178359 -0.104972 -0.007190 0.092041 -0.095126 -0.510915 0.125377 -0.185838 -0.312695 0.097736 0.369183 0.096743 -0.014919 0.083920 -0.096891 0.323679 -0.233392 -0.309417 -0.099300 0.070563 -0.124122 -0.241596 -0.580100 -0.061526 -0.070437 0.151621 0.127041 0.083608 -0.009883 -0.197358 -0.321152 -0.049749 0.148926 0.225587 0.163154 -0.236872 -0.286630 0.213155 -0.022745 0.051092 0.047282 -0.369649 0.247517 0.155712 -0.061554 0.174454
needs 0.794000 0.153991 0.148475 -0.133940 0.225175 0.217492 0.257168 -0.359159 -0.257667 -0.196874 0.228769 0.176294 0.048252 -0.377477 0.014974 -0.017463 -0.233491 0.333007 0.122909 0.317422 -0.262157 0.272737 0.077518 0.453013 -0.238947 0.178761 0.179086 0.284337 0.020436 -0.189846 -0.353952 0.110481 0.067391 -0.135164 -0.184188 -0.502674 -0.406265 -0.366898 -0.035574 0.014320 0.160436 -0.027136 -0.026585 0.124199 0.482357 0.371730 -0.037581 -0.078911 0.024494 -0.106643
road -0.105921 0.087544 -0.796314 0.185750 -0.020050 -0.041696 0.238390 0.283449 -0.358759 0.772769 0.451985 0.223139 0.166466 0.205057 0.113837 -0.100545 0.469365 -0.078223 -0.198586 -0.720867 0.378924 0.086707 -0.087776 0.048442 0.138654 -0.136513 0.307095 -0.022971 0.258744 0.005293 -0.045867 0.187079 0.172144 -0.268843 0.209848 0.820780 -0.222972 -0.000932 0.413895 -0.154443 0.178940 -0.111300 0.356596 -0.256886 0.031184 0.427109 -0.169905 0.105975 0.585276 -0.016990
two 0.454840 0.695093 -0.357977 0.023742 0.019725 0.535046 0.557537 -0.580027 0.088446 -0.156054 0.107928 -0.063949 0.325659 -0.439568 -0.278484 -0.140338 -0.196560 0.076908 0.310903 -0.165469 -0.269053 0.035115 0.507752 -0.017219 -0.339156 0.430738 0.071563 0.329692 0.141301 -0.376956 -0.084659 -0.168765 -0.160268 0.668504 0.343301 -0.100789 -0.061749 -0.390126 -0.249700 -0.218062 -0.052621 0.054895 -0.167171 0.202169 0.084667 0.353039 0.051816 -0.247167 -0.074935 0.205524
alert -0.432191 -0.371920 0.253669 -0.005913 0.045922 -0.134833 -0.418833 0.146928 0.197617 -0.183212 -0.082237 0.032221 -0.104927 -0.055312 -0.144739 -0.106891 -0.036370 -0.242916 0.036489 0.147780 0.022963 0.091404 -0.005087 -0.106455 0.320212 0.146856 -0.160248 -0.030896 -0.025595 -0.068116 -0.015705 0.047539 0.028056 0.110064 0.028321 0.017645 -0.046141 0.199069 -0.126475 0.170414 0.160457 0.106873 -0.037288 -0.113009 -0.222963 -0.170291 -0.056622 -0.071080 -0.033606 0.119284
both 0.052561 -0.025584 -0.539583 0.167673 -0.145994 -0.397373 0.160185 0.424025 0.108093 0.210365 -0.190057 -0.026979 0.011799 0.330517 0.055278 -0.139697 -0.038545 0.215117 -0.217355 0.098578 0.356157 -0.129213 -0.167735 -0.153801 0.066279 -0.209610 0.016989 -0.160411 -0.129917 -0.024625 0.167782 0.036151 -0.101911 -0.110441 -0.059223 0.447661 0.150622 0.201723 -0.189213 0.004993 -0.110514 0.306973 0.025960 -0.204367 -0.006727 0.074518 -0.294900 0.208244 0.297672 0.070064
created 0.212906 -0.017616 -0.184127 -0.115128 -0.393397 0.106568 0.011178 -0.111553 -0.436649 0.076251 0.269978 0.074401 -0.092011 0.060329 -0.167467 0.014740 0.214282 -0.157648 0.003316 -0.210617 -0.143613 -0.078657 0.203279 0.028783 -0.380085 -0.159448 -0.035407 0.060480 0.277558 -0.089303 -0.101287 -0.187232 -0.031715 -0.101113 -0.100192 -0.071374 0.236118 -0.199509 0.032191 -0.159265 0.274048 0.112835 0.047652 0.209492 0.027718 -0.009607 0.001559 0.085170 -0.511359 0.141612
deleted 0.507448 -0.104162 -0.129115 -0.045612 0.379427 0.232163 -0.219903 -0.344601 -0.479113 -0.171842 0.300413 0.050685 0.090783 -0.216985 -0.093046 -0.314409 -0.188794 0.023117 0.036570 0.384063 -0.191094 0.431380 0.109934 0.621409 0.246805 0.059798 0.453055 0.397344 -0.048591 -0.283317 -0.561911 0.094820 0.248569 -0.372679 -0.127478 -0.278979 -0.646544 -0.229596 -0.057786 -0.010628 0.574560 0.023809 -0.067156 -0.041027 0.313699 0.064462 -0.143365 0.086138 0.136229 0.158552
