alarm -0.920118 -0.236236 0.567084 -0.533970 -0.666234 -0.495526 0.832095 -0.361671 -0.425258 -0.351487 0.082652 -0.415382 0.091464 0.650364 -0.104295 0.223091 -0.850254 1.388238 -0.208626 0.109049 0.560142 -0.457058 -0.115026 0.498320 0.121715 0.481365 0.081085 0.647597 -0.656015 -0.946628 0.720356 -0.490410 -0.941711 0.010022 -0.315799 -0.381324 -0.019292 -1.029855 1.261902 -0.024058 0.368253 -0.400166 -1.599046 0.306228 -0.072878 0.110025 0.023271 -0.402467 -0.726736 0.105246
<TIME>#0 -1.346763 -0.011643 0.789574 0.646925 -0.320513 0.167569 0.514234 -0.053419 0.046961 0.210160 0.158929 -0.797338 0.305509 -0.615852 -0.689854 -0.283010 -0.695300 0.681769 -0.783238 0.401908 0.614409 -1.305414 -0.413513 0.074566 -0.054175 0.680864 -0.045921 0.399182 -1.498310 -1.256713 0.829565 0.531286 -0.776138 -0.026052 -0.285204 -0.744225 0.461090 -0.649564 0.382092 0.220984 -0.278902 0.311644 -0.926355 0.303192 0.431009 0.221947 -0.456007 0.416685 -0.703225 -0.041846
<DAY>#0 -0.890076 -0.751547 0.929287 0.096554 0.058094 0.035450 0.297017 0.728927 0.540307 0.333211 -0.243405 0.476406 0.421302 -0.345334 -1.011075 0.372723 -0.138394 0.956168 0.241992 0.022546 -0.217575 -1.333344 -0.389183 0.454686 -0.372117 0.922007 0.235524 0.107978 -0.260663 -1.154000 1.127418 0.297267 -0.141471 0.356747 -1.140172 -0.733486 -0.318121 -0.130858 0.554280 0.596993 -0.348760 0.488461 -0.632894 0.635920 0.932407 0.958886 -0.203261 0.063069 -0.569931 0.423804
the -0.173924 -0.289166 0.547755 -1.022915 -1.059882 -0.569428 0.326592 -0.438099 -0.307616 -0.108895 -1.337863 -0.126533 0.185667 0.388204 -0.819233 1.127595 0.141988 0.279169 0.585420 0.179425 -0.081323 -0.130428 -0.313901 0.736630 0.154554 -0.088106 -0.301563 0.047758 -1.392548 -1.718618 0.661510 -0.078795 -0.327030 -0.348212 -0.044577 -1.110194 0.418221 -0.823643 -0.162156 -0.808950 -1.198863 -0.123422 -0.554123 -0.443194 -0.124341 -0.290617 -0.278173 -0.082463 -0.156356 0.881459
<TIME_SPAN>#0 -0.757884 -1.544926 0.479503 0.134256 -0.500219 -0.268808 0.084622 0.384284 0.568863 -1.012130 -0.920729 0.643344 -0.059150 0.534283 -0.504063 0.927510 -0.226353 0.790835 -0.278811 0.679011 -0.314358 -0.948083 -0.310795 0.905309 -0.516930 0.985837 0.044107 0.232991 -0.516587 -1.353935 1.201615 -0.382354 0.403297 0.023205 -0.496901 -1.028903 -0.169580 0.200712 0.400486 0.160002 -0.748709 -0.055369 -0.621340 0.920943 0.665332 0.021285 0.250189 0.145796 -0.446311 0.656426
my -1.195506 0.600622 0.596173 -0.831714 -0.206482 0.773118 -0.016434 -0.153488 0.156397 0.000093 -0.170304 -0.626458 0.806036 -0.378267 0.584551 1.193250 -0.344744 1.107634 -0.117045 0.054629 0.303912 0.229455 0.236435 0.833343 -0.593360 0.926448 0.131689 0.930006 -1.005836 -1.324261 -0.028180 0.634278 -0.108493 -0.207893 -0.940513 -0.768096 -0.211737 -0.430083 0.134593 -0.108470 -0.767791 -0.172156 -1.131839 0.416051 -0.436824 -0.029595 -0.205541 -1.125658 -0.367857 0.115081
for -0.418841 -0.600585 0.627577 -0.242592 -0.657189 -0.553174 0.856320 -0.051313 -0.118563 0.133814 0.031643 -0.355687 -0.498074 0.083382 -0.522760 0.479964 -0.371292 0.995013 -0.232482 -0.218505 -0.148113 -0.956535 -0.410760 -0.199163 0.537844 0.285009 -0.375464 0.109982 -0.898415 -0.803303 0.811167 0.501793 -1.074182 0.171054 -0.503973 -0.421093 -0.415594 -1.031550 0.878495 -0.389517 -0.348128 0.058152 -0.678112 0.543747 0.528080 0.414792 -0.122314 0.102248 -0.161748 0.118184
to -0.761307 -0.112092 0.382787 -0.649416 -0.685374 -0.082073 -0.176221 -1.270024 0.438820 0.011129 0.011503 -0.359140 0.694180 0.880422 -0.256220 0.229287 -0.425684 0.797268 0.254714 1.568051 -0.314492 0.417303 -0.014120 0.017518 -0.126610 1.425423 -0.371345 0.145073 -0.546245 -0.696047 -0.059280 -0.112603 -1.061621 0.177616 -0.265623 -1.011005 0.588699 -0.184021 0.402096 0.479328 0.403000 -0.453561 -1.370658 -0.068337 0.226368 -0.012945 -0.868608 -0.488310 -1.214405 0.177297
alarms -0.759988 0.463557 0.367747 -0.150160 0.214878 0.064411 -0.144706 0.783140 1.043253 0.497593 -0.266582 -1.360431 -0.253405 -1.105680 -0.108317 1.268193 0.035690 0.492928 -0.785727 0.458331 -0.556078 -0.344854 0.076893 -0.243009 0.066053 0.319400 -0.080408 0.048470 -0.730852 -0.640209 -0.717641 1.276823 -0.384573 -0.481145 -1.046558 -0.303434 -0.316777 -0.449220 -0.239405 0.169721 -1.373014 0.318790 0.027964 0.529042 -0.493448 0.265049 -0.577675 -0.261617 -0.106917 -0.233085
i -0.153953 -0.254880 0.388250 -0.181725 0.294124 -1.077495 -0.200237 0.578193 1.452453 -0.162176 -0.169158 -0.929594 -0.346967 0.528166 -1.352948 0.535731 -0.275982 0.678606 0.041551 0.445578 -1.010616 -0.264121 0.684588 -0.141761 0.028589 0.814978 -0.049489 0.280383 -0.235784 -0.607935 -0.209322 -0.142789 -0.684720 -0.191313 -0.398930 0.090759 0.765204 -0.519655 0.401460 0.904695 -0.233213 0.164951 -0.758210 -0.933585 0.281486 -0.411407 -1.970017 -0.043102 -0.501420 0.339511
on -0.464952 -0.840491 -0.350108 -0.482467 0.019938 -0.825581 0.552702 0.302468 -0.094034 0.201398 -0.680546 -1.016417 -0.078984 0.224983 -1.179447 0.952620 -0.286327 0.439941 -0.086238 0.701805 0.244054 -0.750127 -0.870288 0.038341 0.072402 -0.682019 0.130165 0.219028 -0.611580 -0.593018 0.380160 1.074306 -0.612325 0.108660 0.089428 0.051525 -0.085923 -0.163716 0.630020 0.092940 -0.471583 0.180664 -0.402751 -0.035950 -0.256209 0.312621 -0.150171 0.204744 -1.203928 -0.217611
at -0.952738 -0.328192 0.060534 0.710809 -0.309484 -0.258487 -0.082330 -0.605365 -0.473919 0.213155 0.348245 -0.673777 -0.125033 0.380587 -0.829405 -0.490565 -0.544358 0.242827 -0.631682 1.073656 0.161199 -0.745519 -0.537765 0.035004 0.136663 0.101691 -0.488276 0.255098 -0.992709 -0.857250 0.576257 0.155927 -0.859096 -0.064449 0.364347 -0.524683 0.137254 -0.679776 0.667443 -0.049352 0.480464 0.431502 -1.428213 0.332303 0.339027 0.575939 -0.020018 0.606963 -1.175086 -0.482357
and -0.573359 -0.798741 0.145229 0.017465 -0.126513 -0.125931 0.381305 -0.338738 -0.346967 0.340985 -0.243831 -0.349256 -0.471648 0.198529 -0.674567 0.304560 0.403589 -0.154712 -0.469711 0.367164 -0.101646 -1.341955 -0.659275 -0.063341 0.539523 -0.368997 -0.337890 0.095180 -1.335573 -0.968644 1.134835 0.685195 -1.062727 0.395341 0.154761 -0.933088 0.216463 -0.206539 0.861925 -0.316856 -0.510430 0.081926 0.445066 0.062330 0.613200 0.590592 0.138644 0.695750 -0.646316 -0.125155
set -0.189510 -0.457655 0.439980 -0.188531 -0.698916 -0.687400 0.502018 -0.285705 0.098941 0.150812 0.038057 -0.595500 -0.460643 0.399038 -0.815213 0.318185 -0.367910 0.875394 0.087647 0.267683 -0.421069 -0.306498 0.106569 -0.220106 0.666409 0.498791 -0.497992 0.000669 -0.645626 -0.567404 0.266415 0.247664 -1.342970 0.236464 -0.452629 -0.351966 -0.244856 -1.114536 0.717368 -0.367592 0.066527 0.104505 -1.046563 0.221829 0.399661 0.235591 -0.492078 0.109564 -0.293804 0.111728
<DATE>#0 -1.193511 -0.407517 0.107541 -0.414235 0.213731 -0.688466 0.172422 -0.315273 -0.176026 -0.245407 -0.733043 -0.967850 -0.558964 0.065269 -0.366924 0.889013 -0.078941 0.643454 -0.745138 0.540705 -0.117966 -0.576272 -0.938697 -0.017444 0.302731 -0.677003 0.313711 0.928008 -1.231444 -1.296045 0.234024 0.370905 0.499118 -0.310392 0.138738 0.007925 0.350820 0.093050 0.334763 -0.123423 -0.356930 -0.013572 -1.281374 0.534918 -0.308716 0.301530 -0.371567 -0.197334 -1.007104 -0.258533
an -0.615365 -0.634336 0.552629 0.056572 -0.310158 -1.193334 0.703583 0.246755 0.284343 -0.070233 0.338621 -0.096497 -0.667522 0.419419 -0.471226 -0.147066 -0.711614 0.990407 -0.892985 0.036546 0.060123 -0.902682 0.108820 -0.180263 0.718619 0.153652 0.020899 -0.173450 -0.024944 -0.289167 0.698667 -1.271723 -1.245345 0.071202 -0.256080 -0.064630 0.258423 -0.989651 1.463967 0.369952 1.004131 -0.366778 -0.966495 0.275522 -0.044488 0.454921 -0.064071 0.425833 -0.276499 -0.291815
all -0.674061 0.954293 0.264034 -0.212554 -0.360340 0.683074 -0.186567 0.229040 0.505872 0.354347 -0.468880 -1.005159 0.277023 -1.134007 0.476132 1.208879 -0.012945 -0.164501 -0.637861 0.812298 0.149084 0.021052 0.386251 0.330430 -0.239171 0.348375 -0.233364 -0.106222 -1.202420 -0.886000 -0.617624 1.055345 -0.823408 -0.397731 -0.746261 -1.258782 0.131780 -0.627057 -0.382414 -0.179696 -1.498157 -0.136536 0.568312 0.082000 -0.869912 -0.173523 0.115463 -0.296357 -0.011900 -0.042070
one -0.927074 0.244155 0.699870 0.097135 -0.554075 0.242326 -0.032678 -0.911256 0.242800 -0.003906 -0.111115 0.350331 0.451760 -0.506429 0.413636 -0.168008 0.457859 0.279979 -0.824013 0.413653 -0.336061 -0.436197 -0.749566 -0.519765 0.254706 0.114989 0.019574 0.191106 -1.503286 -1.540721 0.616007 0.221973 0.382410 -0.228276 0.273027 -1.303846 1.236312 -0.193325 -0.245386 0.126027 0.144011 -0.619262 -0.468947 0.087158 0.536310 -0.026433 -0.856513 -0.388576 -0.169253 0.296487
<NAME>#0 0.155078 -0.097646 0.409062 -0.710271 0.078653 -0.253925 0.719467 0.036369 -0.231009 1.580589 0.106347 -0.240386 0.560867 -0.448546 -0.179058 -0.624171 -0.082121 0.860266 0.631447 -0.958480 0.447315 -0.488473 0.096794 0.454693 0.505004 0.285732 -0.478185 -0.440038 -1.025546 -0.721709 0.708990 0.781907 -1.649702 0.336931 0.072117 -1.310471 0.062749 -1.830598 0.839594 -0.766444 0.759477 -0.702213 -0.035686 -0.431611 0.229246 0.547814 -0.383147 -0.351430 0.372999 -0.052339
every -1.086717 -0.112681 0.582774 0.171101 0.070582 0.191552 -0.520241 -0.424649 -0.291730 -0.162790 0.574784 0.730185 0.610479 0.023998 0.079549 -0.349156 -0.544925 0.483805 -0.613170 -0.025344 -0.244417 -0.869635 -0.396331 0.717170 -0.453554 0.446738 -0.042957 0.736187 -0.545342 -0.795514 0.953436 -0.227013 0.625917 -0.089086 0.481268 -0.322966 0.075748 -0.147298 0.469094 0.120316 0.889986 0.230298 -1.390113 0.511859 0.558988 0.691345 0.235363 -0.510925 -0.561246 -0.634893
me -0.462413 -0.428979 -0.319445 1.150337 0.693373 0.587048 0.206660 1.557050 0.364822 -0.087048 -0.020987 -1.014956 0.120205 0.988670 -0.398713 0.585319 0.006100 -0.039711 -0.565275 -0.489527 1.227638 0.253872 0.222817 1.188281 -1.131488 0.542630 -0.519154 0.872607 0.134894 -0.948472 0.590031 0.030440 -1.443008 -0.401805 -0.805494 -0.348588 -0.490187 -0.019743 0.452091 -0.427540 -0.903672 1.234685 -1.060560 -0.204364 -0.282783 -0.161478 0.548084 0.771231 -0.638269 -0.187269
up -0.101031 -0.841189 -0.216796 0.903597 0.495330 0.004370 -0.207568 0.904283 0.412847 -0.006476 -0.237267 -0.065748 0.267550 1.138356 -1.201363 -0.492449 -0.178905 0.089517 0.641240 0.353710 0.618875 -0.288698 0.426608 1.315632 -0.794685 0.779928 -0.365733 0.206459 -0.231504 -0.971774 0.952189 0.064851 -0.792339 0.274288 -0.073296 -0.884867 -0.183601 -0.440684 0.431150 0.031313 -0.032253 0.848674 -0.866885 -0.331995 0.622665 -0.009131 -0.258210 0.687731 -0.392592 0.360695
need -0.601538 -0.315931 0.528146 -0.344777 -0.262597 -0.741023 -0.267163 -0.334245 1.217362 -0.255309 -0.332857 -0.533585 0.128555 0.477402 -0.778984 0.300264 -0.149017 0.603216 -0.146956 1.014539 -0.860382 -0.258633 0.209357 -0.254816 0.115885 0.721550 0.051425 0.239863 -0.631809 -0.944230 0.053927 -0.379502 -0.599643 -0.150756 -0.136058 -0.634909 1.330764 -0.289815 0.325985 1.017600 -0.033119 -0.528968 -0.800268 -0.704056 0.244563 -0.397863 -1.726387 -0.181690 -0.830531 0.578234
<DAY>#1 -0.881083 -1.063323 -0.038644 0.351449 0.978883 -0.640032 0.167020 0.240209 0.044363 0.999398 -0.153702 -0.033175 -0.477325 0.094707 -1.239710 -0.225401 0.439726 0.077990 -0.068638 0.577611 -0.132535 -1.607700 -0.923071 -0.281649 0.314489 -0.322729 0.084039 -0.239028 -0.218673 -0.666854 1.101315 0.414969 -0.306925 0.368398 -0.054235 -0.348693 -0.296750 0.303824 0.933039 0.499240 0.361756 0.383762 0.100782 0.466549 0.503836 1.381383 -0.008063 0.952195 -0.942549 -0.173060
<ORDINAL>#0 -1.198252 0.249041 0.883146 -0.518018 -0.298946 0.374388 -0.163989 -0.899370 0.282883 -0.505773 -0.657979 0.470418 0.607358 -0.177121 0.606676 0.513520 0.513184 0.315730 -0.518504 0.025394 -0.319980 -0.294236 -0.580510 0.180479 -0.004556 0.157336 0.503467 0.698755 -1.344965 -1.651629 0.648485 -0.497252 0.879982 -0.225546 0.076331 -1.010367 1.518710 0.361283 -0.210001 0.230499 -0.355945 -0.779304 -0.455461 -0.264374 0.260039 -0.189115 -0.832045 -0.810148 -0.265742 0.549542
that -0.660855 0.071485 0.304659 -0.827247 -0.290306 -0.861484 -0.223609 -0.076197 -0.384895 0.173733 0.209975 -0.624356 -0.606750 -0.338690 -0.591168 0.827495 -0.631728 0.690861 -0.577369 0.174164 -0.747611 -0.607143 -0.305000 0.081017 0.392430 -0.694326 0.005409 0.404347 -0.229014 -0.313333 -0.275003 0.010278 0.096070 -0.480247 -0.120191 0.823092 -0.435341 -0.641890 0.546435 -0.083799 -0.140628 0.388807 -1.008171 0.605244 -0.479889 0.555787 0.386831 -0.249209 -0.636478 -0.956299
delete -0.870986 0.864464 0.754578 -0.515155 -0.402624 0.320061 0.010370 -0.454258 0.630254 -0.145688 -0.092377 -0.463574 0.123679 -0.559016 0.849381 0.640206 0.388835 0.289082 -0.716887 -0.327490 -0.412620 -0.283535 0.286462 -0.041314 0.349654 0.412821 0.052335 0.407254 -0.997783 -0.817642 -0.284241 -0.160440 -0.542950 -0.391844 -0.400159 -0.696268 0.658745 -0.228199 -0.066065 0.163833 -0.922625 -0.405484 0.293876 -0.405655 -0.089261 -0.397567 -0.430698 -0.505140 0.096748 0.249302
make -0.445564 -0.763078 0.148152 0.356991 -0.069623 -0.362334 0.595519 0.408016 0.212995 -0.073412 -0.117089 -0.616959 -0.176096 -0.106112 -0.279461 -0.044085 -0.670594 0.409602 -0.848248 -0.028607 0.270351 -0.601832 0.124840 0.205661 0.098682 0.045444 -0.048915 0.302094 -0.360939 -0.274219 0.574726 -0.210791 -1.049568 0.090849 0.018908 -0.354408 0.493163 -0.574679 0.796297 0.029470 0.214561 -0.524158 -0.496317 0.131003 -0.171797 0.102578 -0.138471 0.459286 -0.429287 -0.133851
off -0.311811 0.049821 0.120959 -0.719996 -1.507240 -0.472133 -0.329472 -0.224961 -0.666517 -0.429575 0.498378 -0.103317 0.967044 -0.533857 -0.694906 1.066637 -1.695332 0.100394 -0.521154 1.447293 -0.088832 -0.854601 -0.153955 0.761767 -0.846307 0.032267 -0.384139 -0.185242 -0.670049 -0.063460 0.025546 0.978829 -0.372399 -0.216278 0.350642 -0.119391 -0.510656 -1.112809 0.261455 0.160735 -0.288384 0.329744 -0.771297 0.115349 -0.425334 0.286965 0.694065 -0.639362 -0.920387 -0.786845
it 0.160212 -0.885345 0.122909 -0.851229 0.159728 -0.314983 -0.181501 -0.543829 -0.240954 0.432459 -0.123218 -0.499811 0.055489 -0.126269 -0.729186 -0.240458 -0.841942 0.381949 0.427560 -0.122247 -0.582130 -0.806559 0.418775 0.697769 0.192565 0.094439 -0.196195 0.215432 -0.603372 0.293677 0.478497 0.782079 -0.747474 0.620246 0.711643 -0.081806 0.230396 -0.457742 0.883447 -0.143060 0.456244 -0.660910 0.129546 -0.397092 0.135434 0.408728 -0.689268 -0.025040 -0.387177 -0.317122
a 0.441219 -0.335527 0.053811 1.381652 -0.632579 -0.328640 0.681510 0.656861 0.364945 -0.139625 0.437039 0.057517 -0.109502 0.063912 -0.223378 -0.714013 -0.281664 0.199778 -0.468568 0.303354 0.289462 0.366576 -0.209827 -0.877809 0.205343 0.413040 -0.461925 -0.150723 0.305851 -0.116219 0.106739 -0.176484 -0.766149 0.247280 -0.515041 -0.241354 0.542153 -0.721535 0.135092 0.167331 0.773979 -0.107360 -1.009779 0.273208 0.501203 -0.379050 -0.267711 0.404497 -0.180902 0.257526
wake -0.287514 -0.503808 -0.401121 0.985043 0.683005 0.418691 -0.337256 1.076332 0.714334 0.182685 -0.129647 -0.347605 0.613012 0.678789 -0.811401 -0.223107 -0.109500 -0.168269 0.260531 -0.107427 0.754476 -0.215155 0.537039 1.303834 -0.895307 0.599705 -0.300567 0.506578 0.016245 -0.722573 0.673220 0.183000 -0.956899 0.344263 -0.160706 -0.546880 0.143363 -0.266656 0.282076 0.216789 -0.197211 0.750324 -0.587238 -0.699664 0.234796 -0.116124 -0.370626 0.475753 -0.443049 0.015467
<DIRECTION> 0.033097 -1.455904 -0.400307 0.247616 0.372210 -0.199713 -0.202754 0.530446 -0.004154 -0.727387 -0.746350 0.693070 0.201954 1.282978 -0.607014 0.413606 -0.188978 0.223873 0.716020 0.389728 0.203502 0.109827 -0.270015 1.151031 -1.015343 0.453239 0.092351 0.396245 0.572440 -0.544553 0.832440 -0.287549 0.926545 0.055205 0.014623 -0.018615 -0.599916 0.616373 0.163176 -0.161310 -0.067122 0.397807 -0.963372 0.573411 0.416726 -0.009931 0.336962 -0.084620 -0.587541 0.596505
recurring -1.294871 0.367049 0.629945 -0.028957 -0.102039 0.507457 -0.402423 -0.932179 -0.014344 -0.464683 0.368599 0.694020 0.536296 -0.309986 0.925125 -0.107843 0.009047 0.467668 -0.866755 0.248303 -0.271269 -0.278944 -0.701437 -0.127575 -0.204670 0.379558 0.443318 0.743001 -0.516385 -0.721563 0.275226 -0.333112 1.440704 -0.177163 0.148303 -0.202499 0.538658 0.625928 -0.177051 0.505970 0.630501 -0.285287 -0.985978 0.739914 0.399316 0.263224 -0.102569 -0.884923 -0.429376 -0.246952
is 0.916724 -0.548943 0.277297 -0.453617 -0.492039 -0.783397 0.693958 0.839340 -0.244258 -0.103235 -0.507984 0.917302 -0.022655 0.259039 -0.749386 0.533924 0.070163 0.529179 1.141856 -0.836241 0.505912 0.380584 -0.158274 0.380821 0.062412 0.110427 0.077212 -0.494452 0.292177 -0.387378 0.440257 -0.454055 0.345864 0.335257 -0.656927 0.202821 -0.358156 -0.467256 -0.028972 -0.464154 -0.126227 0.298338 -0.521248 -0.109274 0.410652 -0.179548 0.264932 -0.389706 0.726052 0.597538
request_entity 0.002953 -0.713181 0.175218 -0.061361 0.052112 -0.136857 0.481798 -0.288620 0.098946 0.285702 -0.180504 -0.507755 -0.251578 -0.139517 -0.294520 -0.297126 -0.166299 0.178097 0.022142 -0.275010 -0.187832 -0.639329 0.087039 -0.066147 0.500906 0.014953 -0.100950 0.043299 -0.491729 0.146920 0.421438 0.366522 -0.833139 0.381804 0.192101 -0.308133 0.401233 -0.236021 0.584904 -0.228465 0.237850 -0.595307 0.348160 -0.240718 0.253118 0.136251 -0.560698 0.414454 -0.023101 0.036081
you -0.189512 0.463260 0.408064 -0.070426 -0.640932 0.205725 0.408878 0.080888 0.650107 -0.649043 0.342875 -0.857792 0.257484 0.580457 0.177209 0.695496 0.163047 0.082293 -0.460160 -1.208017 0.133118 -0.034459 0.819817 0.357734 -0.016306 0.555336 -0.101402 0.843213 0.126911 0.087841 -0.173253 -0.897365 -1.827990 -0.285329 -0.380537 0.460682 0.094838 -0.333976 0.084200 -0.059112 -1.224390 0.424082 0.153119 -1.344465 -0.184828 -1.048192 -0.035415 0.297933 0.234312 0.539898
in -0.312971 -1.076192 -0.088379 0.271475 -0.295794 -0.585080 0.405473 0.118197 -0.039960 -0.351078 -0.583196 -0.083778 -0.097442 0.673598 -1.020053 0.257068 -0.147343 -0.017822 -0.177001 0.486487 0.259573 -0.769189 -0.617426 0.171841 -0.072319 -0.094774 -0.066088 -0.184814 -0.383901 -0.638878 0.947913 -0.287085 -0.441150 0.017268 0.311061 -0.315490 0.185362 -0.025219 0.357008 0.086168 -0.348396 0.212552 -0.226966 -0.143938 0.323109 0.066255 0.111159 0.847500 -0.667480 0.328097
please -0.719166 0.144145 0.509868 0.024641 -0.647167 0.096688 0.349120 -0.132777 0.418042 -0.485646 -0.102499 -0.418688 -0.118015 0.085540 0.351522 0.515581 0.253873 0.024791 -1.007619 -0.159298 0.120943 -0.497382 0.217445 0.155473 0.271422 0.045065 -0.046505 0.426750 -0.722312 -0.703921 0.312559 -0.590378 -1.110370 -0.292358 -0.275582 -0.558114 0.562074 -0.313102 0.321207 -0.060496 -0.622354 -0.155507 0.178406 -0.443341 -0.232345 -0.376068 0.132710 0.277198 0.057983 0.144966
want -0.215176 -0.369706 -0.018552 -0.128077 0.085520 -0.691299 -0.178778 -0.036105 0.763479 0.048617 -0.058710 -0.816996 0.089085 0.620173 -0.934324 -0.029280 -0.597118 0.291737 0.070072 1.168411 -0.339715 0.101116 0.437702 -0.100472 -0.125507 0.601710 -0.119999 0.012600 -0.116398 -0.137456 -0.199939 -0.244359 -0.985221 0.048131 0.036077 -0.223598 0.939566 -0.182310 0.486890 0.938291 0.466048 -0.350270 -0.595180 -0.790725 -0.177961 -0.377157 -1.284712 0.216204 -1.011728 0.220238
create -0.737849 -0.536923 0.574709 0.408404 -0.367115 -0.502086 0.810601 0.229887 0.475338 -0.110378 0.268427 -0.134809 -0.587200 -0.101977 0.142300 -0.070285 -0.211866 0.726371 -1.159974 -0.212382 0.080520 -0.960845 -0.055026 -0.318704 0.781647 0.115679 0.051664 -0.008592 -0.086960 -0.319920 0.672008 -0.819744 -1.171406 0.084319 -0.425584 -0.293214 0.292944 -0.645849 1.100419 0.197785 0.474296 -0.441487 -0.395113 0.453531 0.060688 0.330126 0.120094 0.526278 -0.018162 -0.204206
of 0.311216 0.627581 -0.205050 0.385942 0.000161 -0.237494 0.020370 0.289571 -0.342541 0.041439 -0.599145 -0.868487 -0.871983 -0.235479 -0.171185 0.052418 0.206789 0.148554 0.077212 1.191159 0.338743 0.711944 0.136067 -0.177340 0.011593 -0.099360 -0.432325 -0.170650 -0.921936 -0.979956 -0.873354 0.566020 -0.058553 -0.487377 -0.469982 -0.831791 -0.336080 -0.541443 -0.444670 -0.633129 -0.642163 0.218546 -0.235980 0.482541 -0.548006 -0.378848 0.222940 0.162082 0.072878 0.280166
deactivate -0.961701 0.536460 0.643634 -0.577593 -0.467889 0.028768 -0.154339 -0.559777 0.468867 -0.384902 -0.224293 -0.261247 0.141976 -0.489687 0.448655 0.784444 0.086955 0.276968 -0.791873 0.399795 -0.521524 -0.315986 -0.164951 -0.200087 0.155649 0.126766 0.298974 0.466598 -1.007769 -0.848540 -0.181598 0.020521 0.317551 -0.333497 -0.179066 -0.427850 0.861375 0.078935 -0.142587 0.437451 -0.591849 -0.389294 -0.172552 -0.103437 -0.119658 -0.218471 -0.622944 -0.687486 -0.314168 0.117481
activate -0.823288 0.079649 0.501455 -0.606539 0.237913 0.041155 -0.310388 -0.610528 0.517890 -0.038303 -0.482809 -0.333930 0.158719 -0.504813 0.205332 0.260544 0.100835 0.375072 -0.300187 -0.019433 -0.838681 -0.512161 -0.068531 -0.039681 0.223444 0.050683 0.425957 0.734866 -0.855246 -0.560655 0.056375 0.310367 0.481783 -0.053769 0.197799 -0.164690 0.886054 0.275557 0.015084 0.500553 -0.249864 -0.709608 0.045792 -0.360604 0.009330 0.014547 -1.159910 -0.501357 -0.490407 0.166350
<TIME>#1 -0.541357 -0.530613 -0.078916 0.260519 0.039168 0.115290 0.315645 -0.596668 -0.401344 0.471684 -0.033677 -0.264344 0.009669 0.057368 -0.586313 -0.540301 -0.003364 0.045619 -0.012935 0.655136 0.397297 -0.871745 -0.833824 -0.338924 0.184566 -0.007653 -0.085879 -0.096120 -0.800397 -0.409100 0.817540 0.672875 -0.394450 0.477604 0.276109 -0.590175 0.161350 0.193771 0.420971 0.052376 0.218541 0.007998 -0.142244 0.308956 0.501449 0.631421 -0.167585 0.606907 -0.836042 -0.112340
change -0.733231 0.286500 0.616419 -0.956116 -0.375496 0.375821 0.123193 -0.877123 0.152351 -0.320158 -0.060484 0.090955 0.791528 -0.052530 0.641950 0.349732 -0.117684 0.679793 -0.039205 -0.142046 0.054419 0.088269 0.083002 0.183170 -0.044215 0.588823 0.435820 0.546311 -0.439926 -0.401900 0.157531 -0.432703 0.063752 0.063880 -0.138213 -0.266545 0.688415 0.171892 0.117698 0.400939 0.151761 -0.810215 -0.493836 -0.230305 -0.163071 -0.181316 -0.621359 -0.855939 -0.183436 0.281881
if 0.855691 -0.785587 0.017628 0.256166 -0.318928 -0.344215 -0.056793 1.247849 0.515866 -0.781559 -0.581906 1.033712 0.264802 0.807600 -0.979812 0.478437 0.006868 0.000127 1.093299 -0.433219 -0.190553 0.441264 0.220889 0.771470 -0.844553 0.709972 -0.066802 -0.026706 1.003211 -0.343913 0.316409 -0.699912 0.687724 0.050221 -0.638604 0.264119 -0.453035 0.010838 -0.533126 -0.040687 -0.659204 0.848872 -0.619827 -0.222302 0.636371 -0.412626 0.067889 0.086589 0.309005 0.795982
inactive -0.568123 0.138210 0.478903 -0.174563 0.134897 -0.146370 0.306004 0.562069 0.589767 0.322518 -0.309561 -0.706968 -0.661935 -0.876894 0.264938 0.685039 -0.039477 0.698408 -0.724709 -0.109989 -0.083051 -0.462680 0.290107 -0.059856 0.489258 0.101468 0.056473 -0.115424 -0.377501 -0.312525 -0.198141 0.184446 -0.533328 -0.118052 -0.850124 -0.384138 -0.308603 -0.477176 0.362353 -0.082542 -0.582977 -0.205491 0.170356 0.759998 -0.490326 0.403893 0.099653 0.053423 0.320053 -0.222524
active -0.642496 0.001456 0.359775 -0.129419 0.277845 0.058503 0.151669 0.624371 0.653999 0.405120 -0.471734 -0.548974 -0.497050 -0.959345 0.214873 0.689959 -0.048237 0.466339 -0.569251 -0.017486 -0.129691 -0.478245 0.370411 0.136584 0.289569 0.155047 0.144771 -0.242715 -0.352526 -0.295888 -0.148056 0.312287 -0.426128 -0.109428 -0.852354 -0.383834 -0.398233 -0.250891 0.259627 0.042572 -0.792041 -0.306688 0.403445 0.609903 -0.596488 0.453133 0.012843 0.135228 0.230953 -0.140192
<TIME_SPAN>#1 0.305923 -0.994085 0.255195 -0.229386 0.127496 -0.112648 -0.273651 0.282507 -0.250041 -0.395823 -0.614720 1.228354 -0.104663 0.745798 -0.651732 -0.001157 0.032857 0.262302 1.179110 -0.114572 -0.485324 -0.222750 -0.044208 0.933353 -0.566716 0.492492 -0.009181 0.051729 0.268027 -0.609987 1.012168 -0.212610 1.165570 0.118878 -0.076253 -0.274038 -0.774552 0.205556 0.099498 -0.230019 -0.124579 0.327642 -0.306158 0.593163 0.869585 0.220830 0.169606 -0.185085 0.191516 0.589683
turn -0.514827 0.407277 0.028112 -0.746299 -0.838864 -0.015812 -0.100479 -0.306348 -0.222710 -0.169152 -0.173671 -0.734190 0.452201 -0.533003 -0.207824 1.174446 -0.527887 -0.147787 -0.515046 0.827137 -0.091329 -0.586250 -0.200131 0.265245 -0.241449 -0.538655 -0.052170 0.156574 -0.982855 -0.315758 -0.175334 1.027276 -0.448338 -0.268013 0.138040 -0.236897 0.079521 -0.373928 0.001652 -0.003209 -1.017504 0.025433 0.253791 -0.250726 -0.630852 -0.050269 0.299438 -0.285117 -0.611584 -0.357043
be -0.113682 -0.713380 -0.239703 -0.067111 0.182466 0.261090 -0.521023 -0.395649 0.585437 -0.412924 -0.431264 -0.228696 0.470937 0.987961 -0.652641 -0.343338 -0.123652 0.068128 0.801041 1.091250 -0.179377 0.204780 0.111323 0.380624 -0.782693 0.904642 0.141914 0.110869 0.023929 -0.130566 0.236018 0.468485 -0.043801 0.186019 0.237099 -0.509239 0.224282 0.727610 0.028785 0.792369 -0.162884 -0.133435 -0.110507 -0.392045 0.354361 -0.374617 -1.032006 0.092470 -0.665167 0.633127
have 0.158997 -0.211142 0.336928 -0.089912 0.368055 -1.201236 0.379400 1.052467 1.037877 0.081804 0.217956 -1.057338 -0.687056 0.219756 -1.132115 0.541093 -0.407020 0.909823 -0.164793 -0.493451 -0.849642 -0.338800 0.319817 -0.466901 0.419075 0.416480 -0.139082 0.292300 0.281759 0.186019 -0.395310 0.145475 -0.733433 -0.100893 -0.715004 0.904900 -0.191779 -0.785983 0.528546 0.418251 -0.121184 0.473295 -0.728300 -0.230364 0.313330 0.051857 -1.053244 0.080384 -0.157890 -0.278782
are 0.115051 0.235892 0.151119 -0.440169 -0.110530 -0.136355 0.038030 0.667759 0.310284 0.077472 -0.146807 -0.274031 -0.340247 -0.515279 -0.130502 1.033759 0.032642 0.537291 0.084444 -0.436164 -0.206820 0.169952 0.330844 0.107375 0.137513 0.182535 0.066833 -0.155890 0.423763 0.162314 -0.568974 0.223374 0.114966 -0.081707 -0.930830 0.666752 -1.204772 -0.279084 -0.276425 -0.314877 -0.956482 0.550544 -0.080807 0.648093 -0.372116 0.208313 0.328155 -0.173571 0.629157 -0.030232
day -0.671078 0.363575 0.237219 1.132692 0.051414 0.293412 -0.390404 0.146209 -0.454757 0.136062 0.994266 0.657955 0.548121 -0.322433 -0.161246 -0.968113 -0.679729 -0.194777 -0.535330 0.119063 0.437933 -0.771437 -0.248957 0.255256 -0.484760 0.105079 -0.201627 0.120086 -0.242364 -0.317306 0.688406 -0.257231 0.224476 0.024532 0.298229 -0.124325 0.083450 -0.344868 0.224379 0.278551 0.940317 0.745351 -1.127368 0.238482 0.476133 0.673159 0.396515 0.067255 -0.262364 -0.787491
ring -0.564569 -0.888868 -0.212611 -0.256520 0.357109 -0.116883 -0.140115 0.095953 -0.320015 0.083272 -0.174887 -0.438164 0.442215 0.377567 -0.693142 0.315728 -0.684590 0.582931 0.106026 0.353411 0.068010 -0.392000 -0.512104 0.813088 -0.601958 0.082895 0.038899 0.745453 -0.244819 -0.429268 0.547914 0.643799 0.255230 0.065384 0.210441 0.185839 -0.240635 0.086157 0.513584 -0.013881 0.098224 0.178701 -1.254566 0.431683 -0.075639 0.434967 -0.100157 -0.157275 -1.268562 -0.355303
what 0.404821 0.241943 0.199513 -0.535121 0.061694 -0.148286 0.143806 0.560674 0.008138 -0.145659 -0.137155 -0.111818 -0.160223 0.224543 -0.174638 1.052242 0.139260 0.494478 0.499216 -0.621055 0.135134 0.648821 0.241657 0.085154 -0.006296 0.290709 0.057378 0.044320 0.252921 0.044446 -0.293441 0.102200 0.304145 -0.067898 -0.779228 0.642502 -0.783685 -0.156528 -0.216230 -0.303216 -0.696939 0.632307 -0.550055 0.076978 -0.085698 -0.049724 -0.046682 -0.682248 0.603865 0.162521
called -0.068552 -0.256835 0.226363 -0.271101 -0.112370 -0.489633 0.867578 -0.045191 -0.138261 0.802365 0.072050 0.118354 -0.018673 -0.144392 -0.108947 -0.422689 0.203328 0.639675 -0.023223 -0.621110 0.438406 -0.616495 -0.381158 -0.216234 0.740077 -0.205453 -0.168343 -0.450100 -0.462220 -0.462397 0.816622 -0.047624 -1.023988 0.290904 0.137961 -0.715989 0.177495 -1.022932 0.777599 -0.377969 0.718687 -0.388821 -0.105590 -0.202683 0.349792 0.500156 -0.095217 0.091014 0.233254 -0.142852
volume 0.580108 0.477830 -0.138412 0.343071 -0.837636 -0.595900 0.262325 -1.086682 -1.013352 0.333220 0.091682 -0.037964 -0.773591 0.424931 -0.321991 -1.023978 0.205998 -0.022909 0.349007 0.953154 -0.056149 0.598758 -0.203092 -0.853420 0.977141 -0.508098 -0.715560 -0.638989 -0.500734 -0.123799 -0.283607 -0.335184 -0.682030 0.024504 0.391242 -0.527556 0.267137 -0.929697 0.052964 -0.827626 0.880608 -0.157477 -0.539388 0.159271 0.125960 0.051951 0.102731 0.452307 -0.056198 0.069064
show -0.570530 0.292240 0.127181 0.364092 0.300975 0.785180 -0.015710 0.920189 0.527735 0.080309 -0.396105 -0.689417 -0.203994 -0.513043 0.288078 1.064354 0.506928 -0.185279 -0.732137 0.055160 0.298173 -0.171592 0.166656 0.394113 -0.391579 0.201221 -0.166852 0.138382 -0.470968 -0.714919 -0.089505 0.603300 -0.601364 -0.396011 -0.967164 -0.759450 -0.376163 0.186864 -0.164589 -0.228145 -1.533860 0.502007 0.595333 0.341821 -0.452995 0.004821 0.580081 0.302839 0.050214 -0.085420
next -0.111721 -0.334378 0.514256 -1.229799 -0.690984 -0.046316 0.162927 -0.510054 -0.615921 -0.524698 -0.322957 0.836443 0.425950 0.342685 0.073762 0.463735 -0.368458 0.626509 0.840638 -0.246677 -0.078950 -0.031127 -0.132985 0.674401 -0.243752 0.273368 0.337886 0.293599 -0.098134 -0.423726 0.709033 -0.282703 0.691592 0.085052 -0.051020 -0.070108 -0.290618 -0.097748 0.248104 -0.063457 -0.107326 -0.389222 -0.392739 0.258837 0.165811 0.034532 0.251678 -0.760060 0.126943 0.422833
<VOLUME_LEVEL>#0 0.424461 0.300869 -0.132646 0.157046 -0.407703 -0.623531 0.109742 -1.212054 -0.973989 0.690777 0.029452 -0.084881 -0.835153 0.184756 -0.399671 -1.250111 0.046472 0.159129 0.437241 0.960509 -0.310392 0.373640 -0.315766 -1.008174 1.054598 -0.558944 -0.576567 -0.625121 -0.499299 -0.038755 -0.233314 0.034026 -0.381859 0.182219 0.498769 -0.430585 0.207239 -0.804797 0.208842 -0.607767 1.215569 -0.352949 -0.498588 0.423706 0.227744 0.448153 -0.188633 0.374412 -0.237736 -0.092332
any 0.049917 0.552291 0.582753 0.133820 -0.005144 -0.603893 0.538477 1.020378 0.734929 -0.101754 0.133516 -0.624965 -0.692816 -0.786812 -0.136927 0.564283 0.104869 0.684025 -0.712181 -0.365094 -0.325694 -0.112933 -0.078018 -0.816767 0.449673 0.153324 0.175062 0.118156 0.024346 -0.100147 -0.664934 0.138441 0.067176 -0.386678 -0.952366 0.574726 -0.005123 -0.435593 -0.210532 0.274078 -0.541911 0.343764 -0.194099 0.349975 0.014327 -0.209855 -0.413446 -0.167182 0.398185 -0.103918
except -0.573856 0.158715 0.338014 -0.170687 0.096641 0.112708 0.140237 0.002284 -0.357303 0.971237 -0.099359 0.187776 0.181084 -0.948597 -0.032780 -0.010062 0.078598 0.132477 -0.088400 -0.288999 0.140265 -0.959295 -0.579198 0.166822 0.177569 -0.347630 -0.158172 -0.231261 -0.945106 -0.789411 0.634682 0.903232 0.015696 0.069265 -0.019870 -0.765063 -0.254413 -0.533189 0.107634 -0.408018 -0.104708 0.097260 0.137236 0.447296 0.149856 0.932136 0.280201 -0.110359 0.075580 -0.328276
<SOURCE>#0 0.023254 -0.412339 0.112630 0.192122 -0.286701 -0.259348 -0.201335 -0.974178 -0.926893 0.004453 0.476805 0.991639 -0.642144 0.610342 -0.120414 -0.857313 -0.056152 0.008751 0.231753 0.293301 -0.668982 -0.148661 -0.560334 -0.407050 0.533052 -0.308641 -0.249366 -0.165606 0.429988 0.284527 0.541707 -0.688637 0.759814 0.124841 0.499594 0.308856 -0.388969 0.045399 0.364379 -0.344930 1.136568 0.086209 -0.594538 1.020000 0.714730 0.851416 0.571135 0.221793 -0.033041 -0.332791
go -0.131044 -0.328978 -0.032894 -0.645208 -0.731150 -0.144138 -0.172471 -0.624983 -0.626791 -0.122280 0.404620 -0.011643 0.942504 -0.058282 -0.374986 0.227172 -1.203391 0.267182 0.030735 0.680524 0.054839 -0.349455 -0.024792 0.645967 -0.556221 0.296820 -0.217065 0.031279 -0.250542 0.358963 0.201697 0.618619 -0.408142 0.242215 0.631477 -0.083244 -0.307334 -0.436164 0.372507 0.120963 0.460112 -0.179578 -0.572745 0.022081 -0.152039 0.298852 0.349825 -0.483803 -0.779171 -0.451640
do 0.063323 0.016919 0.216189 -0.174468 0.839652 -0.739120 0.294461 0.795587 0.838793 0.387411 -0.141091 -0.954798 -0.579989 -0.441625 -0.716266 0.287887 -0.120089 0.637956 -0.007758 -0.956527 -0.719780 -0.524490 0.248168 -0.478173 0.538061 -0.113804 0.259620 0.289453 0.148667 0.386701 -0.379249 0.582961 -0.111880 0.011253 -0.354505 1.042404 -0.128041 -0.357829 0.214599 0.375508 -0.341661 0.109268 0.076592 -0.336742 0.003085 0.231175 -1.079047 0.089349 0.092074 -0.158178
<DAY>#2 -0.643624 -1.173116 0.059986 0.323168 0.178252 -0.722259 0.404916 0.157339 -0.225677 0.046268 -0.430949 0.141195 -0.714024 0.356170 -0.965544 0.128677 0.215536 0.109262 -0.353456 0.478002 -0.077302 -1.417907 -0.864950 -0.166725 0.393991 -0.479790 0.119571 -0.106947 -0.495450 -0.754179 1.174900 -0.175559 -0.037501 0.188247 0.069368 -0.176341 -0.036579 0.122786 0.809895 0.160357 -0.038287 0.266496 -0.004799 0.471218 0.558506 0.760055 0.250055 0.885315 -0.608622 0.059561
by 0.095784 -0.917099 -0.121837 0.102032 0.028967 0.068696 -0.266857 0.203103 -0.056063 -0.878577 -0.679205 0.903534 0.292905 1.114517 -0.467881 0.175963 -0.091496 0.152778 0.905401 0.635587 0.283619 0.173772 -0.070645 1.016781 -1.035092 0.672677 0.147062 0.143307 0.321622 -0.619092 0.745343 -0.309051 1.098869 -0.041055 -0.030216 -0.326402 -0.457903 0.687896 -0.177549 0.070510 -0.302094 0.431643 -0.430573 0.412995 0.556264 -0.301349 0.234816 -0.121062 -0.111435 0.854171
don't -0.190097 -0.426795 -0.700392 -0.345926 0.945508 -0.279012 -0.932183 0.269990 0.266762 0.286335 -0.593287 -1.070796 0.111727 -0.039786 -0.862546 0.261865 -0.457167 -0.078333 0.251636 0.527498 -0.486503 0.081616 -0.011839 0.609355 -0.555912 -0.527983 0.201137 0.702151 0.123455 0.137678 -0.446577 0.786735 0.608143 -0.141468 0.583085 0.737580 0.366121 0.403930 -0.084146 0.448138 -0.209179 0.010615 -0.371201 -0.406572 -0.778435 0.004586 -0.922850 0.024658 -1.235384 -0.537052
get 0.351144 0.151707 -0.435860 1.113496 0.702031 0.423145 -0.394439 0.855977 0.175651 -0.370166 -0.475877 -0.444392 -0.250499 0.561520 -0.519956 -0.467034 0.347379 -0.354320 0.356617 1.172615 0.565389 0.601935 0.564545 0.636305 -1.046605 0.574227 -0.417116 0.045445 -0.497857 -0.934035 -0.231368 0.359903 0.052141 -0.487758 -0.247034 -1.081962 -0.193298 0.236139 -0.571141 -0.095872 -0.664698 0.772182 -0.079155 -0.148166 0.015932 -0.721080 -0.148559 0.531322 -0.024781 0.475566
new -0.109995 -0.340720 0.341517 1.089658 -0.756107 -0.483991 0.956601 0.285996 0.491980 -0.131108 0.622828 -0.378761 -0.190161 -0.085837 -0.115007 -0.485657 -0.373684 0.359374 -1.114189 0.187262 0.267391 -0.278676 -0.314466 -1.083280 0.621061 0.187878 -0.218040 -0.139891 -0.228967 -0.143609 0.308373 -0.210203 -1.353983 0.159287 -0.316368 -0.322093 0.938348 -0.929796 0.602971 0.339956 0.721699 -0.552255 -0.653990 0.007528 0.333597 -0.340905 -0.526379 0.483468 -0.178282 0.044201
this 0.261619 -0.234966 0.182447 -0.387436 -0.502391 -0.374620 0.441485 -0.129965 0.207610 -0.498822 0.065690 0.176515 -0.304793 0.629753 0.263012 0.309865 0.170944 0.164299 -0.033800 -0.709650 -0.107693 -0.117758 0.128683 -0.112208 0.428242 0.050055 0.003229 0.022545 -0.047733 0.024574 0.205571 -0.719648 -0.601577 0.151261 -0.022344 0.117003 0.212453 -0.238756 0.447335 -0.024932 -0.244291 -0.258019 0.341795 -0.487792 0.318886 -0.428170 0.015384 -0.036982 0.288018 0.432114
but 0.003431 -0.041587 0.084151 -0.044236 0.665759 0.060124 -0.238235 0.045938 0.069712 0.832262 -0.497616 -0.329024 -0.186404 -0.859712 -0.229023 -0.714637 -0.171767 0.140539 0.472949 -0.443287 -0.499544 -0.431034 0.183488 0.064797 0.345393 -0.324566 0.058817 0.007299 -0.280243 0.138833 0.121204 0.815874 0.272821 0.202406 0.301888 -0.063423 0.106675 -0.434871 0.085506 -0.084182 0.169675 -0.499502 0.424891 0.008846 -0.063722 0.517706 -0.812717 0.095271 0.029060 -0.122385
time 0.375350 0.092689 -0.030262 -0.517843 -0.469827 0.151318 0.304019 -0.098497 -0.182372 -0.184948 -0.376188 0.574045 0.186067 0.046299 0.442597 0.670126 0.211893 0.036170 0.454741 0.037885 0.388027 0.644711 -0.146412 -0.136408 -0.064846 0.146087 0.090733 -0.444404 0.198080 0.170287 -0.260811 -0.046057 0.462939 0.189695 -0.448339 -0.054063 -0.397028 0.356547 -0.512778 -0.221506 -0.443524 -0.067702 0.209970 0.301277 -0.026387 -0.124982 0.583188 -0.556179 0.480959 0.276108
can -0.151307 0.248676 0.347270 -0.133269 -0.520907 0.205899 0.354571 0.109662 0.544176 -0.498635 0.265900 -0.839385 0.284495 0.430018 0.177344 0.496670 -0.032841 0.064458 -0.400542 -0.911498 0.088746 0.011211 0.781367 0.367957 -0.140140 0.512825 -0.163114 0.718050 0.012214 0.037412 -0.116628 -0.580116 -1.631601 -0.289884 -0.294254 0.150246 0.123691 -0.364966 0.153229 -0.053391 -0.949337 0.164028 0.071663 -1.103565 -0.193160 -0.822562 -0.041472 0.169407 0.132166 0.354263
named 0.062131 -0.106475 0.246924 -0.273253 0.063313 -0.341670 0.754912 0.199034 -0.121427 0.934015 0.009864 -0.078147 0.111660 -0.281379 -0.140314 -0.381721 0.118579 0.511402 0.210287 -0.831686 0.430538 -0.354660 -0.118729 -0.000296 0.584991 -0.097512 -0.115184 -0.333742 -0.458959 -0.374184 0.548652 0.277915 -0.988639 0.225892 -0.080179 -0.588359 0.072894 -1.022046 0.602098 -0.380500 0.506630 -0.445349 0.011101 -0.277257 0.148566 0.353730 -0.188901 0.035124 0.266187 -0.023441
not -0.315479 0.003913 -0.121114 -0.306655 1.042306 -0.211330 -0.024497 0.482091 0.288193 0.817812 -0.503597 -0.731027 -0.262737 -0.754954 -0.391301 0.083746 -0.067178 0.257226 0.090322 -0.570160 -0.348825 -0.567775 0.025066 0.066087 0.262164 -0.619037 0.379330 0.219246 -0.153526 0.193731 -0.175894 0.956994 0.236865 0.066238 0.036470 0.638839 -0.221530 0.015365 0.103444 0.156395 -0.302147 -0.037182 0.357080 -0.101587 -0.443101 0.583253 -0.672397 0.104578 -0.255847 -0.301674
call 0.293675 -0.800909 -0.372688 0.582832 0.741472 0.108698 0.002906 0.281642 -0.104912 0.678665 0.004226 -0.030299 0.183203 0.578625 -0.838602 -1.052455 0.152832 -0.260322 0.728550 -0.328855 0.478267 -0.610413 0.236937 0.771998 -0.093031 0.170340 -0.402076 -0.012246 -0.297626 -0.245846 0.991810 0.420908 -1.093969 0.738315 0.597561 -0.785894 0.176566 -0.402232 0.666759 -0.251848 0.600101 0.164128 0.215606 -0.678940 0.697147 0.277989 -0.328251 0.681276 -0.145135 -0.037331
display -0.227798 0.392701 0.156242 -0.177323 -0.018327 0.621884 -0.120818 0.135709 0.266849 0.090154 -0.416830 0.019811 0.085861 -0.588296 0.551681 0.688863 0.376781 -0.114682 -0.034366 0.168266 0.060335 0.098415 0.120901 0.086732 -0.061617 0.270273 0.026829 -0.276212 -0.293248 -0.298147 -0.272624 0.418245 0.167127 -0.064709 -0.614838 -0.620030 -0.236625 0.227408 -0.451275 -0.098336 -0.947031 -0.074824 0.683710 0.414385 -0.240200 0.015621 0.249600 -0.233955 0.380912 0.188000
with 0.415698 -0.026770 -0.106000 0.774455 -0.155289 -0.233818 0.331245 -0.027000 -0.533775 0.416525 0.228786 0.143589 -0.386386 0.524083 -0.381022 -0.969088 0.129411 -0.049147 0.374815 0.314316 0.468790 0.309797 -0.078240 -0.245115 0.217386 0.110915 -0.545164 -0.418142 -0.033308 -0.270252 0.233014 -0.256086 -0.634542 0.091267 0.019326 -0.618933 -0.190962 -0.566722 0.160029 -0.512588 0.659005 0.191835 -0.420373 0.256615 0.299647 0.133732 0.344044 0.607204 0.056635 0.257764
from -0.925895 0.066667 0.001304 0.405981 0.605008 0.365457 -0.061717 -0.142427 -0.050650 0.358760 0.480065 -0.045007 0.510803 -0.155445 -0.021411 -0.502554 -0.095735 -0.032303 -0.417881 0.373675 0.368637 -0.569219 -0.454674 -0.112693 -0.318325 0.018053 0.213851 0.270654 -0.030867 -0.127652 0.384102 0.102907 -0.114029 0.098153 0.055474 -0.036415 0.271153 0.591928 0.348430 0.616419 0.649911 0.158274 -0.396214 0.152286 0.029773 0.637580 -0.031252 0.177764 -0.849051 -0.475472
cancel -0.205040 0.522962 0.026429 -0.419008 -0.379945 0.157961 -0.152596 -0.535083 0.118161 -0.082475 0.028694 -0.536753 0.205066 -0.018750 0.248780 0.450371 -0.097728 -0.071722 -0.168927 0.438984 -0.076693 0.182348 0.248801 0.047325 0.044165 0.135585 -0.185526 0.098856 -0.436095 -0.085141 -0.408948 0.169659 -0.547397 -0.134888 0.079588 -0.282071 0.330196 -0.122840 -0.064299 0.072271 -0.413774 -0.197127 0.065925 -0.358694 -0.327612 -0.338055 -0.254930 -0.262472 -0.222487 0.000459
tell 0.099145 0.108825 0.002479 0.211375 0.152534 0.231074 0.207875 1.096584 0.617671 -0.502148 -0.193284 -0.772924 -0.009776 0.583319 -0.072447 0.963842 0.305385 -0.116197 -0.157527 -0.974389 0.385174 0.451387 0.609727 0.663309 -0.570482 0.371758 -0.136795 0.652013 0.360062 -0.209734 -0.151435 -0.373501 -0.959811 -0.466203 -0.705933 0.309591 -0.366486 0.028650 -0.120963 -0.286161 -1.404920 0.750876 -0.025069 -0.799739 -0.403223 -0.724162 0.217935 0.270377 0.242329 0.301812
remove -0.325141 0.591980 0.239364 -0.010052 -0.263281 0.537188 -0.050309 -0.043528 0.178301 0.037941 -0.278123 -0.252400 0.069878 -0.634418 0.557679 0.378573 0.151147 -0.193796 -0.352655 0.108810 0.169132 0.062409 0.293086 0.175448 0.001516 0.066912 -0.069122 -0.058421 -0.628382 -0.417101 -0.233297 0.245614 -0.154348 -0.253494 -0.302189 -0.656640 0.141410 -0.129911 -0.353090 -0.211274 -0.746922 -0.132824 0.523584 0.051487 -0.374910 -0.220120 0.140196 -0.106964 0.333955 0.124547
hey -0.221927 0.203771 0.114529 -0.167064 0.135428 -0.233447 0.248742 -0.251512 0.275355 0.156930 0.147015 -0.111463 -0.249170 -0.231254 0.350131 -0.330042 0.095881 0.209264 -0.301544 -0.174870 -0.163005 -0.007561 0.325807 -0.543100 0.703942 -0.190268 0.316882 -0.176754 0.128619 0.299990 -0.145725 -0.663827 -0.264158 0.047898 0.154945 0.058144 0.615848 -0.099081 0.265821 0.369145 0.666949 -0.720768 0.179539 -0.216308 -0.266718 0.108499 -0.602805 -0.013504 0.192097 0.045760
how 0.264405 0.264610 0.144937 -0.107147 -0.079270 0.471937 0.353947 0.436177 -0.209037 -0.259902 0.541869 0.345933 0.184874 -0.196295 0.580646 0.329635 0.009927 0.008179 0.045551 -1.371892 0.313140 0.252350 0.250044 0.122680 -0.184411 0.105185 0.368272 0.166208 0.934303 0.806326 -0.111492 -0.367955 0.248493 0.078453 -0.354374 0.937733 -0.698719 0.174248 -0.163508 -0.228789 -0.324999 0.333030 0.347502 0.137791 0.002934 -0.201916 0.621506 -0.163668 0.685553 0.114506
everyday -0.691960 0.432042 0.250323 0.019090 -0.114111 0.521611 -0.212349 -0.866570 -0.675576 0.159549 0.456335 0.684572 0.484899 -0.409838 0.781215 -0.558578 -0.011281 -0.016044 -0.381962 0.019592 0.200672 -0.249631 -0.557988 0.012268 -0.041198 -0.122902 0.105966 0.153515 -0.527631 -0.362552 0.381662 0.025119 0.797818 -0.025798 0.504877 -0.393313 0.206312 0.121726 -0.071301 -0.096864 0.765144 -0.220335 -0.339947 0.508876 0.205266 0.418360 0.382542 -0.461055 -0.094068 -0.362753
week -0.847693 0.327123 0.373123 0.113264 0.011109 0.590926 -0.388860 -0.752343 -0.394936 -0.133784 0.555472 0.913816 0.593035 -0.325293 0.828253 -0.518815 -0.079821 0.113320 -0.533772 -0.044343 -0.049771 -0.311605 -0.518556 0.110802 -0.269162 0.098244 0.204276 0.471129 -0.244880 -0.297459 0.406467 -0.231667 1.230260 -0.028337 0.416359 -0.136232 0.194960 0.511777 -0.139832 0.196644 0.859815 -0.099174 -0.647588 0.629982 0.400933 0.463476 0.253679 -0.660665 -0.193783 -0.322060
play 0.038505 0.023586 0.112443 -0.244214 -0.246417 0.074873 -0.180516 -0.867990 -0.517956 -0.106331 0.378223 0.558918 -0.354472 0.248729 0.233384 -0.232368 0.131504 0.111363 0.161605 0.216729 -0.597665 0.216687 -0.189127 -0.496861 0.464879 0.035877 -0.120133 -0.211254 0.351073 0.481597 -0.003713 -0.214977 0.537182 0.149821 0.074759 0.269766 -0.499250 0.245452 -0.001195 -0.186323 0.542455 -0.029812 -0.184131 0.818172 0.416178 0.528058 0.242262 -0.180232 0.196121 -0.176212
will 0.086333 -0.071259 -0.158898 -0.729267 -0.244555 0.366933 0.026926 -0.247011 -0.580204 -0.350319 0.424174 0.024838 0.622120 0.473475 0.309587 0.513738 -0.375741 0.326215 0.299318 -0.201125 0.288587 0.542888 0.077187 0.416936 -0.453748 0.255128 0.234259 0.395871 0.509032 0.621619 -0.065479 0.156074 0.180751 0.133363 -0.012009 0.686727 -0.667824 0.254417 0.138351 -0.023096 -0.026205 0.132789 -0.463495 0.185212 -0.263860 -0.094072 0.387171 -0.682199 -0.164686 -0.010265
forget 0.159140 0.472610 0.126319 0.084695 -0.297998 0.368229 0.102068 -0.058280 0.122922 -0.356791 0.171262 0.044193 0.055545 0.000740 0.579068 0.083443 0.305200 -0.220547 -0.183781 -0.567001 0.165312 0.347572 0.355101 -0.055735 -0.009527 0.083115 0.026451 0.216863 0.287206 0.256480 -0.276035 -0.541015 -0.235705 -0.203062 -0.141754 0.223214 0.076959 0.204414 -0.346333 -0.107193 -0.461808 0.068279 0.383369 -0.371504 -0.149134 -0.561059 0.276314 0.032494 0.501064 0.253253
it's 0.715294 -0.326399 -0.184525 0.753481 -0.008336 0.257821 -0.136370 0.786416 0.278874 -0.400259 -0.010654 1.154176 0.322170 0.295735 -0.084792 -0.424329 0.169793 -0.364508 0.623719 -0.475085 -0.016985 0.537819 0.034434 0.061064 -0.512901 0.398189 0.103961 -0.256200 1.243629 0.388245 -0.014649 -0.737589 0.780763 0.249119 -0.382112 0.244530 -0.182181 0.313830 -0.598672 0.137792 0.261999 0.374104 -0.093831 0.078233 0.510096 -0.140205 0.365910 0.143825 0.471295 0.270014
edit -0.404458 0.366277 0.339566 -0.417572 -0.263554 0.428628 0.025602 -0.246103 0.102266 -0.027631 -0.147735 -0.119479 0.621697 -0.158336 0.325172 0.337360 -0.075263 0.236641 -0.000676 -0.092917 0.259756 0.087246 0.184451 0.401901 -0.168027 0.455076 0.024602 0.228168 -0.688140 -0.654242 0.147389 0.193248 -0.359544 -0.034832 -0.165419 -0.634976 0.376866 -0.314750 -0.022160 -0.019648 -0.349906 -0.257496 -0.172227 -0.282677 -0.121479 -0.205167 -0.177717 -0.426886 -0.029189 0.251697
should 0.217636 -0.585409 -0.215900 0.393212 0.585909 0.140405 -0.600530 0.341625 1.010717 -0.522218 -0.487176 -0.122710 0.345735 0.893512 -0.690573 -0.283405 0.174641 -0.241922 0.595184 0.517171 -0.324546 0.257216 0.559303 0.554534 -0.865710 0.792365 0.059811 0.258565 0.003776 -0.352851 0.094431 -0.012008 0.224279 -0.076361 0.181883 -0.472101 0.618969 0.607591 -0.323677 0.647046 -0.300258 0.049284 0.078383 -0.921268 0.406275 -0.795103 -1.225762 0.213701 -0.150781 0.701699
daily -0.111743 0.171578 0.317992 0.870583 -0.408029 -0.244860 0.530197 0.221267 0.202552 0.130220 0.677330 -0.303034 -0.311675 -0.417232 -0.040893 -0.471793 -0.304169 0.362251 -0.732912 0.202647 0.077934 -0.249398 -0.361961 -1.069872 0.533895 0.133058 -0.138344 -0.117490 -0.165775 -0.001909 -0.057787 0.179390 -0.557081 0.072580 -0.429982 0.020491 0.320080 -0.608953 0.271270 0.311455 0.544838 -0.053540 -0.528619 0.440450 0.327870 0.025249 -0.246560 0.260323 -0.083435 -0.136393
each -0.264293 -0.232181 -0.264656 0.942591 0.227023 0.084508 -0.265782 0.231729 -0.622255 0.153308 0.699776 0.268560 0.252892 -0.064543 -0.526983 -0.832629 -0.736550 -0.313573 -0.280765 0.390198 0.444775 -0.842000 -0.293574 0.287793 -0.430182 -0.182555 -0.197952 0.003137 0.001166 0.155697 0.609751 0.219774 0.011952 0.193270 0.489097 0.070677 -0.269974 -0.196432 0.417127 0.172201 0.786988 0.639978 -0.613628 0.373116 0.305988 0.617683 0.577343 0.509526 -0.601689 -0.773203
goes -0.521499 0.208918 0.062681 -0.165898 -0.214075 -0.401791 -0.638034 -0.134318 -0.532561 -0.011866 0.856669 -0.268339 0.275530 -0.754039 -0.355169 0.023286 -1.403673 0.070353 -0.878167 0.636976 -0.262931 -0.874289 -0.025887 0.304044 -0.191164 -0.378232 -0.070826 0.072165 -0.196318 0.455578 -0.178892 0.349241 0.142609 -0.237817 0.611415 0.628558 -0.129614 -0.553044 0.476225 0.395374 0.643492 0.200298 -0.785817 0.335363 -0.511838 0.557049 0.439059 -0.202127 -0.752164 -1.321740
missed -0.141080 0.648116 0.118280 -0.371388 -0.121485 -0.086147 -0.317563 0.267423 0.596039 -0.208153 -0.001832 -0.545709 0.044463 -0.525987 0.095788 0.829244 -0.159036 -0.003315 -0.385346 0.306930 -0.553733 0.172929 0.306437 -0.178645 -0.098188 0.065291 0.104446 0.094452 -0.137792 0.098856 -0.787752 0.355520 0.301031 -0.416631 -0.305649 0.282532 0.197628 -0.049073 -0.423293 0.343316 -0.673852 0.016420 0.109147 -0.184344 -0.448046 -0.343158 -0.460379 -0.423120 -0.010939 -0.172660
repeating 0.027924 0.051296 -0.153997 0.152515 -0.076266 0.113043 0.084340 0.381329 -0.339461 -0.258490 0.214901 0.018233 0.016866 0.041301 0.065891 0.246694 -0.275321 0.287328 -0.004965 -0.022680 0.343202 0.253704 -0.001389 0.163163 -0.238792 0.049663 0.017137 0.149747 0.290860 0.046715 -0.058665 0.104768 0.148877 0.028535 -0.354434 0.296238 -0.669927 -0.225901 0.072803 -0.168930 -0.036105 0.346518 -0.538787 0.571531 -0.182933 0.038749 0.537456 -0.102670 0.014981 -0.077745
changed -0.466429 0.083224 0.309475 -0.189820 -0.273164 -0.025684 -0.332167 -0.908901 0.214092 -0.416589 -0.091288 0.265928 0.385356 0.265245 0.147580 -0.080156 0.144889 0.083853 -0.156559 0.541863 -0.388303 0.066545 -0.261730 -0.234840 0.026422 0.241984 0.174533 0.284871 -0.498363 -0.574509 0.124161 -0.473631 0.421273 -0.148425 0.370235 -0.361222 1.027623 0.367825 -0.158920 0.464813 0.257098 -0.448220 -0.478624 -0.344936 0.248202 -0.248175 -0.759401 -0.374505 -0.410874 0.308693
could 0.016837 0.602576 0.242938 -0.085661 -0.466532 0.291303 0.252091 -0.144651 0.402870 -0.350664 0.387890 -0.463423 0.165098 0.127428 0.517977 0.226256 0.119154 -0.029522 -0.277234 -0.904607 0.101089 0.194044 0.647365 0.041460 0.103699 0.252077 -0.034026 0.414474 0.216401 0.363349 -0.337872 -0.591055 -1.027349 -0.163820 -0.184100 0.350378 0.088567 -0.150455 -0.110195 -0.051566 -0.626504 0.031304 0.384344 -0.832476 -0.186131 -0.728560 0.080934 0.090791 0.449963 0.314833
there 0.648945 -0.005847 0.273676 -0.240420 -0.299500 -0.728811 0.792191 0.693857 0.066224 0.108680 0.026225 0.122459 -0.457892 -0.347867 -0.245488 0.315264 0.038715 0.491211 0.083495 -0.717449 0.153716 0.036465 -0.180217 -0.575622 0.581023 -0.139993 0.155621 -0.429817 0.403581 0.346268 -0.156441 -0.141213 -0.024005 0.139381 -0.629370 0.618495 -0.353880 -0.440781 0.064354 -0.071018 -0.035176 0.057511 0.101593 0.204120 0.101947 -0.064911 0.101725 -0.032327 0.597673 0.175211
through -0.527075 -0.733226 -0.062355 0.434478 0.877677 -0.235578 -0.040773 0.096656 -0.187279 0.650292 0.130453 0.432345 -0.077408 -0.042186 -0.701988 -0.724610 0.149891 -0.067716 0.137597 0.130793 -0.112431 -1.117616 -0.782318 -0.107132 0.058071 -0.337143 0.293271 -0.022816 0.086319 -0.135366 0.835219 0.167538 0.494869 0.378374 0.296571 0.166039 -0.032855 0.548749 0.522578 0.423847 0.764786 0.311748 -0.073788 0.310647 0.627868 1.035000 -0.093992 0.468703 -0.619414 -0.271510
end -0.178406 -0.189325 -0.553281 -0.773510 0.795293 -0.699326 -0.364862 0.207123 -0.102534 0.326347 -0.685951 -0.906537 -0.452526 -0.304021 -0.547826 0.738898 -0.167890 0.156093 -0.000872 0.216695 -0.470350 -0.190418 -0.576266 -0.024807 0.075364 -1.219197 0.446189 0.421511 -0.028419 0.194313 -0.572010 0.851783 1.051345 -0.211897 0.374524 1.077718 -0.157097 0.433638 -0.034621 0.103907 -0.374281 0.077752 -0.069838 0.130640 -0.836924 0.361437 -0.294311 -0.201568 -0.752029 -0.613366
like 0.277734 0.385827 -0.016299 -0.264676 -0.175170 0.095389 -0.010331 -0.776287 0.606500 -0.233152 0.518748 -0.342290 0.385548 0.310538 0.372241 -0.136823 -0.324119 -0.014478 0.033287 0.257839 -0.366373 0.728544 0.677372 -0.492200 0.070320 0.553065 -0.047297 0.122624 0.768371 0.791015 -0.900998 -0.570246 -0.391473 -0.160105 0.042917 0.486059 0.630628 0.257437 -0.190740 0.500783 0.413361 -0.543988 -0.232194 -0.668449 -0.109572 -0.723789 -0.901157 -0.296910 0.017378 0.082486
snooze -0.022579 -0.331762 0.026452 -0.011417 -0.227522 -0.171006 0.384554 0.084619 0.068123 -0.171617 -0.096493 -0.003044 -0.189604 0.452939 -0.020006 0.221805 0.079911 0.104248 -0.160606 -0.210057 0.166107 -0.200869 -0.185295 -0.020390 0.110904 -0.039274 -0.095334 -0.051679 -0.072399 -0.196737 0.333106 -0.195262 -0.635023 0.072004 -0.117098 -0.114566 -0.049294 -0.097866 0.363996 -0.075720 -0.234457 0.071296 0.084948 -0.115161 0.168030 -0.040171 0.197513 0.236165 -0.103835 0.163774
month -0.468103 0.485767 0.133270 0.060650 -0.124123 0.587316 -0.381229 -0.798126 -0.676077 -0.175365 0.602834 1.017240 0.470110 -0.256503 1.012384 -0.523850 0.068315 -0.156985 -0.410255 -0.029394 0.068726 0.062626 -0.407744 0.004757 -0.161694 -0.114382 0.156361 0.250134 0.049150 0.077412 0.166667 -0.388048 1.266577 -0.054456 0.552277 0.051622 0.024977 0.480396 -0.279861 -0.006508 0.881835 -0.085065 -0.421305 0.584764 0.179913 0.321928 0.581809 -0.637464 0.043353 -0.390471
name 0.463226 0.000069 -0.234999 -0.155914 0.362168 -0.054386 0.085959 0.059517 -0.444808 0.719948 -0.300793 -0.442810 -0.313681 -0.189955 -0.187803 -0.225020 0.269241 -0.217510 0.451143 -0.375181 0.323405 -0.130776 0.161220 0.273377 0.311441 -0.397544 -0.297129 -0.141778 -0.693170 -0.266463 0.108016 0.626081 -0.659301 0.239962 0.264851 -0.511810 -0.021337 -0.476333 0.228044 -0.746354 -0.114367 -0.129260 0.606476 -0.374810 -0.170649 0.077386 0.057887 0.277061 0.262563 0.007987
out 0.234996 0.023545 -0.066596 -0.080087 -0.334451 0.424670 -0.202745 -0.248359 -0.284348 -0.765990 -0.217048 0.714282 0.209863 0.539497 0.538043 0.058409 0.134112 -0.056590 0.439757 0.386844 0.331494 0.730739 0.096098 0.427644 -0.654586 0.353344 0.109216 0.064169 0.345600 -0.082429 0.040182 -0.431586 0.908805 -0.199029 -0.070953 -0.209886 -0.350054 0.625632 -0.487478 -0.053560 -0.278982 0.007376 0.068600 0.311934 0.061691 -0.469504 0.573946 -0.313533 0.396415 0.573708
which 0.277984 0.432243 -0.284520 0.021692 0.395232 0.132927 -0.132263 0.595697 0.164629 0.041530 -0.146334 -0.451032 -0.290546 -0.336406 0.111148 0.433220 0.224091 -0.131509 -0.020392 -0.196205 -0.008584 0.471296 0.227132 -0.156404 -0.140385 -0.189285 0.065883 -0.044933 0.381082 0.323065 -0.736365 0.336961 0.308708 -0.272633 -0.365240 0.573444 -0.612045 0.216536 -0.494444 -0.126898 -0.705220 0.398975 0.349664 0.125113 -0.485402 -0.115287 0.161514 0.063876 0.323997 -0.068328
stop 0.213949 0.425590 -0.080991 -0.396241 -0.185598 -0.010921 0.074816 -0.129000 -0.289843 0.095939 -0.316306 0.014635 -0.133903 -0.485775 0.439064 0.335346 0.157619 -0.222999 0.056835 -0.183074 0.109451 0.254605 -0.122171 -0.078730 0.298007 -0.561898 0.081418 -0.217252 -0.080937 0.121845 -0.315510 0.116884 0.299483 -0.208273 0.040858 0.043423 -0.088191 -0.086859 -0.332236 -0.395362 -0.303588 -0.199528 0.470866 0.085640 -0.512801 -0.050833 0.369383 -0.206524 0.409100 -0.006579
them -0.140685 0.704323 0.058475 -0.216934 -0.168981 0.532606 -0.148466 -0.166662 0.161184 -0.074287 -0.030254 -0.304841 0.007540 -0.527423 0.662705 0.532713 0.417885 -0.452034 -0.435691 0.209829 -0.150646 0.134227 0.111303 -0.252095 0.020336 -0.140964 0.001887 -0.044296 -0.376892 0.042458 -0.534485 0.383172 -0.041786 -0.238430 -0.196902 -0.332666 0.170636 0.261583 -0.407617 -0.044407 -0.795535 -0.079886 0.865282 -0.087169 -0.271470 -0.245777 0.237755 -0.235790 0.162247 -0.063423
reminder -0.217452 0.243486 0.349261 0.117603 -0.508335 0.247142 0.362370 -0.284358 -0.089611 0.303055 0.194096 0.033212 0.087707 -0.388363 0.349721 -0.135632 0.175474 0.111883 -0.179428 -0.226257 0.080229 -0.223516 -0.176084 -0.247763 0.313351 0.127449 -0.230247 -0.139286 -0.482386 -0.291075 0.148677 0.083757 -0.586725 0.015007 -0.217467 -0.544896 0.010152 -0.497754 0.018477 -0.337867 -0.093871 -0.170808 0.112433 0.119787 0.205630 0.095931 0.163475 0.012102 0.257426 0.136139
ones -0.029234 -0.203971 0.006026 -0.457814 -0.084206 -0.153911 -0.093393 0.078570 -0.266389 0.018666 -0.617799 0.305579 -0.257037 -0.354746 -0.101984 0.835193 0.351965 -0.221201 -0.035570 -0.066774 -0.268375 -0.366796 -0.527694 0.093433 0.090743 -0.763871 0.143558 -0.196345 -0.289471 -0.366608 0.162330 0.230815 0.777073 -0.172437 0.025157 0.001324 -0.269454 0.276179 -0.281003 -0.367102 -0.835704 0.100210 0.613831 0.413061 -0.156295 0.325452 0.624400 -0.010310 0.212914 -0.002016
<DATE>#1 -0.283020 -0.395583 -0.357885 -0.064557 0.455570 -0.428590 0.043267 -0.242553 -0.576522 0.445498 -0.128368 -0.329936 -0.560182 -0.124848 -0.542822 -0.137391 -0.004738 -0.118550 -0.164666 0.224412 -0.069608 -0.805361 -0.784756 -0.394045 0.455911 -1.049919 0.138906 0.064411 -0.233019 0.135425 0.275644 0.553520 0.256819 0.253613 0.547863 0.494490 -0.141976 0.277598 0.444576 -0.040721 0.262381 0.186127 0.118524 0.336270 -0.024703 0.798576 0.106215 0.375344 -0.680678 -0.549035
move -0.082786 0.171112 0.071558 -0.136382 -0.168684 0.384019 0.068685 -0.084082 -0.207922 -0.290227 -0.009300 0.181042 0.293148 0.306645 0.397914 -0.007019 -0.043213 0.093179 0.187795 -0.024108 0.476200 0.262662 0.294511 0.526754 -0.340106 0.287042 0.046529 0.201572 -0.030158 -0.177724 0.213553 -0.296254 -0.156019 -0.068418 -0.054085 -0.307400 -0.101240 0.025357 0.061706 -0.046814 -0.059682 -0.060424 -0.027327 -0.044629 -0.108618 -0.254884 0.241264 -0.195034 0.152778 0.259285
plays -0.134999 -0.196872 0.083797 -0.011644 -0.217781 -0.328216 -0.008272 -0.481264 -0.918131 -0.017819 0.464172 0.677506 -0.708219 0.088550 0.064435 -0.273439 -0.047738 0.048474 -0.274215 -0.047841 -0.322882 -0.422319 -0.577909 -0.378058 0.605373 -0.678867 0.020179 -0.180199 0.423951 0.296586 0.330134 -0.571506 0.631445 -0.047388 0.245985 0.604135 -0.615035 -0.059545 0.447202 -0.283370 0.703841 0.205878 -0.243387 1.021048 0.192233 0.778690 0.984110 0.155063 0.082854 -0.627912
traffic 0.767084 -0.359296 -0.058199 0.255772 0.118416 -0.044108 0.126222 0.860572 0.015936 -0.093342 -0.273035 0.896453 -0.092873 -0.018259 -0.168042 0.031026 0.393022 -0.244065 0.631398 -0.914643 0.191893 0.244962 -0.076186 0.183658 -0.105959 -0.099192 0.159785 -0.306654 0.823764 0.250388 0.154311 -0.443155 0.713866 0.232474 -0.363082 0.437666 -0.393116 0.222545 -0.412316 -0.273287 -0.204813 0.414750 0.359641 0.014113 0.339268 -0.023735 0.479933 0.087778 0.749374 0.319501
<ORDINAL>#1 -0.310606 0.051710 0.162069 0.082520 -0.075248 0.308814 -0.103331 -0.518095 -0.504013 0.195722 -0.355301 0.839470 0.030160 -0.529346 0.316463 -0.126445 0.748082 -0.472968 -0.175046 0.011452 -0.099096 -0.432577 -0.836932 -0.270093 0.277922 -0.711005 0.170799 -0.237695 -0.844963 -0.788725 0.546487 0.171898 1.026075 -0.010705 0.395264 -0.635037 0.380890 0.391564 -0.433583 -0.371395 -0.150606 -0.172575 0.608147 0.332024 0.331842 0.413617 0.360400 0.004872 0.359252 0.089613
about 0.012971 0.547363 0.227497 -0.151151 -0.337242 0.532287 0.259787 0.015508 -0.130337 -0.269689 0.497646 0.217614 0.222078 -0.171089 0.852044 0.263262 0.077898 -0.031452 -0.205549 -1.111688 0.352356 0.241088 0.302358 0.110558 -0.084031 0.145690 0.165434 0.169812 0.477565 0.408419 -0.171521 -0.543947 -0.143576 -0.085382 -0.234114 0.403164 -0.275293 0.018019 -0.108104 -0.225003 -0.335575 0.063806 0.362521 -0.029112 -0.098738 -0.350389 0.637589 -0.186610 0.551042 0.110664
see -0.034626 0.430891 -0.240193 0.287983 0.488255 0.695395 -0.614568 0.357638 0.785719 -0.041261 -0.141367 -0.425953 0.410848 0.183707 0.274158 0.162735 0.132919 -0.415225 0.112837 0.461131 0.031180 0.849452 0.706494 0.353373 -0.750272 0.729521 -0.103947 0.135922 0.182433 -0.051571 -0.594654 0.163555 -0.173465 -0.245221 -0.325688 -0.413233 0.339439 0.509400 -0.506573 0.382748 -0.470126 0.086727 0.118049 -0.460494 -0.356019 -0.534233 -0.474953 -0.057490 -0.144696 0.198120
rid 0.498581 0.665426 -0.345517 0.714681 0.397481 0.482156 -0.270917 0.399437 -0.321249 -0.333528 -0.479922 -0.386157 -0.369253 0.093596 0.037786 -0.429949 0.413396 -0.426253 0.314902 1.193006 0.564249 0.934323 0.460344 0.274700 -0.634829 0.180785 -0.314039 -0.156166 -0.591760 -0.618789 -0.708214 0.335710 0.303822 -0.587172 -0.169424 -0.892868 -0.217503 0.139732 -0.869353 -0.456398 -0.641304 0.451901 0.257231 0.095181 -0.352698 -0.690244 0.289925 0.183481 0.317645 0.386465
keep 0.104492 0.477331 0.197806 -0.316343 0.117206 0.374931 0.097384 -0.181139 -0.101776 0.712373 -0.193977 0.199809 0.149271 -0.724337 0.580724 -0.313104 0.264981 0.091852 0.438908 -0.741676 0.035086 0.087939 0.167410 -0.042624 0.343435 -0.113730 0.057230 -0.317650 -0.230019 -0.012080 -0.062057 0.318883 0.149390 0.073600 -0.088105 -0.347753 -0.158341 -0.348199 -0.165777 -0.380545 0.037949 -0.445720 0.594207 -0.000805 -0.133301 0.229469 -0.174007 -0.299284 0.626067 0.183684
instead -0.331926 0.204075 -0.065757 0.485642 -0.136643 0.393003 -0.054224 -0.428995 -0.482412 0.213478 0.368740 0.126242 0.241568 -0.244496 0.058259 -0.543823 -0.258093 -0.165915 -0.136366 0.664774 0.479444 -0.167982 -0.476410 -0.237751 -0.157326 0.093884 -0.114623 -0.237935 -0.277042 0.103252 0.068384 0.330578 0.176575 0.208081 0.141273 -0.250758 -0.055211 0.204169 -0.130083 0.022521 0.418852 0.176908 -0.218649 0.487582 0.158300 0.353249 0.383645 0.089034 -0.337723 -0.367365
sunny 0.347322 -0.393626 -0.164000 0.741142 0.247268 0.175299 -0.241152 0.304476 0.029419 -0.211263 0.114835 0.936320 0.065063 0.237477 -0.157582 -0.762908 0.144331 -0.388700 0.368524 -0.020702 -0.092398 0.060522 -0.179624 -0.097547 -0.313540 0.144955 0.122347 -0.220192 0.852531 0.377904 0.237031 -0.438327 0.813984 0.243029 0.065700 0.157541 -0.134616 0.528193 -0.312085 0.246485 0.481228 0.277463 0.090460 0.246855 0.579373 0.163011 0.236566 0.294347 0.229328 0.093408
sound -0.134662 0.171009 0.148246 -0.534124 -0.191026 0.113224 0.055865 -0.034692 -0.219801 -0.317379 -0.067016 0.206526 0.116173 0.114709 0.361700 0.695185 -0.012944 0.420116 0.127907 0.029328 0.127803 0.410521 0.028686 0.207270 -0.158492 0.231026 0.183292 0.117082 0.118029 -0.113469 -0.089665 -0.055871 0.555333 -0.116509 -0.404755 0.170135 -0.523737 0.135133 -0.079330 -0.057510 -0.280445 0.075592 -0.419257 0.475538 -0.171060 0.036391 0.268927 -0.667311 0.104365 0.170135
so 0.046110 0.027184 -0.122443 -0.516504 0.236750 -0.161312 -0.296282 -0.038159 -0.338275 0.453308 0.270469 -0.318618 0.097115 -0.398445 -0.272531 0.008514 -0.436939 0.081080 0.092334 -0.203644 -0.212267 -0.296336 -0.018225 0.172193 -0.015428 -0.389950 0.046738 0.095642 -0.059585 0.348591 -0.188528 0.533115 0.178468 0.047336 0.283818 0.521628 -0.183622 -0.218534 0.174354 0.020069 0.266677 0.041802 -0.096980 -0.050416 -0.212438 0.361385 -0.000771 -0.214697 -0.222750 -0.595931
would 0.209765 0.374446 0.076972 -0.163610 -0.152299 0.003234 0.140689 -0.339489 0.775715 -0.363450 0.371058 -0.615809 0.154423 0.448542 0.240666 0.137304 -0.079537 0.040135 -0.094549 -0.314199 -0.213562 0.549247 0.814197 -0.291602 0.090652 0.480659 -0.013763 0.283094 0.577225 0.603675 -0.715382 -0.686374 -0.858481 -0.176372 -0.126322 0.503157 0.507514 0.103396 -0.083168 0.360426 -0.142617 -0.309472 0.053871 -1.016551 -0.196883 -0.883127 -0.766471 0.000799 0.188815 0.279681
rings -0.578895 -0.475343 0.086076 -0.044837 0.132607 -0.245153 -0.265291 0.014965 -0.479572 -0.151925 0.254926 0.321635 0.057660 0.027193 -0.270245 -0.024691 -0.600570 0.260348 -0.280978 0.079492 -0.113180 -0.730658 -0.379931 0.553340 -0.213422 -0.149230 0.193389 0.407922 0.032020 -0.182496 0.498598 -0.174918 0.637323 -0.078502 0.323004 0.409766 -0.257828 0.054394 0.487835 0.105808 0.525507 0.274650 -0.826953 0.556351 0.077817 0.468419 0.462667 -0.131511 -0.566947 -0.550005
alexa -0.152818 0.200255 0.248460 -0.225703 -0.036385 -0.157618 0.256234 -0.192652 0.223323 0.064661 0.158619 -0.098818 -0.190379 -0.225056 0.374916 -0.114088 -0.058472 0.296098 -0.281543 -0.207833 -0.132566 -0.017245 0.260475 -0.355031 0.463567 0.011758 0.161141 -0.047606 0.024335 0.178282 -0.121030 -0.393725 -0.294963 0.009059 -0.077061 0.069217 0.330636 -0.174740 0.286865 0.236925 0.353057 -0.558787 0.121479 -0.059254 -0.162151 0.002961 -0.323024 -0.090702 0.218352 -0.003532
start -0.354701 -0.079753 -0.332363 -0.314421 0.253860 -0.106180 -0.212444 0.041708 -0.063983 0.135545 -0.041809 -0.669608 0.058021 -0.200295 -0.184448 0.325210 -0.365267 0.045550 -0.254678 0.375564 -0.032970 -0.141372 -0.213311 0.074100 -0.110609 -0.435435 0.233793 0.341096 -0.064109 0.177948 -0.247951 0.424535 0.055488 -0.051925 0.204450 0.475334 0.084199 0.241902 0.232690 0.309262 -0.056090 -0.016421 -0.204204 0.010159 -0.535215 0.206333 -0.070919 -0.034515 -0.763446 -0.508234
switch -0.194990 0.313287 -0.123595 -0.515602 -0.468190 0.020031 -0.164843 -0.240000 -0.174703 -0.182251 -0.141523 -0.340796 0.445252 -0.179075 -0.040550 0.705435 -0.414807 -0.051180 -0.107159 0.639147 0.080258 0.041394 -0.068764 0.211049 -0.291777 -0.092199 -0.013174 0.002680 -0.326071 -0.052250 -0.275864 0.557538 -0.159614 -0.197512 0.119568 -0.128807 -0.090727 -0.123775 -0.107638 0.054699 -0.456676 -0.067754 -0.051239 -0.099659 -0.530013 -0.097486 0.221195 -0.297728 -0.443173 -0.211927
timer 0.312362 -0.306896 0.030344 -0.176823 -0.358146 -0.379648 0.468285 -0.097272 -0.199231 0.014477 -0.052990 0.419799 -0.347977 0.091572 0.129013 -0.038247 0.071069 0.185776 0.074392 -0.175541 -0.052567 -0.050153 -0.248658 -0.415617 0.545068 -0.304822 -0.059509 -0.401228 -0.009786 0.069602 0.215812 -0.135474 -0.063530 0.185562 -0.051033 -0.021368 -0.109899 -0.345210 0.242039 -0.222907 0.343503 -0.287973 0.100689 0.342446 0.181173 0.125825 0.234861 -0.021671 0.250231 0.144359
disable -0.043856 0.299076 -0.126931 0.042469 -0.050580 0.434801 -0.153013 -0.093218 -0.220822 -0.047758 0.090654 0.056734 0.236588 -0.127324 0.396931 0.070482 0.085973 -0.403446 -0.079382 -0.185115 0.243593 0.006019 0.073904 0.277146 -0.130616 -0.156876 0.008895 0.104565 -0.069653 0.143249 -0.025622 0.123038 -0.014147 -0.007284 0.222477 -0.040143 -0.089527 0.142239 -0.160420 -0.146066 -0.226138 0.144097 0.427524 -0.170056 -0.153970 -0.121970 0.409602 -0.073070 0.137011 -0.104359
more 0.455483 -0.427716 -0.548622 0.398645 0.357744 -0.070822 -0.336367 0.122013 0.000161 -0.140885 -0.033322 0.256403 -0.052083 0.458393 -0.215285 -0.476745 0.043141 -0.567225 0.173381 0.397323 0.073734 0.331436 -0.006414 -0.056463 -0.246025 -0.188492 0.006875 -0.200182 0.647331 0.593879 -0.074054 -0.193264 0.342405 0.130215 0.456767 0.362495 0.108617 0.618597 -0.198656 0.259855 0.486452 0.066379 0.300826 -0.188483 0.021250 -0.162419 0.081158 0.365709 -0.199834 -0.021157
i'd 0.321647 0.496959 -0.089681 -0.182500 -0.200263 0.286640 -0.037805 -0.761789 0.512360 -0.252642 0.481006 -0.230404 0.530489 0.367137 0.457291 -0.250489 -0.236697 -0.134422 0.094153 0.225544 -0.156287 0.869001 0.672309 -0.380731 -0.130580 0.571166 -0.096593 0.093261 0.732468 0.769716 -0.845785 -0.541671 -0.361650 -0.125860 0.063409 0.302354 0.617643 0.288381 -0.329454 0.435301 0.439896 -0.525203 -0.158334 -0.718135 -0.133300 -0.814879 -0.795180 -0.287538 0.030299 0.141299
google -0.122920 0.335032 0.032754 -0.199251 0.189361 -0.249436 0.215486 -0.266649 0.349936 0.198869 0.181731 -0.263540 -0.301669 -0.323909 0.412045 -0.369329 0.099555 0.136708 -0.325829 -0.186884 -0.278875 0.115459 0.488511 -0.628276 0.752642 -0.235204 0.290746 -0.196286 0.161252 0.495405 -0.371819 -0.581950 -0.309420 0.027570 0.211736 0.135943 0.655840 -0.107664 0.183836 0.386264 0.655252 -0.822319 0.316878 -0.351294 -0.375265 0.009243 -0.773349 -0.034469 0.243831 0.004218
erase -0.075974 0.607053 0.076151 0.030746 -0.208491 0.514283 -0.032961 0.070257 0.045795 0.038704 0.016920 -0.171661 0.154270 -0.448266 0.578049 0.257566 0.109211 -0.288969 -0.251541 -0.060971 0.267411 0.238637 0.322104 0.152215 -0.064035 0.052769 -0.096324 -0.052851 -0.268138 -0.042567 -0.296261 0.173737 -0.286128 -0.171907 -0.192762 -0.339498 -0.048472 -0.137863 -0.301659 -0.216227 -0.507862 -0.005044 0.497603 -0.067708 -0.374177 -0.257507 0.322125 -0.106050 0.387300 0.031139
siri -0.098930 0.086287 0.226123 -0.167089 -0.074715 -0.273774 0.220609 -0.211768 0.253365 0.023707 0.159823 -0.112644 -0.213543 -0.045287 0.196571 -0.155654 -0.025466 0.288271 -0.212528 -0.106065 -0.177621 -0.006642 0.214700 -0.370262 0.463511 0.074858 0.133314 -0.035524 0.036102 0.145986 -0.052497 -0.479714 -0.323752 0.038132 -0.019457 0.067815 0.412667 -0.209177 0.318157 0.249216 0.416924 -0.499283 -0.087127 -0.173079 -0.089507 -0.070064 -0.494788 -0.057297 0.112626 0.042149
when 0.401581 0.158541 -0.076065 -0.513957 -0.148383 0.315812 0.041343 0.127617 -0.319332 -0.285264 0.076359 0.224983 0.370140 0.248690 0.495920 0.413775 0.024915 0.013686 0.387329 -0.583481 0.375482 0.703258 0.241724 0.469374 -0.304714 0.070232 0.152965 0.199918 0.276901 0.275869 -0.139405 -0.141548 0.312535 -0.009030 -0.120192 0.310137 -0.217647 0.217027 -0.156698 -0.213072 -0.235764 0.039372 0.010598 -0.224156 -0.246446 -0.409957 0.325998 -0.523490 0.317122 0.234384
who 0.366635 0.195557 -0.061854 -0.052778 -0.150428 0.107046 -0.013601 -0.054772 0.162415 -0.346422 0.245201 0.237191 0.178278 0.233913 0.315074 -0.009565 0.150678 -0.216481 0.138602 -0.515945 0.027597 0.458374 0.248964 -0.071662 -0.080146 0.127056 0.140801 0.057388 0.692896 0.577628 -0.292006 -0.643221 0.058798 0.000565 0.008876 0.603916 -0.027177 0.295966 -0.301747 0.099018 -0.056461 0.067876 0.250788 -0.429307 -0.034030 -0.447448 0.127024 -0.057920 0.353953 0.192518
add -0.082389 0.032120 0.172473 0.519854 -0.366390 -0.250508 0.433913 -0.071364 -0.095309 0.041926 0.509904 -0.020639 -0.344908 -0.195709 0.132804 -0.446977 -0.151631 0.072487 -0.721459 -0.001190 0.129569 -0.298412 -0.146990 -0.671851 0.578974 -0.158163 -0.139113 -0.228671 -0.075547 0.131439 0.166264 -0.281588 -0.549522 0.065821 -0.022878 -0.016196 0.239842 -0.469517 0.369568 0.032807 0.572871 -0.183650 -0.130501 0.291873 0.111470 0.127188 0.149672 0.361691 0.068738 -0.240270
that's -0.010772 -0.106602 -0.020641 -0.409811 -0.274043 -0.243223 0.456511 -0.279496 -0.360241 0.308293 0.001715 -0.101860 0.129012 -0.006766 -0.150571 -0.082479 -0.247523 0.344724 0.143133 -0.105825 0.290680 -0.267758 -0.225286 -0.023575 0.258592 -0.204448 -0.023568 -0.175631 -0.230847 -0.047033 0.288930 0.209749 -0.467670 0.143794 0.135339 -0.098027 -0.100647 -0.458191 0.395437 -0.206409 0.290030 -0.239373 -0.082573 -0.056035 -0.005811 0.192237 0.099514 0.019967 -0.132944 -0.072096
another 0.131757 -0.166124 -0.033133 0.255289 -0.156629 -0.029386 0.467286 -0.512511 -0.407305 0.341208 0.029833 0.423254 -0.355192 -0.127850 0.159776 -0.623856 0.436670 -0.068329 -0.050181 -0.090334 0.205446 -0.344215 -0.565914 -0.690236 0.609254 -0.403361 -0.168253 -0.425693 -0.385473 -0.116474 0.534447 0.029819 -0.016537 0.277352 0.311840 -0.425305 0.112159 -0.090898 0.084773 -0.380101 0.377716 -0.235737 0.429213 0.233359 0.550026 0.306222 0.201989 0.384221 0.328524 0.053331
let 0.203486 0.273220 -0.427049 0.692222 0.441414 0.819254 -0.280668 0.549425 0.298650 -0.212317 0.142183 -0.356649 0.302633 0.529402 0.351097 -0.027405 0.208584 -0.691177 -0.090256 -0.137722 0.550950 0.785708 0.520067 0.458890 -0.806657 0.368955 -0.231523 0.243233 0.512267 0.229976 -0.297480 -0.097971 -0.514018 -0.304362 -0.151404 -0.044335 -0.004089 0.549811 -0.365059 -0.058162 -0.451277 0.489733 0.228130 -0.526639 -0.319590 -0.629778 0.258331 0.352988 0.019441 0.027189
level 0.300693 0.451957 -0.319267 0.260338 -0.407942 -0.148010 -0.066680 -1.177670 -0.907550 0.347950 0.445039 0.136993 -0.288274 0.203074 0.222079 -1.145892 -0.024503 -0.233432 0.123207 0.745316 -0.021127 0.511165 -0.212943 -0.745412 0.598597 -0.408011 -0.392747 -0.466188 -0.105354 0.463254 -0.342692 -0.171213 -0.143985 0.112308 0.675818 -0.044912 0.112780 -0.331268 0.014461 -0.409469 1.130383 -0.250543 -0.317834 0.181565 0.081204 0.216931 0.133974 0.122686 -0.119164 -0.292186
going 0.249384 0.143683 -0.146180 -0.094715 -0.270294 0.114735 -0.279764 -0.249623 0.113890 -0.171372 0.304353 0.349687 0.543464 0.044305 0.023686 -0.239427 -0.281629 -0.170212 0.263536 0.294580 -0.216986 0.260430 0.161192 -0.058161 -0.287443 0.293745 0.012730 -0.183581 0.573721 0.547136 -0.320930 -0.140768 0.057411 0.130097 0.107185 0.201276 0.090660 0.109002 -0.191526 0.363183 0.389363 -0.080136 -0.061498 -0.198032 0.014597 -0.062410 -0.014915 -0.179302 -0.140027 -0.103330
also -0.305656 -0.508565 -0.228622 -0.162039 0.377767 -0.410829 0.139619 -0.073457 -0.448712 0.417157 -0.318746 -0.154847 -0.557263 -0.129191 -0.483245 0.154074 0.176967 -0.033811 -0.180443 0.174291 -0.098558 -0.917655 -0.826997 -0.282638 0.422449 -1.025997 0.144301 -0.008418 -0.347776 -0.156928 0.445737 0.552300 0.244301 0.223232 0.332482 0.195037 -0.199212 0.225697 0.445239 -0.100001 -0.005499 0.158115 0.334926 0.417436 0.051138 0.815900 0.277537 0.319337 -0.516135 -0.355065
give 0.139773 -0.348756 -0.247540 0.836082 0.113494 0.197152 0.228404 0.804501 0.220470 -0.298498 0.184485 -0.239458 -0.039983 0.620242 -0.112235 -0.036636 0.062504 -0.303793 -0.302901 -0.288455 0.591853 0.187662 0.276999 0.365533 -0.409910 0.252442 -0.204039 0.235848 0.477566 0.028821 0.268090 -0.425343 -0.866102 -0.104896 -0.244406 0.017765 -0.135385 0.037407 0.248084 -0.076208 -0.193431 0.489563 -0.145004 -0.282328 -0.045487 -0.379237 0.361525 0.616860 -0.056400 0.046047
must 0.118524 -0.079149 -0.320427 0.624875 0.312259 0.288098 -0.383400 0.133236 0.396453 -0.317284 0.091761 -0.064137 0.205282 0.415648 -0.035681 -0.530611 -0.101202 -0.403997 0.035808 0.396759 0.117358 0.352125 0.442834 0.168427 -0.499416 0.374447 -0.042798 0.098201 0.316381 0.237577 -0.147063 -0.202814 -0.052106 -0.043667 0.266662 -0.099867 0.403918 0.435149 -0.203469 0.448073 0.191241 0.017908 0.109650 -0.399407 -0.003085 -0.488018 -0.373694 0.317969 -0.130343 0.148678
no 0.376489 0.067363 -0.320393 0.209001 0.385153 0.037737 -0.225145 0.354057 0.161394 -0.071624 0.049536 -0.070706 -0.186942 -0.009363 0.017517 -0.052511 0.125748 -0.420653 0.021692 -0.124051 -0.048936 0.275915 0.171953 -0.118222 -0.109486 -0.211588 0.099469 -0.081946 0.538691 0.600375 -0.395646 -0.022377 0.347474 -0.071044 0.072393 0.556022 -0.118221 0.431284 -0.318791 0.121987 -0.099447 0.227164 0.452485 -0.143368 -0.148959 -0.192824 0.027990 0.171260 0.200024 -0.087714
freeway 0.721113 -0.044576 0.051945 -0.235480 -0.196451 -0.083542 0.104448 0.297897 -0.152678 -0.120593 -0.482400 0.715799 -0.029056 -0.013966 -0.068293 0.223829 0.434465 -0.188300 0.722159 -0.677874 0.038703 0.350675 -0.022462 0.162083 0.072747 -0.166423 0.036285 -0.354339 0.273576 -0.021199 0.071657 -0.303354 0.613760 0.031349 -0.159807 0.097466 -0.164945 0.071383 -0.495327 -0.422193 -0.411193 0.137916 0.422732 -0.171964 0.158006 -0.206553 0.282754 -0.055744 0.801003 0.507250
other 0.215280 0.524018 -0.138060 -0.057886 0.094820 0.516606 -0.064063 -0.163794 -0.260699 0.230442 -0.156712 0.208393 -0.073452 -0.563873 0.773790 0.128586 0.516338 -0.551260 0.012284 -0.316605 0.141949 0.198210 0.033246 -0.071236 0.161766 -0.346018 -0.024492 -0.418016 -0.126046 0.225588 -0.311681 0.218306 0.315759 -0.104883 0.088476 -0.254321 -0.250875 0.297857 -0.574642 -0.455607 -0.507767 -0.162246 1.113567 0.221434 -0.214979 0.013192 0.611727 -0.054149 0.695419 0.077204
ringer 0.048750 0.107786 0.067791 0.225770 -0.227560 0.050297 0.088260 -0.022369 -0.081797 0.000710 0.161645 0.067351 0.072594 -0.170351 0.041560 -0.143006 -0.116733 -0.050688 -0.132893 0.125339 0.103079 0.036230 -0.084659 -0.150006 0.014559 -0.002236 -0.106618 -0.119920 -0.071654 0.020144 -0.023385 0.026127 -0.047026 0.016209 -0.019676 -0.122793 0.138795 -0.138231 -0.088005 0.015405 0.136045 -0.043829 -0.079728 0.096399 0.031847 -0.066150 0.035946 0.027523 0.030141 0.000762
bit 0.686389 -0.306646 -0.584519 0.725234 0.303317 0.009642 -0.056506 0.495380 -0.160841 -0.031503 0.184397 0.272562 -0.114472 0.405350 -0.156743 -0.531504 0.039526 -0.483570 0.232794 0.037013 0.321120 0.490913 0.002370 -0.121492 -0.281331 -0.176566 -0.126505 -0.164940 0.846404 0.624891 -0.095423 -0.128848 0.222677 0.147203 0.156221 0.437544 -0.290273 0.271730 -0.206524 -0.081450 0.464051 0.353999 -0.018735 0.091148 0.067499 -0.135381 0.371881 0.412742 0.027705 -0.005390
made 0.573296 0.140945 -0.069378 -0.234390 0.338234 -0.474781 0.025864 0.241476 0.701386 -0.105413 0.147930 -0.305118 -0.382847 0.229222 -0.111405 0.063764 0.099929 0.040767 0.159465 -0.490588 -0.647593 0.292606 0.462486 -0.514945 0.313590 0.022088 0.052476 -0.082278 0.582857 0.762415 -0.623159 -0.268331 -0.071530 0.015048 -0.133529 0.759797 0.151926 0.020321 -0.058899 0.294466 0.086438 -0.188745 0.396549 -0.535045 0.059452 -0.352330 -0.801513 -0.039342 0.355414 0.077766
only 0.136878 0.062180 0.103756 -0.169206 0.074521 0.084938 0.054297 0.120157 0.205541 0.158556 -0.400059 0.141624 -0.046156 -0.257543 0.118822 0.074078 0.308123 -0.066935 0.244713 -0.203947 -0.146730 -0.037016 0.129693 -0.019296 0.135357 -0.049426 0.082300 -0.254478 -0.086930 -0.138012 -0.032847 0.050610 0.160257 -0.022374 -0.169816 -0.249456 -0.012783 0.020902 -0.197243 -0.087417 -0.358944 -0.184986 0.540277 -0.057346 -0.017798 0.009418 -0.130615 0.010589 0.328775 0.323829
did 0.498925 0.239363 0.016449 -0.263892 0.176236 -0.122081 -0.059675 0.109267 0.524763 -0.236694 0.109906 -0.107327 -0.174973 0.195390 0.169452 0.195869 0.174685 0.017432 0.274446 -0.509028 -0.374626 0.566523 0.549796 -0.337342 0.225900 0.209896 0.213762 -0.005400 0.536722 0.629574 -0.597030 -0.373419 0.114561 -0.009837 -0.184829 0.684012 0.145762 0.158746 -0.183362 0.263276 -0.131381 -0.126512 0.279043 -0.560439 -0.057071 -0.478354 -0.630430 -0.285875 0.491992 0.286311
again -0.013551 -0.335312 -0.388672 0.214671 0.294391 -0.020056 0.163402 0.197722 -0.397147 0.169690 -0.178185 -0.162081 -0.365675 0.153751 -0.227692 0.046245 0.167263 -0.270120 -0.136583 -0.003691 0.303931 -0.427391 -0.433714 -0.033459 0.068679 -0.643459 0.003805 -0.014401 -0.077143 0.047505 0.328240 0.340331 -0.107780 0.118258 0.233327 0.139413 -0.321465 0.226573 0.249998 -0.256988 -0.171818 0.344643 0.404023 0.209002 -0.019670 0.308443 0.491936 0.504386 -0.237262 -0.248160
enable 0.193922 0.371776 -0.090645 -0.097947 -0.273859 0.158715 -0.096052 -0.249536 0.003176 -0.152851 0.215771 -0.055307 0.256780 0.166496 0.263336 -0.080670 -0.152459 -0.161936 0.073010 0.085805 0.128266 0.484005 0.351060 0.034304 -0.104026 0.225743 -0.088109 0.015442 0.245351 0.313224 -0.358333 -0.250556 -0.310057 -0.074791 0.123997 0.096019 0.148400 -0.025276 -0.154961 0.059192 0.088516 -0.080946 0.010916 -0.352880 -0.222237 -0.384369 0.029522 -0.146045 0.050845 0.060513
scheduled 0.182946 -0.172922 0.174135 -0.330320 -0.131398 -0.330318 0.485953 0.053538 -0.009559 0.334492 0.066556 0.010623 -0.120349 -0.018154 -0.047513 -0.007127 0.048239 0.399979 0.223695 -0.535089 -0.036502 -0.192099 -0.173403 -0.244583 0.370930 -0.002076 -0.037200 -0.119558 -0.033031 0.019385 0.175285 0.061082 -0.396501 0.147936 -0.169012 0.067928 -0.144240 -0.425731 0.300924 -0.165711 0.117565 -0.145318 -0.039169 -0.042461 0.175365 0.147957 -0.153966 -0.081130 0.233841 0.066021
sleep 0.268775 -0.183978 -0.432612 0.582941 0.250958 0.226083 -0.195119 0.147855 0.126173 -0.170006 0.285565 -0.190010 0.166495 0.803011 -0.066264 -0.466983 -0.094155 -0.428644 0.037792 0.336749 0.405186 0.630894 0.344521 0.246073 -0.486680 0.352348 -0.223023 0.053886 0.562028 0.435754 -0.098094 -0.307765 -0.586426 -0.004590 0.238463 0.115373 0.167365 0.349138 0.020119 0.157302 0.343055 0.199684 -0.120676 -0.489133 -0.073363 -0.449937 -0.032944 0.361646 -0.332391 0.006548
ringing 0.250212 0.570626 -0.043586 -0.334675 -0.286543 0.148883 -0.008505 -0.221487 -0.252495 -0.027121 -0.202828 0.242429 0.067628 -0.502739 0.611224 0.245835 0.178259 -0.360472 0.038357 -0.185194 0.135072 0.362137 -0.001904 -0.045513 0.191403 -0.410340 0.073370 -0.278525 -0.035509 0.178468 -0.346684 -0.038663 0.368228 -0.229752 0.090144 -0.035743 0.020813 0.018705 -0.489180 -0.333539 -0.251141 -0.224718 0.539264 -0.026204 -0.463063 -0.161597 0.416338 -0.254706 0.536888 0.050222
already 0.527419 0.045975 -0.212709 -0.012326 0.490436 -0.518603 -0.130777 0.280043 0.744290 -0.133953 0.234632 -0.390499 -0.301508 0.409706 -0.268962 -0.132417 -0.037994 -0.080314 0.072002 -0.229822 -0.589895 0.352201 0.496769 -0.418706 0.142526 0.057386 0.000462 -0.004519 0.746356 0.863578 -0.623287 -0.370478 -0.137051 -0.019913 0.038547 0.806514 0.317400 0.128757 0.005432 0.445405 0.365194 -0.135230 0.197337 -0.620361 -0.009868 -0.369912 -0.839574 0.121917 0.069137 -0.096971
know 0.384436 0.182970 -0.243671 0.051986 0.136926 0.076132 -0.512813 -0.089447 0.579872 -0.317258 -0.040755 -0.068117 0.222949 0.479353 -0.024312 -0.145540 0.060080 -0.296729 0.370334 0.406869 -0.343051 0.850301 0.529567 -0.125875 -0.309628 0.468740 -0.035161 -0.014696 0.504903 0.382091 -0.594483 -0.306942 0.097100 -0.092113 0.109223 0.144602 0.501203 0.456435 -0.453357 0.476677 0.053568 -0.131273 0.074426 -0.624630 -0.130259 -0.616825 -0.714571 -0.022318 -0.072708 0.325609
awake -0.133511 -0.484977 -0.143931 0.141271 0.207308 0.197513 -0.457141 -0.189847 0.467147 -0.394723 -0.080374 0.068163 0.393244 0.902951 -0.259555 -0.305902 -0.129581 0.014098 0.402468 0.681205 -0.156918 0.202857 0.294049 0.446340 -0.713319 0.735337 0.025965 0.296594 0.233843 -0.103881 0.199166 -0.137209 0.005652 0.062262 0.156242 -0.293509 0.226900 0.514556 0.096154 0.556045 0.167270 -0.046377 -0.364190 -0.303407 0.304904 -0.337585 -0.641646 -0.074909 -0.515540 0.418705
clock 0.149832 0.471034 0.097324 -0.561766 -0.388316 0.155142 -0.120718 -0.673801 0.136144 -0.356137 -0.078617 0.264846 0.292264 0.088905 0.616320 0.238500 0.118887 0.060606 0.191286 0.227336 -0.175873 0.774398 0.252274 -0.272804 0.049815 0.322532 0.105890 -0.038784 0.098089 0.153077 -0.541958 -0.374594 0.336097 -0.047009 -0.040635 0.005585 0.339493 0.271902 -0.433342 0.161703 0.028667 -0.482114 -0.006371 -0.216613 -0.160793 -0.447753 -0.304360 -0.628098 0.217091 0.281957
deactivated 0.285792 -0.106830 -0.124640 -0.098326 0.158793 0.071230 -0.262704 -0.246073 -0.069902 0.052706 0.029917 0.008646 -0.038663 -0.023268 0.011693 -0.446164 -0.182915 -0.168364 0.305446 -0.018845 -0.276377 0.060722 0.127776 -0.084298 0.017164 -0.092292 0.057734 -0.008920 0.272971 0.597449 -0.117272 0.141038 0.240590 0.163770 0.331764 0.342219 0.062540 0.237332 -0.009116 0.126683 0.313062 -0.224465 0.341228 -0.142466 0.054553 -0.046418 -0.261825 0.007157 0.040035 -0.068281
rest 0.696994 -0.203001 -0.331557 -0.123891 -0.115117 -0.461945 -0.046643 -0.336579 0.149249 -0.110431 0.086965 0.097811 0.000355 0.662007 -0.237914 -0.408457 -0.091182 -0.190377 0.420446 0.297429 -0.215587 0.701305 0.205878 -0.426754 0.115587 0.058909 -0.073063 -0.264978 0.677559 0.703102 -0.330883 -0.529095 -0.167002 0.181584 0.414828 0.447836 0.479615 0.209145 -0.100829 0.357707 0.699276 -0.337497 -0.043393 -0.619919 0.014599 -0.447551 -0.545033 0.091301 -0.162216 0.276720
roads 0.620624 0.112321 -0.002322 -0.261850 -0.067144 -0.026010 0.079922 0.479395 -0.048547 -0.048032 -0.400015 0.477837 -0.243844 -0.292699 0.065313 0.414945 0.464429 -0.172792 0.418257 -0.754995 -0.032718 0.319961 0.072483 0.035124 0.140470 -0.296601 0.118533 -0.340115 0.443364 0.215254 -0.223477 -0.140906 0.589240 -0.056341 -0.319803 0.385442 -0.506773 0.082316 -0.558020 -0.478703 -0.651531 0.229196 0.601727 0.095320 -0.111201 -0.084487 0.442578 0.008337 0.870629 0.280748
than 0.199567 -0.069404 -0.380187 0.096304 0.415615 0.468044 -0.250246 -0.285717 -0.282851 0.061937 -0.173993 0.639472 0.025986 0.047775 0.777193 -0.122928 0.455719 -0.453866 0.256740 -0.095112 0.099338 0.228647 -0.103837 0.196269 -0.196352 -0.122855 0.026154 -0.233993 0.221608 0.200789 0.032977 0.036654 0.835183 0.019342 0.338663 -0.173054 -0.410158 0.739496 -0.408018 -0.311706 0.048117 -0.160025 0.672027 0.474555 0.148265 0.100886 0.501424 -0.213652 0.352425 0.193610
bad 0.508020 -0.256095 0.010008 0.089804 0.201762 -0.100167 0.135961 0.583751 -0.067971 0.144052 -0.198113 0.573789 -0.148327 -0.131426 -0.218526 -0.003453 0.329762 -0.124846 0.494871 -0.650373 0.056765 -0.021786 -0.141998 0.067288 0.061431 -0.167843 0.112532 -0.313645 0.448763 0.173004 0.198804 -0.122900 0.490169 0.183421 -0.208776 0.279719 -0.332021 0.124955 -0.176502 -0.192739 -0.103750 0.276777 0.330650 0.049147 0.279194 0.141339 0.272009 0.087616 0.515773 0.179778
current 0.230539 0.193821 -0.079012 -0.322728 -0.146902 0.115827 0.085178 -0.127714 -0.116335 -0.061314 -0.184002 0.146268 0.051750 0.016943 0.331192 0.240609 0.196605 -0.034190 0.210716 -0.134429 0.139465 0.312384 -0.032679 -0.026996 0.114274 -0.183080 0.046034 -0.132790 -0.048970 0.057075 -0.099550 0.032171 0.135025 -0.003463 -0.031822 -0.042870 -0.009810 -0.015760 -0.149338 -0.206865 -0.150661 -0.186548 0.260476 -0.015501 -0.196890 -0.164593 0.191750 -0.210088 0.240246 0.174455
excluding -0.249632 -0.471167 -0.102783 0.614647 0.588018 0.142570 -0.153465 0.313720 -0.187133 0.272630 0.065945 0.597296 0.078501 -0.085238 -0.365389 -0.515468 0.140775 -0.327312 0.141538 -0.031858 0.133007 -0.697236 -0.437074 0.202700 -0.260545 -0.153976 0.129596 -0.065732 0.161293 -0.089063 0.670858 0.111596 0.575606 0.260679 0.146967 -0.030997 -0.263462 0.476947 0.076067 0.208356 0.294338 0.435298 0.092389 0.335465 0.509355 0.616873 0.346697 0.443379 -0.180198 -0.112184
now -0.045569 0.015546 -0.167621 0.184160 0.121075 0.010730 0.028336 0.049493 -0.059321 0.029334 0.133881 0.101513 0.057679 -0.008199 0.074657 -0.186392 0.002358 -0.155115 -0.067421 0.057608 0.178978 -0.031692 -0.121045 -0.093679 -0.085027 -0.191469 0.060599 -0.050478 0.157569 0.145365 0.026359 -0.084859 0.115755 0.008442 0.078924 0.139508 0.012026 0.256108 -0.005067 0.101865 0.189199 0.044906 0.036939 0.042548 -0.030541 0.075992 0.150121 0.144832 -0.078453 -0.084328
push 0.230052 0.461288 0.111198 -0.651214 -0.387252 0.201896 -0.165086 -0.506146 -0.245514 -0.383797 -0.071283 0.447430 0.170638 -0.047607 0.660451 0.287906 0.114229 -0.006230 0.291594 -0.100471 -0.114369 0.599806 0.162399 0.006830 -0.026004 -0.026052 0.220151 0.007000 0.227525 0.235195 -0.328102 -0.353968 0.679906 -0.184373 0.067770 0.182088 -0.028691 0.279174 -0.409282 -0.070647 -0.136355 -0.342430 0.273563 -0.007227 -0.253091 -0.321348 0.220149 -0.564746 0.503601 0.240908
titled 0.146811 0.027625 0.010386 -0.172494 -0.019540 -0.009834 0.386944 -0.180409 -0.247826 0.614278 0.191343 0.060147 0.260434 -0.048124 0.158522 -0.575137 -0.037681 0.158085 0.323790 -0.493512 0.435169 -0.097217 0.089912 0.120264 0.313348 0.047519 -0.184053 -0.263704 -0.306679 -0.089236 0.296089 0.084598 -0.736420 0.250711 0.234564 -0.498563 0.120008 -0.639354 0.399206 -0.304085 0.593291 -0.382330 0.096911 -0.301044 0.109550 0.138364 -0.041066 0.006348 0.211464 0.023989
until -0.240618 -0.463352 0.011908 0.243469 0.153552 0.271842 -0.363830 0.140824 -0.235340 -0.328323 -0.042220 0.918657 0.240952 0.084888 0.009641 -0.049706 -0.002832 -0.146766 0.030596 0.237968 -0.074311 -0.314072 -0.350312 0.461693 -0.541231 0.150603 0.153325 0.061551 0.274267 -0.194371 0.508494 -0.093798 1.039557 0.018082 0.084955 -0.110245 -0.422868 0.542985 -0.106601 0.136155 0.159607 0.304049 -0.146517 0.652608 0.349865 0.397558 0.572383 -0.122914 -0.158838 -0.082783
good 0.555466 -0.230963 -0.081708 0.097126 0.124382 -0.017138 0.108176 0.466192 -0.174464 0.057742 -0.109683 0.701364 -0.080681 -0.089987 -0.012978 -0.039476 0.309818 -0.191810 0.465974 -0.643007 0.186566 0.127512 -0.128632 0.099458 -0.000867 -0.180354 0.125634 -0.298121 0.556051 0.315416 0.147494 -0.216310 0.562292 0.203505 -0.144421 0.350040 -0.370988 0.220486 -0.237435 -0.235693 -0.030843 0.236246 0.375894 0.123813 0.242199 0.097019 0.464523 0.019952 0.534631 0.141854
list 0.013167 0.755299 0.024167 0.000501 -0.064037 0.448773 -0.122123 0.013824 0.070199 -0.043929 0.009643 -0.204399 0.030394 -0.479595 0.700277 0.258473 0.223495 -0.185974 -0.259588 0.063093 0.095044 0.531358 0.249567 -0.144601 -0.030656 0.027674 -0.014660 0.002230 -0.111863 0.037983 -0.643410 0.169409 0.122449 -0.243107 -0.273636 -0.175017 -0.031739 0.029167 -0.484599 -0.152468 -0.400256 -0.096471 0.350249 0.127074 -0.425722 -0.304361 0.188643 -0.289826 0.380336 0.015371
shut 0.038915 0.318908 -0.221668 -0.144122 -0.366412 0.126763 -0.368114 -0.129216 -0.390176 -0.194978 0.281502 -0.075495 0.416371 -0.202931 0.001860 0.280791 -0.582803 -0.262808 -0.167379 0.527350 0.125672 -0.022549 0.123795 0.310210 -0.430064 -0.134259 -0.151264 -0.053618 -0.007925 0.301228 -0.288027 0.430976 -0.030254 -0.120432 0.297923 0.079768 -0.277312 -0.216805 -0.065958 0.008225 0.007617 0.175780 -0.060449 0.022128 -0.417508 -0.012650 0.473758 -0.242942 -0.248265 -0.460080
those -0.012780 0.168482 -0.080859 -0.325424 0.115943 0.061613 -0.025086 -0.054575 -0.214138 0.337527 -0.091142 -0.049646 -0.093726 -0.541217 0.152444 0.288840 0.175439 -0.164599 -0.080922 -0.177932 -0.147379 -0.330713 -0.285494 -0.190852 0.264901 -0.601923 0.109910 -0.135502 -0.207510 0.169355 -0.094458 0.587269 0.276471 0.057638 0.086433 0.115158 -0.185996 0.134417 -0.072201 -0.139305 -0.234490 -0.045056 0.656710 0.160753 -0.173850 0.329696 0.263506 -0.075108 0.075958 -0.264088
as 0.390585 0.313504 -0.211676 -0.197455 0.033878 0.104765 0.066404 -0.250490 -0.299635 0.304840 0.164374 0.070485 0.022604 -0.363710 0.397639 -0.203777 0.177178 -0.258086 0.156705 -0.304993 0.151567 0.127496 -0.053819 -0.321007 0.305823 -0.385546 0.060797 -0.369664 0.160323 0.576931 -0.285589 0.143229 0.118692 0.147413 0.205432 0.259232 -0.053891 0.165498 -0.229194 -0.220741 0.169489 -0.223556 0.695390 -0.075203 -0.171963 0.030602 0.224046 -0.068476 0.308770 -0.149748
clear 0.400619 -0.074900 0.016743 -0.184637 -0.020140 0.068698 0.010012 0.322089 -0.070712 -0.118074 -0.301943 0.636276 -0.014629 -0.153051 0.111535 0.288365 0.303383 -0.156407 0.426266 -0.472090 -0.018072 0.215909 -0.010832 0.171918 -0.050704 -0.068471 0.155926 -0.231094 0.415502 0.111996 0.012671 -0.164115 0.666955 0.045513 -0.230007 0.251422 -0.404723 0.255977 -0.372094 -0.245137 -0.363429 0.160071 0.342547 0.174820 0.084671 0.014169 0.370018 -0.167782 0.556120 0.280376
long 0.280943 0.367674 -0.057723 -0.187231 0.015910 0.414762 0.024026 0.150593 -0.366879 -0.130808 0.298898 0.416906 0.087443 -0.249191 0.675262 0.194647 0.112776 -0.069914 0.118988 -0.584683 0.181723 0.468507 0.073375 -0.023493 -0.112673 -0.080689 0.292785 -0.002590 0.611850 0.641891 -0.276140 -0.086406 0.798621 0.026241 -0.158282 0.590750 -0.599022 0.305855 -0.354305 -0.202898 -0.091433 0.144304 0.287057 0.413196 -0.111454 -0.042268 0.525808 -0.393147 0.565813 0.036564
modify -0.097304 0.412306 0.216185 -0.211379 -0.306475 0.176929 0.053571 -0.324472 -0.050337 -0.112233 -0.091674 0.010313 0.114296 -0.200570 0.404615 0.132273 0.111897 -0.003157 -0.068440 -0.047567 0.087676 0.216018 0.038390 -0.054096 0.116514 0.059926 0.027601 0.014659 -0.348960 -0.227939 -0.126609 -0.092585 0.031469 -0.161082 -0.023483 -0.222463 0.245821 -0.076408 -0.234812 -0.115748 -0.244172 -0.206779 0.082884 -0.110101 -0.148263 -0.230274 -0.049473 -0.243603 0.224207 0.187980
or -0.213597 -0.473731 -0.015202 0.357922 0.469388 -0.264256 0.202955 0.320673 -0.113923 0.506782 0.010626 0.217990 -0.315467 -0.346499 -0.416142 -0.353102 0.131143 0.054768 -0.066629 -0.012467 -0.038051 -0.771209 -0.528658 -0.227923 0.220489 -0.331628 0.107863 -0.259189 0.067588 -0.021729 0.472344 0.307873 0.199852 0.248892 -0.031237 0.001501 -0.329030 0.117655 0.328683 0.111235 0.344298 0.163714 0.151486 0.546038 0.328458 0.798497 0.224915 0.440336 -0.169043 -0.208855
repeat 0.029574 -0.159479 -0.101843 -0.005537 0.112633 -0.099590 -0.235098 -0.220770 -0.133334 0.025439 0.180724 0.148564 0.118813 0.092506 -0.138822 -0.369128 -0.298636 -0.018501 0.075445 0.225326 -0.160553 -0.048598 -0.041048 0.001279 -0.086322 0.005735 0.012479 0.069458 0.219916 0.279496 0.002941 -0.038349 0.148293 0.126974 0.341715 0.212863 0.122514 0.143210 0.129806 0.229466 0.590244 -0.091983 -0.247807 -0.009168 0.061024 0.142229 -0.136726 -0.091526 -0.324077 -0.247482
snowy 0.249596 -0.023287 -0.169363 0.437771 0.097856 0.096727 -0.142501 0.193765 -0.009170 -0.113648 0.056828 0.446399 0.095112 0.035870 -0.021078 -0.353513 0.082243 -0.405204 0.135369 -0.085957 0.036808 0.126383 -0.079635 -0.095805 -0.151137 -0.103947 0.066739 -0.160342 0.387527 0.235553 0.005117 -0.304236 0.424336 0.072955 0.144885 0.125289 0.114564 0.256046 -0.324018 0.135554 0.208422 0.150857 0.136033 -0.070287 0.176816 -0.032565 0.156233 0.187483 0.138436 -0.026888
sounds 0.324836 0.469069 -0.034275 -0.449496 -0.042202 0.237484 -0.088528 -0.020795 -0.136445 -0.158360 0.009120 0.109632 0.076457 -0.089768 0.514269 0.440136 0.163604 -0.122281 0.156550 -0.483634 0.037460 0.595060 0.267639 0.104727 -0.086806 -0.110732 0.100109 0.085355 0.367947 0.337115 -0.500617 -0.177179 0.416920 -0.222854 -0.166290 0.479185 -0.294145 0.201728 -0.405283 -0.213072 -0.409978 0.084839 0.196673 -0.113650 -0.331490 -0.294733 0.244453 -0.444179 0.512328 0.037093
anyway -0.236659 0.154251 0.254624 0.149766 -0.123810 0.293383 -0.063263 -0.413850 -0.160802 -0.068463 0.011699 0.656500 0.137084 -0.226896 0.502545 -0.258138 0.384688 -0.081395 -0.181551 -0.150886 -0.038111 -0.049320 -0.392920 -0.171296 0.085956 -0.115627 0.152136 -0.005516 -0.280571 -0.381805 0.273427 -0.250811 0.738941 -0.045488 0.169655 -0.320191 0.328150 0.235043 -0.265588 -0.098876 0.211373 -0.250576 0.033321 0.202345 0.278905 0.075738 0.012834 -0.212848 0.307705 0.145396
busy 0.319573 -0.201697 -0.018758 -0.105702 0.156677 -0.096915 -0.083368 0.298484 0.006930 -0.098084 -0.197296 0.508817 -0.170543 -0.124420 -0.030683 0.145606 0.216359 -0.098972 0.273926 -0.322053 -0.195551 0.057769 -0.044308 -0.002619 -0.004319 -0.132861 0.192590 -0.188926 0.489294 0.250161 -0.023799 -0.133454 0.718624 0.030294 -0.116444 0.401083 -0.355494 0.287087 -0.254825 -0.047118 -0.162299 0.141681 0.313126 0.247366 0.108004 0.105584 0.206475 -0.067186 0.395904 0.160819
ends -0.274179 -0.328306 -0.147815 0.054183 0.161115 -0.368550 -0.024973 -0.060052 -0.452621 0.096630 0.275892 -0.086327 -0.253825 0.103639 -0.321467 -0.131516 -0.316882 0.151875 -0.235632 0.176922 -0.028363 -0.360918 -0.464969 -0.070999 0.132556 -0.443543 0.082982 0.159994 0.106830 0.143042 0.192467 -0.038787 0.210430 0.057999 0.256809 0.537293 -0.192994 -0.026776 0.435383 0.043638 0.483042 0.211713 -0.610235 0.426700 -0.011943 0.487742 0.240040 0.135347 -0.506100 -0.521288
your 0.285118 0.133864 -0.164771 0.255957 0.115370 0.243416 -0.139402 0.091321 -0.227714 0.035190 0.137072 0.399291 0.096747 -0.085106 0.216800 -0.271297 0.158996 -0.419723 0.174468 -0.327954 0.185666 0.101912 -0.027002 0.082189 -0.117454 -0.224529 -0.003773 -0.125434 0.247515 0.255837 -0.013048 -0.110078 0.329510 0.056098 0.160499 0.107809 -0.089820 0.216671 -0.233841 -0.183809 0.124586 0.159024 0.329403 -0.038006 0.051091 0.009109 0.444218 0.104646 0.293596 -0.082592
<NAME>#1 0.451240 0.017570 -0.335200 -0.240769 0.052731 -0.250405 0.307822 -0.393724 -0.237876 0.504498 0.129061 0.127253 -0.062638 -0.059582 0.104641 -0.499907 0.151917 -0.052716 0.196337 -0.193664 0.102020 0.043033 -0.237053 -0.600580 0.512168 -0.505805 -0.054840 -0.463964 0.258285 0.594220 -0.051339 0.033760 -0.215759 0.263790 0.470704 0.119402 0.128502 -0.159368 0.135596 -0.152351 0.718193 -0.370655 0.488005 -0.259410 0.042723 0.155772 -0.029272 0.115599 0.179497 -0.207682
before 0.243457 0.234794 -0.240021 0.006895 0.390658 0.540656 -0.313789 0.004817 -0.088004 -0.018178 -0.126477 0.345234 -0.192403 -0.327574 0.669145 0.101892 0.459904 -0.555175 0.012948 -0.174095 -0.136907 0.156011 0.040212 -0.031770 -0.160370 -0.324644 0.091077 -0.228073 0.340384 0.463351 -0.263852 0.229910 0.897472 -0.108451 0.102652 0.100768 -0.485086 0.704065 -0.513285 -0.126153 -0.382101 0.007345 1.068481 0.422079 -0.055051 0.064749 0.562125 -0.112267 0.465249 -0.021344
date 0.434398 0.306139 -0.064509 -0.408847 0.015216 -0.170268 0.023678 -0.076162 -0.281951 0.020277 -0.358016 -0.082547 -0.278856 -0.075143 0.133705 0.260656 0.291913 -0.004278 0.313033 -0.105197 0.013466 0.467286 -0.045965 -0.094972 0.181359 -0.380495 0.039287 -0.085301 -0.124677 -0.028975 -0.396505 0.079545 0.416685 -0.177448 0.008399 0.163098 -0.147415 -0.040288 -0.349040 -0.453758 -0.346950 -0.005525 0.197322 -0.021237 -0.320397 -0.148920 0.119997 -0.266182 0.397495 0.166417
starting -0.296648 -0.260327 -0.139392 -0.195727 0.275106 -0.328067 0.065248 0.120287 0.023610 0.042685 -0.261278 -0.287175 -0.066283 0.048883 -0.306193 0.215599 -0.121971 0.187329 -0.102168 0.124353 -0.013823 -0.345230 -0.312931 0.015995 -0.005123 -0.386156 0.252773 0.210818 -0.137192 -0.184846 0.109542 0.203531 0.128333 0.011639 0.113264 0.225991 0.067710 0.159456 0.252380 0.232818 -0.046535 0.039468 -0.228193 0.006630 -0.139234 0.254509 -0.139740 0.058619 -0.516400 -0.106579
needs 0.021244 0.149881 -0.123533 -0.139576 -0.014047 0.166224 -0.368353 -0.561553 0.323592 -0.114721 -0.015113 -0.108725 0.291619 0.178015 0.166780 -0.220086 0.053882 -0.158048 0.084497 0.445966 -0.286879 0.368638 0.116668 -0.186046 -0.124896 0.220369 0.029250 0.032977 -0.011116 0.174762 -0.354333 0.024585 0.120905 0.003842 0.303250 -0.115332 0.556250 0.398137 -0.276870 0.365950 0.164539 -0.381532 0.106392 -0.395613 -0.006207 -0.337820 -0.630719 -0.180894 -0.181231 0.140698
road 0.707814 -0.028460 0.057238 -0.256170 -0.159525 -0.122874 0.173980 0.195273 -0.264114 -0.020033 -0.389545 0.683544 -0.125588 -0.138518 0.016692 0.159774 0.423178 -0.174671 0.587328 -0.688362 0.041572 0.292434 -0.120813 0.008303 0.217112 -0.353471 0.077770 -0.364179 0.290465 0.112096 0.051489 -0.276603 0.580761 0.055569 -0.100177 0.198961 -0.187220 0.058704 -0.390656 -0.461753 -0.269773 0.029526 0.497988 -0.025287 0.087236 -0.071892 0.395930 -0.055319 0.745349 0.354453
two -0.024730 0.544372 0.261384 -0.289085 -0.246669 0.021067 -0.041397 -0.415253 0.450070 0.103700 0.149411 -0.355414 -0.087790 -0.370521 0.394232 0.126949 0.216670 0.133907 -0.322377 0.020640 -0.440888 0.231477 0.264174 -0.627167 0.430716 0.077551 -0.086375 -0.082763 -0.305130 0.049975 -0.535621 0.110751 -0.379202 -0.124780 -0.163577 -0.140850 0.440158 -0.260190 -0.200134 0.131711 -0.094750 -0.445517 0.239975 -0.250932 -0.160205 -0.241598 -0.607586 -0.256350 0.229933 0.067708
alert -0.217021 0.000212 -0.062917 0.417960 0.146658 0.294687 -0.001844 0.269894 -0.036981 -0.072641 0.098666 -0.185777 -0.004191 0.019343 0.055242 -0.002749 -0.011602 -0.153066 -0.307724 -0.054525 0.275807 -0.106047 -0.005995 0.223877 -0.247340 0.015063 -0.060036 0.213234 -0.027330 -0.104370 0.110465 0.072066 -0.168208 -0.111459 -0.105326 -0.049634 -0.146878 0.096977 0.040097 -0.105088 -0.165006 0.311307 -0.058514 0.119032 -0.075661 0.000382 0.313778 0.244458 -0.076248 -0.193589
both 0.192691 -0.584975 0.012531 0.070860 0.121176 -0.160770 0.286184 0.165609 -0.066832 0.015713 -0.313629 0.133951 -0.427667 0.002806 -0.214741 -0.022592 0.159478 0.016988 0.092628 -0.266148 -0.100181 -0.381908 -0.229091 -0.081979 0.199600 -0.199593 0.012647 -0.111327 -0.029532 -0.022651 0.379865 0.129347 0.121187 0.157295 -0.038734 -0.013982 -0.182769 0.051114 0.167772 -0.242893 -0.107156 -0.036047 0.381514 0.240427 0.312246 0.151409 0.064581 0.280629 0.206708 0.114571
created 0.149359 -0.005181 -0.003903 -0.169013 0.027613 -0.326414 0.016961 0.060232 0.236255 -0.161690 0.198060 -0.122021 -0.113962 0.205929 -0.041638 0.030207 -0.076676 0.100836 -0.065488 -0.251872 -0.199267 0.067656 0.201210 -0.135900 0.135666 -0.006004 0.096251 0.080173 0.343069 0.328756 -0.196537 -0.409774 -0.145776 -0.047805 0.060839 0.486417 0.068174 -0.053309 0.148660 0.237750 0.124102 -0.055544 -0.037548 -0.332739 -0.066591 -0.186003 -0.213253 -0.022797 0.056035 -0.040690
deleted 0.146482 0.097216 -0.257395 0.042638 0.293918 0.408918 -0.525296 -0.017203 0.499854 -0.213392 -0.158541 -0.188222 0.206090 0.250634 0.081940 -0.110052 0.156484 -0.358373 0.325809 0.372043 -0.235652 0.515810 0.371248 0.081427 -0.486876 0.360720 0.101214 0.049059 0.288297 0.331238 -0.424165 0.213924 0.226007 -0.101549 0.062697 0.006298 0.083818 0.636674 -0.413298 0.399245 -0.339081 -0.014243 0.399917 -0.364300 -0.105167 -0.433518 -0.451131 -0.036081 0.003705 0.244786
meant 0.240468 0.280678 -0.144956 -0.129866 0.112255 -0.098801 -0.142860 -0.095519 0.330384 -0.097125 0.084193 -0.294538 -0.069955 0.136915 0.093954 -0.009330 0.010042 -0.080929 0.043065 0.045711 -0.264358 0.426167 0.378369 -0.268801 0.067491 0.049499 0.016537 0.008173 0.251511 0.394078 -0.538951 -0.127085 -0.095006 -0.081404 0.076955 0.300929 0.244564 0.088498 -0.180420 0.202068 0.034726 -0.162994 0.143601 -0.383332 -0.204915 -0.354877 -0.455139 -0.076738 0.065410 0.049999
