get_sales_records -0.004676 -0.008293 0.006606 -0.003331 0.000371 -0.007589 0.002595 -0.002944 0.000753 -0.005391 0.005520 0.003246 -0.002283 0.008755 -0.009539 0.001754 0.008700 -0.003252 0.000867 0.008556 -0.003309 -0.008959 -0.001561 -0.014586 -0.000168 0.006377 -0.004838 -0.008730 0.005781 0.004161 -0.013450 0.000679 0.013686 -0.004144 -0.004488 -0.012253 0.001895 -0.001012 0.005485 -0.012104 -0.011228 0.007414 -0.002160 0.006892 -0.002394 -0.000914 -0.009470 0.011465 0.007811 -0.007620
follow-up -0.029330 0.025352 0.030318 -0.011375 -0.055204 0.023885 -0.019434 0.069529 -0.000007 -0.024052 0.044975 0.011778 0.033891 0.032204 0.016458 0.031248 0.009993 -0.029669 0.009375 -0.030135 -0.028301 -0.050263 0.023780 0.021169 0.003710 -0.014654 0.006658 -0.004028 -0.046935 0.033662 -0.066002 0.001332 0.016880 0.044584 -0.019233 0.045496 0.008048 0.044749 0.028313 -0.032308 -0.002372 -0.035649 -0.027030 -0.036323 0.023832 -0.014734 -0.045350 0.009328 -0.050817 -0.042646
my 0.119264 0.099962 -0.057590 0.050578 0.003943 0.028579 -0.053118 -0.037162 -0.013885 -0.005855 0.003477 0.083707 0.023762 -0.049510 -0.062153 0.002081 0.091153 0.048964 0.020210 -0.014383 -0.005838 0.082808 0.029479 -0.046191 0.055096 -0.011311 0.043998 0.043956 -0.060368 0.036939 0.031120 -0.036274 -0.054565 0.109789 -0.061676 0.043557 0.055517 -0.037927 -0.004865 -0.022526 -0.038797 -0.040481 -0.059483 -0.011610 -0.055036 -0.064380 -0.027658 0.029853 -0.082571 0.035990
for -0.095186 -0.066240 0.002825 0.008981 -0.029581 -0.016900 -0.045245 0.115275 0.110195 -0.073220 0.200556 -0.028156 0.168837 0.136733 0.105145 -0.020159 -0.116095 -0.020390 -0.007487 0.051667 -0.103473 -0.119193 0.134953 -0.002194 -0.017147 -0.015935 -0.054941 0.077304 0.074720 0.026998 -0.089916 0.036851 0.076550 -0.037906 0.011713 0.060437 -0.049243 0.063489 0.015283 0.038759 0.079323 -0.065975 0.036994 -0.038078 0.041044 0.125676 -0.055354 0.008703 0.031903 -0.050993
meeting -0.089374 -0.089299 0.001342 -0.004339 -0.006944 -0.061326 -0.082004 0.016813 0.062907 -0.046262 0.085936 -0.046570 0.038996 0.078051 0.025803 -0.038265 -0.123614 0.020773 -0.029965 0.021195 -0.024108 -0.120926 0.060296 -0.011687 -0.002701 0.011620 -0.055752 0.001664 0.101831 -0.003582 -0.055859 0.039291 0.018034 -0.050411 -0.020521 -0.020266 -0.096019 -0.006411 0.031423 0.039500 0.059217 0.005695 0.016629 0.011885 0.029580 0.047485 -0.013976 -0.023416 0.084449 0.011110
appointment -0.064157 -0.072038 0.010298 0.026826 -0.014287 -0.040956 -0.076520 0.044105 0.046568 -0.015796 0.099085 -0.025405 0.081913 0.049651 0.046776 -0.024218 -0.107781 0.010247 -0.070841 0.033781 -0.036028 -0.086211 0.072693 0.000376 -0.011109 0.007988 -0.031162 0.025124 0.070631 0.010015 -0.038338 0.000663 0.026599 -0.000466 -0.002303 0.016736 -0.046466 0.030550 0.024440 -0.015020 0.044025 0.008396 0.023301 -0.020353 0.006925 0.035039 -0.024333 0.015296 0.070962 -0.006012
me 0.089036 0.048825 -0.036935 0.007934 0.012682 0.016521 0.025243 -0.056145 0.008033 -0.000433 -0.020987 0.043287 -0.012450 -0.029595 -0.041050 -0.006984 0.084173 0.047246 0.055973 0.022251 0.041250 0.081428 -0.023621 -0.051752 0.030994 -0.000124 0.039448 0.060364 -0.031002 0.008976 0.074714 -0.005821 -0.072304 0.037600 -0.042213 0.049314 0.023560 -0.037889 -0.014371 0.067235 -0.024896 -0.008837 -0.054926 0.014942 -0.021462 -0.004275 0.029198 -0.016513 -0.034914 0.076869
next -0.019339 -0.035743 0.006173 0.041913 -0.018447 -0.030628 -0.099892 0.010798 0.041628 -0.014386 0.089913 0.002943 0.042881 0.021209 0.008321 -0.029490 -0.083843 0.016001 -0.049440 0.012603 -0.024164 -0.042533 0.055242 -0.041593 0.018540 0.014977 -0.022927 0.006630 0.038498 0.015829 -0.030897 -0.005298 0.017006 0.049414 -0.032715 0.028023 -0.052524 -0.007972 0.056134 -0.015714 0.034340 0.007901 -0.010412 -0.016276 -0.030701 -0.000456 -0.033611 0.020635 0.042149 0.019164
a -0.003223 0.077725 0.038763 -0.034530 -0.056116 0.079025 0.021845 0.084232 -0.019361 -0.025780 0.005424 0.052589 0.051613 0.042676 0.007822 0.064140 0.059285 -0.039809 0.067631 -0.040138 -0.051821 -0.004572 0.005774 0.028694 -0.002389 -0.018697 0.002575 -0.036526 -0.118140 0.033253 -0.083691 -0.000424 0.036427 0.078456 -0.010967 0.054185 0.051498 0.061309 0.032492 -0.033740 -0.014913 -0.040146 -0.033255 -0.068195 -0.004278 -0.009446 -0.057251 0.026071 -0.112782 -0.094317
get 0.057910 0.060767 -0.042093 0.009242 0.001881 0.015650 -0.019886 -0.016842 0.008387 -0.016138 -0.011193 0.017715 0.027524 -0.011605 -0.036155 -0.027845 0.040206 0.045551 0.039144 -0.000285 0.009152 0.038850 0.027192 -0.006003 0.019699 0.000743 0.024488 0.056145 -0.018209 0.038092 0.044560 -0.015051 -0.029455 0.008897 -0.007850 0.009742 0.027605 -0.001077 -0.028534 0.028951 -0.019280 -0.035894 -0.003857 -0.014435 0.015087 -0.010331 -0.019927 0.000531 -0.046740 0.018636
the -0.053665 -0.073570 -0.010628 0.002549 -0.003988 -0.046922 -0.047037 0.030550 0.070819 -0.037162 0.111446 -0.016664 0.036764 0.065426 0.047005 -0.027894 -0.087826 0.004358 0.001779 0.038067 -0.047706 -0.084903 0.057977 -0.030197 0.007468 0.017856 -0.060509 0.019714 0.068428 0.009379 -0.032419 0.041860 0.019210 -0.036716 -0.028377 0.025187 -0.054200 -0.012440 0.022055 0.047738 0.054997 -0.023166 -0.000270 -0.006168 0.000354 0.067726 0.013458 -0.029409 0.062955 0.013630
sales_briefing 0.008000 -0.012676 -0.001120 0.005711 0.000039 0.000457 0.000372 -0.011461 0.002548 -0.013119 -0.002448 0.000412 0.002753 0.003946 0.001597 -0.004019 -0.004248 -0.015179 0.002106 -0.004352 0.014911 0.001874 0.009041 0.008338 0.007196 0.002675 -0.004137 -0.006752 -0.011624 0.000477 -0.005181 0.000760 -0.013124 0.009792 -0.011792 -0.001525 0.001256 -0.004068 0.007039 -0.007376 -0.014635 0.007232 0.002550 0.016213 -0.007072 -0.001982 -0.006499 0.003328 -0.003848 -0.005812
call 0.002803 0.070591 -0.004152 -0.018489 -0.010724 0.090401 0.046331 0.036831 0.002501 -0.006472 0.015391 0.056050 0.071025 0.007784 -0.006326 0.032260 0.038618 -0.030712 0.077508 -0.001322 -0.070378 0.046556 0.013177 -0.009117 0.001215 0.023457 0.000122 -0.016199 -0.085537 0.020826 -0.032542 -0.008336 0.057131 0.052299 0.001535 0.047742 0.073998 0.042154 0.030097 -0.003492 -0.006972 -0.040156 -0.018492 -0.066801 -0.037890 0.023897 -0.025808 0.015999 -0.078126 -0.064555
follow -0.082610 -0.102988 0.005768 -0.018695 0.019568 -0.027047 -0.000831 -0.062943 -0.007173 0.022073 -0.100408 -0.055496 -0.051502 -0.086805 -0.038455 -0.076298 -0.045471 0.007625 -0.034003 0.007811 0.064129 -0.021691 -0.038137 -0.027693 -0.026767 0.079206 0.025295 -0.022141 0.065971 -0.033901 0.062693 0.021968 -0.015627 -0.095070 -0.011719 -0.075029 -0.032989 0.009655 0.040053 0.021468 -0.008677 0.081324 -0.018839 0.001464 -0.016759 -0.053497 0.068037 -0.050020 0.083064 0.070975
on -0.080502 -0.090696 0.000950 -0.020514 0.013376 -0.036789 -0.011648 -0.028116 0.028056 -0.023965 -0.028658 -0.041159 -0.027403 0.006115 -0.019227 -0.066759 -0.087047 0.020836 -0.005986 0.015626 0.029097 -0.051554 0.008957 -0.035880 -0.010266 0.061791 -0.008095 -0.018184 0.092540 -0.020556 0.020441 0.046838 -0.016736 -0.091947 -0.017844 -0.061905 -0.059499 0.003521 0.033732 0.042346 0.021148 0.053066 -0.007650 0.018571 0.006254 0.004361 0.047339 -0.047572 0.068180 0.067145
tasks -0.017940 0.033442 -0.023390 -0.000903 -0.011241 0.009359 -0.020862 0.033976 0.024789 -0.034765 0.016673 -0.004403 0.051973 0.020777 -0.008915 -0.038093 -0.007463 -0.001840 0.020534 -0.002331 -0.017433 -0.010744 0.056056 0.001912 -0.007159 -0.009368 0.019788 0.047364 0.026005 0.025142 -0.008465 -0.000864 0.010690 -0.014820 -0.001990 0.000211 0.014845 0.029162 -0.026142 0.016766 0.007106 -0.035673 0.024697 -0.023261 0.021182 0.017696 -0.027231 -0.000455 -0.028607 -0.019896
last -0.056276 -0.073638 0.003383 0.016264 0.002899 -0.033172 -0.047659 0.048571 0.061629 -0.028037 0.120369 -0.034960 0.099814 0.080542 0.069858 -0.016426 -0.092602 0.005433 -0.061429 0.042040 -0.048697 -0.092303 0.082823 0.009156 -0.010524 -0.015337 -0.040748 0.043450 0.085083 0.000231 -0.050124 0.010668 0.027333 -0.020068 0.004727 0.011944 -0.048532 0.022759 -0.003304 0.019448 0.054340 -0.014266 0.037509 0.006470 0.033912 0.081583 -0.024512 0.014211 0.064689 -0.016792
up -0.098641 -0.120806 0.004733 -0.016328 0.019736 -0.036689 -0.008340 -0.057202 0.008580 0.009477 -0.093194 -0.057531 -0.048614 -0.071105 -0.042275 -0.097281 -0.075238 0.019400 -0.028152 0.013297 0.060435 -0.036093 -0.023803 -0.041541 -0.024738 0.092216 0.017827 -0.020333 0.090301 -0.031405 0.056747 0.036445 -0.020506 -0.109652 -0.021000 -0.086956 -0.050749 0.010178 0.045710 0.030963 0.001253 0.091292 -0.023647 0.003002 -0.012574 -0.045518 0.071749 -0.058015 0.094665 0.089291
create 0.011248 0.057204 0.006799 -0.014048 -0.013401 0.059207 0.015057 0.034056 -0.018988 -0.016458 -0.005203 0.047242 0.035969 0.025367 -0.005655 0.046260 0.036266 -0.023078 0.041796 -0.023279 -0.033803 0.030500 -0.003488 0.019749 0.001261 -0.006823 -0.006450 -0.033087 -0.060478 0.018174 -0.032496 -0.012274 0.029489 0.053175 -0.001083 0.030846 0.047137 0.038708 0.021529 -0.022702 -0.000399 -0.012698 -0.005164 -0.053629 -0.021723 0.002668 -0.027069 0.023144 -0.071781 -0.061499
to 0.028564 -0.023794 0.004983 -0.042028 0.038767 -0.027336 0.054443 -0.072754 -0.071328 0.051379 -0.099785 -0.022227 -0.073755 -0.073358 0.016799 0.053724 0.041191 -0.034375 -0.052440 -0.008161 0.077533 0.040981 -0.085420 0.036861 -0.032496 -0.015142 0.043031 -0.026026 -0.037870 -0.080513 0.078621 -0.010517 -0.012750 -0.060900 0.035570 -0.041601 0.009496 -0.021945 -0.001387 -0.003374 -0.032842 0.035599 0.018442 0.052036 -0.006476 -0.057729 0.043398 0.001775 0.055133 -0.011269
report -0.010648 0.038036 -0.009626 -0.005025 -0.005483 0.064036 0.029244 0.042314 0.031548 -0.014258 0.057090 0.045902 0.093440 0.021395 0.012006 0.016731 0.012467 -0.022631 0.061006 0.021791 -0.083537 0.017284 0.041753 -0.012900 -0.000103 0.020236 -0.004288 0.017712 -0.053256 0.021672 -0.038756 0.000148 0.056098 0.036796 0.005828 0.047591 0.050877 0.040760 0.023997 0.011190 0.005904 -0.042649 -0.012659 -0.065337 -0.030962 0.050571 -0.031665 0.007381 -0.047639 -0.061426
briefing 0.032888 -0.006562 -0.010573 0.033804 0.022119 -0.009631 0.041687 0.009623 -0.029507 0.007533 -0.032456 0.000776 -0.055400 -0.053443 -0.000162 -0.025846 0.057354 -0.025003 -0.034648 -0.009462 -0.012725 0.019391 0.009275 -0.015212 0.039531 -0.004397 -0.019160 -0.025428 -0.018576 -0.017331 0.037642 0.030648 0.019061 0.006418 0.007489 -0.011149 0.045696 0.001933 -0.007487 0.001242 -0.030337 -0.023181 0.017989 0.010209 -0.001461 -0.038432 0.019868 0.009764 -0.033580 0.018219
followup -0.009475 0.001329 -0.000648 -0.005639 0.011657 0.003019 -0.003296 -0.025507 -0.017008 -0.013250 -0.022899 -0.005987 -0.012366 0.010571 -0.016328 -0.008854 -0.026467 0.003345 -0.007173 -0.004334 0.023478 0.003485 -0.024599 0.024720 -0.004505 -0.000366 -0.006069 -0.012487 0.034972 -0.004691 0.007631 0.007808 -0.009939 -0.010248 0.002242 -0.010461 -0.007171 0.001049 -0.004215 0.015240 0.018538 0.013858 0.014130 0.002989 0.001330 0.013939 0.009885 -0.007321 0.001264 0.007964
sales 0.040695 0.003968 -0.011810 0.037600 0.022724 -0.006039 0.043061 0.009115 -0.035468 0.006668 -0.037865 0.008051 -0.053184 -0.059383 -0.009248 -0.020405 0.066550 -0.027442 -0.027613 -0.014767 -0.021011 0.025704 0.010230 -0.015955 0.043708 -0.001900 -0.011861 -0.021932 -0.028584 -0.018708 0.037111 0.030741 0.015678 0.012225 0.004899 -0.009197 0.055557 0.001869 -0.004931 -0.004562 -0.030918 -0.028483 0.018565 0.008123 -0.006382 -0.042315 0.016037 0.012201 -0.040383 0.016134
pipeline 0.038561 0.013603 -0.022804 0.008959 -0.007075 0.016975 -0.026518 -0.028000 -0.016790 -0.008849 -0.006924 0.038588 0.010397 -0.024279 -0.019170 0.013426 0.038122 0.017603 0.000856 0.000707 -0.013661 0.022658 0.015330 -0.003884 0.017862 0.003030 0.016965 0.002649 -0.011369 0.011572 -0.003329 -0.006655 -0.024613 0.035454 -0.021835 0.000548 0.028995 -0.024742 -0.022382 -0.030721 -0.022692 -0.014362 -0.022398 -0.002799 -0.015449 -0.021728 -0.010020 0.022499 -0.031964 0.011607
open 0.016480 0.053384 -0.048066 0.015800 0.011299 0.003172 -0.029358 -0.008113 0.004000 -0.014257 -0.008289 0.023058 0.014258 -0.002674 -0.043448 -0.027678 0.020094 0.013592 0.000599 -0.015187 -0.015915 0.014325 0.037193 -0.008409 0.017339 -0.010215 0.019779 0.027805 -0.006137 0.026073 0.017924 -0.006472 -0.024658 0.019099 -0.025495 -0.004500 0.026536 0.002314 -0.018275 -0.002544 -0.016338 -0.029396 -0.005794 -0.006537 -0.010581 -0.036736 -0.014211 0.004755 -0.036540 -0.010796
opportunities -0.015272 0.012915 -0.025100 -0.003070 0.011785 -0.004311 0.004603 -0.006989 -0.001521 0.008155 -0.004305 0.005378 -0.008448 -0.001459 -0.008417 -0.015010 -0.004656 0.001718 -0.008512 -0.013637 -0.023837 -0.010840 0.011869 -0.001600 -0.003440 -0.005683 -0.005778 -0.003918 -0.002953 0.002927 -0.000146 -0.000300 -0.002153 0.008185 -0.022954 0.001440 0.009798 0.004887 -0.001277 0.014669 0.005062 -0.010691 -0.001399 0.001449 -0.021660 -0.026731 0.017153 0.007025 -0.006401 -0.017829
add 0.002243 0.018984 -0.012682 -0.011922 -0.001468 0.014860 -0.007744 -0.003958 -0.013781 -0.021338 0.013033 -0.004057 -0.012038 0.018498 -0.008327 -0.004400 -0.018359 0.007396 0.003348 -0.003751 0.012543 -0.008920 -0.007440 0.013733 0.001251 -0.011896 -0.006476 -0.004185 0.016444 -0.006024 -0.013607 0.004771 0.006979 -0.001382 0.001737 0.008966 -0.001688 -0.015140 0.004243 0.019914 0.011121 -0.011737 0.015916 0.004262 0.006905 0.009822 -0.006752 -0.016589 -0.008869 -0.007023
please 0.042568 0.020958 -0.002565 -0.007735 -0.001896 0.013892 0.033316 -0.031578 -0.006577 0.005189 -0.025768 0.022321 -0.017977 -0.018064 -0.022560 0.012382 0.059095 -0.001884 0.024812 0.003685 0.022397 0.030004 -0.016168 -0.001834 0.009872 -0.011902 0.013595 0.005986 -0.023889 0.000656 0.029628 -0.017809 -0.024336 0.015087 -0.003352 0.021358 0.038204 -0.007988 -0.041370 0.018728 -0.013009 -0.010883 -0.013252 0.007776 -0.005292 -0.005452 0.010020 0.012756 -0.019984 0.014025
Get 0.003754 -0.019772 -0.007684 -0.007656 -0.007333 0.001722 -0.015538 -0.007650 0.016084 -0.008808 0.025920 0.013744 0.000746 -0.000048 0.005835 -0.003280 -0.009505 0.013200 0.020127 0.017438 -0.001813 -0.007516 -0.002551 -0.016208 0.005209 0.017409 -0.029767 0.005855 -0.002147 0.022649 -0.001070 0.007990 -0.008284 0.000147 -0.030437 0.022540 -0.000743 -0.018974 0.004542 0.021851 0.011494 -0.010627 -0.027020 -0.011722 -0.020547 0.015045 0.018980 -0.018503 0.020749 0.012749
I 0.045989 -0.009559 0.002949 -0.024975 0.021435 -0.021420 0.062092 -0.043962 -0.046025 0.045747 -0.070284 -0.005562 -0.045309 -0.023847 0.031581 0.061714 0.037847 -0.029946 -0.035177 0.003692 0.050562 0.027043 -0.075189 0.043748 -0.015728 -0.025418 0.028978 -0.049887 -0.018178 -0.062677 0.045345 -0.008780 -0.023795 -0.051760 0.024991 -0.041700 -0.005755 -0.029602 -0.018725 -0.012688 -0.002222 0.014906 0.024888 0.045792 -0.003558 -0.030426 0.028055 0.007313 0.050339 -0.034066
appt 0.006782 -0.001326 0.013955 0.023915 -0.015102 -0.006948 -0.033758 -0.005499 0.002825 0.012190 0.009464 0.002862 -0.023366 0.009100 0.013749 -0.014343 -0.030362 -0.003128 -0.038637 -0.008111 -0.000650 -0.006996 0.006291 -0.006824 -0.014894 -0.014130 -0.017816 -0.012323 -0.008213 -0.009060 -0.000360 -0.009967 0.006231 0.023484 -0.005872 0.004404 -0.015758 -0.021785 -0.002516 -0.016554 0.011677 0.013841 0.016459 0.013963 -0.006677 -0.013679 -0.015438 0.025402 0.013929 0.001702
today -0.030509 -0.039318 0.010821 0.001068 -0.004443 -0.004389 0.010420 0.037254 0.028345 -0.018572 0.052561 -0.011206 0.044651 0.039682 0.048090 -0.005643 -0.036965 -0.018768 -0.016168 0.006474 -0.029072 -0.044308 0.026457 0.004262 -0.012653 -0.011153 -0.024812 0.024816 0.026704 -0.013359 -0.018147 0.018153 0.027161 -0.038372 0.017801 0.010970 -0.022026 0.020227 0.007156 0.026303 0.028621 -0.025990 0.021486 -0.006079 0.031092 0.020196 -0.009630 0.010226 0.008561 -0.024984
account -0.001467 0.007066 0.007985 -0.013798 -0.007495 0.003296 -0.003988 -0.007360 -0.018524 -0.009415 0.009497 -0.020493 0.000504 0.002046 0.003349 -0.009206 0.006523 0.021056 0.012279 -0.000011 -0.008816 0.009453 -0.008912 0.017700 -0.002086 0.000546 0.000728 0.020654 -0.007733 0.015414 0.013984 -0.009511 -0.000173 0.005710 0.023963 -0.014061 0.000168 0.007928 0.008033 -0.000833 0.004500 -0.002002 0.005960 -0.005187 0.005520 0.014202 -0.008803 0.001439 -0.005348 -0.008167
details 0.008362 0.000784 -0.004145 -0.023760 0.015011 -0.013587 0.048723 -0.021211 -0.024317 -0.005771 -0.013847 -0.011687 -0.038415 -0.006524 -0.001959 -0.003442 0.036321 0.004616 0.010160 0.000450 0.003225 0.020070 -0.016077 0.014865 -0.006017 -0.006990 0.010529 0.001690 -0.007576 -0.005006 0.027414 -0.001741 -0.010347 -0.028701 0.008693 0.006828 0.007066 -0.001846 -0.011548 0.008397 0.000859 0.008385 -0.001262 0.006152 0.007639 0.017480 0.023186 -0.016437 -0.023011 0.022086
do 0.016192 -0.022280 0.007355 -0.026554 0.023825 -0.022852 0.049421 -0.031543 -0.046110 0.039211 -0.067918 -0.015780 -0.042775 -0.051051 0.016589 0.051447 0.019220 -0.020364 -0.032710 -0.001396 0.042918 0.018158 -0.054533 0.018131 -0.018184 -0.012934 0.043098 -0.027883 -0.022540 -0.065548 0.045598 0.001700 -0.004576 -0.050058 0.015882 -0.047783 0.005985 -0.018219 -0.009840 -0.005167 -0.007951 0.023782 0.011001 0.036741 -0.007219 -0.025188 0.034488 -0.001047 0.059589 -0.020840
what 0.026666 0.030497 0.003469 0.014674 0.009407 0.036767 -0.020420 0.002975 -0.015625 0.000151 -0.006786 0.024606 0.009450 -0.026819 -0.026252 0.010053 0.007500 0.004720 0.013591 -0.014667 0.013980 0.031552 -0.008060 0.014278 0.000311 0.027536 0.028777 -0.015725 -0.029450 0.018452 -0.010998 -0.024990 -0.021463 0.019700 -0.012381 -0.000277 0.016130 -0.034166 0.008006 -0.041574 -0.014163 0.018941 -0.047124 -0.009058 -0.022070 -0.007184 0.004739 -0.014150 0.001791 -0.001719
about 0.049884 0.046746 -0.010352 -0.005405 0.006762 0.018405 0.007495 -0.017269 -0.003707 -0.025907 -0.001881 0.023795 0.018465 -0.015075 -0.025171 -0.009413 0.044502 0.027572 0.019116 -0.011780 0.010288 0.034160 -0.001488 -0.022777 0.021344 -0.001862 0.023908 0.027576 -0.006095 0.012884 0.010563 -0.005550 -0.026349 0.030155 -0.020009 0.020158 0.017951 -0.014991 0.000688 0.018156 -0.002680 -0.012832 -0.028916 0.007458 -0.010654 -0.009792 -0.011213 -0.004110 -0.037732 0.032800
are 0.023182 0.021890 0.003543 0.018792 0.008133 0.022596 -0.006923 0.011549 -0.010195 0.007757 -0.008221 0.025580 0.007039 -0.032055 -0.024508 0.000795 0.008631 -0.008205 0.008355 -0.015117 0.014139 0.015943 -0.004398 0.007386 0.000312 0.015976 0.015011 -0.019501 -0.008444 0.009326 -0.003168 -0.015173 -0.017002 0.013153 -0.015801 -0.010687 0.011566 -0.024515 0.004828 -0.027367 -0.015338 0.019458 -0.034793 -0.010087 -0.016709 -0.003226 0.005185 -0.005700 -0.004761 -0.007341
log 0.006165 0.015085 0.009028 -0.015585 0.006519 0.016517 0.015857 -0.000682 -0.014270 0.001358 -0.032545 0.016233 -0.012866 -0.023932 0.003205 0.011789 0.020200 -0.012520 0.006315 -0.007875 -0.003280 0.024807 -0.014778 -0.002433 -0.000982 -0.005548 -0.004217 -0.011363 -0.029727 -0.014809 0.014499 -0.000520 -0.003653 0.020310 -0.016996 -0.003758 0.021620 -0.008811 0.000136 -0.004948 -0.006681 0.003117 0.000529 0.007437 -0.010757 -0.017051 0.001525 0.018424 -0.011006 -0.004048
show 0.039474 0.036081 -0.006479 -0.006824 -0.003190 0.014793 0.014511 -0.020734 0.001429 0.010368 -0.028099 0.029983 -0.027259 -0.014648 -0.018999 0.015420 0.046854 0.015653 0.020981 -0.003798 0.024596 0.035591 -0.021738 -0.014874 0.007568 -0.006222 0.011940 -0.004540 -0.037984 -0.006886 0.031067 -0.003985 -0.040531 0.013202 -0.019307 0.023666 0.016530 -0.015487 -0.022161 0.020054 -0.017215 -0.003239 -0.027257 0.011110 -0.017760 -0.015295 0.007297 0.010702 -0.019769 0.018322
give 0.039851 0.020120 -0.014698 0.005962 0.004947 0.015208 0.038590 -0.039646 0.011728 0.007848 -0.014819 0.015964 -0.011992 -0.003600 -0.026916 0.006639 0.050285 0.005894 0.040819 0.022909 0.028738 0.050246 -0.029252 -0.025335 0.017455 -0.003383 0.022274 0.043729 -0.010663 0.003107 0.051796 0.003272 -0.041199 0.026359 -0.009390 0.036769 0.017037 -0.014052 -0.020939 0.059736 -0.006865 0.002271 -0.028595 0.006325 -0.003013 0.007343 0.034926 -0.010491 -0.006776 0.040051
minutes -0.025752 -0.017721 -0.000632 -0.018298 0.000444 -0.021843 -0.025780 -0.012349 0.016254 -0.030239 0.009604 -0.017283 0.007402 0.010558 -0.003819 -0.014666 -0.023508 0.013927 -0.006777 -0.004409 -0.005414 -0.030043 0.017096 0.009317 -0.005551 -0.004619 -0.012960 -0.005708 0.016373 -0.001176 -0.008661 0.017753 0.009486 -0.017918 -0.009570 0.002796 -0.030925 0.000506 0.021191 0.013885 0.024475 0.011979 0.001852 -0.004667 0.007546 -0.003734 -0.008013 -0.013216 0.016612 0.000208
task -0.002718 0.030395 0.013157 0.006797 -0.029215 0.006348 0.017224 0.054860 0.008252 -0.028305 0.019894 0.010029 0.025716 0.024098 0.022046 0.016582 -0.002154 -0.018808 0.012439 -0.002705 -0.024485 -0.000595 0.015694 0.004892 -0.012834 -0.026883 0.003153 -0.012618 -0.043170 0.018907 -0.029693 0.002083 0.018665 0.012978 0.015296 0.026783 0.004197 0.025148 0.001473 -0.013437 -0.002954 -0.029508 -0.016824 -0.007776 0.007475 0.025896 -0.019465 0.005490 -0.044506 -0.035468
What -0.009437 0.004212 0.006075 -0.007009 -0.015359 -0.000391 0.002620 0.018882 0.009942 0.018637 -0.024166 0.009955 -0.005408 -0.014058 -0.005545 0.002298 -0.012502 -0.000996 0.009041 -0.005860 -0.006248 -0.017095 0.003510 -0.004679 -0.007191 -0.009034 0.022859 -0.004205 0.000882 0.003053 -0.001080 0.007914 0.006971 -0.017151 -0.002222 -0.025008 0.014324 0.001558 -0.011473 0.005257 -0.014986 0.004335 0.012046 -0.006895 0.006206 0.013581 -0.001559 0.003322 0.007416 -0.010513
of -0.019769 -0.002904 -0.007525 -0.001883 0.010606 -0.030013 0.008741 -0.009300 -0.027660 0.001575 0.002644 -0.014398 -0.026074 -0.009525 -0.006820 -0.005841 -0.002947 0.019637 -0.018495 -0.014801 -0.002860 -0.003421 0.003515 0.019453 -0.022272 -0.010929 0.012221 -0.002897 0.012984 -0.004890 0.019431 -0.004464 0.005632 -0.026265 0.011222 -0.000652 -0.000085 -0.002654 -0.006053 -0.029594 0.023613 0.013811 0.020111 -0.003662 0.009665 0.023164 0.025361 -0.001702 -0.000773 0.020247
opportunity -0.014156 0.002431 0.007017 0.000899 0.006613 -0.017884 0.000622 0.006798 -0.008363 0.000535 -0.009447 -0.002161 -0.010076 -0.013338 -0.011661 0.011379 -0.008243 0.020982 -0.012914 -0.012818 0.007481 -0.009177 -0.003042 0.011163 -0.010359 -0.001444 -0.013068 -0.009554 0.008219 -0.002358 0.014722 0.011965 0.009040 -0.007587 0.002505 -0.003394 0.014478 -0.018401 -0.012348 -0.021436 0.021878 0.009291 0.016109 0.007978 0.012135 0.013081 0.004977 -0.000179 0.013067 0.009887
overdue 0.005729 -0.003362 -0.009857 -0.016086 0.000877 0.002524 -0.008922 -0.017868 -0.009890 0.008870 -0.008361 -0.010846 -0.008532 0.002904 -0.005517 -0.008173 -0.015770 0.003448 -0.013198 -0.005511 0.004142 0.000593 0.006282 0.022518 -0.010135 0.012541 -0.008155 0.015133 0.007566 0.012670 0.013432 -0.011388 0.010972 -0.014255 0.023988 -0.010446 0.005486 0.003098 -0.012743 0.002664 0.000606 -0.005655 0.015135 -0.008349 0.025183 -0.005230 -0.016875 -0.002122 0.004208 0.002622
outcome 0.008925 0.009760 0.003535 0.007899 -0.008370 0.016514 0.019577 0.004676 0.005484 0.005777 -0.002102 -0.003274 -0.006964 -0.016225 0.012186 0.010125 -0.002091 -0.005850 0.005979 0.008100 0.002777 0.015982 -0.018835 -0.005949 -0.004947 -0.011975 -0.016204 -0.016797 -0.015151 -0.010269 0.011014 -0.012031 0.014892 0.009477 0.012685 0.006953 0.012464 -0.004937 -0.005361 -0.002410 0.006754 -0.015267 -0.005592 0.012011 -0.007061 -0.006848 0.015157 0.005583 -0.001083 -0.000710
previous -0.017095 -0.013009 -0.013009 0.009455 0.014085 -0.010030 -0.009713 -0.004451 0.005084 -0.006826 0.003424 0.000628 -0.005780 0.011100 -0.003534 0.005041 -0.018343 0.011203 0.009261 0.008969 0.001477 -0.021628 0.009938 -0.002925 -0.012971 0.004358 -0.011604 -0.002554 0.012061 -0.016323 0.000524 -0.000480 -0.008966 -0.020476 -0.011210 -0.019763 -0.018278 0.000949 0.011377 0.002368 -0.001776 0.008904 0.003942 0.017824 0.006485 -0.014037 0.010547 0.001626 0.031287 0.023538
book 0.009258 0.018945 0.008324 -0.000713 -0.024338 0.010678 0.015597 0.002580 -0.008261 -0.002503 -0.004163 0.024276 -0.014035 -0.012430 0.007602 0.009074 0.017879 -0.010618 0.014878 -0.011421 -0.002872 -0.000142 -0.008741 0.008504 0.018124 0.010400 0.026845 -0.004782 -0.032235 0.018541 -0.001115 -0.001060 -0.010454 0.020049 -0.005666 0.019421 0.003317 0.018971 0.010029 -0.012836 -0.008245 -0.018427 -0.013320 -0.013168 0.001245 -0.008198 -0.000805 -0.002223 -0.033327 -0.026817
Create 0.010107 0.030138 0.022204 -0.021984 -0.016013 0.028973 0.006295 0.006820 -0.028654 0.005871 -0.026093 0.015805 -0.008097 0.004596 -0.010359 0.022739 0.044472 -0.005191 0.017224 -0.026162 0.007520 0.002185 -0.013951 0.009240 -0.008668 -0.010860 0.008684 -0.011464 -0.046217 -0.002917 -0.014269 0.001146 -0.002368 0.035815 -0.008790 0.003817 0.003713 0.013653 0.004824 0.000926 -0.001454 -0.005044 -0.011863 -0.013796 0.000498 -0.030897 -0.004478 0.018754 -0.034369 -0.015433
have 0.030065 -0.024114 0.003431 -0.009398 0.014874 -0.023094 0.041852 -0.046937 -0.027217 0.028930 -0.041411 0.005246 -0.036154 -0.014039 0.012148 0.042307 0.039358 -0.002745 -0.018469 0.012637 0.038587 0.028381 -0.051827 0.029433 -0.011320 -0.017599 0.025829 -0.030326 0.000602 -0.052561 0.045113 -0.006938 -0.027098 -0.028923 0.005347 -0.033411 -0.011190 -0.029354 -0.007411 -0.015958 -0.003206 0.010571 0.004654 0.039314 -0.000679 -0.029112 0.030986 0.004931 0.027168 -0.009997
is 0.014174 0.016164 0.009385 0.006290 0.014718 0.031888 -0.023056 -0.009397 -0.024418 0.000177 -0.005047 0.022132 0.004059 -0.021649 -0.018791 0.009088 0.002489 0.016348 0.003614 0.000554 0.015359 0.023797 -0.014207 0.013118 -0.000787 0.020927 0.031998 -0.008711 -0.021027 0.015144 -0.000612 -0.025756 -0.025145 0.013483 -0.012163 -0.002117 0.013954 -0.023174 0.007926 -0.022163 -0.008271 0.023307 -0.019618 -0.016761 -0.021358 -0.015617 -0.004726 -0.018038 0.000973 0.004403
just 0.012896 0.008881 -0.029630 0.011270 0.009084 -0.009674 -0.006312 -0.027300 0.008979 0.011350 -0.009604 0.007526 -0.032410 0.011803 -0.007906 -0.025074 -0.008732 0.009397 -0.000292 0.006602 0.001295 -0.006516 -0.007827 0.009459 0.023938 -0.031275 -0.020210 -0.008736 0.020000 0.008552 0.006558 -0.013015 -0.022852 0.013301 0.001446 -0.012704 -0.022294 -0.051973 -0.036218 0.017353 0.014561 -0.026787 0.003954 0.003190 0.025241 0.005244 -0.009713 -0.007763 0.024447 -0.007014
opptys -0.000639 0.002430 0.002097 -0.017350 -0.015802 -0.000182 0.010155 0.013978 0.002637 0.007186 -0.001048 0.014086 -0.001699 0.003074 0.000106 0.008898 0.010214 0.002110 0.002024 0.002384 0.003143 0.004939 0.010845 -0.011753 -0.003668 -0.001118 -0.001579 0.000562 0.009907 -0.002906 -0.017081 0.000376 0.013758 0.010391 -0.010485 0.003533 0.010136 0.010684 0.019170 -0.003741 0.000980 -0.003121 0.003761 -0.001871 -0.010969 -0.000511 0.001733 -0.001124 0.000239 0.005832
past -0.008179 -0.005747 0.003765 -0.013918 0.003011 -0.016644 0.004195 -0.014472 0.004631 -0.000529 -0.001518 -0.000351 -0.023671 0.018516 -0.014445 -0.006489 -0.018427 0.016489 -0.010069 -0.009659 0.013176 -0.011270 0.008990 -0.017637 0.000406 0.006298 -0.004206 -0.004717 0.002482 -0.010510 -0.002819 0.004397 -0.010977 -0.006357 0.007434 -0.005029 -0.016065 -0.015878 0.005381 0.007594 0.001387 0.014925 0.001527 0.016679 -0.000212 -0.000392 -0.010354 -0.004537 0.009091 0.008591
schedule 0.010125 0.003703 0.000730 0.014084 0.015855 -0.004360 -0.004040 -0.015605 -0.012396 0.003761 -0.020710 0.010108 -0.010205 -0.006935 -0.013853 0.001987 -0.006430 0.000850 0.002353 -0.007323 0.006557 0.022776 -0.021499 0.022821 -0.004330 -0.000576 -0.004920 -0.007224 -0.003902 0.002101 0.003247 0.009161 0.003253 -0.002311 0.001688 -0.005919 0.013979 0.002383 -0.001090 0.001532 -0.002899 0.016599 0.007311 -0.006735 0.001330 -0.010760 0.002359 -0.008667 -0.011384 0.005917
to-do 0.010306 0.020813 0.004635 -0.008639 0.006522 -0.004147 -0.001679 0.000961 0.004163 0.005659 -0.009432 0.012440 -0.002176 0.017977 0.006565 0.006178 0.009640 0.011287 0.010232 -0.001619 -0.001415 0.009183 -0.019488 0.005231 0.012193 -0.001535 -0.004040 -0.009958 0.010807 0.005277 -0.010477 0.001384 0.009906 0.012334 0.001071 0.002503 0.001567 0.010643 -0.006919 -0.011405 -0.006130 0.008630 0.014008 0.000087 -0.006404 0.012545 0.009522 0.007330 0.006925 -0.000291
tomorrow -0.035483 -0.007726 0.007238 -0.004170 -0.014611 0.010401 0.002736 0.032584 0.016798 -0.013017 0.025325 -0.014759 0.011551 0.015293 0.010871 -0.020718 -0.015784 -0.012821 -0.009540 0.003602 -0.006849 -0.015763 0.018288 -0.004037 -0.010499 -0.007566 -0.003664 -0.003836 0.014811 0.011792 -0.020134 0.007358 0.025498 -0.009762 0.003065 0.010245 0.006376 0.006835 0.006315 -0.006086 0.021049 -0.000407 0.006270 -0.006489 0.006277 0.009547 -0.001920 0.004945 -0.009912 -0.014967
Show 0.023821 0.009378 0.004385 0.013416 0.004210 -0.007619 -0.007506 0.008798 -0.014103 0.010690 -0.001193 0.004748 0.005163 0.001170 -0.013713 0.007170 -0.000597 0.007571 -0.015138 -0.002670 0.001391 0.018109 -0.005896 -0.010362 0.005419 -0.004346 -0.009461 0.000892 -0.000962 -0.008251 0.000407 -0.001266 -0.015735 0.015426 -0.013973 -0.000404 0.016767 -0.001741 0.002536 -0.008462 -0.003786 0.005138 -0.011945 -0.017233 -0.002477 -0.003235 0.003977 0.014740 0.000318 0.004500
ended 0.022638 0.010016 -0.030296 0.009815 0.006884 -0.009289 0.000508 -0.021344 0.012999 0.024704 -0.015702 0.008626 -0.032227 -0.002428 -0.009608 -0.021522 -0.008366 0.008803 0.000643 0.001603 -0.000942 0.006760 -0.017274 0.020503 0.030235 -0.033700 -0.020929 -0.007280 0.010365 0.008012 0.008872 -0.021372 -0.023337 0.023448 0.013879 -0.004000 -0.019919 -0.048623 -0.029736 0.010365 0.008053 -0.022885 0.009624 -0.005889 0.030347 0.007954 -0.005728 -0.012708 0.017355 -0.004300
i 0.006904 0.009045 -0.000584 -0.029671 0.007728 -0.006073 0.023554 -0.023204 -0.026562 0.007471 -0.028512 -0.002528 -0.031851 -0.007827 -0.003019 0.020432 0.010122 -0.028910 -0.003621 -0.011436 0.023837 0.019736 -0.020715 0.010738 -0.029904 -0.010920 0.005220 -0.008892 -0.029027 -0.016687 0.021365 -0.000097 0.003646 -0.011573 0.029223 0.012103 0.016318 0.007853 -0.002793 0.009636 -0.036881 0.011206 0.029494 0.013708 0.003739 -0.016086 -0.001502 0.002175 -0.005371 -0.024892
information 0.005694 -0.002772 0.014490 -0.021752 0.001359 0.003625 0.013419 0.006601 0.009123 0.000521 -0.018283 -0.008655 -0.012487 -0.003160 -0.010912 -0.013843 0.017555 -0.001298 0.013795 -0.005719 0.018132 0.010499 0.000741 0.012018 -0.011841 0.006101 0.023627 0.006047 0.012781 -0.003462 0.008818 0.008783 -0.005147 -0.022074 0.015209 -0.012843 -0.001222 -0.009210 -0.012801 0.004862 -0.004103 0.015197 0.010382 0.015396 0.001187 0.000502 -0.003384 -0.012709 0.002562 0.008388
know 0.025107 0.018621 0.002845 -0.013700 0.008140 0.007091 0.025912 -0.016605 -0.009953 0.005491 -0.026678 -0.006609 -0.010503 -0.016650 0.013538 0.013087 0.020271 -0.025232 -0.017328 -0.008875 0.019139 0.019062 -0.042341 0.032985 0.002981 -0.015958 0.015778 -0.022703 -0.022638 -0.015978 0.015112 -0.024356 0.000903 -0.025842 0.023747 -0.021042 0.007676 -0.016265 -0.016259 0.002298 -0.009829 -0.004476 0.011050 0.018598 0.001477 -0.017809 -0.004970 0.004875 0.012115 -0.013601
opty -0.014972 0.008027 0.004426 0.015284 0.006387 -0.016908 0.009674 0.000958 -0.004287 0.019957 0.002680 0.008169 -0.000437 -0.014961 0.001532 -0.001879 0.002797 0.004342 -0.000951 -0.007392 -0.012434 -0.013918 0.000562 0.012955 -0.019565 -0.017855 0.020594 0.001959 -0.005355 0.004710 0.008488 -0.004290 0.000893 0.008607 0.010540 -0.000945 0.004043 0.017098 -0.001878 -0.030066 0.018029 0.008198 0.011891 -0.002093 0.009341 0.005352 0.019200 0.013309 0.003345 -0.004337
that 0.001595 0.007910 0.001817 0.014020 -0.005816 0.000592 -0.028377 -0.007469 0.016167 -0.006065 0.011111 -0.005049 0.008903 0.028374 -0.000974 -0.004510 -0.009058 0.010522 0.009516 -0.006731 -0.013437 -0.006218 0.003039 -0.002753 0.011401 0.005438 -0.014218 -0.016346 0.005919 0.011126 -0.010584 0.007202 -0.001174 0.011944 0.001471 -0.013378 -0.025617 -0.009263 -0.015869 0.016099 0.009474 -0.019999 0.000254 -0.000708 0.012169 0.029569 -0.024014 -0.003033 0.002573 0.001703
want 0.001207 0.007803 0.002061 -0.030266 0.001950 0.007162 0.012454 -0.025168 -0.037285 0.005669 -0.032683 0.000905 -0.024715 -0.019979 -0.002864 0.032274 0.014892 -0.035170 -0.013274 -0.015287 0.030649 0.023678 -0.020016 0.016769 -0.021357 -0.012943 0.013771 -0.006877 -0.025743 -0.027975 0.022089 0.003932 0.003827 -0.010399 0.027906 0.016002 0.023888 0.015777 -0.003734 -0.000340 -0.036369 0.008862 0.028480 0.016303 -0.002604 -0.030876 0.010692 0.010719 0.005180 -0.019251
due -0.006176 0.003866 0.008903 -0.007221 0.000681 -0.007660 0.006521 0.020098 -0.003091 0.000184 0.002846 0.002979 0.010223 0.002025 -0.005947 -0.016809 -0.005165 -0.002964 0.006375 0.006780 0.002413 0.008989 0.012110 0.008222 0.009126 -0.000340 -0.006119 -0.011380 0.021061 0.005953 -0.005362 -0.011735 0.007001 -0.007749 -0.010270 -0.003391 -0.005871 0.002531 -0.000048 -0.005215 0.012834 -0.002211 0.007727 -0.003584 0.015906 0.021110 0.000820 0.006773 0.004341 -0.003053
fiscal -0.014257 -0.002647 0.015261 0.000921 0.000032 0.002504 -0.019080 -0.001256 0.002100 0.016034 0.000219 -0.004673 -0.019419 -0.014194 -0.003939 0.000735 -0.022559 -0.021961 -0.019350 -0.011115 -0.004502 0.015436 -0.001846 -0.013701 0.002882 0.008207 0.014231 -0.021466 0.024510 -0.010915 -0.010374 -0.000479 0.013362 0.021261 0.000516 0.010111 -0.004119 0.006020 0.036449 -0.013704 0.009251 0.016179 -0.002608 -0.002797 -0.029792 -0.004180 0.004537 -0.002286 0.016074 -0.007776
in -0.007455 -0.002156 -0.002945 -0.006362 -0.001137 0.011063 0.004029 -0.000637 -0.002746 0.010971 -0.003767 0.010363 0.000865 0.005762 0.002794 0.008431 -0.007804 -0.000448 0.002471 -0.014093 0.003376 0.002574 -0.004495 0.000100 -0.008265 0.008899 0.008041 -0.001733 -0.011703 -0.007006 -0.008577 -0.011797 -0.015525 0.012577 -0.010027 -0.008285 0.011988 -0.002609 -0.014201 0.004946 0.002021 0.008404 0.000209 0.007837 -0.015367 -0.005166 0.013476 0.002946 -0.003519 0.003434
list -0.010004 0.001665 0.012623 -0.011708 -0.002910 -0.009164 0.012483 0.007424 0.000560 0.011471 0.010695 -0.001454 -0.020925 -0.007915 -0.002402 -0.013362 0.009953 -0.000183 0.004884 0.004084 -0.004669 0.009712 -0.006026 0.002408 0.006242 0.007475 -0.005738 0.005762 0.020297 0.009436 0.003545 0.012009 -0.000069 0.001475 -0.000153 0.005002 0.002857 0.012637 0.000201 0.010143 0.000196 -0.012003 0.003358 -0.002364 -0.006066 0.005419 0.016144 0.004572 0.018479 0.003413
meetings -0.006609 -0.015292 -0.010405 0.003572 -0.005204 0.001353 0.002961 0.007285 0.014161 -0.004472 0.016766 0.002752 -0.000020 0.007597 0.003966 -0.011210 -0.013364 -0.002100 -0.018982 -0.002861 0.002733 0.010176 0.008385 0.000374 0.009480 -0.015293 0.010103 0.020464 0.018288 -0.000609 0.014145 0.003760 -0.008892 -0.007269 0.009700 0.002788 -0.004939 0.007934 -0.005427 -0.009569 -0.008765 -0.013979 -0.010673 -0.005421 -0.008408 0.014397 -0.002398 0.001792 0.001617 0.004564
need 0.034136 -0.000557 -0.005259 -0.022898 0.029047 -0.010357 0.034396 -0.038360 -0.035533 0.027232 -0.056858 -0.013460 -0.033961 -0.030388 0.027780 0.023232 0.018873 -0.021907 -0.022001 0.002290 0.037689 0.017759 -0.056428 0.022004 -0.018036 -0.008066 0.004926 -0.025094 -0.022418 -0.037610 0.041186 -0.010428 -0.024254 -0.038227 0.011460 -0.018756 -0.010387 -0.015034 0.000918 0.001990 0.003294 0.022300 0.022372 0.015639 0.001767 -0.006180 0.031937 0.003380 0.020693 -0.021467
quarter -0.011224 0.007725 0.014417 0.012499 -0.000780 0.000275 -0.003599 -0.005810 0.008602 0.010016 -0.012251 -0.017904 -0.002221 -0.020821 -0.007394 -0.001748 -0.010059 -0.019364 -0.019428 -0.015349 0.014427 0.019391 -0.014796 0.008995 0.003119 0.000938 0.015969 -0.019885 0.022435 -0.008378 0.003191 -0.008288 0.013171 0.013195 0.011515 -0.001788 -0.007810 0.005381 0.028915 -0.019585 0.012091 0.013130 -0.005641 0.000658 -0.021612 -0.005234 0.008637 -0.006887 0.000276 0.000008
to-dos -0.010484 -0.006005 -0.004189 0.002619 -0.000010 -0.004101 0.001176 -0.011792 0.008060 -0.011830 -0.007625 -0.003638 -0.009947 -0.002102 -0.003040 -0.001348 -0.010193 -0.005976 -0.004995 -0.001043 -0.006828 0.010885 -0.005386 0.000916 -0.014735 -0.000619 -0.017751 -0.003944 0.011630 -0.002031 -0.012845 -0.007355 -0.005932 -0.002039 0.004403 -0.015809 0.003885 -0.011801 -0.016869 -0.014339 -0.009049 -0.005459 0.013876 -0.003471 0.000474 -0.016914 0.000196 -0.001634 0.009639 0.000434
with 0.003850 -0.004210 -0.010693 0.003653 0.002640 -0.006286 -0.014738 -0.004783 0.009683 -0.003640 0.010500 -0.023466 -0.007881 -0.004386 -0.003941 -0.008422 0.002804 -0.002954 -0.018028 0.010702 -0.003198 -0.013495 -0.000350 0.003872 -0.003035 0.006097 -0.003511 -0.000761 0.019752 -0.001231 0.012702 -0.012606 0.005737 -0.000273 0.006289 0.001431 -0.000256 0.002441 -0.011871 -0.001301 -0.002612 0.015736 0.007677 0.014586 -0.016026 -0.011506 -0.007804 -0.009431 0.029024 0.009195
yesterday -0.007994 -0.008634 0.015731 -0.010225 0.007085 -0.009173 0.003654 0.020505 0.003452 0.013610 0.025041 -0.005521 0.011170 0.019790 0.010385 -0.001207 -0.009321 -0.003269 0.000547 0.011599 -0.003944 0.002779 -0.010306 0.017007 0.016833 -0.006386 -0.016008 -0.002008 -0.001898 0.015619 -0.023005 0.004144 0.008560 0.011683 0.013175 -0.008930 -0.002674 -0.003097 0.004785 -0.007161 0.015980 0.007035 -0.002285 -0.006652 0.017555 0.011970 -0.009756 -0.002685 -0.003526 -0.019530
<unk> 0.000108 0.000792 -0.001507 -0.001958 0.000625 0.000383 0.000159 -0.001385 0.000383 -0.001765 -0.000056 0.002862 0.000980 -0.000855 -0.001022 -0.001476 -0.000340 -0.000734 -0.001008 -0.000374 -0.000138 0.000878 0.001132 0.001021 0.000038 -0.000025 0.001391 -0.001059 -0.000045 -0.000773 0.002659 0.000647 -0.000778 -0.000027 -0.002080 0.000911 0.001936 -0.000459 0.001558 0.001749 0.001760 -0.001206 -0.000537 -0.001426 -0.001824 -0.000576 0.000917 0.000215 0.001481 -0.001330
