task -0.170496 -0.505021 0.279528 -0.571988 0.065545 -0.381112 0.421437 0.894251 -0.073066 -0.763695 0.614584 0.073772 -0.550485 -0.120141 0.708150 -0.153626 -0.582370 0.021998 0.578877 -0.093602 0.283160 0.004761 0.631390 0.125764 -0.080374 -0.068622 -0.076733 0.865638 0.752524 -0.320463 1.039453 0.220998 0.101525 -0.509632 -0.275799 0.918697 -0.209309 -0.340494 0.238286 0.098907 0.365989 0.548751 0.109913 -0.067848 -0.600474 0.533454 -0.397564 -0.025466 -0.510936 -0.930904
my -0.233471 -0.665555 0.137839 -0.181795 -0.214996 -0.647356 0.120493 0.785186 0.101683 -0.578374 0.339076 0.520652 -0.353849 -0.667721 0.532589 0.383782 -0.090906 0.341563 1.207485 -0.129896 -0.520589 -0.386866 0.576734 0.525536 -0.113622 0.064718 0.202759 0.933123 0.801168 -0.201792 0.197218 -0.102660 -0.085372 -0.374448 0.234260 1.666076 -0.089355 -0.008468 0.057624 0.483534 0.185502 0.351150 0.073614 1.032267 -0.315638 0.162404 -0.019840 -0.564218 0.858775 -0.608692
tasks 0.440971 0.141175 -0.031213 0.308553 -0.403931 -0.395862 -0.032007 0.031931 -0.512377 0.791102 -0.049916 -0.018183 0.174155 -0.604848 0.249632 -0.323050 0.045920 -0.101249 0.460394 -0.660395 0.481790 -0.108237 -0.238650 0.144966 -0.073181 0.292220 -0.913395 0.046580 -0.021734 0.424985 -0.706501 -0.106266 -0.110784 -0.027170 0.160433 0.104713 -0.331050 1.077675 0.722468 0.409400 -0.118009 0.287086 0.394521 -0.342025 0.429670 -0.441483 0.038515 -0.158991 0.764648 0.019305
for 0.543575 -0.573786 0.357723 0.462016 -0.136394 -0.630237 -0.012194 0.660892 -0.332542 0.106384 -0.105885 0.681688 -0.162644 -0.829828 0.583243 0.021792 -0.018520 0.043960 0.622370 -0.429658 -0.284102 0.098272 -0.225154 0.125553 -0.270780 0.335420 -0.614445 0.418713 0.253957 0.003053 -0.332912 -0.028291 -0.659356 -0.638324 -0.100852 0.635519 -0.276853 0.284938 0.448531 0.968321 -0.229999 0.452506 0.760898 0.112829 0.240201 -0.711432 -0.383313 -0.229693 1.088588 0.057710
the -0.120867 -0.032191 -0.129632 -0.098407 -0.171617 0.044662 -0.189219 -0.186647 -0.572715 -0.382702 0.194395 -0.029432 0.182054 -0.828648 0.426523 0.411743 0.764206 0.213774 1.006712 -0.001079 -0.255130 -0.502729 0.042312 0.335421 0.290558 -0.170032 0.391523 0.308741 0.130168 0.033581 -0.621554 -0.867124 0.059622 0.759294 0.408384 0.935763 -0.153846 0.239707 0.117537 0.265554 0.238147 -0.661850 -0.683506 0.658185 0.182077 -0.081965 0.065044 -0.615988 0.851019 -0.220268
project 0.187897 -0.379343 0.259901 0.181583 0.109610 -0.197621 0.169880 0.334808 0.008071 -0.100686 -0.063281 0.421483 -0.212241 -0.115973 0.298877 0.035847 -0.084831 0.001516 0.020107 -0.020325 -0.239677 0.191410 -0.015739 -0.164961 -0.230758 0.041078 -0.197317 0.177692 0.105114 -0.291388 0.163706 0.156466 -0.323884 -0.436339 -0.182188 0.178033 -0.036110 -0.173305 -0.008959 0.433543 -0.103717 0.150050 0.448997 -0.136291 -0.008404 -0.285484 -0.350789 0.157368 0.216081 -0.016078
projects -0.004605 -0.480918 0.090737 0.017686 0.059810 -0.294096 0.211829 0.427095 0.162988 -0.243351 0.145732 0.512002 -0.218743 -0.153347 0.180899 0.163959 -0.239909 0.108802 0.409683 0.035070 -0.260447 -0.012411 0.183515 0.180000 -0.197854 0.027903 0.025801 0.462005 0.375107 -0.142113 0.236120 0.216678 -0.127894 -0.403515 -0.121932 0.581216 -0.007420 -0.261734 -0.090791 0.109462 0.045049 0.343733 0.367971 0.273832 -0.342475 0.026841 -0.179967 -0.103644 0.354425 -0.335122
list 0.240523 -0.228460 0.076730 0.098403 -0.241346 -0.564889 -0.008440 0.423135 -0.228616 0.233478 0.126135 0.198717 -0.073110 -0.525379 0.333781 -0.156807 -0.203924 0.054282 0.600516 -0.433725 0.165030 -0.106356 -0.002732 0.300448 -0.128879 0.254778 -0.575287 0.382924 0.247543 0.268864 -0.215148 0.018343 -0.143302 -0.283679 0.049366 0.516266 -0.260190 0.475991 0.489726 0.385820 -0.067445 0.517654 0.372311 0.054286 0.105634 -0.170715 -0.077799 -0.213438 0.617104 -0.227438
design -0.040741 -0.171119 0.179996 -0.188546 0.030059 -0.113796 0.159163 0.319380 0.143241 -0.221942 0.190893 0.047267 -0.261076 0.096674 0.214100 -0.117249 -0.284793 -0.014304 0.095913 0.029425 0.198548 0.111840 0.154670 -0.013451 -0.090017 -0.067758 -0.021194 0.189203 0.280761 -0.125621 0.443007 0.277386 0.083154 -0.314541 -0.169021 0.245744 -0.066952 -0.152772 0.063444 0.031880 0.109986 0.239196 0.112853 -0.122613 -0.234806 0.213001 -0.173889 0.109938 -0.331552 -0.380860
status 0.052452 -0.152077 0.004418 0.016201 -0.020755 -0.210101 -0.031744 -0.082454 -0.367922 -0.174071 0.039654 0.193775 0.124493 -0.542253 0.217645 0.184040 0.516866 0.092808 0.601406 -0.034404 -0.325824 -0.192473 -0.042857 0.161723 0.069013 -0.050124 0.084294 0.280004 0.175434 0.008598 -0.455574 -0.467377 -0.145798 0.218669 0.150331 0.666496 -0.137612 0.213425 0.122096 0.445545 -0.052903 -0.173356 -0.184032 0.466309 0.098126 -0.355327 -0.032544 -0.282184 0.639511 0.012632
show -0.238903 -0.056928 -0.010471 -0.138050 -0.217862 0.069994 0.043486 0.155602 0.067044 -0.169731 0.138869 -0.130190 -0.211360 -0.073780 0.278132 0.171434 -0.030296 0.135745 0.271782 0.004906 -0.093958 -0.262534 0.396866 0.058161 0.005993 -0.040626 0.146713 0.144861 0.093969 -0.243870 0.195902 -0.144972 0.194037 0.105541 0.275023 0.454777 0.092541 0.087723 -0.056951 0.026125 0.222359 -0.240797 -0.232434 0.161621 0.038713 0.327937 0.017283 -0.116568 0.075266 -0.279345
complete -0.067703 0.008993 0.066765 -0.216650 0.080364 0.122492 0.090208 -0.021670 0.038732 -0.086010 0.088574 -0.126768 -0.067652 0.228515 0.046357 -0.175110 -0.149377 -0.107422 -0.184515 0.111132 0.223039 0.111173 0.044526 -0.088860 -0.031629 -0.069758 0.034582 -0.059933 -0.006184 -0.062460 0.286275 0.106117 0.130327 0.007839 -0.170303 -0.225543 -0.024210 -0.180872 -0.011886 -0.160813 0.068958 -0.001548 -0.099357 -0.283849 -0.138994 0.195960 -0.073363 0.203443 -0.496661 -0.195954
of 0.004373 -0.190588 -0.035282 -0.042702 -0.189559 -0.463000 -0.102468 0.131556 -0.367061 -0.233768 0.235761 0.177370 0.099279 -0.817521 0.367140 0.211281 0.330798 0.160809 1.076002 -0.201804 -0.199610 -0.381612 0.069469 0.479080 0.100276 0.015588 -0.021663 0.571184 0.408893 0.195336 -0.471931 -0.490203 -0.053667 0.208059 0.258492 1.140284 -0.293969 0.382865 0.281561 0.405240 0.044785 0.092004 -0.244498 0.714432 0.020912 -0.177882 0.067573 -0.599459 0.922079 -0.269099
as 0.062468 -0.083743 0.101213 -0.006967 0.047947 0.078586 0.054617 0.097962 0.054110 -0.021128 0.065618 0.078274 -0.085482 0.124453 0.064208 -0.042682 -0.071342 0.020055 -0.029975 0.057383 0.187142 0.142872 -0.111052 -0.091115 -0.060166 -0.070079 -0.004171 -0.032170 -0.063630 0.035193 0.163823 0.148763 0.067491 -0.120085 -0.078339 0.037863 0.004322 -0.060119 -0.025598 0.004463 0.000679 -0.011720 0.046365 -0.120280 -0.101446 0.106741 -0.134005 0.165224 -0.128074 -0.172990
overdue 0.328802 0.006307 0.113138 0.240773 -0.143736 -0.279489 -0.130512 -0.015673 -0.295537 0.355267 -0.090276 0.105838 0.162492 -0.490810 0.187992 -0.092576 0.126800 -0.056023 0.356062 -0.276888 0.189417 0.021909 -0.399909 0.134610 -0.052964 0.111070 -0.435508 -0.013900 -0.025068 0.318477 -0.621940 -0.161984 -0.161251 0.068757 -0.016843 0.085194 -0.306272 0.434631 0.410252 0.327809 -0.147564 0.119952 0.151030 -0.113927 0.244377 -0.407653 -0.027434 -0.180014 0.629144 0.005638
financial -0.033358 -0.082756 0.069568 0.011610 -0.134032 -0.125251 -0.074153 0.178163 -0.100657 -0.058013 0.046904 -0.020535 -0.097641 -0.266484 0.217483 0.065714 0.052426 0.041602 0.217218 -0.081754 -0.126378 -0.123342 0.106803 0.104772 -0.001132 0.033357 -0.034908 0.157512 0.112277 -0.084068 -0.029538 -0.148538 -0.050178 0.005572 0.103918 0.342047 -0.040137 0.144896 0.109175 0.217128 0.046486 -0.057712 -0.116418 0.177990 0.080586 -0.051411 0.014503 -0.172329 0.250501 -0.095888
whats -0.034853 0.239176 -0.208845 -0.034829 0.068592 0.339079 -0.064582 -0.464535 -0.170947 0.007006 0.020828 -0.197206 0.201237 -0.005537 -0.105866 0.081099 0.353468 0.031211 0.038832 0.193133 0.106407 -0.116161 -0.147046 0.009999 0.171408 -0.198047 0.229391 -0.203211 -0.231559 0.099306 -0.284514 -0.272289 0.197494 0.545626 0.108713 -0.206359 -0.011412 0.021854 -0.076918 -0.312014 0.088926 -0.484791 -0.370369 -0.084540 0.063091 0.077015 0.102573 -0.097963 -0.041791 -0.013431
training -0.171740 -0.081011 0.043098 -0.275280 0.010522 -0.048345 0.090936 0.076777 0.014415 -0.183018 0.143308 -0.062034 -0.096681 0.064194 0.098054 -0.081300 -0.129458 -0.046679 0.075411 0.069818 0.056034 -0.037568 0.207366 0.061759 -0.018238 -0.053965 0.075837 0.160488 0.192475 -0.107072 0.229914 0.044861 0.142584 -0.009010 -0.087820 0.090439 -0.021196 -0.138868 0.008204 -0.089219 0.121020 0.087716 -0.113120 -0.003863 -0.179808 0.192024 -0.003418 0.015452 -0.286602 -0.254987
80 -0.171836 -0.012253 0.019109 -0.275971 0.014658 0.061002 0.046425 -0.159194 0.058443 -0.019506 0.017133 -0.085510 -0.012202 0.180930 -0.027723 -0.131145 -0.064868 -0.118903 -0.117309 0.160463 0.056160 0.001572 0.086115 -0.000039 -0.050514 -0.035894 0.096299 -0.053211 0.025447 -0.074788 0.078956 0.022086 0.160347 0.117361 -0.127505 -0.222380 0.006291 -0.164833 -0.044804 -0.164022 0.067881 -0.032091 -0.158615 -0.121162 -0.111988 0.130688 0.048484 0.129530 -0.345579 -0.156242
percent -0.107876 -0.069196 0.021082 -0.185527 -0.038583 -0.074034 0.015335 -0.105317 -0.015729 -0.009448 0.007468 0.012140 0.003385 -0.031674 0.028891 -0.057350 0.014650 -0.069110 0.085039 0.078784 -0.053175 -0.067875 0.065610 0.082120 -0.045267 0.012929 0.026787 0.053149 0.082470 -0.041852 -0.080367 -0.075485 0.064794 0.095944 -0.060137 0.000068 -0.055472 -0.057088 0.029413 -0.008831 0.020841 0.004118 -0.099882 0.031779 -0.051858 -0.006949 0.050113 -0.006109 -0.033935 -0.116227
update 0.019314 -0.046319 0.114836 -0.011540 0.001146 -0.129196 0.089685 0.427791 -0.112117 -0.307751 0.204493 -0.051247 -0.125101 -0.165972 0.267092 -0.029996 -0.188274 0.054859 0.139366 -0.166120 0.009837 -0.018261 0.278799 0.054202 0.045499 -0.008919 -0.116632 0.334566 0.274556 -0.178711 0.424813 0.040101 -0.132617 -0.283339 -0.028777 0.347250 -0.095223 0.003705 0.111534 0.097923 0.069201 0.219176 0.019863 0.011061 -0.088005 0.092002 -0.091991 -0.183862 -0.141237 -0.104883
are -0.092107 -0.472852 0.045544 -0.134599 0.118225 -0.117774 0.251021 0.317352 0.216699 -0.549644 0.036063 0.481551 -0.113881 0.011124 0.024079 0.263612 -0.095923 0.159035 0.307179 0.186279 -0.396389 0.011168 0.271141 0.002489 -0.088898 0.030425 0.251688 0.405711 0.370152 -0.225970 0.287580 0.167896 -0.176148 -0.336155 -0.157749 0.580081 0.070295 -0.510521 -0.266225 0.242107 0.065368 0.316553 0.345077 0.415596 -0.450637 0.165477 -0.295253 -0.021013 0.146948 -0.096523
me 0.168687 0.134487 0.262665 0.195886 -0.267387 -0.112108 -0.152132 0.079613 -0.302825 0.103072 -0.105519 -0.039594 0.147278 -0.573429 0.390416 0.051005 0.276396 0.064102 0.399541 -0.297787 0.014083 -0.156678 -0.211111 0.122801 0.047561 -0.032570 -0.129226 -0.000872 -0.013795 0.087197 -0.470960 -0.380380 -0.124442 0.183569 0.128887 0.330401 -0.253908 0.356210 0.238131 0.325756 -0.013773 -0.233403 -0.248551 0.042381 0.268108 -0.280717 0.039418 -0.396866 0.690353 -0.033257
Mark -0.036560 -0.241759 0.078012 -0.105503 -0.027580 -0.265879 0.107050 0.362520 -0.015219 -0.233394 0.177171 0.149090 -0.185620 -0.197743 0.272452 0.052590 -0.127292 0.093741 0.387526 -0.082667 -0.061659 -0.083333 0.212214 0.140774 -0.037439 0.016169 -0.018899 0.381737 0.342237 -0.087450 0.203236 0.040942 -0.034902 -0.218078 0.011919 0.545336 -0.054236 -0.032689 0.091863 0.163086 0.104526 0.209385 0.099765 0.207308 -0.141309 0.079799 -0.105889 -0.144099 0.146485 -0.289979
What -0.168529 0.598217 -0.457535 -0.227721 -0.288852 0.147476 -0.138134 -0.778605 -0.478864 0.260467 0.112214 -0.563919 0.526056 -0.297079 -0.264378 0.041788 0.679140 0.024556 0.411316 -0.170811 0.289050 -0.501875 0.006976 0.200894 0.455578 -0.123745 0.080030 -0.123638 -0.063461 0.456350 -0.834193 -0.567467 0.429525 0.963968 0.448611 0.202433 -0.129368 0.738655 0.238691 -0.204565 0.149690 -0.493569 -0.693716 0.345473 0.217004 0.043759 0.444830 -0.326086 0.282106 0.109327
start -0.055472 -0.090014 0.019175 -0.106576 0.010487 -0.075869 0.054846 0.164678 -0.097818 -0.193321 0.145420 0.011794 -0.090563 -0.145283 0.172244 0.032852 -0.023613 -0.002480 0.241353 -0.026490 -0.011441 -0.047454 0.136887 0.070688 0.026250 -0.014733 0.034888 0.204449 0.169376 -0.049690 0.102387 -0.068877 0.031502 0.014185 0.003735 0.287104 -0.073311 -0.041189 0.076244 0.067467 0.104527 0.020910 -0.038101 0.088761 -0.092996 0.064537 -0.073480 -0.088765 0.018999 -0.199592
to -0.187621 0.249200 0.080954 -0.098263 0.240827 0.353750 0.105126 0.341584 0.200203 -0.643195 0.348319 -0.322493 -0.157371 0.406271 0.065147 -0.096372 -0.530044 -0.072647 -0.486344 0.162818 0.095399 0.142262 0.508180 -0.069785 0.103187 -0.240126 0.114880 0.245450 0.168228 -0.480774 1.235583 0.324735 -0.042572 -0.435934 -0.218104 -0.100355 0.003364 -0.431726 -0.288192 -0.606453 0.146068 0.245363 -0.305002 -0.304702 -0.360022 0.516458 0.022582 -0.148017 -1.094012 -0.040422
how -0.025903 -0.364440 0.019479 -0.056068 0.088565 -0.128477 0.194813 0.256055 0.152575 -0.290723 0.063993 0.366795 -0.105859 0.007387 0.027263 0.138836 -0.182149 0.066696 0.241574 0.075436 -0.192702 0.027815 0.208256 0.031879 -0.094286 0.044922 0.086697 0.309145 0.269284 -0.142230 0.240440 0.179005 -0.118691 -0.327001 -0.108697 0.399437 0.056123 -0.285288 -0.126367 0.124375 0.046097 0.306200 0.328140 0.210829 -0.311974 0.099363 -0.206057 -0.000159 0.085215 -0.116273
Show 0.064671 0.085916 0.135367 0.092302 -0.075805 0.059626 -0.049624 0.004809 -0.087902 0.010002 -0.054974 -0.027079 0.058619 -0.161477 0.162757 0.070117 0.067016 -0.005649 0.106513 -0.062574 0.040581 -0.024126 -0.119721 0.004140 0.005441 -0.040990 -0.006410 -0.044130 -0.036272 0.007769 -0.144587 -0.128668 -0.073502 0.101681 -0.025556 0.027402 -0.087887 0.016795 0.036930 0.027643 0.028818 -0.123872 -0.095473 -0.084615 0.030761 -0.049204 -0.028918 -0.121133 0.238115 -0.020322
What's -0.033904 -0.004102 -0.058268 -0.022908 -0.037411 0.034799 -0.046414 -0.055318 -0.143558 -0.100177 0.053193 -0.002013 0.060234 -0.205266 0.105646 0.091627 0.180467 0.045855 0.230593 -0.009501 -0.054585 -0.126215 0.019222 0.092403 0.064747 -0.054011 0.082664 0.080971 0.030667 0.012276 -0.144273 -0.167572 0.022381 0.204020 0.097184 0.207721 -0.025325 0.062732 0.017150 0.059180 0.071450 -0.161937 -0.165262 0.151282 0.047871 -0.001687 0.029686 -0.132565 0.189824 -0.063968
List 0.329182 -0.005746 0.098332 0.263724 -0.086806 -0.161168 -0.001988 0.091151 -0.166394 0.361947 -0.130663 0.113230 0.040681 -0.175403 0.093550 -0.185747 -0.071286 -0.079533 -0.011468 -0.259936 0.196751 0.130994 -0.232905 -0.041279 -0.133918 0.164575 -0.513859 -0.079455 -0.072300 0.124213 -0.232976 0.076468 -0.207864 -0.224446 -0.077696 -0.179592 -0.156609 0.339070 0.316775 0.256403 -0.162347 0.227149 0.381115 -0.343519 0.207865 -0.309548 -0.082375 0.044914 0.236390 0.123218
pending 0.122110 -0.232666 0.178273 0.104942 -0.017115 -0.171439 -0.019889 0.276357 0.046316 -0.096790 -0.043979 0.244979 -0.127115 -0.217755 0.218488 0.045304 -0.052488 0.055018 0.217418 -0.044443 -0.158273 0.052776 -0.034653 0.045175 -0.121859 0.096188 -0.063752 0.123723 0.105516 -0.071882 -0.007630 0.007419 -0.208120 -0.269290 -0.044854 0.263290 -0.091399 -0.029946 0.059799 0.259940 -0.053069 0.154151 0.218524 0.092143 0.010383 -0.104251 -0.136138 -0.122849 0.293067 -0.061478
is -0.230806 0.526282 -0.389930 -0.158851 -0.217482 0.209498 -0.265765 -0.727718 -0.375261 0.056386 0.082477 -0.480944 0.461763 -0.346066 -0.200640 0.152104 0.733903 0.079564 0.401055 -0.037290 0.020997 -0.507045 -0.022215 0.259392 0.438709 -0.144218 0.310416 -0.130391 -0.134905 0.343172 -0.750072 -0.674213 0.344299 0.940676 0.478354 0.260685 -0.093128 0.526153 0.056506 -0.201253 0.117007 -0.632445 -0.845743 0.499904 0.247264 0.025055 0.452004 -0.442888 0.348643 0.147379
I -0.218169 0.822588 -0.606493 -0.313183 -0.215625 0.423462 0.374493 -0.893713 -0.418462 0.407685 0.208260 -0.728247 0.626751 0.468159 -0.735612 -0.195236 0.278693 -0.071172 -0.401262 -0.166511 0.725183 -0.296159 0.284523 -0.237351 0.494171 -0.281722 -0.259559 -0.145770 -0.184375 0.289341 -0.262599 -0.009487 0.654029 0.817612 0.152703 -0.449474 0.130723 0.584403 0.041419 -0.678180 0.161875 -0.330509 -0.462941 -0.377272 -0.165534 0.326026 0.284283 0.264128 -0.549687 0.200073
70% -0.043326 0.171428 -0.014917 0.020067 0.084755 0.192629 0.002419 0.011740 0.048354 -0.136573 0.074116 -0.131581 0.042090 0.167474 -0.068379 -0.041170 -0.122667 -0.032835 -0.252931 0.063380 0.030941 0.060200 0.129441 -0.026407 0.047988 -0.089490 0.019025 0.000383 -0.027167 -0.128846 0.355565 0.102864 -0.026003 -0.084323 -0.047870 -0.163055 0.007249 -0.092161 -0.112747 -0.278359 0.006860 0.050796 -0.142720 -0.131915 -0.076939 0.142651 0.062003 -0.062730 -0.393109 0.109539
Oder -0.056408 0.078234 0.021893 -0.041075 0.069907 0.101922 0.048899 0.118180 0.015638 -0.204786 0.136419 -0.100616 -0.027351 0.097699 0.041871 -0.050452 -0.170416 -0.024898 -0.120308 0.031725 0.041045 0.048631 0.181601 -0.009301 0.032638 -0.071530 -0.006000 0.110135 0.074435 -0.141177 0.403406 0.108752 -0.035042 -0.142784 -0.065569 -0.014960 -0.020239 -0.091914 -0.053331 -0.201238 0.046943 0.114616 -0.106149 -0.098638 -0.128750 0.171325 0.010453 -0.073532 -0.358990 -0.009574
metrics 0.083992 -0.083155 0.077372 0.084738 -0.117136 -0.167849 -0.067984 0.140061 -0.119128 0.047293 -0.010595 0.036207 -0.056553 -0.263510 0.159336 0.012999 0.054497 0.005166 0.172176 -0.119133 -0.073998 -0.065369 0.000811 0.073377 -0.020586 0.067611 -0.143443 0.116493 0.073410 -0.008980 -0.115283 -0.101920 -0.121019 -0.054524 0.039512 0.239388 -0.081304 0.176650 0.155404 0.236356 -0.032298 0.022712 0.031515 0.090043 0.094464 -0.149248 -0.006392 -0.129717 0.288827 -0.018348
completed 0.018452 0.012726 0.103361 0.053874 0.029668 0.177582 -0.027286 -0.068408 0.101947 0.033558 -0.045175 0.031038 -0.011431 0.169340 -0.026945 -0.030912 -0.016226 -0.047546 -0.156240 0.127416 0.101079 0.155186 -0.152850 -0.086923 -0.060768 -0.072869 0.075430 -0.179673 -0.176262 -0.001215 0.048982 0.077295 0.053078 -0.035342 -0.083687 -0.176664 0.023228 -0.085831 -0.113299 -0.037648 -0.051436 -0.103350 -0.055170 -0.113937 -0.027054 0.072402 -0.023006 0.146509 -0.165880 -0.014792
today 0.376109 -0.149577 -0.042243 0.246344 -0.010185 -0.283223 0.025127 0.067181 -0.357322 0.348804 -0.042294 0.214008 0.048723 -0.172259 0.025205 -0.148472 -0.051427 -0.034053 -0.096233 -0.235114 0.031209 0.122462 -0.232440 -0.069213 -0.073639 0.281226 -0.643832 0.072527 -0.144112 0.171244 -0.255700 -0.027162 -0.297829 -0.138750 -0.128776 -0.265886 0.015725 0.163325 0.265069 0.206545 -0.204151 0.275588 0.474581 -0.309700 0.171296 -0.401045 -0.272377 0.155198 0.423446 0.221539
on 0.150847 0.015869 -0.120029 -0.060425 0.150119 -0.017322 0.074634 -0.138079 -0.328547 0.149338 0.115918 -0.121457 0.069677 0.198570 -0.062555 -0.181247 -0.084410 -0.087167 -0.362201 -0.020367 0.190659 0.131389 -0.131432 -0.141464 0.065541 0.124677 -0.360702 -0.034399 -0.217978 0.143514 0.051188 -0.122727 -0.042467 0.155438 -0.148373 -0.532177 0.137957 -0.123110 0.089368 -0.240697 -0.049391 0.093319 0.015081 -0.400018 -0.009465 -0.047184 -0.233423 0.260705 -0.150812 0.064038
Whats -0.041026 -0.071442 -0.021476 -0.018272 -0.021187 -0.045122 -0.005236 0.041844 -0.069715 -0.067431 0.042993 0.050693 -0.012974 -0.124086 0.084379 0.074579 0.052865 0.041721 0.185118 -0.007386 -0.065904 -0.055363 0.038332 0.073051 0.002092 -0.000101 0.028131 0.119283 0.069425 -0.011337 -0.062557 -0.093392 -0.023458 0.047972 0.050548 0.199075 -0.030782 0.026599 0.007894 0.048844 0.049664 -0.020099 -0.047461 0.150364 0.002525 0.001373 0.007463 -0.100793 0.161974 -0.078004
cost -0.042720 -0.032929 -0.058906 -0.027118 -0.046792 -0.001575 -0.067420 -0.016656 -0.176755 -0.127506 0.075421 0.019895 0.041699 -0.271215 0.153429 0.138919 0.219848 0.069439 0.329619 -0.015235 -0.087318 -0.150573 0.024435 0.117387 0.072537 -0.035955 0.122400 0.117028 0.046724 0.018228 -0.168071 -0.240014 0.007478 0.222260 0.114897 0.306464 -0.049448 0.068118 0.037459 0.093368 0.084186 -0.172450 -0.192654 0.218953 0.046574 -0.008306 0.034083 -0.182087 0.273918 -0.082695
budget -0.032029 -0.029419 -0.044941 -0.024010 -0.043642 0.008715 -0.061672 -0.035231 -0.158679 -0.137856 0.050591 -0.000362 0.025808 -0.272889 0.152847 0.130923 0.227448 0.053658 0.333267 -0.004224 -0.075433 -0.141887 0.032724 0.112317 0.061962 -0.048869 0.111394 0.136780 0.063099 0.019058 -0.177482 -0.216605 -0.005183 0.213495 0.128045 0.299676 -0.036648 0.068417 0.036351 0.094435 0.068638 -0.164342 -0.169227 0.191078 0.047276 -0.019199 0.015716 -0.193588 0.280463 -0.080873
Started 0.020773 -0.054122 -0.038282 -0.033981 0.046157 -0.014308 0.034326 -0.000845 -0.083213 -0.014527 0.060015 -0.020586 0.009029 0.033718 0.024436 -0.030756 -0.046009 -0.033026 -0.053164 -0.036429 0.017074 0.025872 0.022505 -0.034314 0.018354 0.053967 -0.101079 0.067097 -0.027955 0.017352 0.061946 -0.045269 -0.035591 0.024378 -0.034147 -0.069846 0.042349 -0.055832 0.008436 -0.046015 0.005402 0.049949 -0.005682 -0.051615 -0.031881 0.013370 -0.065813 0.021123 -0.017817 0.008859
due 0.087300 -0.024391 0.205486 0.152229 -0.124827 -0.132304 -0.064405 0.280605 0.091156 0.227010 0.020294 -0.016241 -0.135178 -0.115341 0.216524 -0.110510 -0.229818 -0.028495 0.119431 -0.181796 0.153891 0.030457 0.029979 0.104095 -0.110053 0.011571 -0.169620 0.017349 -0.001315 -0.016303 0.041870 0.074065 0.011383 -0.240129 0.105164 0.159237 -0.058697 0.339716 0.178728 0.031808 -0.035331 0.070735 0.014415 -0.116874 0.145775 -0.049158 0.144398 -0.125157 0.092269 -0.192017
75% 0.025286 0.041672 0.029420 0.036549 0.008963 0.124679 -0.027517 -0.138175 0.028723 0.093431 -0.043111 -0.003719 0.035057 0.105116 -0.052899 -0.021860 0.035855 -0.045785 -0.136629 0.090222 0.094136 0.093555 -0.148062 -0.058169 -0.022765 -0.039427 0.001860 -0.166105 -0.158800 0.044884 -0.057339 0.022135 0.042906 0.067256 -0.044408 -0.177201 0.020774 -0.013798 -0.056933 -0.035632 -0.043503 -0.113473 -0.058892 -0.102073 0.019984 -0.003309 -0.005568 0.113090 -0.073695 0.028791
Publish -0.016222 -0.015971 0.033635 -0.073709 0.032228 0.014436 0.027090 0.034975 0.000747 -0.042289 0.045309 -0.027066 -0.057342 0.015548 0.047288 -0.046919 -0.061287 -0.014982 -0.038276 -0.000494 0.081624 0.058566 0.036758 -0.037113 -0.001097 -0.025649 -0.024619 0.022015 0.016381 -0.033549 0.104394 0.072289 0.054475 -0.015719 -0.040863 -0.018672 -0.032387 -0.056554 0.023888 -0.024237 0.028543 0.068297 -0.008514 -0.071695 -0.053088 0.053132 -0.062677 0.015115 -0.143870 -0.081523
do -0.132252 0.642068 -0.413878 -0.197415 -0.216385 0.249819 0.175235 -0.703503 -0.348791 0.372725 0.122442 -0.563431 0.493226 0.156454 -0.445563 -0.109992 0.331484 -0.070156 -0.088201 -0.177025 0.531256 -0.277274 0.141695 -0.087386 0.385711 -0.193646 -0.139749 -0.154087 -0.109723 0.293363 -0.417372 -0.134330 0.487820 0.711147 0.227743 -0.166057 -0.003169 0.614940 0.121852 -0.402840 0.142176 -0.314149 -0.442114 -0.138056 -0.003779 0.150500 0.292475 0.018364 -0.183975 0.096036
have -0.216011 0.618591 -0.450227 -0.268247 -0.208532 0.277638 0.246449 -0.704945 -0.328348 0.261213 0.168271 -0.560358 0.493511 0.247691 -0.499886 -0.049897 0.305505 -0.029851 -0.106156 -0.120710 0.497339 -0.319458 0.234980 -0.103422 0.410433 -0.246927 -0.063376 -0.079223 -0.066350 0.247648 -0.300029 -0.123979 0.545285 0.745622 0.210016 -0.112683 0.077226 0.491215 0.031228 -0.471875 0.177588 -0.339990 -0.481263 -0.088524 -0.118019 0.247068 0.282859 0.062354 -0.256011 0.060896
working 0.146324 -0.018904 -0.083749 0.121057 0.090789 -0.003282 -0.068613 -0.113524 -0.179456 0.162399 -0.053540 0.003683 0.112945 0.008917 -0.044675 -0.016213 0.016946 -0.048337 -0.213010 -0.046299 -0.073240 0.069504 -0.162689 -0.056158 0.034648 0.148294 -0.191082 -0.068242 -0.244777 0.104973 -0.137479 -0.161485 -0.150493 0.106297 -0.004488 -0.345218 0.094543 -0.032492 -0.000441 -0.074295 -0.097923 -0.008374 0.013267 -0.105436 0.123689 -0.160921 -0.063570 0.020443 0.160628 0.202096
day -0.109419 -0.171977 0.064692 -0.093717 0.023360 -0.150523 0.056636 0.225174 0.238616 -0.131326 0.019257 0.111877 -0.174547 0.149363 0.054124 0.059785 -0.155431 0.052511 -0.026309 0.107422 -0.130060 0.059177 0.148547 0.003078 -0.138385 -0.039029 0.042820 0.144683 0.208577 -0.100009 0.256085 0.189338 -0.014875 -0.180074 -0.029870 0.137105 0.099834 -0.194342 -0.041163 0.019336 0.026260 0.169042 0.037140 0.125383 -0.119981 0.133765 0.017576 0.042407 -0.053115 -0.137642
like -0.013286 -0.216900 0.077095 -0.012878 -0.033433 -0.218584 -0.019902 0.184246 0.102071 -0.053514 -0.035568 0.183824 -0.133993 -0.094492 0.150881 0.095530 0.006589 0.060203 0.188139 0.038041 -0.168107 -0.000059 0.017632 0.058914 -0.138675 0.016852 0.001641 0.135669 0.182072 -0.012702 -0.030174 0.013002 -0.092455 -0.093640 0.036730 0.244477 0.026425 -0.050342 0.073445 0.208711 0.000044 0.094711 0.064788 0.196095 0.014623 -0.029946 -0.010756 -0.051976 0.272676 -0.113840
that 0.011315 -0.246456 0.107910 -0.050112 -0.034379 -0.133528 0.157948 0.228833 0.212968 -0.162212 -0.074585 0.277809 -0.073579 -0.033324 0.033820 0.077083 -0.055199 0.123243 0.206099 -0.011588 -0.138559 0.046699 0.145166 -0.032024 -0.108786 0.083240 0.058556 0.160478 0.169073 -0.074881 0.078811 0.146625 -0.079387 -0.275619 -0.058359 0.361080 -0.043729 -0.095746 -0.089618 0.269485 -0.019911 0.226648 0.348394 0.203123 -0.166649 0.064292 -0.137570 -0.025162 0.169484 -0.066692
past -0.055718 -0.149186 0.181340 0.037920 -0.177992 -0.223305 0.031452 0.412175 0.174083 0.015409 0.111773 0.073595 -0.220720 -0.172953 0.267924 0.007421 -0.260485 0.072704 0.318060 -0.167839 -0.002282 -0.087679 0.264986 0.160462 -0.103706 -0.000406 -0.062831 0.235486 0.184392 -0.123614 0.185310 0.106655 0.067519 -0.273656 0.156362 0.532402 -0.043196 0.246741 0.087935 0.113795 0.047476 0.096097 0.012358 0.119921 0.011951 0.087903 0.111320 -0.197557 0.180582 -0.325834
doing -0.025514 -0.175992 -0.003941 -0.007554 0.039211 -0.086570 0.069154 0.118616 0.043622 -0.081705 0.057085 0.172002 -0.057331 -0.052840 0.044804 0.041096 -0.066227 0.047183 0.151090 0.013173 -0.105517 -0.032083 0.105942 0.080784 -0.056846 0.029455 0.011782 0.170114 0.133755 -0.039279 0.086229 0.074801 -0.047354 -0.139468 -0.036710 0.216236 0.026392 -0.072296 -0.030488 0.023146 0.017184 0.135994 0.121242 0.118051 -0.144101 0.015721 -0.054606 -0.023549 0.102274 -0.109650
next 0.135701 -0.263092 0.069967 0.100448 0.117116 -0.048343 -0.077327 0.195889 0.142877 0.144418 -0.062343 0.246905 -0.126598 0.150945 -0.000198 0.030217 -0.247708 0.014259 -0.058740 0.160161 -0.057148 0.224652 -0.129550 -0.031864 -0.226015 0.193367 -0.104633 -0.110914 0.101625 -0.052682 0.116319 0.112002 -0.083749 -0.294336 -0.120516 -0.201263 0.151575 -0.119493 -0.034247 0.121644 -0.069935 0.251209 0.344515 -0.049244 -0.018353 0.016025 -0.119254 0.201239 -0.019345 -0.076248
with -0.027358 -0.130866 -0.112183 -0.018563 0.092413 0.064981 0.189056 -0.007342 0.085615 -0.113190 0.117803 0.151941 -0.049946 0.102568 -0.060698 0.059640 -0.050097 0.102958 0.114347 0.169003 -0.023948 -0.046643 0.086252 0.076723 -0.043297 -0.113280 0.147695 0.131908 0.117023 -0.069342 0.166736 0.085157 0.106476 0.004298 -0.076377 0.101506 0.025971 -0.182468 -0.160898 -0.274871 0.105666 -0.020995 0.100526 -0.030392 -0.268625 0.193272 -0.053992 -0.039593 -0.029549 -0.247006
meeting 0.196958 -0.167600 0.000580 0.169999 0.138685 0.037431 -0.111745 -0.067149 -0.061452 0.242407 -0.112914 0.196417 -0.014907 0.119975 -0.088360 0.010191 0.007196 0.020455 -0.214142 0.154594 -0.013963 0.230182 -0.344252 -0.072933 -0.102290 0.180923 -0.117560 -0.288039 -0.178301 0.055131 -0.203228 -0.029667 -0.116035 -0.055818 -0.107866 -0.525203 0.172364 -0.130869 -0.009696 0.052588 -0.111206 0.066077 0.252941 -0.168436 0.163374 -0.203257 -0.226207 0.309282 0.072958 0.139026
revenue -0.031118 0.004154 -0.067981 -0.016374 -0.023781 0.044867 -0.058258 -0.064021 -0.148429 -0.094549 0.048856 -0.001921 0.045440 -0.212386 0.120430 0.111453 0.192213 0.053264 0.286395 0.025697 -0.042027 -0.130184 -0.004195 0.086713 0.066630 -0.051744 0.085564 0.080343 0.007535 0.026330 -0.168258 -0.214351 0.010242 0.209446 0.106554 0.211446 -0.033357 0.063379 0.032338 0.036331 0.072543 -0.180204 -0.170468 0.141949 0.035922 -0.021040 0.022545 -0.177412 0.216817 -0.060387
amount -0.059581 -0.034630 -0.018681 -0.018150 0.000494 -0.006665 -0.050214 -0.034391 -0.083674 -0.044685 0.013059 0.018977 0.028418 -0.089979 0.031299 0.065655 0.051489 0.023237 0.094063 0.022706 0.000358 -0.020110 0.003336 0.017268 0.010075 -0.021310 0.042097 0.033630 -0.004596 0.004493 -0.086948 -0.081213 0.019776 0.069867 0.031409 0.042944 -0.015347 0.008460 0.034768 0.020981 0.044441 -0.087828 -0.046740 0.066161 0.012593 -0.016701 0.029839 -0.061736 0.104305 -0.009411
happening 0.042652 -0.007244 -0.093499 0.034198 0.048208 0.082664 0.068658 -0.102541 -0.013981 0.016834 0.036641 0.023833 0.017673 0.038431 -0.041310 -0.005473 0.039185 0.046670 0.038634 0.098685 0.009644 -0.024920 -0.028427 0.037599 -0.002232 -0.073379 0.038257 -0.002175 -0.009030 0.002069 -0.005206 -0.009652 0.053969 0.091911 -0.025768 -0.049559 -0.017284 -0.034275 -0.052534 -0.185404 0.051310 -0.088755 0.014977 -0.087593 -0.076823 0.066083 -0.001978 -0.055045 -0.006810 -0.086762
commitment -0.039213 -0.144642 0.009532 -0.031906 -0.027762 -0.128287 0.033770 0.152799 -0.020885 -0.079461 0.059715 0.118618 -0.058456 -0.126042 0.115063 0.068161 -0.029982 0.054703 0.224882 -0.026786 -0.101219 -0.060032 0.092243 0.092683 -0.034390 0.018693 -0.002462 0.199495 0.143552 -0.028118 0.006037 -0.031303 -0.047411 -0.065347 0.034839 0.289898 -0.021488 0.011048 0.017131 0.083581 0.047821 0.087848 0.031494 0.201616 -0.042861 0.009657 -0.003951 -0.108373 0.197313 -0.114577
invoice -0.066054 -0.041968 -0.032984 -0.023823 -0.010562 -0.004402 -0.059332 -0.046194 -0.110967 -0.061238 0.025408 0.023813 0.039888 -0.132647 0.056130 0.086897 0.089210 0.034507 0.139007 0.019187 -0.016983 -0.046133 0.003180 0.038901 0.029284 -0.029313 0.065630 0.056856 0.001824 0.000337 -0.119109 -0.119363 0.023527 0.112615 0.048307 0.091154 -0.019885 0.018818 0.041713 0.032947 0.054053 -0.117837 -0.077090 0.101335 0.024703 -0.015104 0.037660 -0.090614 0.145474 -0.020600
can -0.133245 -0.096056 -0.064242 -0.087848 -0.193401 0.068870 -0.045508 0.125780 0.021033 -0.164857 0.092793 -0.100580 -0.121056 -0.131133 0.190602 0.149032 -0.022442 0.123504 0.254476 -0.006230 0.001018 -0.233487 0.177429 0.120826 0.052427 0.018936 0.209136 0.072922 0.018318 -0.095579 0.102256 -0.237434 0.160515 0.141418 0.226184 0.249696 0.072156 -0.004029 0.004368 -0.019010 0.164906 -0.220223 -0.178785 0.189614 0.105978 0.281760 -0.012354 -0.133430 0.073826 -0.221886
week 0.025210 0.039784 -0.043765 -0.012114 0.119437 0.170570 -0.071491 -0.088871 0.065637 0.064887 -0.070895 -0.033807 0.082540 0.249131 -0.204219 0.050700 -0.060792 -0.044876 -0.204585 0.177878 0.004528 0.127104 -0.074209 -0.105898 -0.025097 0.021521 0.065444 -0.163715 0.008607 -0.013690 0.055589 0.007382 0.032425 0.011069 -0.080446 -0.280722 0.114878 -0.132432 -0.124973 -0.102898 -0.045150 -0.018045 0.007343 0.003373 -0.103038 0.073230 0.090172 0.120009 -0.248207 0.075100
Bigmart 0.000456 -0.062770 0.040175 0.014259 -0.012350 -0.032699 0.026075 0.054324 0.015219 0.002515 -0.008544 0.057332 -0.064178 -0.035934 0.088428 0.021016 -0.009529 0.017750 0.041429 -0.015408 -0.048410 -0.017727 0.044084 -0.022819 -0.053864 0.002381 -0.036105 0.027910 0.033888 -0.086442 0.045867 -0.005719 -0.034222 -0.042518 0.017300 0.079607 -0.006756 0.009915 -0.004931 0.081590 -0.001372 -0.021070 0.056204 -0.004076 0.010531 -0.013894 -0.058230 0.015346 0.068201 -0.039375
View 0.032481 -0.023886 -0.002816 0.020075 -0.034318 -0.068681 0.000642 0.006789 -0.092724 -0.026612 0.022986 0.021802 0.031566 -0.154589 0.061949 0.030693 0.090932 0.010175 0.175349 -0.018822 -0.052742 -0.056977 0.012760 0.068870 0.012645 0.012439 -0.033944 0.091990 0.072180 0.016764 -0.111438 -0.124483 -0.039257 0.039956 0.035453 0.177694 -0.024444 0.091274 0.059366 0.101280 -0.026476 -0.013042 -0.033163 0.110603 0.033484 -0.091598 0.012430 -0.099379 0.188049 0.017146
you -0.160581 -0.100540 -0.103897 -0.120401 -0.200412 0.099863 0.002287 0.114860 0.029750 -0.160880 0.116290 -0.107830 -0.125958 -0.069135 0.161765 0.152855 -0.038910 0.132286 0.229003 0.006751 0.018361 -0.243933 0.234312 0.092773 0.054846 0.014025 0.209129 0.080450 0.026055 -0.119796 0.149954 -0.212367 0.205467 0.149867 0.232850 0.244138 0.113687 -0.006716 -0.019191 -0.046591 0.191536 -0.232509 -0.170412 0.171586 0.077248 0.340110 -0.024570 -0.082839 0.019026 -0.235135
Cockpit 0.070296 -0.091109 0.057115 0.062615 -0.008065 -0.071521 0.042552 0.107051 0.003354 0.002505 -0.017982 0.090299 -0.049318 -0.067377 0.094414 0.012074 -0.047739 -0.008751 0.037701 -0.036957 -0.032576 0.028162 0.008007 -0.029109 -0.063300 0.047252 -0.103087 0.064491 0.061797 -0.042211 0.036287 0.021010 -0.085371 -0.112909 -0.047082 0.058849 -0.009783 0.006554 0.022433 0.122241 -0.036063 0.058140 0.140929 -0.025855 0.017917 -0.064739 -0.076646 0.021551 0.111769 0.007059
Begin -0.044272 -0.153509 0.035854 -0.033093 -0.061142 -0.170858 0.036954 0.175205 0.003866 -0.096331 0.073241 0.150547 -0.067228 -0.172290 0.119970 0.076473 -0.020088 0.056452 0.274235 -0.051331 -0.118125 -0.078833 0.109150 0.103102 -0.051551 0.032364 -0.004445 0.217229 0.158011 -0.021772 0.006235 -0.014564 -0.048307 -0.079268 0.039472 0.355706 -0.035422 0.019322 0.026016 0.144011 0.019793 0.096768 0.049953 0.223402 -0.042999 -0.019196 -0.007700 -0.120570 0.243572 -0.103337
Completed -0.023378 -0.091763 0.059866 -0.097233 0.006871 -0.081598 0.087927 0.152707 0.001210 -0.137181 0.105387 0.011851 -0.109069 -0.027926 0.127918 -0.031509 -0.093956 0.010618 0.116002 -0.013632 0.038420 0.002164 0.110210 0.015960 -0.015014 -0.011717 -0.002973 0.145083 0.148505 -0.051625 0.177820 0.054507 0.027649 -0.091122 -0.050474 0.155575 -0.040637 -0.058060 0.058534 0.037489 0.065856 0.089373 0.012092 0.004969 -0.101876 0.094234 -0.079673 0.006632 -0.075837 -0.187187
begin -0.016925 -0.071036 0.002554 0.017515 -0.034587 -0.115332 -0.007808 0.101397 0.006352 -0.029653 0.036400 0.094281 -0.024653 -0.115612 0.068156 0.066198 0.011603 0.036685 0.180449 -0.029682 -0.111460 -0.054540 0.056790 0.079892 -0.020533 0.021256 -0.009329 0.130515 0.103330 -0.029836 -0.022756 -0.016403 -0.011511 -0.046126 0.059010 0.222124 0.007098 0.043298 0.002003 0.092611 0.023199 0.068833 0.031682 0.163192 -0.011607 -0.032778 0.028248 -0.084472 0.209564 -0.043990
financials 0.076449 -0.096981 0.035633 0.042151 -0.021586 -0.061826 0.020008 0.063926 -0.048592 -0.044153 -0.042367 0.110764 0.023328 -0.095007 0.040425 0.026389 0.014153 0.010866 0.096795 -0.035425 -0.069142 0.008324 -0.003589 -0.012880 -0.010405 0.060954 -0.053504 0.070166 0.055191 -0.019877 -0.050175 -0.031389 -0.123787 -0.103854 -0.019656 0.118272 -0.008909 0.012216 0.058884 0.169284 -0.030638 0.064602 0.130192 0.045855 0.002359 -0.082924 -0.082316 -0.033269 0.137435 0.071553
publish -0.013618 -0.054951 0.037171 -0.052978 0.001967 -0.092148 0.030492 0.127843 -0.004987 -0.076205 0.079289 0.037611 -0.061260 -0.047156 0.097169 -0.013313 -0.050231 0.000606 0.124393 -0.008701 -0.016215 -0.008319 0.080113 0.040027 -0.017128 -0.012096 -0.026051 0.124369 0.113434 -0.061182 0.096422 0.026674 0.024598 -0.079137 0.000373 0.150979 -0.009022 -0.015523 0.031860 0.043506 0.050106 0.090973 0.017356 0.036958 -0.062430 0.036794 -0.015480 -0.025836 0.013018 -0.111887
Start -0.028518 -0.130079 0.027354 -0.017958 -0.030609 -0.132481 0.013671 0.143053 -0.008242 -0.063485 0.038645 0.109270 -0.054626 -0.142598 0.116224 0.074041 -0.007842 0.069789 0.212772 -0.060662 -0.099591 -0.070283 0.092402 0.094731 -0.023789 0.028478 0.004071 0.171685 0.133608 -0.018052 0.015184 -0.011836 -0.033217 -0.067601 0.044295 0.301291 -0.015696 0.016605 0.027447 0.124986 0.004904 0.081530 0.025649 0.195805 -0.042008 -0.018353 0.002268 -0.120802 0.192850 -0.084150
a 0.072685 0.059327 0.089746 0.196672 0.153332 0.171875 -0.189516 -0.201144 0.441284 0.395933 -0.511980 0.031008 -0.026332 0.266360 -0.237572 -0.134425 -0.006612 -0.273867 -0.587143 0.103968 -0.247899 0.338934 -0.334039 -0.254323 -0.221100 0.087515 0.054519 -0.531676 -0.433663 0.062733 -0.278562 0.496555 -0.236666 -0.211943 -0.040986 -0.756076 -0.017396 -0.098526 -0.064703 0.137280 -0.251467 -0.095466 0.287938 -0.107144 0.295125 -0.358450 0.230531 0.237813 -0.252670 0.562202
view 0.058525 -0.016456 0.027467 0.048041 0.031940 0.013907 0.030748 -0.039675 -0.042292 0.007891 -0.039018 0.035723 0.004960 -0.004160 0.040602 -0.006532 0.052791 -0.027320 -0.031637 0.000276 -0.036887 0.041621 -0.045248 -0.071824 -0.029580 -0.017267 -0.050219 -0.014215 -0.023963 -0.061777 -0.028013 -0.027160 -0.062344 -0.016173 -0.034932 -0.018820 -0.016558 0.000762 0.009803 0.105905 -0.037416 -0.034277 0.059042 -0.071664 0.047105 -0.094775 -0.071863 0.073251 0.025435 0.043695
what -0.185181 0.085999 -0.211406 -0.209093 0.010290 0.108532 0.215872 -0.212473 -0.018107 -0.082690 0.078805 -0.063407 0.117089 0.266960 -0.321049 0.008203 0.084852 0.061226 -0.179835 0.103410 0.007896 -0.076348 0.187292 -0.099153 0.096485 -0.106114 0.003172 0.077615 0.014309 0.003084 0.042760 0.112717 0.193731 0.177198 -0.050597 -0.047509 0.144284 -0.114390 -0.139661 -0.182847 0.032745 -0.057743 -0.071156 0.004262 -0.223264 0.157517 0.004056 0.205543 -0.238622 0.097966
mark -0.027560 -0.051802 0.036127 -0.077846 0.008562 -0.060791 0.034901 0.108248 -0.002170 -0.091515 0.064442 0.023312 -0.070666 -0.056285 0.077181 -0.027484 -0.060298 0.011720 0.076616 -0.039528 0.009365 0.003226 0.085872 0.014057 0.000412 -0.010355 -0.017784 0.104209 0.092184 -0.049539 0.103665 0.029883 0.015606 -0.042898 -0.002939 0.096412 -0.042858 -0.052678 0.033535 0.010616 0.031412 0.094510 0.011111 0.017296 -0.069135 0.040983 -0.043445 -0.037825 -0.052012 -0.092110
started 0.034939 0.027670 0.003119 0.031228 0.013179 0.065453 -0.047037 -0.080761 0.008502 0.080370 -0.056133 0.013984 0.032854 0.018850 -0.064456 -0.004870 0.051806 0.012910 -0.081247 0.020572 0.023876 0.049425 -0.077160 -0.057050 -0.014584 -0.016306 -0.004784 -0.113218 -0.109855 0.035484 -0.079676 0.004534 0.023835 0.049429 0.020947 -0.099755 0.007238 0.016740 -0.024163 -0.034894 -0.035632 -0.031395 -0.016094 -0.031183 0.021060 -0.033015 -0.008375 0.038898 0.003173 0.051292
appointment 0.224079 -0.107385 0.036316 0.278612 0.120022 0.064676 -0.124067 -0.100691 0.070060 0.344003 -0.243701 0.176809 -0.003425 0.169062 -0.144824 -0.056191 -0.026536 -0.084727 -0.340904 0.146769 -0.112514 0.271627 -0.341297 -0.150081 -0.180670 0.176105 -0.141974 -0.348317 -0.220873 0.052787 -0.170924 0.128757 -0.189811 -0.152500 -0.097228 -0.594436 0.164571 -0.052244 -0.015171 0.083335 -0.170860 0.105548 0.338429 -0.198910 0.205912 -0.244621 -0.102480 0.272883 0.026205 0.287045
Tasks -0.000524 -0.028102 0.028492 -0.038978 -0.017360 -0.008116 0.050938 0.023506 0.091931 -0.032427 -0.034639 0.035387 -0.003501 0.034940 -0.008413 0.019393 0.004555 0.051396 0.031860 0.009539 0.009537 0.044120 0.064424 -0.049515 -0.021849 0.037786 0.005249 0.010466 0.001465 -0.007991 0.021427 0.036413 0.003554 -0.048306 -0.014565 0.068467 -0.016007 -0.003172 -0.055334 0.053558 0.000045 0.062673 0.114580 0.027399 -0.039355 0.050668 -0.036304 0.002023 0.018359 -0.006444
bots -0.035810 -0.058356 0.034536 -0.067562 0.021892 -0.042831 0.049904 0.122005 -0.017502 -0.079995 0.083482 0.004643 -0.086095 -0.020111 0.080656 -0.017096 -0.070735 -0.019582 0.078159 -0.005808 0.020440 0.016553 0.075015 0.022875 0.004466 -0.011316 -0.001003 0.099822 0.094800 -0.020761 0.124132 0.031336 0.029616 -0.046457 -0.033998 0.122216 -0.038343 -0.044196 0.043195 0.027740 0.047956 0.048146 0.027202 -0.003246 -0.066244 0.045822 -0.065884 -0.012113 -0.066459 -0.125540
expense 0.002754 -0.147975 0.134823 0.025477 0.040098 -0.112601 0.021588 0.267760 0.246245 -0.052781 -0.036170 0.140056 -0.189714 0.058878 0.071081 -0.011507 -0.272808 -0.003191 -0.040375 0.004522 -0.086347 0.139618 0.037301 0.022704 -0.113436 0.060161 -0.042497 0.037727 0.084241 -0.089392 0.211099 0.298447 -0.081945 -0.320988 -0.108954 0.058210 -0.030759 -0.158278 -0.031513 0.079795 -0.017552 0.201859 0.238192 -0.028325 -0.088827 0.004693 -0.016552 -0.010255 -0.035862 -0.083810
create -0.021481 0.233739 -0.002194 0.033038 0.111062 0.214382 -0.057982 -0.229439 0.281536 0.202047 -0.247599 -0.154116 0.061265 0.288532 -0.268268 -0.146522 -0.030710 -0.162516 -0.478456 0.067447 -0.031076 0.181155 -0.123697 -0.167259 -0.054265 -0.033756 0.065970 -0.349359 -0.277084 0.044910 -0.067088 0.326624 -0.017767 -0.026039 -0.043628 -0.526123 -0.034488 -0.058014 -0.080558 -0.099590 -0.118346 -0.095755 0.018506 -0.171642 0.089972 -0.092322 0.211474 0.121897 -0.371303 0.320471
enter -0.048521 0.008908 -0.083108 0.022481 0.045369 0.019431 0.019855 -0.021123 0.075343 0.027388 -0.035445 -0.021286 0.023733 0.119370 -0.061274 -0.037819 0.004131 0.033038 -0.098510 0.054830 0.037827 0.007522 -0.060465 0.039923 -0.002716 -0.016902 0.076754 -0.050042 -0.015038 -0.047665 -0.046288 -0.011796 0.079977 0.068396 0.008275 -0.114352 0.056769 -0.062053 -0.069508 -0.090530 -0.023656 0.028975 -0.015124 -0.041051 -0.077408 0.121077 0.010129 0.140757 -0.102077 -0.062330
get 0.006822 -0.157004 0.105761 0.097638 -0.036771 -0.180240 -0.038847 0.150406 0.146746 -0.067388 -0.088616 0.203590 -0.108148 -0.121567 0.052845 0.072144 -0.003260 0.062191 0.058138 -0.021739 -0.249644 0.012139 -0.019988 0.064865 -0.072739 0.049330 0.062381 0.041037 0.036360 -0.060659 -0.001004 0.018521 -0.143456 -0.175673 0.018158 0.168482 0.048997 -0.110207 -0.064355 0.152182 -0.046676 0.031531 0.105755 0.215716 0.063247 -0.164671 -0.025995 -0.089232 0.290325 0.045544
time -0.075955 0.111304 -0.131021 -0.001522 0.058888 0.125943 0.019782 -0.120768 0.070529 0.058666 -0.047381 -0.120118 0.079666 0.192317 -0.126744 -0.070237 0.032376 0.003095 -0.196419 0.071285 0.086866 0.002503 -0.056759 0.003318 0.038013 -0.066353 0.107177 -0.117725 -0.084299 -0.039773 -0.047934 -0.002769 0.128541 0.151741 0.024580 -0.234454 0.067244 -0.047768 -0.090044 -0.181539 -0.013524 -0.049766 -0.099444 -0.094868 -0.066655 0.152604 0.067161 0.161354 -0.228707 -0.003377
this 0.002038 -0.060555 0.024071 -0.020359 0.083680 0.088587 -0.005507 0.023579 0.045829 -0.087406 -0.046193 0.041832 0.002224 0.126755 -0.061334 0.101805 -0.007347 -0.000219 -0.085156 0.127676 -0.121673 0.051609 0.032120 -0.100387 -0.031801 -0.019201 0.110302 -0.013946 0.053885 -0.112997 0.108573 -0.033147 -0.031431 -0.031452 -0.055870 -0.028176 0.084187 -0.188058 -0.140071 0.020142 -0.032911 -0.060804 0.006318 0.102593 -0.113612 0.024958 0.013895 0.069735 -0.111594 0.047125
tomorrow 0.172531 -0.249041 0.135514 0.144695 0.048644 -0.164679 -0.007747 0.200349 -0.028857 -0.023920 -0.072788 0.276265 -0.105569 -0.151061 0.181038 0.012891 -0.029245 -0.001911 0.073613 -0.044779 -0.143322 0.098353 -0.110691 -0.043098 -0.154157 0.133989 -0.147237 0.071804 0.027969 -0.067852 0.000211 0.027614 -0.253658 -0.274597 -0.104780 0.057204 -0.056489 -0.089054 0.043024 0.324659 -0.095462 0.127639 0.335235 -0.038973 0.066965 -0.225403 -0.211663 0.068505 0.228717 0.057957
all 0.008061 0.041032 0.000352 0.041156 -0.096944 0.038623 -0.003694 0.018397 -0.043087 0.148164 0.012750 -0.070075 -0.055539 -0.006704 0.115697 -0.029773 -0.049757 -0.006714 0.002826 -0.051662 0.067331 -0.047903 0.057224 -0.019480 -0.050487 0.031045 -0.133920 -0.035563 -0.059582 -0.044237 0.005323 -0.019606 0.055532 -0.006926 0.085580 -0.026222 0.015023 0.192198 0.057629 0.029736 0.032362 -0.068504 0.000619 -0.133421 0.110502 0.040392 0.006676 0.013718 0.022282 -0.051640
call 0.029380 -0.042020 0.142322 0.037651 0.049070 0.031069 -0.079542 0.070526 0.341802 0.197798 -0.308654 0.088654 -0.111971 0.063132 -0.020351 -0.105269 -0.122898 -0.198743 -0.267691 -0.049632 -0.155980 0.199747 -0.119980 -0.092616 -0.194823 0.066487 0.025684 -0.256056 -0.150785 0.025636 -0.052534 0.355574 -0.141184 -0.243130 -0.042101 -0.250457 -0.120078 -0.093612 0.006284 0.247741 -0.095943 0.006756 0.222675 -0.031628 0.145992 -0.206065 0.117433 0.084361 -0.134184 0.226608
follow 0.083337 0.257754 -0.068331 0.125426 0.211046 0.216720 -0.093337 -0.328152 0.015189 0.229170 -0.094835 -0.212323 0.093240 0.488217 -0.270453 -0.177717 -0.065801 -0.143334 -0.662047 0.222185 0.062768 0.201127 -0.216033 -0.206919 -0.006389 0.012037 -0.118230 -0.351160 -0.335083 0.036269 0.145681 0.035285 -0.076132 0.053816 -0.134997 -0.823433 0.189209 -0.141282 -0.121840 -0.438812 -0.122228 0.049627 -0.077678 -0.412364 0.053242 -0.043483 0.011728 0.247144 -0.474037 0.318341
up 0.130720 0.223823 -0.100419 0.137528 0.218606 0.198330 -0.102664 -0.387867 -0.056726 0.320863 -0.115592 -0.184512 0.119370 0.487591 -0.298438 -0.172064 -0.016198 -0.131499 -0.685630 0.221657 0.079482 0.211594 -0.302719 -0.221764 -0.004359 0.062499 -0.168601 -0.405767 -0.401996 0.101527 0.027428 -0.030993 -0.079835 0.121704 -0.130564 -0.914804 0.237087 -0.129564 -0.097458 -0.418608 -0.143750 0.030729 -0.047055 -0.436799 0.099778 -0.102762 -0.040892 0.313591 -0.374831 0.346092
be 0.034852 0.120403 -0.153118 -0.016914 0.044021 0.090953 0.087227 -0.183848 -0.119415 0.132147 -0.019159 -0.101996 0.118559 0.193479 -0.206966 -0.090376 0.007071 -0.033820 -0.301651 -0.007102 0.094886 0.042576 -0.009947 -0.146512 0.067339 0.011570 -0.169403 -0.062662 -0.158655 0.038350 -0.003621 0.035837 0.021076 0.115883 -0.054041 -0.370288 0.108064 0.007329 -0.015085 -0.171770 -0.031952 -0.015869 0.010415 -0.249838 -0.012797 -0.022164 -0.038931 0.185508 -0.179184 0.181595
report 0.108550 -0.084804 0.186429 0.118477 0.049931 0.035459 -0.083712 0.113297 0.301220 0.230535 -0.336212 0.143633 -0.129862 0.036333 0.006595 -0.102014 -0.138226 -0.193864 -0.292596 -0.066665 -0.142228 0.246275 -0.180175 -0.126983 -0.217976 0.095925 -0.037924 -0.289455 -0.167280 0.007711 -0.069119 0.367993 -0.202296 -0.302337 -0.079679 -0.318985 -0.109615 -0.100295 0.035394 0.306083 -0.121062 0.023683 0.323097 -0.111609 0.180458 -0.271888 0.039948 0.117924 -0.089526 0.248748
Ball 0.000605 0.195817 -0.032426 -0.010752 0.097912 0.210027 0.005826 -0.059652 0.036487 -0.064537 0.032754 -0.199529 0.044131 0.191877 -0.092948 -0.081111 -0.113891 -0.057131 -0.316469 0.052580 0.134110 0.083209 0.030106 -0.081539 0.068381 -0.077513 -0.005311 -0.104098 -0.088595 -0.063732 0.248375 0.071614 0.037118 -0.034039 -0.087174 -0.298659 0.012737 -0.082950 -0.073482 -0.246929 0.009784 -0.019513 -0.118848 -0.248417 -0.009160 0.119998 0.019534 0.034877 -0.412472 0.062074
over 0.030231 -0.021145 0.097841 0.049235 -0.038168 -0.023605 -0.023960 0.120083 0.085601 0.080157 0.005744 -0.005542 -0.056611 0.018214 0.062215 -0.045678 -0.114865 -0.017071 -0.001401 -0.050400 0.058699 0.022413 0.029094 0.030894 -0.038227 -0.020489 -0.041782 -0.007445 -0.006989 -0.034821 0.054072 0.059436 -0.004962 -0.138774 0.028002 0.057963 0.013549 0.103298 0.048490 -0.022360 -0.012430 0.024879 -0.000512 -0.048033 0.028001 0.000790 0.073855 -0.031504 -0.035335 -0.060301
sdasd 0.042809 0.093581 -0.000962 0.097431 0.000322 0.185778 -0.067239 -0.189304 0.014605 0.124596 -0.077165 -0.018228 0.087856 0.133319 -0.127867 -0.021539 0.072295 -0.052831 -0.185435 0.077097 0.071615 0.108677 -0.174239 -0.102687 -0.007460 -0.033390 0.012585 -0.219725 -0.244279 0.059180 -0.107104 0.001531 0.035956 0.082779 -0.035209 -0.266224 0.030647 0.021490 -0.086626 -0.059791 -0.076087 -0.144572 -0.071260 -0.115456 0.044915 -0.008326 0.021083 0.124371 -0.063530 0.116078
should -0.131982 0.170995 -0.170648 -0.142446 -0.034546 0.139812 0.187524 -0.208832 0.021661 0.054482 0.038669 -0.121239 0.115022 0.292964 -0.324251 -0.066784 0.027625 0.019640 -0.257165 0.058521 0.129105 -0.033337 0.142566 -0.115184 0.066200 -0.113592 -0.052472 -0.044558 -0.019422 0.006176 0.047603 0.186003 0.210318 0.110079 -0.042028 -0.175018 0.105724 0.032614 -0.066215 -0.185068 0.007757 -0.057751 -0.038649 -0.119462 -0.127387 0.135018 0.065420 0.225290 -0.334614 0.099608
last 0.233675 -0.091009 0.032669 0.227748 0.039229 0.050464 -0.052927 -0.041876 -0.045214 0.311722 -0.188392 0.186623 0.020724 0.063688 -0.104171 -0.056570 0.011541 -0.029122 -0.222951 0.009434 -0.003078 0.207578 -0.278968 -0.113772 -0.112668 0.153882 -0.178530 -0.282466 -0.171444 0.072487 -0.198000 0.055822 -0.147828 -0.120025 -0.088769 -0.437867 0.099642 0.023521 0.041778 0.133342 -0.124002 0.077702 0.340888 -0.216264 0.177645 -0.244654 -0.156960 0.255091 0.123734 0.234463
$20 -0.037464 0.023060 0.005983 -0.010559 0.033624 0.028585 -0.056003 -0.066519 0.076645 -0.017531 -0.035473 -0.032599 -0.000921 0.031063 -0.037874 0.033687 0.034803 0.005397 -0.004447 0.035686 -0.037134 -0.012669 0.002131 0.028116 -0.020269 0.004893 0.120415 -0.101028 0.005733 0.028934 -0.017104 -0.070641 0.004299 0.070069 0.023928 -0.073586 0.038318 -0.041606 -0.039525 -0.029261 0.001754 -0.057868 -0.067060 0.050315 0.037357 0.053334 0.050543 0.014886 -0.043120 0.006738
follow-up 0.085186 -0.066002 0.037212 0.211752 0.106592 0.065056 -0.166932 -0.132205 0.295947 0.309623 -0.341326 0.099993 -0.033765 0.186092 -0.161153 -0.053748 -0.009677 -0.162827 -0.348544 0.143964 -0.224739 0.252282 -0.292080 -0.154598 -0.200972 0.133672 0.007428 -0.353451 -0.286877 0.043660 -0.247427 0.293026 -0.193525 -0.168101 -0.020459 -0.542919 0.080012 -0.062230 -0.059080 0.105678 -0.201216 0.025051 0.276101 -0.025023 0.238275 -0.257901 0.095812 0.201888 -0.051922 0.373460
what's -0.037935 -0.064983 0.010012 -0.038584 -0.037878 -0.093400 0.015224 0.074944 -0.003723 -0.073367 0.022924 0.040550 -0.035002 -0.075022 0.079897 0.049782 0.005085 0.042369 0.134542 -0.020548 -0.056698 -0.032088 0.087938 0.050434 -0.009466 -0.018449 0.005686 0.118655 0.098771 -0.010122 0.013893 -0.010292 -0.027059 -0.020321 0.028331 0.189804 -0.018790 0.000425 0.035504 0.055377 0.017720 0.034336 -0.024549 0.112651 -0.030152 0.014612 0.009711 -0.071134 0.115621 -0.058071
briefing 0.030392 0.056556 -0.050054 -0.024417 0.128186 0.068053 0.020544 -0.051629 0.055031 0.012093 -0.032880 -0.011473 -0.030873 0.175098 -0.120426 -0.033432 -0.140159 -0.097297 -0.256833 0.067621 0.103980 0.105903 -0.062977 -0.085693 0.009980 -0.069462 0.053604 -0.048015 -0.061366 -0.037868 0.159005 0.099940 -0.048201 -0.020524 -0.121982 -0.268146 0.002244 -0.072499 -0.024232 -0.099043 -0.045258 0.044919 0.095437 -0.164562 -0.061559 0.027464 -0.019519 0.115874 -0.290665 0.010136
open -0.029931 -0.131872 0.069357 0.015117 0.009276 -0.158296 -0.024168 0.097149 0.133936 -0.098422 -0.005828 0.136610 -0.110705 -0.088783 0.029513 0.024580 -0.005253 0.037615 0.044515 0.009948 -0.132538 0.042876 -0.009743 0.050262 -0.029180 0.011521 0.066536 0.042417 0.046704 -0.043571 0.040044 0.039122 -0.067337 -0.124796 -0.003415 0.118715 0.016469 -0.125620 -0.021562 0.059606 -0.018279 0.006953 0.066139 0.157842 0.025639 -0.109665 -0.021575 -0.064964 0.145948 -0.040144
50% 0.011314 0.221227 -0.070227 0.081073 0.063445 0.216269 -0.046813 -0.113648 0.032210 -0.003113 -0.026693 -0.146605 0.110380 0.138386 -0.170065 -0.006971 -0.011515 -0.010554 -0.285126 0.047625 0.007418 0.030657 0.001010 -0.032459 0.056781 -0.056969 0.026177 -0.134111 -0.131191 -0.032146 0.120817 0.006576 -0.020100 -0.004302 -0.015292 -0.268458 0.041686 -0.015891 -0.117208 -0.223181 -0.048855 -0.055602 -0.130821 -0.108734 0.057824 0.043995 0.105934 -0.027966 -0.225611 0.184599
opportunities -0.068604 0.049093 -0.022462 -0.022484 0.043714 0.042178 -0.011300 -0.094820 0.081349 -0.023575 -0.007095 -0.032632 -0.011722 0.074367 -0.076709 -0.035885 0.021499 -0.036855 -0.168981 0.043331 0.017180 0.046882 -0.037009 -0.055739 0.031655 -0.017812 0.104368 -0.084417 -0.087091 -0.024297 0.083009 0.021376 0.020241 0.012374 -0.020333 -0.182393 0.025695 -0.093523 -0.053291 -0.130583 0.004479 -0.093689 -0.033372 -0.024146 0.023600 -0.029642 0.013247 0.020480 -0.130617 0.044807
followup 0.053196 0.158015 -0.081202 0.050203 0.053589 0.147734 -0.068227 -0.273350 0.003788 0.221192 -0.113961 -0.110777 0.134138 0.204810 -0.247248 -0.069692 0.054758 -0.063339 -0.347640 0.069847 0.076444 0.100919 -0.184068 -0.103098 0.014493 0.025264 -0.030691 -0.330916 -0.244483 0.119471 -0.197350 -0.011753 0.042234 0.166550 -0.029824 -0.484894 0.106698 -0.025072 -0.046871 -0.125937 -0.104397 -0.085849 -0.009240 -0.176278 0.085896 -0.063023 0.004598 0.197431 -0.105210 0.189977
i -0.032139 0.167382 0.027864 0.015692 0.083465 0.170746 -0.054543 -0.058909 0.212597 0.042372 -0.032549 -0.165161 -0.018565 0.300573 -0.114813 -0.120628 -0.188198 -0.087103 -0.418411 0.066616 0.116369 0.074454 -0.003787 -0.128564 0.019849 -0.066340 -0.034429 -0.181803 -0.135545 -0.085326 0.238162 0.231773 0.047126 -0.125452 -0.072269 -0.419607 0.047586 -0.166119 -0.112858 -0.257468 -0.027416 -0.035145 0.003747 -0.262411 -0.014262 0.140130 0.113859 0.130730 -0.445572 0.087290
taxi 0.066568 -0.012014 0.052978 0.054414 0.053260 -0.002638 -0.029115 0.027379 0.101720 0.054534 -0.082844 0.011766 -0.072829 0.095196 -0.009905 -0.045970 -0.121115 -0.056838 -0.154326 0.032742 -0.014985 0.137257 -0.091937 -0.055606 -0.050610 0.046945 -0.077330 -0.103762 -0.076544 0.001986 0.039147 0.152222 -0.051890 -0.107851 -0.073490 -0.193353 -0.016183 -0.069340 0.009009 0.025202 -0.060060 0.047401 0.142509 -0.139362 0.021262 -0.065419 -0.008183 0.055771 -0.071156 0.052870
20 0.033097 -0.118128 0.059890 0.050944 -0.050053 -0.092767 -0.006551 0.117978 -0.010250 -0.029598 0.007615 0.126288 -0.047704 -0.130112 0.106428 0.043856 0.038319 0.047227 0.182984 -0.022526 -0.081035 -0.059969 -0.013049 0.065938 -0.046469 0.018307 0.030790 0.073772 0.101261 -0.020553 -0.045868 -0.051547 -0.037138 -0.055785 -0.002406 0.200510 -0.030972 0.024200 0.030721 0.131922 0.001905 0.039691 0.049271 0.101665 0.015453 -0.071787 -0.036420 -0.084483 0.178343 -0.080106
please -0.031101 0.117567 -0.015340 0.032938 -0.006407 0.053806 -0.045702 -0.137918 0.028188 0.073771 -0.080279 -0.058651 0.056792 0.019152 -0.116487 -0.006285 0.067837 -0.015454 -0.078870 0.013428 0.022316 0.000018 -0.062285 -0.024038 0.017144 -0.012496 0.055061 -0.123458 -0.096208 0.042375 -0.117020 -0.001258 0.040476 0.113121 0.011049 -0.118776 -0.009567 0.017447 -0.041264 -0.053653 -0.028739 -0.082130 -0.056177 -0.043101 0.038782 -0.043347 0.071077 -0.021636 -0.027648 0.082853
pipeline -0.051238 -0.083475 0.030218 -0.018245 0.016976 -0.098950 0.015920 0.091283 0.094063 -0.036879 0.003475 0.093925 -0.078067 -0.022321 0.010008 0.038470 -0.041624 0.023181 0.051248 0.008722 -0.076388 -0.001605 0.025484 0.056200 -0.040323 0.037760 0.080718 0.065195 0.046640 -0.033919 0.081635 0.038467 -0.018621 -0.083120 0.000815 0.103069 -0.000199 -0.093747 -0.053792 -0.008638 -0.012487 0.068225 0.031449 0.095688 -0.047451 -0.011023 -0.006206 -0.026267 0.024213 -0.036407
sales 0.023196 0.044059 -0.055379 -0.034359 0.118301 0.050095 0.021888 -0.033475 0.044585 -0.005607 -0.035244 -0.011056 -0.029388 0.144976 -0.098468 -0.037014 -0.124283 -0.091393 -0.200652 0.042817 0.080611 0.076536 -0.054325 -0.060160 0.010853 -0.068391 0.070384 -0.007643 -0.052693 -0.025700 0.154322 0.076771 -0.059816 -0.020964 -0.102983 -0.213945 -0.009623 -0.067786 -0.010343 -0.077136 -0.042464 0.048362 0.082370 -0.119694 -0.060988 0.025892 -0.004424 0.086946 -0.263575 0.007885
Get -0.060040 0.044632 0.042034 -0.016186 -0.027633 0.058940 -0.051798 -0.019471 -0.008623 -0.100350 -0.025611 -0.062462 -0.003975 -0.075305 0.064936 0.066133 0.093261 0.014202 0.067007 0.009650 -0.058936 -0.055542 -0.002008 0.026089 0.027984 -0.036102 0.156900 -0.008939 0.006741 -0.028695 -0.011827 -0.129005 0.011799 0.118120 0.060407 0.092788 -0.029741 -0.031686 -0.058420 -0.018679 0.051713 -0.133834 -0.174218 0.085333 0.026445 0.019488 0.039856 -0.096092 0.057875 -0.016985
details 0.030959 0.068579 0.049162 0.062651 -0.004853 0.001575 -0.056699 -0.046097 -0.016096 0.067717 -0.096960 -0.036112 0.048054 -0.031536 -0.024159 -0.056283 0.039334 -0.043295 -0.074074 -0.041735 0.050368 0.028940 -0.130087 -0.033376 0.003395 -0.001899 -0.004785 -0.108879 -0.076640 0.049115 -0.095116 -0.024985 -0.002159 0.063386 -0.035091 -0.109153 -0.054270 0.024949 0.010348 0.017448 -0.017295 -0.043881 -0.013536 -0.071609 0.065920 -0.103052 0.029415 -0.026776 0.029829 0.063202
40% -0.052362 0.231698 -0.105415 0.035300 0.030131 0.192418 -0.087096 -0.246183 0.048953 0.052744 -0.043138 -0.152903 0.146729 0.137753 -0.193657 -0.002143 0.093799 -0.018183 -0.207059 0.073809 0.003128 -0.018709 -0.029717 -0.022497 0.079472 -0.064712 0.098765 -0.177365 -0.158450 0.013146 -0.045664 -0.039109 0.047926 0.163084 0.049534 -0.249792 0.048601 -0.001345 -0.116237 -0.211306 -0.048035 -0.151209 -0.193922 -0.034912 0.052668 0.033156 0.130232 -0.010276 -0.156779 0.172050
Parking -0.068947 0.072534 0.007651 -0.054096 0.021766 0.073311 -0.023080 -0.072214 0.079427 -0.049527 -0.003616 -0.074901 0.003878 0.061992 -0.058621 0.041281 0.012472 0.003104 -0.035885 0.054836 0.016279 0.001253 0.051263 0.004747 0.006831 -0.030784 0.120107 -0.078564 0.012667 0.008606 0.065500 -0.002988 0.044760 0.051225 0.021144 -0.043187 0.011194 -0.031488 -0.059991 -0.081804 0.037148 -0.068975 -0.114567 0.021311 -0.005819 0.094284 0.069857 0.004818 -0.145997 -0.019014
account -0.006310 0.080353 -0.017169 0.037347 0.077466 0.052832 0.015432 -0.083520 0.088338 0.085958 -0.075172 -0.043648 0.045327 0.194006 -0.189986 -0.081768 -0.050683 -0.045425 -0.266487 0.039172 0.078698 0.075714 -0.096474 -0.090386 -0.002884 -0.010967 0.032238 -0.172254 -0.108187 0.032405 0.059991 0.102280 0.008095 -0.026409 -0.097055 -0.282921 0.030079 -0.044424 -0.073655 -0.114373 -0.034266 -0.001760 0.050999 -0.127975 0.001079 -0.030422 0.024430 0.109217 -0.241028 0.100692
add 0.006840 0.045656 -0.023563 0.040519 0.027074 0.080161 -0.065793 -0.142074 0.031590 0.116873 -0.086807 0.004372 0.050111 0.063912 -0.123693 0.000583 0.042912 -0.009444 -0.124919 0.053815 -0.005622 0.067015 -0.121214 -0.021252 -0.001224 0.031905 0.011297 -0.188664 -0.111413 0.059992 -0.181073 -0.014616 0.014062 0.087306 -0.004118 -0.227908 0.033163 -0.027177 -0.040756 -0.014924 -0.053280 -0.059524 0.014145 -0.031039 0.063342 -0.071983 0.009000 0.092956 0.011304 0.089223
at -0.071095 0.045509 -0.013679 -0.066766 -0.023838 0.005755 0.016357 -0.030593 0.053722 -0.042259 0.020526 -0.064655 0.004908 0.069843 -0.071217 0.000483 -0.015903 0.017036 -0.062926 0.004154 0.039098 -0.003496 0.056162 -0.001301 -0.011904 -0.005000 0.050888 -0.046728 0.027977 0.021089 0.089101 -0.013237 0.054674 0.009629 -0.012310 -0.023385 0.043039 -0.008143 -0.054574 -0.053872 0.023474 0.002713 -0.057651 -0.008949 -0.028432 0.087714 0.010071 0.028993 -0.107688 -0.053884
yesterday -0.032886 0.015707 -0.007288 -0.000773 0.045180 0.046493 -0.003418 -0.043361 0.035600 -0.029986 -0.005305 -0.032371 -0.002881 0.082927 -0.057902 0.016448 0.000276 -0.006422 -0.105090 0.035776 -0.004866 0.043006 -0.002695 -0.030711 -0.012264 -0.016641 0.056904 -0.067650 -0.022692 -0.003202 0.075951 -0.026464 0.003146 0.006902 -0.036320 -0.094252 0.059771 -0.085842 -0.068850 -0.043167 -0.012686 -0.028355 -0.021176 -0.039489 0.004705 0.040236 -0.015677 0.070036 -0.102364 0.004994
appt 0.026549 -0.007516 -0.038550 0.004260 0.083728 0.053158 0.003265 -0.019365 0.071608 0.052134 -0.001648 0.032988 0.018066 0.183453 -0.118070 -0.008864 -0.107721 -0.008329 -0.158960 0.091082 0.081061 0.106713 -0.049983 -0.045898 -0.036777 0.031878 -0.014260 -0.096741 0.023568 -0.016031 0.110396 0.072527 0.037078 -0.056405 -0.068509 -0.188124 0.073578 -0.054253 -0.042055 -0.080651 -0.032940 0.065415 0.090629 -0.078408 -0.036885 0.078649 -0.024430 0.124658 -0.175119 -0.022631
My 0.005213 -0.005637 -0.001823 0.027146 -0.001084 0.003142 0.017537 0.004493 -0.001826 -0.004099 -0.003011 0.013832 0.003395 -0.006494 -0.007805 -0.008910 0.013897 0.010708 0.026690 -0.026089 0.004402 -0.002355 -0.009039 0.007638 -0.024301 0.009983 -0.032747 0.011378 0.011746 0.012155 -0.013710 -0.022398 -0.017103 -0.012547 0.008124 0.004641 -0.017023 0.009712 0.041442 0.025039 -0.017978 0.019137 0.012004 -0.019881 0.010779 -0.026406 0.009843 -0.020808 0.040147 0.003288
log -0.059753 0.081500 -0.040133 -0.052248 0.021231 0.071256 -0.006631 -0.080374 0.077048 0.027306 -0.036930 -0.057552 0.028994 0.105431 -0.056761 -0.009902 -0.000013 -0.048913 -0.108246 0.048003 0.006268 0.024261 0.001000 -0.012387 0.005319 -0.031949 0.059582 -0.067670 -0.058411 0.010610 0.036641 0.033351 0.047997 0.058811 0.013469 -0.101557 -0.002922 -0.023129 -0.057633 -0.077208 0.021276 -0.060533 -0.060117 -0.007879 -0.004518 0.040483 0.076834 0.040730 -0.133449 0.026572
want -0.037298 0.251183 0.003507 0.003495 0.102863 0.207297 -0.016885 -0.056021 0.134837 -0.036647 0.042302 -0.221627 0.017418 0.329901 -0.118936 -0.141361 -0.209668 -0.093829 -0.432497 0.073754 0.147428 0.066079 0.083738 -0.117890 0.049595 -0.099691 -0.050475 -0.101750 -0.089877 -0.124252 0.383725 0.206128 0.030609 -0.129032 -0.098163 -0.394685 0.035091 -0.132211 -0.113603 -0.344642 -0.013917 0.019521 -0.087160 -0.300094 -0.074538 0.171845 0.112338 0.081133 -0.571255 0.106611
about 0.032487 -0.078315 0.104296 0.060764 -0.006796 -0.079804 -0.056201 0.099605 0.033611 -0.016382 -0.070845 0.086414 -0.037791 -0.098446 0.101273 -0.002492 -0.024416 0.015026 0.047763 -0.030482 -0.057306 0.035694 -0.066765 0.007580 -0.044645 0.015712 -0.004963 -0.004952 0.008503 -0.018363 -0.012818 0.003587 -0.069577 -0.060213 -0.041612 0.038187 -0.031488 -0.035016 0.018525 0.122731 -0.018791 0.021769 0.056935 0.010266 0.020020 -0.085883 -0.013428 -0.047834 0.136063 -0.015176
minutes 0.080713 -0.109988 0.052538 0.055823 0.066089 -0.021199 -0.043919 0.033255 0.030294 0.077113 -0.053823 0.111804 -0.052349 0.072002 -0.012460 0.006383 -0.050834 0.015886 -0.092410 0.063368 0.011727 0.135614 -0.148788 -0.028906 -0.062091 0.101581 -0.065009 -0.116674 -0.062190 0.014418 -0.078314 0.041384 -0.077359 -0.104005 -0.086064 -0.239311 0.042667 -0.107501 0.007845 0.052360 -0.063986 0.083222 0.172475 -0.065131 0.058181 -0.091295 -0.115893 0.161305 0.005349 0.048754
parking 0.000637 -0.059020 0.047195 0.002414 -0.026973 -0.056432 -0.013222 0.090123 0.030715 -0.071782 0.013074 0.054590 -0.049854 -0.085843 0.082640 0.034784 -0.010270 0.028893 0.085227 -0.015188 -0.049404 -0.026092 0.029722 0.038976 -0.047786 0.015108 0.029364 0.037891 0.073186 -0.036978 0.022727 -0.025984 -0.035029 -0.061620 0.001249 0.138145 -0.017264 -0.005329 0.007675 0.095864 -0.008573 0.043021 0.022195 0.056511 0.008836 -0.003608 -0.026853 -0.053348 0.078071 -0.060673
projects? -0.014262 -0.013925 -0.009326 -0.019781 -0.015258 -0.039456 0.016261 0.035243 -0.020884 -0.011468 0.041664 0.013449 -0.020702 -0.044876 0.009784 0.015698 0.002528 0.026029 0.058113 -0.030178 -0.011587 -0.037520 0.027208 0.030614 0.001370 0.004816 -0.027621 0.060692 0.046197 0.004994 -0.021263 -0.012779 0.012813 0.001405 0.023556 0.076637 -0.003065 0.020733 0.016009 0.003707 -0.002677 0.004309 -0.005977 0.037899 -0.004082 0.006611 -0.003305 -0.015717 0.038831 -0.022292
Create -0.007061 0.094158 -0.001562 0.067941 0.060861 0.111193 -0.061359 -0.140032 0.183514 0.172636 -0.194555 -0.056926 0.034200 0.196814 -0.163201 -0.056792 -0.014427 -0.096270 -0.294213 0.055736 -0.048823 0.127728 -0.102013 -0.120793 -0.046206 0.007673 0.033669 -0.229793 -0.187149 0.036945 -0.077974 0.207541 -0.042913 -0.046775 -0.008721 -0.366332 0.046580 -0.017054 -0.056968 -0.038173 -0.089112 -0.050797 0.067865 -0.058672 0.080979 -0.079260 0.122372 0.126026 -0.173696 0.234416
give 0.029938 0.126965 0.088636 0.056419 -0.063209 0.025406 -0.019419 -0.039442 -0.072291 0.052920 -0.062464 -0.077788 0.071782 -0.076508 0.048396 -0.030871 0.067701 -0.012323 -0.021470 -0.085925 0.062001 -0.006142 -0.083570 -0.039305 0.027128 -0.045148 -0.054153 -0.077154 -0.052413 0.027024 -0.118924 -0.072039 -0.018130 0.073502 -0.016339 -0.048590 -0.072506 0.064946 0.035495 0.021479 -0.010926 -0.083797 -0.087556 -0.115042 0.048219 -0.086193 0.010713 -0.074810 0.084029 0.034922
know -0.025170 0.009970 0.063262 0.019424 0.075557 0.060571 0.004064 0.090893 0.169501 -0.043322 0.008815 -0.040268 -0.057388 0.165683 -0.011201 -0.065831 -0.183897 -0.029316 -0.237292 0.032795 0.048895 0.098317 0.033428 -0.077690 -0.008024 -0.043228 -0.030926 -0.048530 -0.031698 -0.097855 0.247356 0.194013 -0.000567 -0.168800 -0.097610 -0.192391 0.022784 -0.174634 -0.090406 -0.127206 -0.003194 0.053598 0.057888 -0.158389 -0.080568 0.107502 0.021003 0.070271 -0.249115 -0.001372
previous 0.052420 0.059582 -0.066529 0.021213 0.087440 0.105192 -0.000217 -0.168881 -0.046932 0.130729 -0.035441 -0.064511 0.036597 0.206660 -0.147540 -0.055880 -0.003511 -0.020064 -0.254488 0.090354 0.116172 0.116288 -0.141730 -0.100628 0.003199 0.030718 -0.049959 -0.202701 -0.162670 0.057052 -0.034448 0.000752 0.041592 0.086792 -0.057826 -0.406128 0.126988 -0.064805 -0.032992 -0.164756 -0.016003 -0.015282 0.009677 -0.212083 0.046313 0.003475 -0.064424 0.210634 -0.162794 0.083984
40 -0.009975 0.159639 -0.083935 0.058646 -0.030185 0.080338 -0.086972 -0.233341 -0.045941 0.106749 -0.076266 -0.071457 0.129192 -0.015817 -0.151152 0.031691 0.188710 0.006426 -0.070256 0.008633 -0.059617 -0.073487 -0.095956 0.015099 0.060864 -0.000912 0.063076 -0.156385 -0.115088 0.095220 -0.231285 -0.127830 0.036599 0.169920 0.094852 -0.125116 0.013309 0.116858 -0.036819 -0.041750 -0.053708 -0.163982 -0.125890 0.056152 0.110255 -0.076598 0.119832 -0.045663 0.120421 0.165758
Dirt -0.000808 -0.007368 0.005639 -0.012379 0.016055 0.002126 0.021647 0.006294 0.008659 -0.001179 0.005974 -0.015945 -0.021150 0.007163 0.003917 -0.011915 -0.009393 -0.015009 -0.008472 0.006704 0.004590 -0.011483 0.011185 -0.007116 0.004729 -0.003190 -0.011707 0.008449 0.001886 -0.007100 0.034520 0.010557 0.007411 -0.004800 -0.011452 0.005123 -0.009255 0.006618 0.000068 -0.006597 -0.001312 -0.003053 0.005251 -0.008324 -0.010920 0.017275 0.001698 -0.001968 -0.018851 -0.017275
Fawn -0.006917 0.006720 -0.002795 -0.002699 0.001725 -0.000825 -0.010813 -0.009085 -0.014023 -0.014660 0.008735 -0.015402 0.010252 -0.023759 -0.010048 0.019032 0.020919 -0.011696 0.031156 0.005898 -0.005222 -0.008373 0.011393 0.016126 0.007066 -0.015715 0.019967 0.006512 0.002396 0.021580 -0.010242 -0.014712 -0.004105 0.027670 -0.002941 0.013530 0.006080 0.008838 0.004700 -0.005161 0.000219 -0.013996 -0.030933 0.020746 0.004128 0.001145 0.002444 -0.029147 0.007944 0.001630
field -0.002501 -0.005619 -0.003633 -0.012168 0.017767 -0.003607 0.000563 0.018992 0.007631 -0.010478 0.026219 -0.001024 -0.002689 0.007187 -0.003397 -0.009067 -0.028626 -0.012659 -0.015375 0.011258 0.015519 0.000121 0.004287 -0.008055 0.005364 -0.012307 -0.000031 0.013323 0.004943 -0.002458 0.023978 0.001763 -0.001597 0.012438 -0.017850 -0.000101 -0.008538 -0.015810 0.008925 0.000345 0.001376 0.009615 -0.004585 -0.016299 -0.002347 0.011750 0.005844 0.005855 -0.021547 0.001701
proposal -0.003502 0.121905 -0.070463 0.037242 -0.021757 0.058950 -0.067506 -0.175816 -0.035827 0.068433 -0.050375 -0.049851 0.093751 -0.012525 -0.096240 0.014495 0.139219 -0.003581 -0.037463 0.015749 -0.042235 -0.058781 -0.050942 0.019517 0.047923 -0.008281 0.038369 -0.104970 -0.068856 0.075337 -0.161199 -0.090438 0.026583 0.132120 0.071713 -0.069817 0.004823 0.093117 -0.023541 -0.047321 -0.027814 -0.110315 -0.105570 0.054415 0.066678 -0.037700 0.080741 -0.052197 0.090067 0.107832
Starter -0.011515 -0.030665 0.018584 -0.030142 0.037478 0.007192 -0.003951 0.009481 0.023756 -0.048771 -0.015471 0.021367 -0.020444 0.027688 0.000134 0.026143 -0.006859 0.014170 -0.028724 0.036470 -0.064941 0.001003 0.016339 -0.001023 -0.008641 -0.019922 0.055020 0.020953 0.011509 -0.022442 0.060861 -0.009079 -0.009909 -0.017025 -0.028804 0.012042 0.018931 -0.079706 -0.046279 0.013900 -0.002354 -0.016870 -0.015605 0.037590 -0.026199 0.007494 -0.017711 0.006440 -0.017298 0.001534
Taxi -0.043133 0.071691 -0.007378 -0.044184 0.014825 0.071575 -0.021313 -0.081905 0.074165 -0.013370 -0.012480 -0.071953 0.027808 0.090009 -0.052664 0.016536 0.031887 0.005222 -0.027585 0.042829 0.019848 -0.028619 0.013775 -0.013657 0.004301 -0.039848 0.110114 -0.093252 -0.005518 0.015845 0.007520 -0.021102 0.068810 0.086066 0.022677 -0.074957 0.027986 -0.018859 -0.040381 -0.082041 0.020561 -0.067556 -0.088247 0.033032 -0.012684 0.093172 0.059376 0.026079 -0.103061 -0.008480
Wipers -0.020736 -0.030582 0.016307 -0.004085 0.040029 0.005836 0.004351 0.027305 0.036522 -0.072722 -0.007640 0.030485 -0.009982 0.026600 0.000687 0.037937 0.001911 0.012885 -0.020809 0.025572 -0.058865 0.011326 0.029900 -0.028695 -0.012135 -0.019775 0.062827 0.018897 0.003304 -0.044504 0.041175 -0.006786 -0.025065 -0.005617 -0.031466 0.007470 0.027419 -0.092172 -0.037482 -0.006210 0.014858 -0.007810 -0.005185 0.034807 -0.036303 0.006401 -0.025239 0.026690 -0.028803 0.015103
battery -0.022135 -0.016731 0.020830 -0.012055 0.021496 0.025953 0.000649 0.003393 0.027451 -0.071203 -0.006944 0.021746 -0.021038 0.041861 0.005427 0.013505 -0.005575 0.011955 -0.013651 0.022640 -0.054712 0.015488 0.022069 -0.014297 -0.010350 -0.012085 0.070233 0.014067 0.022644 -0.025586 0.047049 0.007438 -0.015339 -0.010250 -0.030449 -0.002395 0.027531 -0.096956 -0.055959 0.015887 -0.005862 -0.005729 -0.012469 0.051664 -0.022086 0.020161 -0.012973 0.034001 -0.043836 -0.002160
brake -0.014111 -0.040681 0.010870 -0.002070 0.034025 0.009686 0.000855 0.014320 0.025562 -0.064335 -0.003969 0.028265 -0.027058 0.027238 -0.008666 0.011244 0.000847 0.008436 -0.010826 0.043404 -0.049008 0.000771 0.000323 -0.010956 -0.010506 -0.004564 0.074015 0.003492 0.013228 -0.025777 0.053371 -0.003826 -0.012082 -0.027463 -0.010860 0.006592 0.014325 -0.100985 -0.043288 -0.003617 -0.006075 -0.004468 0.004145 0.033279 -0.026788 0.019205 -0.032548 0.012438 -0.016977 0.000029
molding -0.022993 -0.026930 0.002911 -0.024833 0.019845 0.019868 0.004483 0.014120 0.015550 -0.072422 -0.015753 0.007349 -0.016115 0.035784 -0.003010 0.019441 -0.014618 0.012217 -0.002762 0.020856 -0.050564 -0.011548 0.018819 -0.029811 -0.004602 -0.018640 0.063567 0.015947 0.013376 -0.028729 0.036245 0.005456 -0.029505 -0.011610 -0.018028 0.009683 0.028638 -0.084307 -0.039190 0.015830 -0.003891 -0.022585 0.001441 0.027378 -0.027605 0.010252 -0.021112 0.024385 -0.031426 -0.006757
opportunity -0.017011 0.050989 -0.007295 -0.001263 0.037851 0.040746 -0.026875 -0.063042 0.035733 -0.002973 -0.020960 -0.050380 0.009192 0.063151 -0.072825 -0.035725 0.007106 -0.007170 -0.122757 0.026613 0.025694 0.022357 -0.036702 -0.026887 -0.003180 -0.017128 0.033272 -0.070573 -0.046394 0.023692 0.040204 0.009672 0.035332 0.034450 -0.013603 -0.118320 -0.005796 -0.025496 -0.034706 -0.077651 -0.014162 -0.015420 -0.037997 -0.036914 0.012996 0.006888 0.024248 0.030494 -0.112167 0.027895
work -0.028723 -0.046884 0.012332 -0.036702 0.000593 -0.023148 0.010474 0.043153 0.028005 -0.081012 0.035607 0.050685 -0.041975 -0.024256 0.041092 0.025985 0.016354 0.022650 0.081951 0.000940 -0.065684 -0.037249 0.044224 0.018687 -0.000149 -0.014279 0.040252 0.067805 0.060264 -0.027080 0.028362 -0.006085 -0.008792 -0.035907 0.003397 0.108339 0.007732 -0.019852 -0.023433 0.025348 0.030811 0.007240 -0.023887 0.090344 -0.034496 0.018250 -0.014443 -0.038785 0.042438 -0.043209
Project 0.014513 0.073012 -0.069308 0.096382 0.006799 0.058276 -0.107771 -0.171305 0.035257 0.062793 -0.090172 0.025825 0.100394 0.046520 -0.183334 0.047991 0.081894 -0.017055 -0.092256 0.020012 -0.049757 -0.012751 -0.099602 0.007297 0.051263 0.012628 0.058917 -0.137567 -0.108278 0.071344 -0.131009 -0.031467 -0.028389 0.088975 0.007964 -0.145205 0.069757 -0.014851 -0.071642 -0.044552 -0.101353 -0.071219 -0.023853 0.073364 0.052852 -0.076040 0.059540 -0.001340 0.054149 0.161617
Spark -0.027335 -0.028738 0.016531 -0.036249 0.038295 0.020960 0.011800 0.024699 0.034671 -0.051356 -0.002252 0.003515 -0.030229 0.040250 -0.012248 0.028862 -0.002220 0.006032 -0.014719 0.039918 -0.049811 0.016706 0.021906 -0.009694 0.013825 -0.006470 0.082774 -0.000682 0.013500 -0.026537 0.063005 0.005469 -0.007336 -0.013001 -0.021458 -0.003630 0.027375 -0.095311 -0.057318 -0.018929 -0.002536 -0.033610 -0.001231 0.025830 -0.051199 0.023624 -0.009206 0.021513 -0.047443 0.021133
Wire -0.015221 -0.021788 0.018632 -0.016344 0.035269 0.005955 0.001492 0.001370 0.029684 -0.064643 -0.008754 0.022133 -0.023897 0.033197 0.002221 0.037735 -0.009041 0.014141 -0.025473 0.041942 -0.052227 0.004147 0.032982 -0.008991 -0.006008 0.004425 0.068217 0.018294 0.002172 -0.031295 0.064418 -0.010331 -0.000602 -0.017655 -0.001152 0.008980 0.020068 -0.078354 -0.054248 0.006039 0.022485 -0.024362 -0.008000 0.030488 -0.027867 0.015397 -0.022231 0.031914 -0.040215 0.014077
book -0.047892 0.045699 -0.031290 -0.008204 0.031631 0.078877 -0.026088 -0.108722 0.113355 0.058095 -0.064411 -0.077889 0.031457 0.099579 -0.078802 -0.021909 0.011001 -0.079006 -0.111592 0.049806 -0.026100 0.053782 -0.039329 -0.066802 -0.021101 -0.017617 0.067596 -0.108940 -0.079930 -0.001048 -0.059258 0.113052 0.001290 0.020333 0.024016 -0.173261 0.014575 -0.018956 -0.034859 -0.055302 -0.035094 -0.051317 -0.030881 0.010949 0.046558 -0.001025 0.100424 0.039330 -0.140177 0.093627
bumber -0.026652 -0.036391 0.013528 -0.008472 0.031355 0.013721 -0.004130 0.006216 0.040394 -0.055126 0.017766 0.023291 -0.018670 0.039028 -0.004223 0.034677 -0.006793 0.026800 -0.037057 0.024636 -0.034169 0.012308 0.005028 -0.011831 -0.003384 -0.015077 0.051067 0.001553 0.003785 -0.042099 0.053095 0.002341 -0.002173 -0.020824 -0.009404 0.016150 0.024443 -0.087444 -0.043889 -0.000118 -0.002428 -0.017440 0.004734 0.031452 -0.026902 0.024711 -0.007455 0.008661 -0.029673 0.004418
file -0.010730 0.020878 0.002712 -0.005098 0.020424 0.033737 -0.032750 -0.039761 0.061929 0.030572 -0.025675 -0.040594 -0.000410 0.067403 -0.037891 -0.016151 -0.024841 0.002927 -0.097316 0.040013 0.042816 0.057227 -0.054529 -0.012059 0.011595 0.005587 0.000800 -0.101505 -0.061912 -0.000079 -0.019343 0.038619 0.019630 0.028618 -0.025225 -0.122085 0.007706 -0.050875 -0.023741 -0.053826 -0.006273 -0.020016 -0.003676 -0.069364 0.016634 -0.002610 0.002398 0.042337 -0.064253 0.002563
horn -0.028334 -0.028253 0.011398 -0.029386 0.027487 0.025705 0.008126 0.007677 0.042179 -0.056770 -0.008629 0.004470 -0.009792 0.048559 -0.009970 0.016687 -0.002001 0.001364 -0.017142 0.035139 -0.057169 -0.001741 0.010372 -0.011252 0.000323 -0.002351 0.074910 0.004632 0.005518 -0.028036 0.065354 0.005745 -0.017476 0.000532 -0.016345 0.002600 0.042152 -0.085882 -0.049764 -0.014974 0.001192 -0.016948 -0.025481 0.048351 -0.037239 0.020330 -0.020023 0.027517 -0.042558 0.020716
lights -0.026466 -0.017997 0.006728 -0.028010 0.028558 0.014254 0.000763 0.019242 0.024222 -0.050803 0.009118 0.016365 -0.006270 0.044049 -0.009301 0.036609 -0.012854 0.019844 -0.029155 0.054385 -0.037196 -0.015322 0.013137 -0.017726 -0.012553 -0.007747 0.064430 0.005325 0.010040 -0.028832 0.063640 0.002651 -0.013845 -0.012990 -0.013716 -0.005965 0.029516 -0.086176 -0.052225 -0.008952 -0.002851 -0.020665 -0.017961 0.046103 -0.020303 0.012685 -0.010892 0.018998 -0.044455 0.005262
need -0.104328 0.231662 -0.082721 -0.090357 0.047976 0.225970 0.102460 -0.096026 0.007921 -0.110871 0.127620 -0.256568 0.082725 0.243619 -0.136330 -0.072618 -0.078272 -0.022174 -0.269224 0.035958 0.197755 0.009442 0.156610 -0.081970 0.134318 -0.161262 0.027483 -0.017719 -0.026485 -0.076351 0.287435 0.084799 0.128405 0.062246 -0.035480 -0.187762 0.027324 -0.053090 -0.100744 -0.332138 0.063694 -0.041201 -0.220877 -0.202141 -0.147635 0.232911 0.075034 0.036539 -0.459987 0.018861
radio -0.031020 -0.029517 0.006086 -0.007807 0.018786 0.002084 -0.001277 0.012042 0.023793 -0.051220 0.000275 0.018699 -0.025930 0.037951 -0.015527 0.035932 0.005886 0.016840 -0.018755 0.036248 -0.048245 0.004571 0.026790 -0.012497 0.005588 -0.014985 0.070097 0.012722 0.006893 -0.026554 0.043882 -0.005395 0.000091 -0.017631 -0.002041 0.007979 0.025611 -0.084005 -0.044282 -0.016519 0.019828 -0.016012 -0.013717 0.041329 -0.029794 0.033710 -0.012340 0.010093 -0.030854 0.009264
rims -0.027633 -0.029858 0.011314 -0.030269 0.011191 0.011470 0.014664 0.007245 0.039861 -0.061187 -0.004047 0.031879 -0.029488 0.036146 0.000709 0.030538 -0.007631 0.011000 -0.029895 0.047735 -0.051025 0.002391 0.014744 -0.004732 -0.002297 -0.025210 0.076510 0.000691 0.018525 -0.022584 0.060113 0.006754 -0.024840 -0.010673 -0.003347 0.004366 0.018536 -0.095076 -0.045458 0.011183 0.002891 -0.011298 0.000796 0.034743 -0.046968 0.028758 -0.011564 0.019083 -0.034325 0.018670
schedule -0.022199 0.105006 -0.061672 0.007913 0.021486 0.081229 -0.030286 -0.134549 0.044006 0.041213 -0.017784 -0.096063 0.066334 0.100623 -0.122328 -0.021492 0.037053 -0.014575 -0.136467 0.054686 0.018645 -0.002253 -0.031150 -0.018876 0.032952 -0.044540 0.053746 -0.122773 -0.096424 0.037462 -0.052841 -0.001144 0.069871 0.105935 0.025192 -0.152555 0.042853 -0.028188 -0.055598 -0.109184 -0.032593 -0.074630 -0.081853 -0.033004 0.002123 0.023093 0.066183 0.039198 -0.099321 0.055573
windsheild -0.030817 -0.019319 0.011807 -0.022003 0.021585 0.020775 0.011259 0.021564 0.043529 -0.077527 0.006752 0.000820 -0.019088 0.028018 -0.026406 0.023876 0.004892 -0.001721 -0.038164 0.053028 -0.047651 0.012125 0.002513 -0.020134 -0.013250 -0.001206 0.067898 0.008737 -0.006013 -0.020008 0.045165 -0.001129 0.012518 0.003110 -0.008500 -0.005315 0.034721 -0.075094 -0.042945 -0.004917 -0.000730 -0.012296 -0.006745 0.045682 -0.033798 0.023449 -0.003155 0.020839 -0.030423 0.012643
Miami -0.007910 0.167555 -0.102553 0.093796 -0.000427 0.135104 -0.116931 -0.274878 0.044862 0.123531 -0.115082 -0.055586 0.148966 0.115355 -0.229327 0.034855 0.121523 -0.027249 -0.164408 0.032051 -0.011596 -0.032855 -0.113389 -0.019138 0.073719 -0.009179 0.070766 -0.222405 -0.184451 0.073209 -0.168704 -0.049667 0.031406 0.180878 0.049356 -0.254249 0.089671 0.022083 -0.097965 -0.109093 -0.101525 -0.163565 -0.107250 0.025578 0.091145 -0.045504 0.107099 0.028302 0.002779 0.191378
Progress 0.001250 0.029657 -0.022502 0.015676 0.000219 0.030021 -0.026777 -0.075981 0.037313 0.055956 -0.053325 -0.023616 0.044798 0.036756 -0.060504 0.000031 0.017762 -0.014524 -0.048728 0.024636 -0.028906 0.017234 -0.037211 -0.014850 -0.004545 0.014762 0.006366 -0.064052 -0.066382 0.019837 -0.076568 -0.002938 -0.004018 0.039159 0.011688 -0.059226 0.008762 0.014548 -0.004712 0.001572 -0.031599 -0.037013 -0.003382 -0.024869 0.034726 -0.045549 0.025748 -0.004948 0.000953 0.059639
city -0.026517 0.142375 0.010818 -0.004246 0.089379 0.170759 -0.004416 -0.016279 0.098486 -0.072548 0.016538 -0.137275 -0.005205 0.218509 -0.081700 -0.073751 -0.131282 -0.046254 -0.295362 0.077669 0.088860 0.091036 0.043602 -0.066679 0.001995 -0.053061 0.053131 -0.078597 -0.066768 -0.078738 0.294355 0.108995 0.035759 -0.067929 -0.092267 -0.241355 0.019730 -0.124396 -0.090045 -0.232445 -0.008898 0.028277 -0.084516 -0.176824 -0.043730 0.116189 0.030261 0.044199 -0.385045 0.045718
in -0.032660 0.036522 -0.002895 0.001357 0.037880 -0.001627 0.008379 -0.043361 0.049832 0.029898 -0.010135 -0.001740 0.000771 0.050861 -0.032718 -0.036251 -0.012038 -0.033576 -0.119214 0.004502 0.044929 0.034973 -0.045821 -0.021839 0.002027 0.006864 0.035579 -0.045173 -0.061765 -0.004913 0.070189 0.033349 -0.004213 -0.019844 -0.038127 -0.147300 -0.005896 -0.072947 -0.028022 -0.094170 -0.026629 -0.010853 -0.004459 -0.056993 0.004738 -0.034687 -0.005935 0.019973 -0.095512 0.024089
jumper -0.018340 -0.018953 0.006033 -0.018654 0.024511 0.030439 0.014330 0.000093 0.043850 -0.075575 0.015975 0.015898 -0.023337 0.061421 -0.028984 0.022319 -0.002958 0.014039 -0.036037 0.047172 -0.039776 0.009631 0.005793 -0.007046 -0.002829 -0.009283 0.074043 0.005153 -0.002047 -0.025701 0.063758 0.001860 0.000080 0.014969 -0.025097 0.007634 0.019472 -0.085153 -0.055178 -0.019638 0.023733 -0.008212 -0.031280 0.034893 -0.038355 0.034660 -0.012781 0.027192 -0.063000 0.017763
just -0.033011 -0.002035 -0.011970 -0.020178 0.024537 0.005233 -0.014332 -0.013969 0.041501 -0.011021 0.006343 -0.030951 -0.044423 0.060712 -0.068426 0.027060 -0.002504 0.068251 -0.007420 0.056237 0.057322 0.031766 -0.023409 -0.005637 0.016069 -0.008935 0.049436 -0.044695 -0.030707 -0.019008 0.012155 -0.026082 0.106600 0.042044 -0.005275 -0.048484 0.048645 -0.003811 -0.025593 -0.080070 -0.006632 -0.006878 0.005742 -0.048014 -0.007079 0.048267 -0.046605 0.109133 -0.037089 -0.049420
outcome -0.054964 0.058273 -0.026415 -0.037762 0.007796 0.033956 0.004816 -0.041090 0.059999 -0.004784 -0.022583 -0.036917 0.028010 0.056651 -0.029124 -0.009999 -0.010834 -0.035121 -0.056678 0.015764 0.011005 0.002694 0.021365 -0.007619 -0.004187 -0.026642 0.046378 -0.025833 -0.022418 0.009767 0.044743 -0.001626 0.042883 0.056074 0.000314 -0.024705 -0.012267 -0.009902 -0.036366 -0.058631 0.011630 -0.034140 -0.057928 -0.004736 -0.021430 0.047723 0.058333 0.019269 -0.082143 0.002810
tire -0.015330 -0.028693 0.021419 -0.017701 0.033872 0.011945 0.006707 0.001609 0.031651 -0.058893 0.006954 0.010264 -0.010177 0.057820 -0.029036 0.037872 0.009281 0.014258 -0.026937 0.043371 -0.050281 0.004247 0.010550 0.002853 0.010270 -0.021069 0.070618 -0.006696 0.008138 -0.025984 0.056606 -0.002150 0.004559 -0.001467 -0.007765 0.007696 0.028751 -0.071145 -0.047315 -0.024034 0.007887 -0.033199 -0.022541 0.044867 -0.029709 0.032610 0.001222 0.019450 -0.055984 -0.000015
$10 -0.031684 0.005663 -0.000324 -0.021652 -0.030648 -0.010556 -0.018438 0.005085 0.028444 -0.035072 -0.006410 -0.004990 -0.016631 -0.019493 -0.016900 -0.001876 0.004895 0.002582 0.012817 0.004160 0.002638 0.000671 0.018067 0.020843 -0.017735 -0.008164 0.022885 -0.010975 0.023704 -0.003828 0.007168 0.003349 0.004501 -0.019138 0.006654 0.031385 -0.005805 0.023777 -0.023404 0.007111 0.012813 -0.011884 -0.010287 0.026820 -0.016086 0.016151 0.019088 -0.026824 -0.010668 -0.025957
$30 -0.009427 0.058450 -0.006458 -0.000691 0.014866 0.042987 -0.001814 -0.076496 0.049188 0.063432 -0.053907 -0.062975 0.012430 0.112027 -0.089926 -0.040632 -0.023970 -0.042518 -0.146073 0.020921 0.048465 0.054984 -0.045294 -0.065727 -0.004049 -0.007020 -0.014257 -0.122565 -0.069344 0.040744 0.012304 0.048560 0.030593 0.021496 -0.036158 -0.172485 0.029382 -0.031063 -0.031540 -0.077729 -0.023936 -0.003840 0.026498 -0.116506 0.009010 0.005218 0.021237 0.079683 -0.118875 0.048496
Can 0.020280 0.041548 0.015852 0.011634 0.066439 0.088495 -0.016778 -0.014500 0.119305 0.052515 -0.022983 -0.045668 -0.030887 0.191385 -0.082685 -0.077263 -0.121864 -0.043193 -0.268735 0.037407 0.078108 0.083157 -0.036499 -0.089277 -0.008477 0.002191 -0.046223 -0.134245 -0.087856 -0.025577 0.141141 0.146258 0.019218 -0.109854 -0.063381 -0.285347 0.050933 -0.108951 -0.066002 -0.136979 -0.023071 0.022953 0.059532 -0.176912 -0.001158 0.075769 0.017606 0.122177 -0.248091 0.034977
from -0.051418 0.083263 -0.017752 -0.034961 0.090444 0.123435 0.006499 -0.057212 0.070499 -0.080228 0.020605 -0.105962 0.018652 0.208092 -0.080716 -0.022223 -0.085185 -0.009979 -0.198761 0.096617 0.045728 0.044978 0.042367 -0.068170 0.010704 -0.049429 0.074930 -0.062815 -0.044283 -0.054092 0.219258 0.064406 0.054295 -0.008603 -0.070877 -0.187903 0.044067 -0.137998 -0.111947 -0.172487 0.020631 0.002412 -0.069968 -0.085385 -0.065741 0.121430 0.004811 0.063073 -0.308688 0.028553
paid -0.033718 0.098419 -0.036457 -0.007336 -0.012467 0.078957 0.008856 -0.112325 0.003304 0.047850 -0.005397 -0.082070 0.075870 0.083835 -0.078117 -0.026169 0.052557 -0.000881 -0.078831 0.025981 0.054207 -0.030209 -0.010083 -0.030193 0.036654 -0.051583 0.040373 -0.063066 -0.042513 0.009940 -0.027683 0.000021 0.076538 0.081814 0.000106 -0.100121 0.018798 0.031297 -0.013927 -0.082567 0.011943 -0.056262 -0.063943 -0.045431 -0.003293 0.042761 0.045961 0.041010 -0.102550 0.030169
send -0.005992 0.057904 -0.043852 0.006984 0.040357 0.054154 -0.008521 -0.074889 0.015574 0.028680 -0.026283 -0.044880 0.019458 0.078920 -0.070499 -0.026557 -0.029637 -0.026801 -0.107726 0.034730 0.032027 0.049444 -0.036712 -0.039749 0.020024 -0.012922 0.009749 -0.054339 -0.064314 0.011781 0.016474 0.043369 0.004271 0.042809 -0.024690 -0.142616 0.029044 -0.019682 -0.024039 -0.071594 -0.021338 -0.018370 0.005354 -0.081671 0.000527 0.011163 0.010246 0.057055 -0.118806 0.030654
to-do -0.001157 0.059729 -0.033002 0.009863 -0.001721 0.062226 -0.036153 -0.121352 0.026209 0.061913 -0.076440 -0.048811 0.037928 0.062218 -0.105295 -0.002857 0.069996 -0.019040 -0.107084 0.050465 0.010819 0.013252 -0.081402 -0.032132 0.021832 0.008982 0.033321 -0.141535 -0.092461 0.029061 -0.101345 -0.013042 0.021330 0.098548 0.013383 -0.137987 0.035575 -0.007134 -0.038269 -0.027117 -0.035111 -0.092361 -0.021553 -0.015919 0.046141 -0.031257 0.047147 0.053283 -0.019938 0.081008
Foul 0.014743 0.049667 0.001021 0.019549 0.003639 0.053816 -0.015065 -0.042547 -0.011044 0.033567 -0.025896 -0.020583 0.018298 0.019706 -0.042097 -0.009219 0.017951 -0.012329 -0.071835 0.017610 0.017564 0.016784 -0.042766 -0.028290 0.005232 -0.000194 0.013383 -0.064261 -0.038347 0.019964 -0.017809 0.003170 0.011825 0.028705 -0.011031 -0.085152 -0.001779 0.005076 -0.014883 -0.032985 -0.020897 -0.030276 -0.015943 -0.047411 0.023439 -0.007367 0.025051 0.031848 -0.030183 0.050359
Run 0.005502 0.035326 -0.005861 0.031550 0.013039 0.050657 -0.015469 -0.048602 0.010841 0.036485 -0.017594 -0.020198 0.032527 0.030634 -0.027924 -0.012285 0.020929 -0.025846 -0.065128 0.002461 0.006720 0.022746 -0.020867 -0.012688 0.019281 -0.004826 0.016807 -0.043432 -0.046802 0.030624 -0.023872 -0.009137 0.005004 0.032034 -0.005244 -0.092529 0.009267 0.015113 -0.019507 -0.025978 -0.018327 -0.030173 -0.012861 -0.041068 0.010209 -0.013824 0.018946 0.026097 -0.043350 0.036429
daily 0.001197 0.001944 -0.008370 -0.006407 -0.000380 0.007813 0.013776 -0.002099 0.005499 -0.006801 -0.003761 0.003068 -0.004171 0.002263 -0.005343 0.004008 -0.004490 -0.000365 -0.015573 0.009009 0.016403 0.010768 0.000694 -0.002927 -0.000885 0.008058 -0.001542 -0.016929 -0.001050 -0.012058 -0.010859 -0.002359 0.002958 -0.009736 0.002450 -0.002773 -0.010723 -0.005580 0.002552 -0.001111 -0.004009 -0.003429 0.002515 -0.000470 0.008430 -0.005777 0.009215 -0.000228 0.006603 0.013991
dollars 0.005744 -0.049203 0.022116 0.015016 -0.009637 -0.023577 -0.019825 0.070186 0.012763 -0.025730 0.012863 0.056724 -0.024506 -0.038761 0.051165 0.017972 0.007217 0.021693 0.074082 0.005777 -0.051329 -0.028288 -0.002396 0.032917 -0.030707 -0.001718 0.046606 0.021581 0.054109 -0.009268 0.012825 -0.009957 -0.001544 -0.026142 -0.002172 0.077427 -0.017725 -0.013253 -0.001248 0.027128 0.006993 0.008344 -0.009075 0.045348 -0.008175 -0.015657 -0.002920 -0.059910 0.043339 -0.043301
ended -0.045576 0.016041 -0.003091 -0.028505 0.022567 -0.000979 -0.012863 -0.014107 0.042172 -0.016808 0.011278 -0.040783 -0.040934 0.054880 -0.058874 0.016285 -0.012229 0.053103 -0.007146 0.037935 0.051730 0.013593 -0.009883 0.003044 0.019264 -0.019603 0.050123 -0.023159 -0.029864 -0.018836 0.027118 -0.022147 0.102522 0.038287 -0.001891 -0.036519 0.032581 0.011734 -0.025564 -0.082292 -0.007167 -0.018950 -0.018524 -0.048208 -0.010471 0.054160 -0.023970 0.089187 -0.043718 -0.043810
fee -0.026384 0.021605 0.014691 -0.025661 0.003945 -0.008090 -0.006544 -0.000186 0.013567 -0.029666 0.004863 -0.022846 0.001038 -0.011210 -0.008898 0.028966 -0.006202 0.004737 -0.009927 -0.001339 -0.006118 0.014301 0.036307 -0.004312 -0.003303 0.012515 0.010093 -0.006248 0.016878 0.009122 0.047498 -0.001409 -0.011219 -0.016967 -0.005886 0.005424 -0.012640 0.001242 -0.004309 0.000498 0.020647 -0.004226 -0.036802 0.001264 -0.000106 0.012870 0.007090 -0.020990 -0.043458 -0.009030
fiscal -0.029751 0.038319 -0.041763 -0.033161 0.070467 0.071743 -0.004506 -0.050643 0.093240 0.047378 -0.010769 -0.046438 0.000601 0.187298 -0.097771 -0.056574 -0.082079 0.003919 -0.150250 0.067128 0.037752 0.022996 0.023952 -0.052392 0.001442 -0.008592 0.055580 -0.092559 -0.017379 0.009914 0.098819 0.072913 0.073429 -0.000480 -0.023015 -0.163798 0.087912 -0.058892 -0.096081 -0.111143 -0.003891 0.005594 0.010120 -0.065760 -0.057515 0.107678 0.024290 0.122125 -0.204256 0.010943
opptys 0.009534 -0.011164 0.003268 -0.004520 -0.004513 -0.047206 -0.004259 0.041217 0.029040 0.025182 0.003150 0.017513 -0.023097 0.023078 0.007834 -0.020700 -0.041674 -0.018879 -0.021660 -0.013613 0.015509 0.024196 -0.004583 0.013358 -0.015426 0.020491 -0.030560 -0.000067 0.012371 0.009747 0.031932 0.045653 0.005408 -0.051765 -0.004395 -0.001636 -0.015622 -0.008992 0.019395 0.000833 -0.015177 0.049682 0.022518 -0.006513 0.000320 -0.018589 0.025724 0.006986 -0.019608 -0.011451
pyramid -0.034654 0.073944 -0.036355 -0.006892 0.079641 0.064168 0.031558 -0.076722 0.091685 0.055213 -0.032080 -0.056722 0.034816 0.218040 -0.183733 -0.065184 -0.059032 -0.032980 -0.244564 0.051837 0.079793 0.060296 -0.041964 -0.082347 0.008798 -0.022179 0.038561 -0.136431 -0.083673 0.019376 0.096217 0.099145 0.035209 -0.006240 -0.081119 -0.259376 0.047976 -0.061678 -0.082172 -0.148770 -0.011077 -0.000571 0.012313 -0.127922 -0.035385 0.027876 0.019726 0.118984 -0.271267 0.059788
Add -0.010063 0.088759 -0.029249 0.025169 0.003498 0.093086 -0.041037 -0.127074 0.061543 0.081076 -0.093212 -0.043625 0.040103 0.095746 -0.100797 0.019426 0.053203 -0.018918 -0.127315 0.035767 -0.000930 0.037136 -0.060082 -0.046412 0.011063 -0.028148 0.060813 -0.143267 -0.106122 0.026504 -0.090804 0.014227 0.049580 0.085423 0.010826 -0.172022 0.028430 -0.004490 -0.044184 -0.057281 -0.024254 -0.121860 -0.047043 -0.027197 0.062856 -0.014974 0.075000 0.038755 -0.050207 0.116731
Adjust 0.020045 0.027810 -0.021185 0.035123 -0.009846 0.002844 -0.022654 -0.034416 -0.002683 0.057437 -0.025266 0.009392 0.037828 0.015693 -0.027874 0.015697 0.034045 0.017964 -0.039511 -0.006479 -0.019635 -0.012322 -0.044242 -0.015409 0.009403 0.014998 0.010695 -0.051345 -0.031720 0.023833 -0.068391 -0.030130 -0.007642 0.033706 0.019176 -0.057078 0.018426 0.017156 -0.013154 0.011504 -0.012270 -0.028674 0.004876 -0.010987 0.017571 -0.017177 0.011523 0.008284 0.055895 0.049549
Catcher 0.026554 0.051849 -0.033140 0.029618 0.011902 0.038630 -0.035382 -0.074152 -0.003136 0.063614 -0.038991 -0.044225 0.042040 0.046017 -0.037777 -0.015833 0.019526 -0.022027 -0.082853 0.011977 0.021137 0.016234 -0.054951 -0.023945 0.022997 -0.004406 -0.000052 -0.076730 -0.066161 0.025681 -0.037796 -0.004398 -0.001246 0.040360 -0.009091 -0.115471 0.009648 -0.004900 -0.010582 -0.039651 -0.026414 -0.045805 -0.016276 -0.058428 0.049185 -0.014787 0.000679 0.023849 -0.020327 0.057897
Expense -0.015933 0.076767 -0.003303 -0.003846 0.024654 0.050690 -0.004565 -0.076931 0.058973 0.056035 -0.022111 -0.057938 0.020856 0.122199 -0.078356 -0.026180 -0.021870 -0.025071 -0.124674 0.029132 0.062155 0.024396 -0.032749 -0.053179 -0.000272 -0.015639 0.004061 -0.103283 -0.089527 0.010539 0.001682 0.034111 0.057899 0.032967 -0.017041 -0.164020 0.033621 -0.020607 -0.049386 -0.072121 -0.009558 -0.023682 -0.004899 -0.074724 0.008478 0.018247 0.017662 0.078909 -0.127598 0.036546
LIST -0.001118 0.001119 -0.001307 0.003419 0.007518 -0.009389 0.013986 0.012966 -0.015121 -0.004434 0.006880 -0.009695 -0.009018 -0.010209 -0.000023 0.008169 -0.001107 -0.004108 0.013255 0.005375 0.004011 -0.014606 0.002569 0.006857 -0.003345 -0.001245 0.001007 -0.008877 -0.003182 -0.006962 -0.002017 -0.015370 0.010741 0.009059 -0.003611 0.004696 0.000820 0.013338 -0.001556 -0.005468 -0.012071 0.005944 -0.002001 0.001591 0.000947 0.004105 0.000416 0.010715 0.024111 0.008496
MY 0.003284 0.010584 -0.004535 -0.008172 0.016820 -0.010848 0.011322 0.017183 -0.017197 -0.015808 -0.004556 0.006030 -0.008021 -0.008386 0.000856 -0.004831 -0.011188 -0.006195 0.006149 0.010828 0.004374 0.004981 0.014016 -0.013375 -0.005179 0.000475 -0.001736 -0.004166 -0.004574 -0.021217 -0.001948 -0.017590 0.018278 0.011700 -0.000478 0.005900 0.002266 0.004817 -0.005097 0.011396 -0.016848 0.011600 -0.008109 -0.004527 0.003950 0.002289 0.013446 0.012856 0.018467 0.007773
Strilke 0.014142 0.054378 -0.020189 0.023457 0.017873 0.045262 -0.023019 -0.063513 -0.003774 0.051695 -0.049807 -0.030683 0.044463 0.040621 -0.049360 -0.018422 0.033371 -0.021772 -0.083329 -0.005545 0.015444 0.011731 -0.048319 -0.026745 0.011489 0.006690 -0.001556 -0.087753 -0.082557 0.011149 -0.046036 0.003994 0.003961 0.035667 -0.009005 -0.123164 0.005765 0.007596 -0.017290 -0.033723 -0.025848 -0.043495 -0.009436 -0.060274 0.036399 -0.014499 0.017376 0.024468 -0.045486 0.062492
Task -0.021742 0.000490 -0.013336 -0.006978 0.023687 0.024546 0.000069 0.003272 0.023198 -0.033009 0.014612 -0.012165 0.008647 0.022754 -0.025136 0.000302 0.009654 0.009941 0.001111 0.006618 -0.009107 -0.012048 0.023776 0.004476 -0.005263 -0.008930 0.032171 0.014463 -0.009401 0.004102 0.004469 -0.021970 0.005752 0.001925 0.017017 0.002155 -0.001883 -0.009694 -0.005727 -0.003251 0.004454 -0.009650 -0.005716 0.010025 -0.017240 0.014669 -0.006694 -0.004095 -0.019352 -0.012804
WORK 0.007740 -0.002940 0.009142 0.005516 0.018839 -0.001317 -0.001576 -0.001774 -0.006547 -0.019576 -0.004154 -0.009486 0.007971 -0.017634 0.002475 0.004390 0.000107 0.002433 0.019549 -0.002980 -0.002093 0.002081 0.017460 -0.004334 -0.014993 0.000336 -0.008991 -0.005924 -0.008799 -0.013937 -0.006321 -0.005468 0.020457 0.008819 -0.002240 0.017990 -0.002339 -0.000890 -0.007562 -0.004061 -0.014209 0.010915 -0.000416 0.000754 0.001465 0.000030 0.004883 0.014578 -0.002476 -0.008939
Work -0.011288 -0.007765 0.006350 -0.004378 0.005113 0.013348 0.015417 -0.006735 0.012738 -0.024766 0.009221 -0.000413 -0.008525 0.014377 -0.011377 0.014635 0.019840 -0.008367 -0.005848 -0.002288 -0.014119 -0.000242 0.008207 -0.001422 -0.006482 -0.011301 0.020534 0.017757 0.001485 -0.015506 0.027438 -0.011800 0.007964 0.003270 0.006468 0.000971 0.012285 -0.018668 0.001148 -0.005483 0.001490 0.003851 -0.024633 -0.005946 -0.007906 0.005713 0.017378 -0.003284 -0.008171 -0.001106
biggest -0.011833 0.042869 -0.009958 -0.006453 0.011864 0.028485 -0.020455 -0.045474 0.018643 0.012707 -0.017687 -0.028642 0.014356 0.046371 -0.036915 -0.029695 -0.001924 -0.003176 -0.094169 0.018399 0.014148 0.010875 -0.029248 -0.032369 -0.003512 -0.016344 0.019714 -0.069226 -0.054576 0.007810 0.013439 -0.000582 0.020433 0.007120 -0.020375 -0.086347 0.003591 0.006870 -0.025763 -0.043741 -0.003438 -0.025789 0.001579 -0.040126 0.017665 -0.008141 0.000717 0.044396 -0.062991 0.015910
information 0.023530 0.035329 0.037656 0.021160 0.012522 0.042983 -0.022119 -0.009914 0.042931 0.026365 -0.046018 -0.039383 -0.001696 0.083824 -0.011301 -0.050385 -0.027005 -0.029694 -0.124841 0.005243 0.049056 0.055031 -0.056678 -0.053258 0.003001 0.006925 0.011327 -0.096785 -0.069351 -0.003960 0.041655 0.044700 -0.005089 -0.015222 -0.029244 -0.130588 -0.003388 -0.030389 -0.003299 -0.039812 -0.013208 -0.009410 0.002964 -0.096158 0.010691 -0.009542 -0.001802 0.030424 -0.081944 0.033125
meal -0.011182 0.013617 0.003627 -0.000630 -0.000760 -0.005271 -0.003967 0.010479 0.023351 -0.012797 -0.021990 -0.010195 -0.006497 0.004816 0.004648 0.014127 0.002616 -0.002133 -0.000067 -0.008825 -0.015791 -0.007706 0.018851 0.012252 -0.002529 0.001223 0.038005 -0.008843 0.007075 -0.005536 0.007790 -0.018781 -0.009380 -0.013145 0.002500 -0.011761 0.001446 -0.015560 -0.022003 -0.002959 -0.005179 0.007183 0.008125 0.036610 0.023728 0.015988 0.007289 -0.035307 0.007778 0.028147
meetings -0.008909 0.024325 -0.003252 -0.014060 0.005306 0.020965 -0.016736 -0.015857 -0.017301 -0.022664 -0.002493 -0.018012 0.000301 0.027552 -0.011885 -0.011228 0.009243 0.003442 -0.003811 -0.004421 0.024968 -0.008126 -0.002056 -0.012686 0.016043 -0.025717 0.019264 0.007630 -0.010242 0.008660 0.018435 -0.011452 0.022168 0.022558 0.006965 -0.006193 0.019389 -0.011194 -0.000410 -0.036855 -0.006759 -0.008776 -0.026850 -0.009380 -0.010795 0.034699 0.010331 -0.012732 -0.018850 -0.000934
opty 0.012122 -0.025414 0.008170 0.007629 0.031823 0.009468 -0.004982 0.026180 0.074487 0.000187 -0.014899 0.016411 -0.051102 0.070938 -0.029044 -0.036066 -0.039960 -0.001280 -0.077964 0.022053 -0.007332 0.041478 -0.003323 -0.008266 -0.028193 0.018169 0.017481 -0.021023 0.003044 -0.008024 0.060666 0.056124 -0.005007 -0.059266 -0.022415 -0.058432 0.018450 -0.042249 -0.008662 -0.010652 -0.008085 0.052819 0.066766 -0.016498 -0.018209 -0.007357 0.003057 0.042074 -0.064119 0.014199
quarter -0.029753 0.058889 -0.040210 -0.035285 0.043925 0.058457 0.002337 -0.045798 0.072235 0.044214 -0.006745 -0.073919 0.002740 0.152441 -0.077514 -0.059415 -0.064343 -0.003910 -0.144003 0.041209 0.047411 0.008027 0.036787 -0.041900 0.014062 -0.027202 0.052988 -0.080333 -0.039706 0.008706 0.073553 0.071240 0.066421 0.019019 -0.015279 -0.140450 0.055910 -0.033093 -0.075320 -0.112441 0.005261 -0.003621 -0.011837 -0.066776 -0.047168 0.086202 0.030127 0.086158 -0.188223 0.023497
receipt 0.014300 0.041183 -0.002942 0.015173 0.020173 0.045718 -0.009835 -0.035386 0.011667 0.027158 -0.028409 -0.023143 0.012480 0.073150 -0.058343 -0.030567 -0.038964 -0.017963 -0.114986 -0.010091 0.035825 0.038199 -0.021399 -0.045298 0.003846 -0.004481 -0.008500 -0.063082 -0.046393 0.007952 0.019207 0.045797 0.026408 -0.010454 -0.028894 -0.138837 0.019122 -0.021000 -0.000286 -0.038089 -0.013009 0.007618 0.023395 -0.090192 0.008197 0.006810 -0.003311 0.056400 -0.104525 0.027252
to-dos -0.010685 0.051243 -0.028650 -0.028401 0.025075 0.069519 -0.002416 -0.047648 0.031956 0.008184 -0.029197 -0.056205 0.009079 0.096287 -0.069953 -0.018512 -0.008195 -0.027425 -0.111852 0.046522 0.025795 0.017274 -0.002992 -0.032918 0.001889 -0.025108 0.030340 -0.062120 -0.060901 -0.009453 0.034043 0.025434 0.028960 0.035118 0.003833 -0.112756 0.024886 -0.035310 -0.045183 -0.082467 -0.001727 -0.036677 -0.044136 -0.039000 0.016158 0.030603 0.016987 0.047286 -0.108154 0.047141
yesterday's 0.023929 -0.043440 0.012977 0.017146 -0.026543 -0.054654 -0.015863 0.021084 -0.021448 -0.024531 0.010607 0.036084 -0.006096 -0.080972 0.035154 0.032495 0.020119 0.044458 0.090930 -0.028893 -0.007868 -0.032052 -0.008703 0.010900 -0.013275 0.020111 0.012306 0.037274 0.024941 0.010394 -0.046567 -0.031691 -0.000023 0.003196 0.012020 0.107311 0.005278 0.031344 0.042739 0.055655 0.012348 0.020506 0.023599 0.030728 0.001893 -0.012790 -0.030118 -0.019864 0.100464 -0.023576
<unk> -0.011400 0.033577 -0.005931 0.002335 0.023813 0.037221 -0.012963 -0.036730 0.037597 0.004879 -0.020170 -0.024516 0.008136 0.061346 -0.048686 -0.007523 -0.007326 -0.009642 -0.081515 0.025900 0.007080 0.020056 -0.017387 -0.022957 0.003382 -0.010890 0.030794 -0.054497 -0.036065 -0.001882 0.022386 0.017016 0.011022 0.009610 -0.014580 -0.088203 0.018267 -0.034363 -0.034223 -0.046935 -0.012251 -0.019920 -0.013838 -0.028520 0.000762 0.010620 0.016027 0.028803 -0.070362 0.030076
