show_status -0.014904 0.000291 0.000285 0.011484 -0.012109 -0.000463 -0.011327 0.000089 -0.009656 0.007973 -0.012588 -0.005667 0.004936 0.006641 -0.001088 0.003052 -0.004753 -0.005498 -0.005506 0.004019 0.003438 0.008577 0.005262 -0.001273 0.009647 -0.012764 0.001926 -0.006802 0.005659 0.005766 -0.003555 0.008250 0.012130 -0.012826 -0.000688 0.003949 0.005985 0.004145 -0.002510 0.011600 -0.012965 0.004688 -0.002968 -0.000923 -0.001623 0.000672 0.010090 0.012371 0.005341 -0.002874
task -0.129089 -0.346041 0.624373 -0.451484 0.048224 0.664261 -0.291546 -0.187658 -0.234608 -0.876674 -0.380971 0.203727 0.115936 -0.088219 -0.424690 0.439178 -0.071600 0.262899 -0.295413 -0.104992 0.304956 -0.009602 0.642290 0.800088 0.126829 0.357631 0.301583 0.507176 -0.333540 -0.295841 0.396787 0.133036 0.497987 0.169835 -0.242532 -0.266892 -0.747678 -0.039846 0.352289 0.014232 -0.289544 0.319197 -0.055530 -0.060722 0.128786 0.383522 0.116835 -0.037184 0.288457 0.131072
update_task_progress 0.001434 0.008556 -0.000148 -0.003617 -0.000783 -0.013909 0.007233 0.008301 0.002684 -0.004857 -0.001553 -0.003970 -0.005998 -0.001492 0.001544 0.000943 0.001459 -0.017464 0.007243 -0.000980 0.018338 0.003717 0.003966 -0.003386 -0.004708 0.014312 -0.003535 -0.008463 0.016703 0.000184 -0.004490 -0.001653 0.018422 -0.002578 0.006928 0.011368 -0.000405 0.015648 0.003040 0.000984 0.009108 -0.003808 0.008354 0.016041 0.006673 0.009718 -0.001214 -0.003001 -0.003111 -0.009772
list_project_tasks 0.006777 -0.002907 0.005113 -0.012663 -0.010346 0.016174 -0.007885 0.011750 0.010721 -0.008774 0.001884 -0.018201 0.002524 -0.017378 0.010750 -0.000843 -0.010886 -0.001895 -0.006944 -0.006675 -0.001649 0.005464 -0.007844 -0.001976 0.011179 0.010359 -0.001247 0.001213 -0.017917 -0.010575 -0.012337 -0.001818 0.011395 0.005906 0.003655 0.011043 -0.001801 -0.003865 -0.009439 -0.016324 -0.018611 -0.003282 -0.007967 0.012373 -0.001411 0.002879 0.006469 0.000576 0.014417 -0.010069
my 0.236758 -0.556202 0.238243 -0.066720 0.625886 0.520023 -0.430000 -0.137934 -0.191152 -0.487458 -0.538019 -0.259617 0.159195 -0.670265 -0.179136 0.561911 -0.335951 0.355995 -0.380562 0.229837 0.277486 0.237458 0.405642 0.542246 -0.336036 0.015113 0.201109 0.648566 0.246312 0.172666 0.265697 -0.277744 0.439627 0.250405 -0.072078 -0.002996 -0.235095 0.069468 -0.051171 -0.102126 -0.158154 0.072245 -0.123592 0.144830 0.295401 -0.145142 0.267403 -0.211349 -0.098401 0.128265
tasks -0.535116 -0.033509 0.235952 -0.210922 -0.257176 -0.089205 -0.253678 0.267189 -0.005850 -0.190565 -0.111834 -0.467227 -0.224800 0.051055 -0.073210 0.378466 -0.383558 -0.318093 0.323288 0.451732 -0.030901 0.293552 0.446992 -0.213813 0.308304 -0.260633 0.378735 -0.057783 0.233367 0.840411 -0.387721 -0.223842 -0.116972 0.624984 -0.133536 0.047363 0.137066 -0.307273 0.177812 0.074822 -0.041488 0.154670 -0.081665 0.180385 -0.154136 0.286467 -0.165889 -0.208235 -0.247523 0.210426
for -0.292960 -0.394425 0.649203 -0.375354 0.181790 0.296585 -0.591347 0.165460 -0.149345 -0.490963 -0.639039 -0.846185 -0.197856 -0.359952 -0.291209 0.706832 -0.442036 -0.366807 0.240249 0.481182 0.164384 0.422608 0.762962 0.226807 -0.001418 -0.399680 0.446396 0.337411 0.489288 1.104162 -0.209797 -0.419432 0.309101 0.766640 -0.271697 -0.063305 0.125420 -0.132737 0.190021 0.013419 -0.184265 0.248709 0.042766 0.317935 0.056403 0.243621 0.129845 -0.240576 -0.296276 0.457742
the 0.173806 0.224653 -0.554022 0.311283 -0.002277 -0.395586 0.277933 -0.056012 0.117961 0.538018 0.443401 0.234001 0.023691 0.099866 0.242453 -0.423939 0.221203 0.082632 0.060179 -0.084163 -0.272106 -0.204426 -0.535688 -0.422269 -0.106463 0.040885 -0.366269 -0.289004 -0.071468 -0.203195 -0.088861 0.183259 -0.340035 -0.289066 0.209282 0.205761 0.204739 0.017900 -0.306886 -0.099389 0.227309 -0.271035 -0.091157 -0.103367 -0.076038 -0.307639 -0.143522 0.087613 -0.089813 -0.198915
project -0.031836 -0.159368 0.489040 -0.287439 0.143871 0.263637 -0.285106 0.018329 -0.148844 -0.288227 -0.367377 -0.308975 -0.075371 -0.041033 -0.124419 0.285447 0.052424 -0.225317 0.085384 0.033308 0.084106 0.050934 0.393987 0.357021 -0.044596 -0.047867 0.121910 0.189159 0.076956 0.311580 0.121351 -0.019133 0.379372 0.219746 -0.101614 -0.176772 -0.006949 0.044033 0.207753 0.048629 -0.148894 0.115286 0.191030 0.103616 0.049509 0.205166 0.095806 0.061378 -0.087977 0.233970
projects 0.196747 -0.297629 0.245231 -0.073380 0.365492 0.438292 -0.309557 -0.049749 -0.145128 -0.328354 -0.392313 -0.206788 0.072085 -0.381462 -0.128952 0.249262 -0.122834 0.154298 -0.223356 0.053491 0.207987 0.089849 0.280554 0.431583 -0.229834 -0.013109 0.099282 0.468611 0.208112 0.086098 0.210438 -0.154460 0.371961 0.132850 -0.096460 -0.100461 -0.106358 0.109388 0.004124 -0.065572 -0.174602 0.086502 0.011287 0.137168 0.203998 -0.061247 0.220073 -0.084706 -0.032389 0.151537
list -0.244271 -0.129162 0.096949 -0.070708 -0.014286 0.059030 -0.205582 0.134613 0.003230 -0.174052 -0.090378 -0.265042 -0.038070 -0.151632 -0.048232 0.317705 -0.335469 -0.026423 0.050335 0.307224 0.074912 0.216716 0.295831 -0.047932 0.117467 -0.114237 0.253214 0.113244 0.182257 0.415932 -0.166315 -0.202033 -0.011448 0.398698 -0.065711 0.055862 -0.009794 -0.140555 0.045579 0.011485 -0.060609 0.108165 -0.125114 0.109881 -0.003410 0.097607 -0.042537 -0.179786 -0.144717 0.072049
design -0.136398 -0.114948 0.357682 -0.310174 -0.160985 0.266160 -0.067975 -0.057100 -0.129948 -0.424484 -0.181952 0.048716 -0.009089 0.050403 -0.260137 0.145354 -0.059277 0.010597 -0.090393 -0.082608 0.161261 0.011453 0.353635 0.357320 0.145926 0.120308 0.204081 0.209633 -0.205335 -0.135001 0.126514 0.041148 0.209870 0.037510 -0.156516 -0.189406 -0.316991 -0.016421 0.262478 0.070706 -0.130611 0.213032 -0.002523 -0.055613 -0.020116 0.307651 0.038858 0.033144 0.208361 0.076984
status 0.101028 -0.130044 0.030766 -0.081046 0.187373 -0.013788 -0.070990 -0.103646 -0.049547 0.045500 -0.126217 -0.133981 -0.049032 -0.133586 -0.080134 0.099587 0.062552 -0.067649 -0.004890 0.074104 -0.034051 -0.002495 0.030234 -0.005642 -0.154084 -0.074117 -0.073822 0.021474 0.040113 0.194334 -0.042954 0.004265 0.032182 0.007685 -0.007094 0.060392 0.120041 -0.017867 -0.055507 -0.045860 0.036414 -0.087954 -0.008210 0.005625 -0.003802 -0.068444 0.066311 0.010679 -0.100600 0.056777
show 0.090569 -0.058404 0.027663 0.007558 0.098456 0.075452 0.016747 -0.010041 -0.041957 -0.063089 -0.026336 0.090284 0.109002 -0.003452 0.122450 0.018439 0.016907 0.091139 -0.118865 -0.070461 0.020661 -0.012880 0.011227 0.186754 -0.061445 0.092614 0.019997 0.088257 -0.142607 -0.262227 0.211600 0.007953 0.174403 -0.121342 0.115941 -0.068241 -0.122065 0.070226 0.079371 0.006021 -0.070883 0.020286 0.049939 -0.008331 0.073483 0.066450 -0.012043 0.086105 0.018025 -0.027642
complete -0.115019 0.166217 0.013640 -0.067783 -0.295864 0.002250 0.179150 -0.033196 -0.016364 -0.021108 0.213764 0.325584 -0.007474 0.334595 -0.010200 -0.194829 0.223462 -0.011540 -0.001271 -0.203856 -0.001261 -0.226033 -0.060447 -0.000589 0.194008 0.225925 -0.068714 -0.159340 -0.332074 -0.408962 0.104401 0.278689 -0.039364 -0.190961 -0.006849 -0.049101 -0.161949 -0.033221 0.135804 0.064105 -0.035271 0.040253 0.033688 -0.149348 -0.132441 0.201992 -0.088054 0.129443 0.195058 -0.099596
as -0.045817 0.077982 0.028649 -0.090818 -0.247764 -0.050006 0.093940 0.066233 -0.018057 0.087832 0.103783 -0.079271 -0.045325 0.085838 -0.023248 -0.167289 -0.031810 -0.151794 0.068697 -0.094911 -0.007345 -0.012511 -0.004881 -0.026626 0.077372 -0.063256 0.000342 0.005268 -0.036059 -0.054598 -0.106836 0.007179 -0.068177 -0.094309 -0.046170 -0.087852 0.035754 0.021486 0.076004 -0.009014 0.015760 0.135688 0.062348 -0.052288 -0.096240 0.088403 -0.019105 0.088436 0.116697 -0.005085
80 -0.061221 0.119759 -0.111124 0.029652 -0.106668 0.017581 0.146803 -0.054007 -0.034872 0.009496 0.164276 0.355390 0.009266 0.263390 0.051946 -0.124654 0.266215 0.125120 -0.082302 -0.147135 -0.000948 -0.245634 -0.114215 -0.035464 0.112701 0.271985 -0.112532 -0.174750 -0.303993 -0.410629 0.190092 0.289048 -0.009898 -0.169055 0.041718 0.039245 -0.119491 -0.018621 0.045742 0.074942 -0.040295 -0.078701 -0.016405 -0.130475 -0.107064 0.100679 -0.063077 0.076490 0.102544 -0.127930
percent -0.051028 0.028311 -0.060322 0.027151 0.017747 0.038749 0.035907 -0.039350 -0.035904 -0.033924 0.039817 0.188567 0.003805 0.121451 0.026610 0.004220 0.164073 0.086996 -0.070264 -0.021327 0.017844 -0.133215 -0.025458 -0.021899 0.049620 0.164300 -0.052676 -0.099304 -0.161839 -0.179249 0.133193 0.163063 0.034557 -0.039606 0.017994 0.060139 -0.051921 -0.031243 0.012765 0.051807 -0.047165 -0.079168 -0.044060 -0.049974 -0.054135 0.053792 -0.024758 0.005403 0.004213 -0.058924
of 0.139214 -0.219405 -0.066944 0.044704 0.286370 0.067845 -0.138644 -0.035193 -0.009475 -0.026097 -0.133649 -0.175323 0.070720 -0.363037 -0.044599 0.173508 -0.198229 0.109119 -0.141733 0.186876 0.065250 0.146352 0.050867 0.029271 -0.189200 -0.110293 0.036527 0.225970 0.190808 0.197624 -0.054078 -0.192814 0.029890 0.101064 -0.002719 0.092050 0.031370 0.001400 -0.145617 -0.109967 0.012099 -0.030265 -0.131713 0.072675 0.103960 -0.173475 0.099045 -0.115187 -0.121398 0.018508
training -0.008413 -0.022503 -0.006517 -0.034136 0.008595 0.128737 0.048651 -0.097314 -0.046791 -0.144511 0.034312 0.291823 0.071872 0.102909 -0.033696 0.007618 0.153745 0.190058 -0.159470 -0.113126 0.053926 -0.144672 0.014193 0.123431 0.055600 0.247840 -0.045955 -0.004045 -0.246467 -0.350091 0.200532 0.186896 0.069373 -0.083184 0.004699 -0.000984 -0.246706 -0.008992 0.052043 0.019638 -0.059816 -0.029681 -0.061269 -0.105927 -0.006734 0.090601 -0.014532 0.023058 0.116312 -0.070790
overdue -0.190322 -0.009280 0.044488 -0.068549 -0.073409 -0.016308 -0.073203 0.079604 0.006862 -0.056005 -0.021190 -0.165791 -0.099118 -0.005052 -0.099692 0.102491 -0.122597 -0.087688 0.126516 0.161419 -0.007356 0.090474 0.134091 -0.119636 0.117853 -0.095315 0.101727 -0.024082 0.125387 0.333274 -0.182307 -0.069096 -0.111664 0.264506 -0.106907 0.041355 0.062680 -0.083920 -0.026003 0.001474 0.017795 0.053788 -0.073659 0.045921 -0.070319 0.033265 -0.054792 -0.111142 -0.060224 0.066840
financial -0.048126 -0.092157 0.087728 -0.098962 0.092177 0.039309 -0.049836 -0.031582 -0.058357 -0.101134 -0.131610 -0.076838 -0.027768 -0.020450 -0.040841 0.160395 -0.086011 0.019017 -0.015113 0.050295 -0.025388 0.060672 0.115070 0.066968 -0.024569 0.006830 0.074041 0.029657 -0.041397 0.088909 0.026779 -0.014705 0.079427 0.026592 0.014761 -0.019421 -0.025252 -0.030303 0.089080 -0.004858 -0.016278 0.001271 0.019206 0.039252 0.012980 0.060865 -0.006601 -0.037582 0.019904 0.059453
whats 0.061182 0.293023 -0.362997 0.188705 -0.210218 -0.278796 0.254088 0.011482 0.099289 0.345069 0.425858 0.290542 0.016083 0.237214 0.192396 -0.442782 0.247259 0.016949 0.096216 -0.178715 -0.191125 -0.235222 -0.394780 -0.297176 0.057841 0.074648 -0.260028 -0.266514 -0.171624 -0.310206 -0.025542 0.217168 -0.251095 -0.273970 0.127684 0.083982 0.056047 0.008586 -0.137043 -0.042479 0.125322 -0.141866 -0.037181 -0.131921 -0.103131 -0.067798 -0.146493 0.138358 0.006054 -0.152739
update -0.088761 -0.135757 0.297655 -0.199461 0.003866 0.156405 -0.118121 -0.061300 -0.040645 -0.326519 -0.188209 0.006416 0.007742 0.005827 -0.161026 0.241567 -0.067017 0.017384 0.008590 0.009438 0.086795 0.071338 0.280923 0.210146 0.053013 0.047833 0.168244 0.078938 -0.065740 0.069332 0.060073 -0.014733 0.111415 0.168433 -0.071874 -0.076053 -0.241628 -0.053342 0.160956 0.018504 -0.080397 0.094549 -0.022216 -0.003204 0.043624 0.207577 -0.014898 -0.058411 0.053286 0.121732
are 0.330364 -0.178008 -0.065260 0.108266 0.235461 0.170197 -0.025654 -0.152081 -0.037642 -0.007202 -0.077989 0.071807 0.117515 -0.244228 -0.032869 -0.038851 0.093234 0.206588 -0.174907 -0.098613 0.148861 -0.068418 -0.091179 0.180214 -0.224934 0.071474 -0.117402 0.180959 -0.003364 -0.231873 0.236861 -0.033953 0.151332 -0.092564 -0.005518 0.041311 -0.088079 0.171336 -0.170515 -0.047415 -0.035717 -0.018244 -0.037327 -0.069350 0.131559 -0.158844 0.118500 0.020286 0.005502 -0.044896
Mark 0.010793 -0.206395 0.183259 -0.106715 0.137658 0.225905 -0.164236 -0.067891 -0.091229 -0.282259 -0.198539 -0.058094 0.059646 -0.190534 -0.135742 0.216375 -0.115853 0.118732 -0.142152 0.040585 0.118293 0.080113 0.238853 0.256771 -0.031142 0.058853 0.110587 0.271497 0.012893 0.027910 0.106703 -0.062555 0.180420 0.114220 -0.067275 -0.044664 -0.196902 -0.007254 0.055793 -0.033350 -0.082847 0.094320 -0.053833 0.037648 0.100016 0.045173 0.072959 -0.053270 0.038725 0.069966
me -0.220175 0.126501 -0.011569 -0.036469 -0.237161 -0.159934 0.078929 0.096462 0.068899 0.084259 0.126978 -0.042611 -0.108069 0.229684 -0.028039 -0.100509 0.040704 -0.166537 0.246835 0.017040 -0.087839 0.011305 -0.024160 -0.229617 0.179279 -0.068565 0.023282 -0.240607 -0.011931 0.144272 -0.173442 0.010187 -0.183069 0.130757 -0.044753 0.011443 0.097399 -0.032879 -0.026058 0.027301 0.055868 0.052741 -0.002232 0.004358 -0.115831 0.092190 -0.155310 -0.001919 0.019975 0.026430
Show -0.113919 0.091898 0.034830 -0.033170 -0.162061 -0.015987 0.053557 0.054160 0.038713 0.017155 0.057539 -0.003728 -0.052842 0.171717 -0.035477 -0.117095 0.084450 -0.094140 0.137861 -0.055725 -0.019028 -0.022481 -0.014489 -0.082736 0.115247 -0.012281 0.000063 -0.123994 -0.018651 -0.008811 -0.058110 0.019644 -0.059347 0.060230 -0.046510 -0.045031 0.040679 0.038794 -0.012326 0.015738 -0.008469 0.060789 0.035434 0.017860 -0.040911 0.079629 -0.081878 0.024712 0.069733 0.035323
start -0.022575 -0.083079 0.111998 -0.080750 0.010006 0.122332 -0.050686 -0.041589 -0.025462 -0.183174 -0.066479 0.057031 0.023509 -0.018780 -0.066181 0.071391 -0.021912 0.067386 -0.062988 -0.022792 0.050327 0.008203 0.119179 0.176865 0.027616 0.067922 0.051928 0.101570 -0.079812 -0.084242 0.081770 0.027362 0.089040 0.047053 -0.056853 -0.044578 -0.173252 -0.020511 0.038557 -0.039112 -0.057445 0.081107 -0.007489 -0.012057 0.036809 0.072761 0.029266 -0.032303 0.078568 0.021470
What -0.155875 0.207372 -0.380772 0.154580 -0.298632 -0.425603 0.277490 0.051483 0.148765 0.319325 0.363846 0.164920 -0.060230 0.186923 0.139409 -0.247718 -0.027912 -0.030436 0.127693 0.063544 -0.187319 -0.015682 -0.304172 -0.466698 0.154821 -0.076187 -0.056697 -0.369463 -0.062168 -0.045472 -0.263248 0.018994 -0.459365 -0.082071 0.099206 0.162126 0.130901 -0.144087 -0.132530 0.006234 0.172331 -0.109367 -0.170933 -0.095649 -0.172479 -0.075402 -0.188653 -0.036681 -0.040827 -0.141440
how 0.183462 -0.107547 -0.061898 0.086949 0.114285 0.092922 -0.019336 -0.087039 -0.000051 0.013596 -0.018876 0.036059 0.075273 -0.144232 -0.001191 -0.040479 0.052297 0.102433 -0.100996 -0.033341 0.096187 -0.041792 -0.056654 0.073090 -0.106992 0.036363 -0.071234 0.101773 0.017621 -0.114513 0.114077 -0.028712 0.062067 -0.012628 -0.002769 0.045922 -0.044172 0.090902 -0.126545 -0.029605 -0.028465 -0.010910 -0.061373 -0.050331 0.079385 -0.091264 0.058254 0.012758 -0.021914 -0.039695
pending -0.033868 -0.048274 0.049258 -0.023167 -0.009968 0.006320 -0.062930 0.020035 -0.024502 -0.063827 -0.051852 -0.085678 -0.041000 -0.033852 -0.046566 0.064466 -0.070336 -0.030246 0.040891 0.079057 0.020755 0.052064 0.089732 0.001332 0.015754 -0.046120 0.069454 0.023486 0.049312 0.154283 -0.013880 -0.062354 0.010008 0.118072 -0.030606 0.032430 0.016057 -0.026149 0.003512 0.011582 -0.018831 0.026212 -0.028295 0.029726 -0.001952 0.037623 -0.001467 -0.029031 -0.044359 0.036268
What's 0.037156 0.014046 -0.086387 0.058084 0.007724 -0.043026 0.031541 -0.024382 0.007155 0.074178 0.086196 0.030020 0.019873 -0.004695 0.028572 -0.058806 0.027044 -0.000957 0.001963 -0.004670 -0.041794 -0.039627 -0.075155 -0.051490 -0.023459 0.013907 -0.075677 -0.023669 -0.018662 -0.026625 -0.002106 0.035072 -0.029785 -0.030559 0.047121 0.035112 0.010342 -0.002073 -0.065755 -0.044328 0.032287 -0.034259 -0.033490 -0.000125 -0.000582 -0.044754 -0.037269 0.024526 -0.015782 -0.013182
List -0.260448 0.014882 0.120577 -0.098786 -0.161906 -0.079477 -0.102028 0.135998 -0.001588 -0.069137 -0.035349 -0.236053 -0.138578 0.078462 -0.023246 0.131215 -0.134498 -0.221257 0.221669 0.200097 -0.038874 0.118461 0.186796 -0.126522 0.152792 -0.138561 0.144714 -0.093518 0.092699 0.415237 -0.184797 -0.081030 -0.046943 0.287099 -0.068893 0.016351 0.106135 -0.142285 0.090153 0.052928 -0.014884 0.072881 -0.006863 0.089035 -0.106584 0.160339 -0.082304 -0.059361 -0.127656 0.119295
to 0.066014 -0.046629 0.059875 -0.000515 0.000679 -0.010976 0.015441 -0.009454 0.029633 -0.003617 0.004519 0.003187 0.000416 0.052248 0.015139 0.008878 0.015793 -0.028761 0.050923 -0.036357 0.038931 0.011470 0.015611 -0.046508 -0.037239 -0.005244 -0.017046 -0.050404 0.015766 -0.002731 -0.003998 0.005308 -0.088328 0.039945 0.033924 0.030703 -0.076676 0.012946 0.011952 -0.040026 0.009839 -0.021888 -0.020445 0.007070 0.031063 0.084169 -0.057621 0.011355 -0.038022 0.070828
is 0.020941 0.270253 -0.621342 0.309085 -0.176175 -0.563066 0.415957 0.016709 0.176347 0.572770 0.471115 0.241024 -0.041845 0.169897 0.253639 -0.421587 0.082135 0.059207 0.096032 -0.012856 -0.266158 -0.081517 -0.577580 -0.598660 0.020211 -0.065259 -0.227085 -0.456361 -0.065955 -0.186976 -0.243994 0.061875 -0.552378 -0.300529 0.201000 0.226177 0.267757 -0.057736 -0.280109 -0.022994 0.267573 -0.236241 -0.154405 -0.135658 -0.173844 -0.265060 -0.195878 0.004641 -0.049208 -0.248277
Whats 0.004342 -0.051215 -0.004949 0.010302 0.037180 0.034929 0.003413 -0.018295 -0.017533 -0.030983 -0.005413 -0.005922 -0.004200 -0.041477 0.015099 0.041649 0.000686 0.009620 -0.031697 0.003709 -0.006022 0.002778 0.048612 0.035883 -0.019924 0.018207 0.007090 0.015094 0.050207 0.015914 0.022059 -0.012624 0.032490 0.023895 -0.002452 0.007005 -0.003158 0.005719 -0.015332 -0.019026 0.013764 0.012982 -0.013730 0.011208 0.021853 -0.008596 0.028698 -0.039626 -0.003198 0.000826
completed -0.038156 0.190824 -0.145021 0.011384 -0.247388 -0.199557 0.194268 0.078766 0.050791 0.288010 0.212844 -0.020179 -0.069121 0.214043 0.106622 -0.255436 0.094472 -0.165600 0.144339 -0.101315 -0.098917 -0.072815 -0.174567 -0.243340 0.057628 -0.082236 -0.103012 -0.237709 -0.043047 -0.052387 -0.140207 0.068608 -0.185449 -0.125502 0.037117 -0.009614 0.192355 0.007036 0.021471 0.025151 0.062847 -0.009615 0.054344 -0.080728 -0.163641 0.042682 -0.090914 0.081120 0.032227 -0.028562
cost 0.051048 0.043308 -0.116134 0.078674 -0.018740 -0.075189 0.058063 -0.018638 0.010679 0.107325 0.123046 0.045059 0.026422 0.027439 0.049222 -0.108467 0.051758 0.004651 0.012358 -0.018559 -0.057977 -0.066577 -0.099051 -0.088082 -0.015233 0.029215 -0.102102 -0.038900 -0.030825 -0.043915 -0.006820 0.057331 -0.056781 -0.047632 0.058854 0.066939 0.016811 -0.007461 -0.067975 -0.051232 0.037127 -0.046038 -0.034953 -0.002614 -0.003845 -0.056448 -0.052046 0.031144 -0.031566 -0.031719
metrics -0.104400 -0.093319 0.112179 -0.110787 0.050279 0.030870 -0.085146 0.015809 -0.054226 -0.115436 -0.150423 -0.165064 -0.070859 -0.032838 -0.070986 0.183220 -0.131068 -0.043365 0.052665 0.099388 -0.024080 0.098389 0.158084 0.029174 0.016297 -0.055235 0.113492 0.015189 0.028816 0.227127 -0.049149 -0.056855 0.049484 0.120543 -0.030268 -0.018976 0.008056 -0.059231 0.085028 0.003269 -0.020763 0.033860 -0.002588 0.068350 -0.012571 0.064857 -0.007117 -0.067390 -0.021017 0.095060
budget 0.025755 0.035913 -0.128260 0.071048 -0.019469 -0.080091 0.062374 -0.015321 0.018252 0.117312 0.119444 0.055160 0.015915 0.026236 0.054899 -0.110308 0.055645 0.004489 0.020968 -0.019319 -0.077462 -0.059099 -0.110882 -0.088029 -0.024053 0.015608 -0.087020 -0.042254 -0.038837 -0.048225 -0.011305 0.044914 -0.073362 -0.041584 0.062968 0.055256 0.018433 0.008994 -0.083369 -0.040934 0.034080 -0.058430 -0.038243 -0.020701 -0.019800 -0.045933 -0.053705 0.032071 -0.020504 -0.033657
70% 0.068370 -0.016864 0.004466 0.022225 0.005760 -0.061537 0.035614 0.011476 0.034413 0.061335 0.021557 -0.007082 -0.016961 0.047507 0.038081 -0.016629 0.023399 -0.026249 0.073856 -0.029845 0.010110 0.015419 -0.039669 -0.089012 -0.057873 -0.022963 -0.028464 -0.080346 0.048421 0.023206 -0.022886 -0.015355 -0.114369 0.024548 0.051070 0.037810 -0.011072 0.007902 -0.018431 -0.028513 0.040385 -0.044883 -0.020668 0.004723 0.012377 0.042843 -0.070759 -0.003861 -0.054543 0.059622
Oder 0.028240 -0.055216 0.082992 -0.032735 0.000915 0.022989 -0.002861 -0.031097 0.010460 -0.064976 -0.020425 0.032582 0.017596 0.033083 -0.019403 0.040815 0.016519 0.005621 0.019758 -0.028160 0.035019 0.011789 0.049526 0.020921 -0.017899 0.022409 0.005759 -0.013756 -0.012670 -0.021532 0.023945 0.010037 -0.032624 0.044180 0.019604 0.006565 -0.102666 -0.001739 0.034105 -0.031345 -0.010146 -0.002605 -0.035506 -0.015157 0.023638 0.097987 -0.050563 -0.006813 -0.001863 0.062639
I 0.002833 0.047033 -0.030859 0.002263 -0.087598 -0.070562 0.162336 -0.144598 0.064377 -0.056401 0.016494 0.151067 0.001198 0.054345 -0.088923 -0.161137 -0.042120 -0.061577 -0.040291 -0.032924 -0.103452 -0.082940 0.001743 0.025206 0.044734 -0.033027 0.003726 -0.086766 -0.056808 -0.114882 -0.007319 -0.009426 -0.053677 -0.037307 0.046455 -0.060958 -0.023645 0.023472 -0.052279 0.064751 0.046604 -0.085790 -0.166502 -0.020596 0.000060 -0.018006 0.002059 0.022562 0.027141 0.037639
today -0.061458 -0.121775 0.137361 -0.088530 0.065662 0.106279 -0.228127 0.128547 -0.074266 -0.083967 -0.132262 -0.267973 -0.039465 -0.121437 -0.007424 0.247174 -0.074712 -0.025842 0.077561 0.139419 0.090139 0.141782 0.172130 0.029159 -0.035026 -0.076455 0.099276 0.124369 0.135851 0.311144 -0.056556 -0.081260 0.080625 0.208912 -0.090444 0.023023 0.019033 -0.060907 0.069671 -0.044731 -0.077192 0.108316 0.084232 0.085452 0.017973 0.068169 0.022598 -0.070336 -0.096297 0.090641
Publish -0.050550 0.046530 0.025756 -0.015806 -0.095238 -0.011497 0.035734 0.037477 -0.001681 -0.014820 0.049083 0.053094 -0.010563 0.106046 -0.028977 -0.057100 0.055139 -0.020404 0.012529 -0.043545 0.011840 -0.047264 0.013486 -0.001818 0.065714 0.029458 -0.035072 -0.032384 -0.085931 -0.105179 0.021310 0.072008 -0.033819 -0.026175 -0.024550 -0.020987 -0.062025 -0.028730 0.049551 0.008518 -0.022972 0.060108 -0.018112 -0.046689 -0.044280 0.102487 -0.008874 0.020349 0.036020 -0.033976
75% -0.016401 0.093027 -0.081703 0.007446 -0.118199 -0.100574 0.107290 0.053709 0.006745 0.163977 0.113444 -0.025000 -0.041958 0.102277 0.057315 -0.143277 0.045486 -0.087413 0.070431 -0.048466 -0.043245 -0.051256 -0.084835 -0.144268 0.012152 -0.037539 -0.060329 -0.113150 -0.015898 -0.039642 -0.068204 0.023843 -0.099023 -0.089218 0.021679 0.000247 0.128121 0.024851 0.004642 0.005904 0.024461 0.007418 0.022079 -0.047955 -0.098680 0.019104 -0.049152 0.043540 0.025163 -0.033173
Started 0.005984 0.001811 -0.011498 0.052568 0.021517 0.021939 -0.037598 0.068044 0.004721 0.048805 0.046216 -0.039609 0.022408 -0.037476 0.078407 0.013000 0.001163 -0.026549 0.000775 -0.008341 0.017166 0.005010 -0.024169 -0.015549 -0.011964 -0.024913 -0.029009 -0.005172 0.064125 -0.008065 -0.023951 0.011730 -0.046505 0.008956 0.021262 0.042272 0.020416 -0.017027 -0.017853 -0.057064 -0.024502 0.015046 0.021903 0.013459 0.016559 -0.042842 -0.007529 -0.036270 0.006435 0.013353
day 0.002655 -0.085437 0.036456 -0.009938 0.089398 0.015659 -0.063080 0.013827 -0.031346 -0.068148 -0.058653 -0.016667 0.040744 -0.053860 -0.006388 0.092837 -0.042578 0.014420 -0.049932 0.045473 0.045442 0.014586 0.072324 0.065868 -0.032165 0.035028 0.025231 0.085267 0.034308 0.040828 0.011116 -0.049987 0.032922 0.037698 0.019043 0.006575 -0.010242 0.020017 0.029806 -0.022975 -0.029363 0.007142 -0.051103 0.029005 0.043719 -0.001501 0.030145 -0.057452 -0.005980 0.025298
due -0.083155 0.070563 -0.006806 -0.009237 -0.134357 -0.121110 -0.005496 0.044589 0.004500 0.067229 0.013366 -0.004010 -0.075794 0.087930 -0.018221 -0.036695 -0.018838 -0.045361 0.078947 0.071004 -0.034262 0.035184 -0.012644 -0.102833 0.090628 -0.019174 0.024221 -0.092737 0.007471 0.114279 -0.107477 -0.020358 -0.060074 0.064031 0.008251 -0.001366 0.006217 -0.082465 0.030197 0.043264 0.016578 -0.007102 -0.030330 -0.009160 -0.037406 0.048943 -0.049841 -0.028844 -0.047453 -0.004124
like -0.008624 -0.052870 0.022289 -0.006032 0.054985 -0.017364 -0.035091 0.023847 -0.021861 -0.042918 -0.024850 0.000191 0.023206 -0.011909 0.006658 0.054889 -0.025762 0.001995 -0.020763 0.021367 0.019607 -0.000350 0.037233 0.038331 -0.012937 0.031781 0.012633 0.048133 0.016283 0.023949 -0.005164 -0.032106 0.006964 0.022002 0.025769 0.001150 0.002175 0.019190 0.028412 -0.012648 -0.019736 0.004475 -0.042441 0.017069 0.019539 0.000345 0.009295 -0.050479 -0.006237 0.018974
do -0.032111 0.003805 -0.011129 -0.004587 -0.070086 -0.028490 0.026063 -0.024092 0.029751 -0.023192 0.018628 0.006157 -0.007007 0.001363 -0.017248 -0.026253 -0.056489 -0.047718 0.015117 0.050434 -0.048924 -0.005003 0.031471 -0.016587 0.030023 -0.059964 0.024217 -0.036143 0.015110 0.036132 -0.061036 -0.029318 -0.063356 0.059708 0.013482 0.001728 0.009191 -0.041782 -0.006192 0.003292 0.007445 -0.030427 -0.088843 -0.001319 -0.006005 0.002396 -0.028145 -0.011150 -0.030032 0.051066
have 0.035926 0.010121 -0.027800 0.013645 -0.021649 -0.002281 0.067849 -0.070013 0.034779 -0.026201 0.014056 0.069037 0.019203 -0.012189 -0.030441 -0.080566 -0.014920 -0.031016 -0.035235 -0.024242 -0.035972 -0.040762 -0.015716 0.022408 -0.006453 -0.025915 -0.021073 -0.035071 -0.010696 -0.085776 0.000254 -0.008388 -0.026182 -0.017161 0.031427 -0.029004 -0.020356 0.020835 -0.036511 0.005099 0.001006 -0.040738 -0.090627 -0.001966 0.019523 -0.037008 0.015588 0.023692 0.012759 0.038344
on 0.023003 -0.043371 -0.011855 0.054828 0.093934 0.072225 -0.163138 0.158460 -0.033577 0.096679 0.044061 -0.151533 0.031506 -0.095493 0.143845 0.121244 0.024010 0.030667 0.036294 0.031123 0.076691 0.061760 -0.038769 -0.046716 -0.071049 -0.011020 -0.035314 0.046039 0.113699 0.085792 -0.034685 -0.000928 -0.019328 0.057507 -0.006187 0.078553 0.039841 -0.038073 0.007357 -0.120761 -0.056803 0.061211 0.116488 0.031160 0.012685 -0.046449 -0.002588 -0.036061 -0.042130 -0.000762
working 0.052394 0.027245 -0.119240 0.160861 0.086572 -0.038505 -0.085478 0.159189 0.030219 0.241053 0.119167 -0.135258 0.032883 -0.077553 0.214831 0.008509 0.037493 -0.035381 0.057633 0.029663 0.010482 0.026930 -0.149891 -0.163387 -0.069017 -0.063103 -0.104917 -0.061149 0.175712 0.080303 -0.088884 -0.018851 -0.119131 0.017222 0.058372 0.120545 0.165361 -0.024705 -0.076049 -0.119965 -0.005592 -0.008783 0.089762 0.040436 0.001459 -0.136490 -0.018217 -0.039014 -0.070003 -0.019603
that 0.105495 -0.036889 -0.049687 0.075716 0.021195 0.010132 0.044322 -0.057004 0.001756 0.014093 0.000840 0.049304 0.019955 -0.057415 -0.015038 -0.070144 0.062444 0.064923 -0.013175 -0.059901 0.043790 -0.055710 -0.051137 0.027452 -0.045801 0.012989 -0.039145 -0.004077 -0.046436 -0.085342 0.112469 -0.004722 0.036161 -0.049183 -0.009462 0.023367 -0.017122 0.042334 -0.084133 0.016060 -0.005048 -0.031954 -0.000799 -0.011650 0.012306 -0.067761 0.026689 0.030820 0.003706 -0.034868
doing 0.034938 -0.066435 0.044829 -0.025919 0.064082 0.102406 -0.072437 0.002406 -0.033959 -0.072879 -0.105837 -0.069085 0.000902 -0.088535 -0.017431 0.046961 -0.045781 0.033491 -0.051694 0.019074 0.030975 0.019529 0.076285 0.095321 -0.052438 -0.022051 0.026524 0.108380 0.067728 0.039563 0.041964 -0.043416 0.074151 0.035261 -0.022339 -0.031718 -0.004421 0.007009 0.000352 -0.033891 -0.051337 0.017385 -0.006533 0.036872 0.046676 -0.012762 0.030419 -0.030273 -0.009416 0.052070
Bigmart 0.011094 -0.034471 0.074017 -0.056307 0.045914 0.027190 -0.024140 0.020645 -0.031861 -0.035683 -0.051367 -0.053831 -0.014569 0.003762 0.020052 0.029369 0.022998 -0.045450 0.012051 0.017622 0.001588 0.022436 0.059165 0.071840 -0.006345 0.014180 0.029153 0.030931 -0.017432 0.026336 0.044925 -0.011915 0.078093 0.039028 0.022133 -0.032514 0.001496 0.015341 0.032913 0.009868 -0.020684 0.008472 0.042307 0.030338 0.020322 0.052332 -0.026279 0.028108 -0.026498 0.034338
amount -0.016777 -0.021104 0.032994 0.009961 -0.019736 0.036658 0.010122 -0.011336 -0.006745 -0.010146 0.002590 -0.041835 -0.013673 0.020152 0.007160 0.053983 -0.018851 -0.022869 -0.015373 0.008337 0.001349 0.000931 0.070410 0.010260 0.044574 0.005106 0.020616 -0.023514 0.037998 0.022466 0.015802 -0.015551 0.037259 0.014528 -0.008646 0.006978 0.005333 0.006946 -0.008213 0.013074 0.003006 0.034658 0.051117 0.007135 0.020178 0.013013 0.056102 -0.049376 0.013673 0.008660
invoice -0.009121 -0.008668 -0.006989 0.034451 -0.018911 0.013615 0.033727 -0.017197 -0.003691 0.019116 0.036374 -0.027875 -0.008550 0.024619 0.025952 0.025052 -0.001511 -0.015330 -0.009770 0.002076 -0.016244 -0.017292 0.036377 -0.018295 0.037681 0.016704 -0.004479 -0.043109 0.035451 0.012867 0.013732 -0.000600 0.016128 -0.000688 0.005354 0.022936 0.016125 0.012484 -0.026696 0.007535 0.019230 0.022704 0.043180 0.006718 0.020414 -0.007813 0.048403 -0.044997 0.001886 -0.005849
past 0.052525 -0.039580 0.007578 0.003044 0.035863 0.011792 -0.033991 -0.017356 -0.028943 -0.013447 -0.072367 0.004278 0.005662 -0.052915 -0.016982 0.018757 -0.015331 0.056542 -0.051209 0.036069 0.022318 0.039592 0.004069 0.049069 -0.034456 0.018496 0.008691 0.040777 0.011566 -0.000350 0.025579 -0.036322 0.058949 0.014504 0.033782 -0.003887 -0.046336 -0.012543 -0.006869 0.018226 -0.026565 -0.013761 -0.037095 -0.009229 0.048532 -0.006516 0.015490 -0.025448 -0.022519 -0.018054
Cockpit -0.029267 -0.028922 0.103480 -0.064730 0.015973 0.039547 -0.059547 0.029108 -0.041246 -0.067554 -0.084111 -0.098460 -0.021196 -0.012458 -0.015634 0.058605 -0.009094 -0.065347 0.029219 0.027529 -0.000536 0.013492 0.086047 0.031489 -0.001430 -0.042109 0.030491 0.025103 0.007890 0.102932 0.008668 -0.032486 0.068168 0.062257 -0.020325 -0.004857 0.004412 -0.004360 0.045142 0.012504 -0.052369 0.013347 0.016220 0.023981 0.001622 0.047120 0.006559 0.000886 -0.034971 0.064354
View 0.009533 -0.036952 -0.016228 -0.023171 0.027798 -0.022163 -0.008706 -0.005577 -0.019222 0.021515 -0.014447 -0.032608 -0.016385 -0.036492 -0.024976 0.015464 0.004433 -0.011160 0.007423 0.025668 -0.029146 -0.001001 -0.004670 -0.044307 -0.028222 -0.032228 -0.015262 -0.012339 -0.018771 0.060816 -0.032758 -0.025296 -0.012281 -0.002378 -0.000056 0.047856 0.024614 -0.010124 -0.018824 -0.014009 0.003864 -0.026258 -0.028492 -0.020249 -0.009041 -0.011826 0.009794 -0.006961 -0.027514 0.005903
commitment 0.023594 -0.109361 0.022614 -0.005511 0.103008 0.081194 -0.037226 -0.027928 -0.039867 -0.078303 -0.068894 -0.027228 0.011339 -0.098118 -0.008254 0.081061 -0.040345 0.054413 -0.057223 0.020721 0.012905 0.032021 0.090587 0.094399 -0.051491 0.013428 0.044349 0.090706 0.073218 0.030035 0.046847 -0.035792 0.067184 0.055451 -0.007728 -0.000313 -0.026271 0.007485 -0.015819 -0.022041 -0.002476 0.014960 -0.026860 0.023524 0.044457 -0.025051 0.041749 -0.049562 -0.018638 0.010864
revenue 0.040888 0.050658 -0.123300 0.061822 -0.045369 -0.087550 0.046917 -0.008729 0.031127 0.101493 0.130244 0.068694 0.014595 0.040547 0.066720 -0.117640 0.064010 0.028794 0.042182 -0.034353 -0.069589 -0.063968 -0.103287 -0.098554 -0.010617 0.029080 -0.100597 -0.057446 -0.041146 -0.071604 -0.001433 0.051261 -0.063898 -0.058097 0.050130 0.043042 0.001260 -0.009237 -0.068223 -0.036026 0.045782 -0.058088 -0.031404 -0.038935 -0.019468 -0.015759 -0.041415 0.040798 -0.019581 -0.030634
happening 0.029057 0.076852 -0.089461 0.028486 -0.033210 -0.024250 0.030559 0.015430 -0.005891 0.032985 0.076711 0.072151 -0.005333 0.023917 0.051978 -0.121976 0.059239 0.029647 0.025202 -0.043379 -0.035379 -0.088036 -0.072146 -0.052926 -0.001277 -0.007066 -0.040842 -0.041126 -0.037423 -0.080703 0.027691 0.064892 -0.041134 -0.066319 0.032978 0.009288 -0.011937 -0.007180 -0.041116 -0.020678 0.001981 -0.040813 -0.054265 -0.022028 -0.017016 0.016266 -0.036222 0.025654 -0.040490 -0.006306
with 0.044919 -0.015407 -0.000168 -0.014817 0.048296 0.075459 -0.052761 0.004449 -0.038591 -0.056724 -0.044748 -0.008071 -0.004461 -0.061621 0.002228 -0.018313 0.004442 0.048375 -0.018566 -0.005896 0.026549 -0.032882 0.017901 0.048419 -0.047224 -0.025866 0.021096 0.065570 0.022208 -0.013854 0.054439 0.003321 0.038404 -0.003470 -0.001912 -0.017048 -0.024090 0.010669 -0.018194 -0.016289 -0.040624 -0.003022 -0.047120 0.023321 0.027557 0.018703 0.013888 -0.013962 -0.045205 0.038240
week 0.113560 0.112634 -0.174318 0.132215 -0.068631 -0.083726 0.175747 -0.078254 0.027071 0.081747 0.087579 0.182533 0.017028 0.078324 0.010925 -0.220362 0.097071 0.089621 -0.057137 -0.118686 -0.056566 -0.074701 -0.226123 -0.071774 -0.028897 0.119568 -0.125161 -0.062635 -0.056265 -0.212686 0.018682 0.123305 -0.157112 -0.193520 0.000018 0.053939 -0.030691 0.023127 -0.112682 -0.024874 0.114697 -0.092139 -0.010753 -0.053901 0.019574 -0.135061 -0.008689 0.046897 0.133550 -0.110376
begin 0.043797 -0.061360 -0.014844 0.039774 0.073571 0.034555 -0.022089 -0.011916 -0.022254 -0.008697 -0.035496 -0.055971 0.019363 -0.076774 0.020811 0.039659 -0.037655 0.031684 -0.038428 0.047458 0.017902 0.046912 0.028253 0.024111 -0.045078 -0.033298 -0.007425 0.074209 0.065062 0.053101 0.001915 -0.028467 0.033706 0.042313 0.001438 -0.005006 0.005111 -0.004066 -0.055489 -0.004457 0.018860 -0.032891 -0.024259 0.008638 0.045943 -0.025939 0.046620 -0.014859 -0.029257 0.008220
can -0.024789 0.011437 -0.022877 0.067921 -0.047944 0.023247 0.039748 0.100373 -0.005552 -0.062076 0.041192 0.059328 0.071109 0.039204 0.079735 -0.045795 -0.101173 0.060389 -0.030681 -0.021486 0.026299 0.037160 -0.006737 0.032117 0.056420 0.016536 0.073668 0.038754 -0.061204 -0.149394 0.089749 -0.083403 0.048190 -0.022795 0.050360 -0.033969 -0.136126 0.030902 0.022779 -0.016183 -0.071284 0.084273 -0.001945 0.026531 0.025952 0.076855 -0.025179 -0.001114 0.043673 -0.011827
publish -0.002761 -0.042947 0.034248 -0.010492 0.009642 0.050172 0.005356 -0.013726 -0.032933 -0.062354 -0.018007 0.010389 0.016583 0.008507 -0.010698 0.019141 -0.004305 0.038974 -0.024122 0.000340 0.020040 0.008087 0.053866 0.069254 0.019465 0.022150 0.010268 0.050453 -0.013990 -0.016628 0.021597 0.035112 0.027601 0.029649 -0.021825 -0.042913 -0.073803 -0.012267 -0.004418 0.005844 -0.004687 0.015146 -0.014548 -0.022481 0.018557 0.032864 0.017466 0.006197 0.022880 0.009422
you -0.021945 0.014899 -0.034863 0.072660 -0.043963 0.021590 0.049801 0.098718 -0.003778 -0.055966 0.044451 0.068286 0.081718 0.043385 0.094208 -0.050271 -0.101049 0.066970 -0.034409 -0.024264 0.021769 0.040396 -0.009438 0.036813 0.052045 0.023211 0.075846 0.043459 -0.072041 -0.165232 0.100374 -0.080686 0.048921 -0.031600 0.059147 -0.037063 -0.139382 0.035948 0.025792 -0.017766 -0.069304 0.083612 -0.003045 0.023348 0.034034 0.076993 -0.035483 0.006348 0.049166 -0.017422
Begin 0.040315 -0.094888 0.024057 -0.002269 0.110096 0.092641 -0.068918 -0.026178 -0.026622 -0.058034 -0.076098 -0.060950 0.025373 -0.130796 -0.012430 0.089498 -0.067506 0.063818 -0.068593 0.068874 0.042135 0.068281 0.081051 0.081681 -0.064102 -0.012301 0.025663 0.126616 0.056263 0.052383 0.025800 -0.054816 0.062031 0.052071 -0.016557 0.011609 -0.030901 0.010890 -0.025634 -0.019216 -0.027213 0.004274 -0.044468 0.037648 0.038659 -0.041948 0.063994 -0.040730 -0.042540 0.020440
mark -0.002805 -0.030063 0.051213 -0.010677 0.011793 0.056051 -0.024336 0.010030 -0.012034 -0.081309 -0.037921 0.024763 0.018549 -0.000198 -0.041353 0.037488 0.007159 0.033317 -0.035096 -0.000134 0.029894 -0.010051 0.067482 0.069129 0.014073 0.032116 -0.003750 0.038878 -0.025761 -0.050517 0.053034 0.023137 0.031018 0.015610 -0.026895 -0.015603 -0.082593 -0.012011 0.026291 -0.007634 -0.027379 0.042464 -0.039230 -0.018226 0.008474 0.063043 0.019045 -0.007249 -0.003678 -0.010716
started 0.008673 0.060104 -0.078825 0.049127 -0.065540 -0.092933 0.059229 0.062497 0.013521 0.133867 0.047718 -0.053359 -0.030854 0.034631 0.046395 -0.100907 0.012436 -0.063656 0.037465 -0.004340 -0.017711 -0.026778 -0.063522 -0.103199 0.011106 -0.053153 -0.056119 -0.055978 0.033493 -0.008373 -0.062882 0.007072 -0.078693 -0.052095 0.006387 0.026727 0.090887 0.003237 -0.030090 -0.008380 0.023387 0.012957 -0.002906 -0.021757 -0.046444 0.013307 -0.001761 0.023043 -0.026001 -0.044911
Start 0.042274 -0.079823 0.009331 0.004237 0.094591 0.073605 -0.067045 -0.008499 -0.017331 -0.055827 -0.072576 -0.061073 0.027172 -0.082489 -0.024033 0.082903 -0.050127 0.047748 -0.070179 0.053885 0.054761 0.054097 0.062258 0.066618 -0.052293 -0.018347 0.000031 0.092722 0.049790 0.032612 0.046590 -0.055944 0.055299 0.028857 0.012852 0.008070 -0.015536 0.000302 -0.008770 -0.023853 -0.017874 0.019010 -0.032175 0.024296 0.035333 -0.018222 0.047741 -0.046277 -0.020401 0.012052
Completed -0.006353 -0.057959 0.094130 -0.067771 -0.014058 0.103074 -0.029771 -0.033716 -0.044792 -0.125358 -0.031438 0.044405 0.027876 -0.009044 -0.062425 0.053599 0.003897 0.032291 -0.044289 -0.018199 0.054019 -0.014791 0.097675 0.119586 0.029625 0.039315 0.033506 0.059494 -0.073472 -0.045623 0.050964 0.010079 0.060631 -0.000966 -0.034918 -0.030183 -0.132731 -0.019770 0.066584 -0.012148 -0.040571 0.047115 -0.022941 -0.011116 -0.001336 0.060465 0.007978 0.010470 0.063646 0.017694
Tasks 0.020772 -0.013145 -0.025871 0.045576 -0.018448 -0.010733 0.028351 -0.013091 0.009552 0.000433 -0.002044 0.014758 0.001257 -0.021250 -0.003410 -0.032381 0.022881 0.022365 0.021325 -0.017291 0.019110 -0.028847 -0.014097 -0.006660 0.001435 -0.004779 0.002395 -0.026082 -0.028263 -0.014093 0.052345 -0.011858 0.013723 -0.000775 -0.021927 0.012738 -0.007250 0.002188 -0.046224 0.026515 -0.000690 -0.015209 0.001268 0.004984 -0.013378 -0.026610 -0.002029 0.017591 -0.009953 -0.017305
financials -0.005692 -0.041217 0.025600 -0.027836 -0.018620 -0.016585 -0.027518 -0.001200 0.003009 0.014649 -0.032095 -0.088897 -0.026032 -0.029023 -0.026581 0.015084 0.001441 -0.070527 0.073047 0.026356 0.004701 0.015743 0.035683 -0.044340 -0.004420 -0.054018 0.011557 -0.023421 0.026494 0.108663 -0.022570 -0.043543 -0.010480 0.085329 -0.032524 0.027514 0.039576 0.007036 -0.037792 0.000008 -0.010159 0.012125 -0.021946 -0.005659 0.002233 0.034083 -0.015889 -0.021264 -0.053965 0.032875
bots -0.008669 -0.037312 0.056967 -0.040785 -0.005602 0.048810 -0.017544 -0.034345 -0.000372 -0.096119 -0.031498 0.034301 0.012967 -0.008908 -0.024650 0.029027 -0.015335 0.034527 -0.037891 -0.015158 0.025606 -0.007715 0.051666 0.097491 0.019819 0.025800 0.022951 0.049232 -0.056108 -0.053494 0.037553 0.005070 0.038185 0.030524 -0.038236 -0.017921 -0.087237 -0.018461 0.009762 -0.028827 -0.034198 0.047499 -0.006690 -0.016044 0.011817 0.045457 0.021620 -0.012488 0.044026 0.011522
unresolvedintent 0.006711 0.007330 -0.014150 -0.012981 0.000533 0.002883 -0.013754 -0.006162 0.007001 -0.002806 -0.004909 -0.014985 0.004972 -0.006008 0.010152 0.007403 -0.014612 0.001824 0.014530 -0.010387 0.005222 0.014251 -0.009835 0.004860 0.006795 0.010623 0.005804 -0.004547 0.012185 0.002730 -0.007266 0.017038 -0.001055 -0.017251 -0.008287 0.009673 0.004988 0.007426 0.000371 -0.000656 0.011951 0.003139 0.015004 0.013449 0.005416 -0.009175 0.002155 -0.005290 -0.001516 0.016923
view -0.019972 -0.033409 0.065095 -0.035918 0.019903 0.020893 -0.027025 0.020883 -0.034000 -0.037782 -0.057787 -0.068237 -0.009560 0.017188 -0.007777 0.035628 0.019407 -0.047984 0.023032 0.021487 -0.003086 0.007577 0.054420 0.034135 -0.005882 -0.015380 0.013951 0.021640 0.002991 0.054697 0.018389 -0.000444 0.044587 0.040466 -0.003953 -0.021893 -0.004431 0.006002 0.005000 -0.012610 -0.010068 0.003432 0.026238 0.017723 0.002317 0.046608 0.002015 0.021922 -0.040493 0.026643
what -0.103502 0.146222 -0.024871 0.022235 -0.140981 -0.161346 0.142899 -0.018979 0.075558 0.060243 0.082526 0.092777 -0.029308 0.170864 0.017523 -0.175115 0.031279 -0.147550 0.058189 -0.067981 -0.130566 -0.080350 -0.023619 -0.078553 0.123896 -0.029103 0.013591 -0.165187 -0.021262 -0.029393 -0.068918 0.059510 -0.141516 -0.060726 0.046635 -0.041060 0.053080 -0.015741 -0.013824 0.062322 0.029167 -0.041628 -0.050125 0.024292 -0.065682 0.036862 -0.033905 -0.004977 0.037755 -0.009021
enter 0.059800 0.171042 -0.171347 0.064339 -0.152740 -0.149846 0.177386 0.022657 0.086240 0.226211 0.245035 0.242157 0.020168 0.245305 0.103773 -0.237617 0.177475 0.003035 0.017201 -0.151978 -0.089856 -0.084405 -0.207620 -0.155893 0.061333 0.115552 -0.120734 -0.203345 -0.157426 -0.217712 -0.041274 0.118705 -0.112381 -0.174982 0.089856 -0.046431 0.046114 0.003356 -0.012681 0.010784 0.048433 -0.046225 0.020678 -0.058602 -0.024541 -0.048025 -0.070472 0.080967 0.081083 -0.162610
time 0.062840 0.167177 -0.168037 0.065173 -0.144963 -0.144786 0.172607 0.022757 0.085172 0.220147 0.239576 0.240729 0.015501 0.241035 0.103005 -0.233960 0.174554 0.005530 0.017091 -0.151552 -0.086822 -0.080221 -0.204346 -0.149448 0.057155 0.117009 -0.116810 -0.201172 -0.154702 -0.214692 -0.040089 0.116882 -0.113442 -0.169834 0.087142 -0.047173 0.042731 0.001320 -0.009255 0.012627 0.045083 -0.042599 0.021900 -0.054300 -0.025016 -0.050482 -0.069283 0.075913 0.078970 -0.163245
what's 0.016389 -0.063673 0.030719 0.001985 0.062487 0.032557 -0.043933 -0.007419 -0.013209 -0.047704 -0.049514 -0.022082 0.032466 -0.055278 -0.019235 0.050992 -0.031899 0.015401 -0.048427 0.025306 0.026031 0.023374 0.060190 0.047689 -0.025250 0.014913 0.028941 0.070275 0.031304 0.026344 0.026390 -0.028584 0.032222 0.021963 -0.002656 0.004040 -0.017699 0.010428 0.013752 -0.015774 -0.019582 0.007430 -0.025856 0.015525 0.016997 -0.018871 0.029262 -0.029280 -0.013775 0.008610
Ball -0.014429 0.088524 -0.001463 0.024052 -0.092338 -0.086611 0.100336 0.021526 0.056586 0.049728 0.090002 0.049495 -0.032698 0.144896 0.041979 -0.112635 0.059778 -0.064175 0.055036 -0.061997 -0.016963 -0.061842 -0.070481 -0.092788 0.082996 0.009896 -0.029258 -0.126191 -0.054652 -0.051379 -0.031963 0.068636 -0.103685 -0.050536 0.005329 0.023737 0.006139 -0.000974 0.030088 0.017240 0.006628 0.000463 0.021249 -0.030269 -0.029463 0.040550 -0.042858 0.078346 0.024858 -0.008965
be 0.008988 0.011849 -0.006225 0.041979 -0.003751 -0.021723 0.010609 0.003995 0.009889 0.026944 0.029126 0.011640 0.022156 -0.001171 0.016692 -0.049426 -0.004768 -0.036700 0.006971 -0.013890 -0.029953 -0.035016 0.003921 -0.005709 0.014198 -0.002192 -0.013399 -0.041223 0.041838 -0.016386 -0.008503 -0.007254 -0.051513 0.004605 0.024504 -0.009870 0.022104 0.002493 -0.026509 -0.014285 0.005048 -0.002875 -0.028400 0.017827 -0.013435 -0.029122 0.002790 -0.020798 0.014767 0.006971
next 0.029155 0.025390 -0.032677 0.048470 -0.039248 -0.019478 0.042501 -0.018839 -0.001077 -0.005946 -0.016380 0.013619 -0.024802 0.022984 -0.027359 -0.055933 0.001310 0.023214 -0.008960 -0.004859 -0.013678 -0.002148 -0.049635 -0.016153 -0.004960 0.041927 -0.024336 -0.012816 0.018869 -0.007671 -0.022363 0.027647 -0.071289 -0.017432 -0.017267 0.045322 -0.000750 -0.012332 -0.049913 -0.013483 0.046749 -0.033162 -0.009885 -0.004478 0.015905 -0.046604 -0.017588 -0.009179 0.043128 -0.024197
sdasd -0.012770 0.154989 -0.133759 0.024747 -0.193115 -0.175178 0.156625 0.065549 0.044928 0.258595 0.172002 -0.037895 -0.061060 0.163977 0.103298 -0.206926 0.063830 -0.142156 0.122020 -0.077595 -0.077300 -0.044982 -0.162387 -0.209843 0.027269 -0.090271 -0.083267 -0.201331 -0.004736 -0.016598 -0.116678 0.049456 -0.146895 -0.097376 0.037449 -0.002637 0.178768 0.002302 0.004834 0.022184 0.064251 -0.018500 0.058668 -0.052194 -0.127670 0.016236 -0.062482 0.061550 0.011127 -0.015639
should -0.041166 0.066794 0.002180 0.016995 -0.063321 -0.088634 0.122713 -0.087772 0.051187 -0.016399 0.005420 0.098672 -0.000400 0.085253 -0.035029 -0.136020 -0.009214 -0.092537 -0.012607 -0.057394 -0.091153 -0.070201 0.021166 0.011440 0.070812 -0.017935 0.030240 -0.077880 -0.016647 -0.046644 -0.004132 0.020747 -0.061946 -0.043605 0.039641 -0.046048 0.011793 0.017470 -0.040332 0.068175 0.020467 -0.044617 -0.091722 0.023723 -0.012616 0.013017 0.013594 -0.018178 0.032091 0.002472
over 0.012502 0.013851 -0.009761 0.009122 -0.024716 -0.042269 -0.000215 -0.005196 -0.014511 0.044313 -0.014705 0.040248 -0.017450 0.024613 -0.008173 -0.022133 -0.000269 0.023393 -0.001185 0.009590 -0.001390 0.005288 -0.027219 -0.015786 0.011495 0.023224 -0.007478 -0.018183 -0.022281 -0.016367 -0.008206 -0.008185 0.004075 -0.021444 0.015029 -0.019547 -0.029911 -0.012347 0.017304 0.014263 0.004149 -0.011084 -0.004818 -0.002557 0.012410 0.005455 0.007566 0.010835 -0.007498 -0.004090
tomorrow 0.029383 -0.041954 0.066042 -0.038256 0.072529 0.039325 -0.032968 -0.025719 -0.025232 -0.038363 -0.074444 -0.043019 -0.016918 -0.017753 -0.025631 0.027458 0.044789 -0.026074 0.015746 -0.021030 0.007246 0.005367 0.041037 0.090598 -0.039472 -0.000766 -0.005958 0.018612 -0.001620 0.024583 0.051244 0.012748 0.074331 -0.013702 0.005947 -0.031474 0.008796 0.050395 0.000243 -0.010127 -0.015988 0.012291 0.036167 0.004664 0.000793 0.009849 0.045466 0.036978 -0.017457 0.043565
this 0.149544 0.049902 -0.073945 0.064665 0.022470 -0.008637 0.106166 -0.087211 -0.004081 0.027036 -0.000759 0.121208 0.039065 0.023556 0.005737 -0.143250 0.127470 0.048526 -0.058864 -0.126852 -0.028156 -0.067576 -0.143411 0.025214 -0.076876 0.099610 -0.108211 0.007439 -0.049271 -0.184697 0.085153 0.105667 -0.023029 -0.170109 -0.000592 -0.005109 -0.037580 0.065146 -0.072801 -0.019570 0.058590 -0.062648 0.031960 -0.021530 0.052689 -0.095603 0.045451 0.083475 0.101927 -0.061144
all -0.012450 -0.016532 0.007709 -0.005248 -0.021578 -0.011133 -0.024023 -0.002697 -0.013946 -0.023034 -0.019539 -0.019107 0.010282 -0.001109 0.025048 0.028029 -0.019804 0.004878 -0.003168 0.036649 -0.005203 0.017223 0.027324 0.025630 0.018791 -0.007011 0.037401 0.005731 -0.002335 -0.004251 0.014797 -0.003915 0.016305 0.027278 0.014878 -0.008125 -0.004370 -0.001989 0.018762 0.016931 0.004063 0.006316 -0.011442 0.004076 0.012513 0.023334 -0.036360 0.007263 -0.029604 0.002707
50% 0.051583 0.057310 -0.078509 0.096442 -0.001749 -0.132733 0.086287 0.037322 0.073953 0.152110 0.064156 -0.037301 -0.041231 0.062574 0.099404 -0.105612 0.012831 -0.062274 0.060675 -0.010552 -0.040090 -0.007823 -0.118497 -0.171820 -0.008605 -0.065013 -0.050494 -0.115806 0.057973 0.055011 -0.064724 -0.010553 -0.130564 -0.039830 0.046616 0.070271 0.117354 0.024230 -0.040616 0.003193 0.035101 -0.054936 0.008820 0.014775 -0.010958 -0.040945 -0.020257 0.048654 -0.057400 -0.014383
40% 0.039693 0.119311 -0.239203 0.144362 -0.028789 -0.197903 0.147074 0.011470 0.059195 0.242535 0.151349 0.056337 -0.009524 0.042507 0.123604 -0.177374 0.057907 0.009911 0.016773 0.003164 -0.089864 -0.021428 -0.243593 -0.199540 -0.024296 -0.043229 -0.124155 -0.144339 0.016177 -0.056891 -0.067054 -0.011290 -0.135540 -0.129601 0.075598 0.079502 0.149981 0.001756 -0.099452 0.006153 0.087657 -0.101362 -0.006781 -0.033726 -0.057230 -0.107171 -0.045129 0.018800 -0.010012 -0.103771
Project 0.081902 0.059025 -0.155511 0.147348 0.034476 -0.122223 0.077134 0.023847 0.019439 0.183156 0.070887 -0.034865 0.014727 -0.019380 0.068766 -0.102392 0.023926 0.007997 0.012245 0.005404 -0.053489 0.000850 -0.155607 -0.140646 -0.067303 -0.068462 -0.083553 -0.098064 0.049719 -0.016868 -0.064633 -0.037084 -0.095768 -0.067370 0.050976 0.056896 0.156873 0.041139 -0.078654 0.000021 0.072437 -0.085646 0.034324 -0.001876 -0.026761 -0.091173 -0.003573 -0.030930 -0.030808 -0.043536
field -0.015138 0.029671 -0.002586 0.000453 -0.033836 -0.008834 0.021914 0.013703 0.020237 0.023318 0.035827 0.009318 -0.014827 0.024300 0.001153 -0.033244 0.014442 -0.025986 0.021130 0.003700 -0.018512 -0.001827 -0.013393 -0.012900 0.029615 0.007829 -0.007854 -0.012644 -0.006253 -0.019488 0.004881 0.016903 -0.014818 -0.013757 0.001749 0.001922 -0.011583 -0.016708 0.002834 -0.004623 -0.006368 -0.014190 -0.004836 -0.011482 -0.007438 0.019127 0.005079 0.005431 -0.001782 -0.015382
Miami 0.087247 0.115915 -0.229779 0.191418 -0.011884 -0.193218 0.148203 0.025325 0.053052 0.271878 0.154591 0.031573 0.024128 0.049896 0.121892 -0.192507 0.076787 0.001736 0.016180 -0.030369 -0.084800 -0.036861 -0.241306 -0.211856 -0.043767 -0.040402 -0.137283 -0.166913 -0.000387 -0.097916 -0.060486 0.003968 -0.147908 -0.130168 0.092123 0.071869 0.180576 0.044192 -0.103008 0.006488 0.100499 -0.120405 0.040068 -0.033518 -0.052244 -0.097457 -0.044083 0.011787 -0.018898 -0.097521
Wire 0.048604 0.018627 -0.006240 -0.007218 0.012339 0.018709 0.012391 -0.019067 -0.010606 0.005823 -0.007330 0.030723 0.029792 0.003971 0.016874 -0.022564 0.044307 0.011343 -0.014260 -0.048850 -0.008515 -0.023394 -0.029069 0.031944 -0.024198 0.014979 -0.043510 0.007532 -0.001981 -0.062838 0.036870 0.016134 0.011646 -0.039324 0.007426 -0.016458 -0.024591 0.046505 -0.010163 -0.015559 -0.005134 -0.016441 0.005761 -0.000485 0.013614 -0.013162 0.029435 0.025027 0.018583 -0.017866
horn 0.038060 -0.014397 0.001473 -0.006198 0.039049 0.008944 0.014528 -0.027286 -0.006943 0.013420 -0.006826 0.039268 0.022897 -0.001209 0.001297 -0.034343 0.038682 0.024849 -0.019335 -0.053035 0.001053 -0.028979 -0.032440 0.034754 -0.035663 0.022426 -0.024179 0.024922 -0.016150 -0.079461 0.027196 0.022646 0.034907 -0.041624 0.026706 -0.002237 -0.009638 0.037431 -0.011163 -0.011697 0.000552 -0.016584 0.015635 -0.026145 0.017205 -0.017474 0.013954 0.029480 0.022131 -0.006811
jumper 0.044580 -0.007112 0.001915 0.000368 0.014428 0.027226 0.002097 -0.005067 -0.010205 0.016628 -0.006543 0.020883 0.005984 0.008233 0.000899 -0.016736 0.030908 0.010164 -0.022225 -0.038142 0.003457 -0.026945 -0.023228 0.042448 -0.036237 0.034511 -0.029677 0.002447 -0.012690 -0.040931 0.036465 0.016972 0.026707 -0.051102 0.007179 -0.007041 0.003392 0.025649 -0.012473 -0.011224 -0.012399 -0.000470 0.014034 -0.011982 0.014054 -0.006144 0.028856 0.021563 0.018955 -0.005570
windsheild 0.042860 -0.003844 0.005210 0.002729 0.027728 0.001599 0.014814 -0.013278 -0.013324 0.011522 -0.006710 0.030416 0.019438 -0.009602 0.000657 -0.014319 0.043288 0.017473 -0.034972 -0.035707 -0.013914 -0.021572 -0.023296 0.032703 -0.031846 0.022619 -0.030959 0.009996 -0.033261 -0.050328 0.035892 0.026822 0.030293 -0.060335 0.003607 -0.023087 -0.018695 0.037618 -0.015412 -0.011680 0.006360 0.004261 0.032074 -0.006890 0.007332 -0.009693 0.018609 0.020128 0.028392 -0.011907
Fawn 0.010509 0.008133 -0.002259 0.008406 0.002239 0.003619 0.007799 -0.002272 -0.003531 0.016752 -0.001830 0.011574 -0.007591 0.012708 0.007666 -0.004023 -0.006574 0.015909 0.003542 -0.017757 -0.019778 0.000603 -0.007074 0.006509 -0.014126 0.000618 -0.004011 -0.004547 0.007029 -0.013474 0.007262 -0.003527 -0.012573 -0.010858 -0.007051 0.000398 -0.002397 0.002182 0.004346 -0.011626 0.011310 -0.009810 0.000841 -0.002315 -0.001339 -0.007639 -0.011714 0.001961 0.008510 0.010875
rims 0.044609 0.012130 -0.006516 0.005178 0.031059 0.010311 0.026236 -0.026245 0.001965 0.016475 0.020980 0.031952 0.006061 0.000051 0.000734 -0.023274 0.053601 0.027845 -0.024136 -0.026344 0.001270 -0.023088 -0.030366 0.031097 -0.013106 0.032821 -0.032730 0.007371 -0.006082 -0.082304 0.026470 0.026180 0.016213 -0.044184 0.000687 -0.022376 -0.011757 0.021553 -0.002807 -0.012445 0.008403 -0.016268 -0.001877 -0.015747 0.015264 -0.009423 0.008217 0.035364 0.013343 -0.003131
tire 0.043182 0.005255 0.004469 0.005016 0.028769 0.012858 0.004412 -0.026017 0.011386 0.021678 -0.002106 0.040717 0.015776 -0.006239 0.010613 -0.032493 0.048369 0.004146 -0.013514 -0.048511 0.009747 -0.033687 -0.029318 0.037633 -0.028324 0.028997 -0.049672 -0.002588 -0.025147 -0.062041 0.038938 0.029356 0.021636 -0.052470 0.020787 -0.012817 -0.001391 0.033178 -0.012347 -0.004705 0.004119 -0.015300 0.015007 -0.015302 0.015527 -0.022720 0.005997 0.027012 0.020049 -0.017372
40 0.012152 0.043277 -0.132787 0.099987 -0.018482 -0.149064 0.071261 0.030998 0.039741 0.158556 0.078649 -0.024377 -0.019807 0.016922 0.083035 -0.069910 0.010968 -0.028814 0.050928 0.030066 -0.051688 0.001787 -0.113358 -0.159551 -0.011589 -0.057299 -0.048497 -0.093732 0.058763 0.030283 -0.067723 -0.026815 -0.111279 -0.058858 0.063696 0.056452 0.136984 0.006201 -0.070144 -0.004278 0.062830 -0.072124 -0.021587 -0.003534 -0.026647 -0.073156 -0.025922 -0.000058 -0.049775 -0.051435
Dirt 0.001616 0.040312 -0.023512 0.027312 -0.040153 -0.044556 0.022083 0.014623 0.017780 0.027718 0.044304 0.000595 -0.022419 0.023756 0.027031 -0.047234 0.008826 -0.011654 0.014203 -0.021177 -0.023652 -0.016164 -0.028486 -0.050892 0.011238 -0.016727 -0.015994 -0.028792 -0.022471 0.005337 -0.010955 0.015867 -0.037691 -0.016852 0.010043 0.002440 0.020280 0.013482 -0.015342 0.005521 0.009579 -0.002286 0.016748 -0.004338 -0.017957 -0.017469 -0.024560 0.011754 -0.008496 -0.010211
Progress -0.006207 0.036496 -0.056344 0.029388 -0.003858 -0.063225 0.021995 0.029740 0.008861 0.063535 0.014926 -0.025408 -0.011288 0.005179 0.032994 -0.041655 0.003301 -0.010505 0.010273 0.010498 -0.026828 -0.000066 -0.057518 -0.056168 -0.013001 -0.038099 -0.027128 -0.028908 0.051304 0.048529 -0.024331 -0.031769 -0.025836 -0.011999 0.025621 0.019879 0.093957 0.009475 -0.023899 0.010434 0.023968 -0.021699 -0.003804 0.003596 -0.023083 -0.037476 -0.005012 0.002927 -0.017351 -0.010330
Wipers 0.054084 0.010590 -0.018652 -0.000563 0.015070 0.011947 0.017644 -0.013123 -0.000317 0.018274 0.014368 0.038361 0.020350 0.011258 -0.008542 -0.036639 0.028324 0.034372 -0.030229 -0.034416 0.006421 -0.027399 -0.050731 0.024824 -0.018802 0.021925 -0.034033 -0.007993 -0.027417 -0.083561 0.042419 0.037806 0.015416 -0.065141 0.015109 -0.011200 -0.008704 0.028331 -0.010199 -0.005417 0.008558 -0.008386 0.022103 -0.017130 0.020153 -0.020604 0.010917 0.025566 0.025299 -0.024359
bumber 0.045245 0.017020 -0.021380 0.014028 0.036525 0.019642 0.014550 -0.025006 0.002023 0.030830 -0.003420 0.044586 0.025938 0.003742 0.024955 -0.028314 0.034032 0.007880 -0.022409 -0.040778 -0.004788 -0.024737 -0.041857 0.024768 -0.032272 0.020608 -0.035563 0.007912 -0.034273 -0.086125 0.031957 0.028080 0.026850 -0.050905 0.017846 -0.011777 0.002218 0.032348 -0.005947 -0.008109 0.001593 -0.011153 0.001703 -0.032471 0.014038 -0.012595 0.005747 0.038457 0.017693 -0.022077
create 0.009021 0.052013 -0.080582 0.057440 0.008121 -0.102882 0.048822 0.031050 0.021140 0.115353 0.033319 -0.016710 -0.023584 0.009860 0.056405 -0.067472 0.000496 -0.020578 0.026686 0.014547 -0.052090 -0.000442 -0.091920 -0.098962 -0.027949 -0.063223 -0.054025 -0.061484 0.070080 0.061687 -0.042145 -0.044340 -0.060217 -0.017604 0.035671 0.048394 0.116002 0.000661 -0.050437 0.015488 0.050347 -0.053018 0.001177 0.010108 -0.026345 -0.062169 -0.008843 0.015464 -0.030256 -0.006928
molding 0.063357 0.021917 -0.012388 0.008604 0.032500 0.012460 0.030203 -0.026242 0.000747 0.009787 0.011311 0.032764 0.022105 0.006395 0.002466 -0.037320 0.032144 0.021176 -0.021268 -0.043274 -0.014167 -0.023490 -0.052983 0.022420 -0.012243 0.020403 -0.033024 -0.009490 -0.027137 -0.084391 0.043613 0.023296 0.023299 -0.069998 0.015891 -0.016242 -0.020182 0.018339 0.006169 -0.007494 -0.007448 -0.009314 0.017377 -0.005216 0.007015 -0.017514 0.012242 0.013921 0.039440 -0.032291
projects? -0.024432 -0.000282 0.011355 -0.013384 -0.001468 -0.006765 0.006671 0.008189 0.013195 -0.005190 -0.003985 -0.014400 -0.014731 0.016869 0.003046 0.003638 0.005835 -0.035997 -0.001258 0.004436 -0.019526 0.013442 0.021631 -0.011734 0.013333 -0.000145 0.014912 -0.019294 0.012470 0.017956 -0.019250 0.004996 -0.002168 -0.000410 0.000783 -0.008057 0.003757 -0.005112 0.003741 -0.000829 0.006708 0.013133 0.004358 0.010080 -0.009734 0.009710 -0.006714 -0.001202 -0.007079 0.012437
proposal 0.018556 0.042544 -0.124084 0.082362 -0.006166 -0.116136 0.071842 0.023449 0.039503 0.125868 0.070948 -0.020636 -0.030079 0.015008 0.074147 -0.063273 0.019224 -0.035623 0.033809 0.029679 -0.046394 -0.001681 -0.089450 -0.139219 -0.019291 -0.047043 -0.041132 -0.091874 0.048622 0.041101 -0.044139 -0.012606 -0.091411 -0.033867 0.042152 0.059575 0.116019 -0.003512 -0.066242 -0.006876 0.044846 -0.054983 -0.017003 -0.001058 -0.019119 -0.049051 -0.013591 0.008331 -0.030688 -0.045664
radio 0.042347 0.004683 -0.004107 0.003273 0.036509 0.002473 0.020442 -0.035019 -0.004691 0.021534 0.019963 0.040018 0.012890 0.004713 -0.003956 -0.025955 0.039226 0.027681 -0.025307 -0.045595 0.008439 -0.036488 -0.033052 0.016078 -0.030653 0.021835 -0.043686 0.004590 -0.019183 -0.088877 0.041490 0.007140 -0.002431 -0.051478 0.009968 -0.001773 -0.011984 0.024745 -0.007116 -0.005073 0.010468 -0.021068 0.011758 -0.025837 0.019949 -0.035768 0.025626 0.027750 0.032351 -0.018443
battery 0.039348 0.012059 -0.038627 0.009372 0.020626 0.008249 0.047346 -0.031191 0.008001 0.018577 0.025470 0.043234 0.022540 0.004088 -0.002007 -0.043294 0.041689 0.035769 -0.030047 -0.036013 0.003201 -0.033477 -0.045328 0.009337 -0.008656 0.017603 -0.043599 0.012197 -0.018213 -0.098998 0.046096 0.037462 0.011412 -0.070748 0.033002 -0.000273 -0.004993 0.030617 -0.019560 -0.014147 0.013785 -0.030076 0.018592 -0.019842 0.018572 -0.026302 0.006060 0.017176 0.040374 -0.010005
brake 0.045079 0.019020 -0.011017 0.021571 0.010770 -0.004313 0.024392 -0.018419 -0.009752 0.009737 0.031680 0.049641 0.032429 0.005230 0.015479 -0.024175 0.039178 0.028990 -0.031652 -0.043849 0.009243 -0.028737 -0.046384 0.022493 -0.018972 0.013627 -0.022837 -0.004764 -0.022195 -0.093647 0.026425 0.034821 0.008188 -0.060889 0.002607 -0.009052 -0.016076 0.028261 -0.011915 -0.006365 0.007975 -0.009577 0.023041 -0.029658 0.008634 -0.009832 -0.002032 0.028543 0.026611 -0.041296
Adjust 0.001861 0.022207 -0.039943 0.030149 0.006768 -0.035278 0.021114 0.024500 0.025388 0.040251 0.018602 -0.007157 -0.009843 -0.003620 0.031294 -0.021234 0.002023 -0.015102 -0.001032 0.016331 -0.012711 0.004171 -0.037137 -0.022647 0.010134 -0.011162 -0.003280 -0.015311 0.022870 0.029664 -0.023004 -0.005473 -0.007155 -0.018691 0.004077 0.004776 0.064262 -0.007517 -0.016400 0.013188 0.016509 -0.004075 0.002856 -0.002617 0.007741 -0.047701 0.012680 0.006436 -0.000560 -0.003511
Catcher -0.021535 0.039600 -0.021866 0.022576 -0.029230 -0.049253 0.032501 0.010343 0.005890 0.062215 0.049739 0.016499 -0.015102 0.053162 0.026229 -0.034793 0.025956 -0.034656 0.035965 -0.002739 -0.018224 -0.008518 -0.059028 -0.058552 0.019935 -0.011324 -0.022624 -0.071691 -0.019604 -0.004154 -0.031997 0.004719 -0.056590 -0.024746 0.002552 0.023273 0.047954 -0.001418 -0.000431 0.012237 0.021503 -0.010274 0.020632 -0.007762 -0.019705 -0.013341 -0.011112 0.021553 -0.006974 0.000770
Starter 0.043400 0.012157 -0.032645 0.020672 0.012764 0.008024 0.043298 -0.028870 0.001764 0.024095 0.041850 0.062213 0.013043 0.016077 0.023166 -0.041120 0.051548 0.042446 -0.021239 -0.050264 -0.014648 -0.041273 -0.066883 0.013412 -0.013888 0.030826 -0.043330 0.001273 -0.023032 -0.094321 0.034768 0.039641 -0.000030 -0.070764 0.012378 0.014515 -0.029246 0.033146 -0.012517 -0.006721 0.003970 -0.025362 0.011182 -0.025521 0.028233 -0.021554 0.018836 0.025408 0.019306 -0.008550
Strilke -0.014783 0.046087 -0.047049 0.027477 -0.032182 -0.063546 0.027182 0.019135 0.027661 0.056217 0.026624 0.000959 -0.022578 0.041084 0.026012 -0.030329 0.017708 -0.018762 0.050866 -0.009588 -0.029500 -0.007069 -0.039623 -0.059863 0.026764 -0.014181 -0.019945 -0.067099 0.000975 0.012793 -0.039040 0.015763 -0.035652 -0.032345 0.014975 0.018371 0.049405 -0.009897 -0.003267 0.013381 0.005646 -0.028743 0.007171 0.002147 -0.027628 -0.011944 -0.026549 0.010169 -0.000069 -0.008537
work 0.009651 0.009465 -0.006826 0.013328 -0.008502 0.000824 0.021168 0.001286 0.002670 0.011741 -0.003995 0.027238 0.020806 0.020236 -0.005119 -0.021484 0.024573 0.003191 -0.006147 -0.038127 -0.007516 -0.016440 -0.036394 0.016421 0.000382 0.009212 -0.000870 -0.000280 -0.014153 -0.031045 0.021119 0.002346 0.012041 -0.022848 0.011505 0.005457 0.004988 0.009866 0.010827 -0.013039 0.008438 0.001335 0.005240 -0.004354 -0.005501 -0.010834 0.007133 0.001873 0.001648 0.011705
LIST -0.014508 -0.000842 0.001753 0.012447 0.010459 -0.016364 0.004119 0.003432 0.003233 0.000483 -0.019315 0.013600 -0.015596 0.004477 -0.010225 -0.004679 0.000355 0.008488 0.006291 -0.000639 -0.006347 0.009204 0.010992 -0.001268 0.012382 0.017140 -0.006367 0.004753 0.023020 0.005435 -0.002271 0.006857 -0.012774 -0.008208 -0.006712 0.000602 0.026244 -0.011478 0.002304 -0.001043 -0.002778 -0.004206 0.000250 -0.015185 0.006887 -0.000690 0.001159 -0.002509 0.009521 0.006932
MY 0.008162 0.010183 -0.001788 0.005951 0.014076 -0.007645 -0.004483 -0.011603 0.006288 -0.010162 -0.017814 0.019683 -0.010866 0.009061 0.002287 0.012056 0.002895 0.013765 0.012062 -0.004817 -0.012172 0.003824 0.016755 -0.019614 0.003640 0.015536 -0.007217 0.002573 0.017926 -0.001008 -0.010802 0.000882 0.005546 0.002055 -0.004590 0.009939 0.026151 -0.000055 0.002239 -0.013105 -0.006399 0.003627 -0.000109 -0.012257 0.010006 0.006382 -0.000399 0.011979 0.001231 0.000099
WORK 0.014712 0.006349 0.001111 0.001653 0.001760 0.013862 -0.002173 0.003027 0.007809 -0.013463 -0.004488 0.008364 -0.010085 0.015124 -0.001669 0.016278 0.001334 0.007132 0.004755 -0.012108 -0.010582 -0.013655 0.006538 -0.013160 0.009406 0.007849 -0.015081 0.009535 0.007205 0.005614 -0.009500 -0.002501 -0.002872 0.013771 -0.002233 0.013463 0.019440 0.006334 -0.009021 -0.015249 -0.006754 -0.005037 -0.007760 -0.007001 0.005127 0.017518 0.001580 0.006372 0.011073 -0.009821
<unk> 0.011357 0.014255 -0.029354 0.022079 -0.012399 -0.028218 0.025766 0.004653 0.008066 0.033038 0.025396 0.009597 -0.001077 0.017295 0.020179 -0.034737 0.013082 -0.005473 0.008524 -0.009226 -0.015028 -0.009715 -0.028866 -0.028152 -0.000012 -0.003167 -0.019291 -0.027252 0.000010 -0.015196 -0.006418 0.004890 -0.027204 -0.016391 0.014727 0.010061 0.014374 0.002561 -0.016774 -0.006433 0.009743 -0.011004 -0.007195 -0.005053 -0.004517 -0.007344 -0.008800 0.004538 -0.001352 -0.007720
