i -0.604010 1.104834 -0.188650 -0.291183 0.863660 0.354249 1.056197 1.248548 -0.771762 1.248182 0.449591 0.098948 -0.329019 -0.567794 -0.792602 0.065349 0.324488 0.363734 -0.563069 1.015908 0.194584 -1.194273 -0.273744 -0.508244 0.826815 -1.288669 -0.699128 0.251158 -0.201761 -0.313033 0.659614 -0.744063 -0.767846 0.016239 0.443372 0.520030 -0.353127 0.496483 -0.265513 0.527248 1.173499 0.860011 -1.125656 -0.126176 0.650137 0.413887 -0.538739 0.679290 -0.073152 0.371259
policy 0.282899 -0.223247 1.039015 -0.331455 0.179061 0.413462 0.087481 0.692241 -0.497191 -0.420116 0.709174 -0.495795 -0.659482 -0.167105 0.012584 0.921374 0.469741 0.020202 -0.268353 0.618409 0.932666 -0.132673 -0.341577 0.357899 0.672071 -0.692396 -0.379324 -0.322409 0.086668 0.017171 0.934973 0.576413 -1.106929 0.059645 -0.350174 0.724699 -0.532706 1.264784 -0.622605 -0.666542 -0.680663 0.987240 0.348495 -0.297335 0.370687 0.175732 0.443059 0.641766 -0.029264 0.019350
the 0.370328 -0.508494 -0.008674 -0.348029 1.034938 0.020153 -0.152251 0.108817 -0.412798 -0.176212 -0.328772 0.069654 -0.356149 -0.324331 -0.186522 0.032228 0.984122 0.245598 0.071430 0.876411 0.005705 0.048093 0.452995 -0.628879 0.332580 -1.078860 0.115648 0.149397 0.630279 -0.385509 0.852295 -1.194463 -0.434452 -0.167438 -0.654509 0.944647 -0.252776 1.146269 -0.382665 0.300380 0.075451 0.730992 -0.765326 -0.353585 0.472742 0.815918 1.164142 -0.216882 -0.309829 0.249758
is 0.593185 -0.337523 0.120834 -0.243562 0.768922 -0.069842 -0.751607 0.017511 -0.554319 -0.766789 0.405688 -0.027702 0.543181 -0.294676 -0.195499 -0.366362 0.696488 0.482623 0.827572 0.667181 0.318636 0.606261 0.114844 -0.176724 0.851543 -0.547159 0.609122 -0.207460 1.070174 -0.428509 0.295884 -0.895377 -0.207278 0.145120 -0.325574 0.792153 -0.211009 0.920665 -0.235151 0.006194 -0.192545 0.633771 0.096083 -0.589638 0.699706 0.731166 0.795517 -0.681270 0.283469 -0.155825
what 0.827373 0.172109 -0.428646 -0.098591 1.332826 -0.112799 -0.924103 -0.039604 -0.261349 0.025877 -0.030310 -0.291862 -0.045657 -0.940904 -0.119193 0.372753 0.721784 0.961954 0.039493 -0.091991 -0.015846 0.608817 0.533603 -0.416914 0.883843 -1.057498 0.248071 -0.003550 0.394354 -0.449211 0.511505 -0.789057 -0.010755 0.474202 -0.112568 0.656962 -0.357640 1.374041 -0.832618 0.667748 0.014051 0.151831 -0.312230 -0.468236 0.445568 1.318441 0.788060 -0.111463 0.218029 0.166373
for -0.310022 -0.427251 0.769494 -0.026445 0.805562 0.213054 -0.197752 0.541800 -0.165991 -0.559924 0.618885 -0.105188 -0.686205 -0.132104 0.175887 0.081472 0.681081 -0.315763 0.066180 0.334747 -0.017911 0.393029 0.150831 0.168704 0.019631 -0.531508 -0.024655 -0.156816 0.436365 -0.136718 0.512595 -0.393351 -0.180182 -0.366033 0.057172 0.749689 -0.437770 0.800142 -0.646652 -0.042075 -0.518246 0.496084 -0.117999 -0.381234 0.069872 0.121916 0.822011 -0.143687 -0.228394 0.197933
to -0.847172 0.077382 0.597729 0.006079 0.656661 0.299954 0.241333 1.038028 -0.775771 -0.168400 0.798536 0.426004 0.284506 0.319089 -0.062211 -1.263971 0.395679 0.209161 0.423630 1.078382 0.559652 -0.410851 -0.914567 0.210786 0.486307 -0.573857 0.038553 -0.126570 0.784285 -0.428099 0.311354 -1.005036 -0.753514 -0.036541 -0.348035 0.139544 -0.178688 0.067213 -0.143516 0.573206 0.408252 0.876142 0.470601 -0.027343 0.926983 0.348688 0.304057 -0.263300 0.290249 -0.076431
a -0.181962 0.180050 0.647001 -0.183016 0.243862 0.431706 0.435823 0.909192 -0.570415 -0.211235 0.921649 -0.225259 -0.120183 -0.309587 -0.387700 0.370026 0.268572 0.091553 -0.021231 0.578390 0.678687 -0.442418 -0.295717 0.062847 0.764212 -0.660303 -0.070590 -0.364229 0.209378 0.108067 0.428863 0.080985 -0.669319 -0.274608 0.362934 0.440935 -0.309522 0.462727 -0.281527 -0.559260 0.182265 0.958423 -0.072366 -0.145800 0.619962 -0.153070 -0.061006 0.589688 0.073420 0.072795
do -0.304890 1.018450 0.169141 0.232795 1.334869 0.380319 -0.120582 1.238140 -0.586630 0.501533 0.699361 -0.546481 0.022461 -0.837163 0.001451 0.320388 0.210305 0.586954 -0.218086 -0.020907 0.174505 -0.091390 -0.312560 -0.311944 0.902453 -1.154634 -0.316785 -0.035888 -0.034275 -0.144620 0.618867 -0.321617 -0.340683 0.596950 0.528345 0.010976 -0.683635 0.815646 -0.762066 1.264227 0.378525 0.422464 -0.014536 -0.119945 0.605341 0.887233 -0.041040 0.427078 0.429820 0.201645
of 0.716067 0.027431 0.626678 -0.073909 0.671439 0.073957 -0.300715 0.009021 -0.365057 -0.334233 -0.458255 -0.237424 -0.042130 -0.268729 -0.066880 0.200049 0.653041 -0.302399 0.358303 0.316683 -0.255854 0.037982 0.351068 -0.669414 -0.024537 -0.630646 0.511738 -0.096573 0.796959 0.032968 0.637379 -0.376822 -0.232487 -0.059352 -0.646010 0.738230 -0.218919 0.715637 -0.106405 0.196465 -0.571706 0.943076 -0.561998 -0.412148 0.587847 0.148491 0.656385 -0.183105 0.229420 -0.196537
can -0.190227 0.682346 0.273386 -0.073662 0.553122 0.259823 0.540064 0.943213 -0.491135 0.449176 0.347354 0.016498 -0.166073 -0.453844 -0.506460 0.115316 0.221256 0.072883 -0.265667 0.867011 0.526208 -0.360480 -0.401118 -0.220329 0.828851 -0.998450 -0.484927 0.090072 0.301227 -0.355959 0.587908 -0.326517 -0.629542 0.183435 0.280992 0.421625 -0.190834 0.515116 -0.198492 0.118242 0.677680 0.764512 -0.623747 -0.381173 0.363269 0.272589 -0.249233 0.439394 0.149871 0.102231
get -0.297759 0.476500 0.318047 -0.137716 0.444896 0.286808 0.694557 0.860544 -0.356062 0.430271 0.167674 0.024800 -0.211363 -0.162857 -0.650342 0.059262 0.523354 -0.197312 -0.054065 0.817345 0.251754 -0.412166 -0.200639 -0.208149 0.495022 -1.034869 -0.436651 0.126188 0.489363 -0.421577 0.650849 -0.436887 -0.577104 -0.062873 0.149460 0.674137 -0.233377 0.359795 -0.141350 -0.127602 0.629566 0.865522 -0.851544 -0.306743 0.258389 -0.084774 -0.028841 0.276930 -0.152770 0.123231
in 0.767509 0.044774 0.552957 -0.113718 0.145269 0.223772 -0.059516 -0.054707 -0.364795 -0.068613 0.052658 -0.305458 -0.305988 -0.137358 -0.065094 0.661817 0.672594 0.320735 0.026735 0.026916 0.272185 -0.274254 0.090782 -0.063110 0.273093 -0.553577 0.088108 -0.375070 0.256557 0.132673 0.588314 0.237126 -0.782121 0.019287 -0.636817 0.594268 -0.282981 0.742074 -0.241731 -0.450596 -0.067864 0.810792 -0.038184 -0.309388 0.311522 0.321856 0.477525 0.459408 -0.053774 -0.316459
if -0.180127 0.702857 -0.290451 -0.314459 0.664625 0.231656 0.281414 0.692006 -0.436381 0.673592 0.288336 -0.129506 -0.089888 -0.406137 -0.588335 0.289568 0.446078 0.705106 -0.341910 0.293433 -0.145715 -0.615061 -0.021808 -0.214363 0.646103 -0.809155 -0.279400 0.000441 -0.134266 -0.132189 0.317757 -0.526834 -0.313384 -0.194826 0.569031 0.472199 -0.349308 0.300147 -0.247799 0.345996 0.833965 0.577071 -0.505277 0.012069 0.512095 0.384967 -0.137870 0.637772 -0.054360 0.307126
how -0.285545 0.899769 0.331868 0.340897 0.789422 -0.031471 0.063708 1.024578 -0.235141 0.288324 0.504130 0.008551 0.674784 -0.783550 -0.621535 -0.441561 -0.446023 -0.039690 -0.054415 0.688049 0.316168 0.413672 -0.360181 -0.576836 1.104683 -0.698801 -0.338452 0.411117 0.409292 -0.640805 0.075633 -0.366430 0.091846 0.654148 0.282243 -0.252206 -0.238892 0.546348 -0.247953 0.867116 0.497193 0.094401 -0.331456 -0.266016 0.358793 0.461478 -0.480311 -0.218769 0.738806 0.113729
my -0.121243 0.404057 0.271104 -0.029196 0.283479 0.224209 0.680413 0.576951 -0.649311 0.140614 0.423061 -0.059752 -0.154053 -0.167753 -0.160297 0.318268 0.227134 -0.422948 0.033634 0.738595 0.083880 -0.794350 -0.091027 -0.208614 0.164498 -0.462183 -0.089946 -0.202705 0.021981 0.127061 0.554569 -0.119004 -0.548516 0.171464 0.160492 0.473325 -0.227234 0.402649 0.202475 -0.235646 -0.006754 0.785775 -0.523195 -0.313222 0.283619 -0.074710 -0.220383 -0.030926 -0.059108 0.167621
does 0.034929 0.314647 0.998034 0.476474 0.953577 0.197626 -1.178856 0.903505 0.138402 -0.417369 0.589237 -0.613361 0.248604 -0.572531 0.172276 0.330123 0.066673 0.333534 0.013684 -0.662593 0.375435 1.095162 -0.326785 0.100729 0.581918 -0.339967 -0.124302 -0.108767 0.113285 -0.271837 0.228056 0.322475 0.046920 0.555316 -0.082810 -0.480973 -0.627443 0.706772 -1.033088 1.176698 -0.682640 -0.025883 1.074877 0.218052 0.329118 0.589203 0.391898 0.256504 0.872978 -0.063814
insurance 0.059467 0.291382 0.621097 -0.008886 0.383219 0.226434 0.395861 0.503755 -0.521382 0.053142 0.546869 -0.448270 -0.299416 -0.232959 -0.051957 0.661618 0.285356 -0.374415 -0.127006 0.390489 0.142861 -0.606037 0.124508 -0.217230 0.191917 -0.584385 -0.069101 -0.251494 -0.100714 0.220912 0.700725 0.121410 -0.616230 0.287045 -0.057768 0.444438 -0.420554 0.977132 -0.248083 -0.187915 -0.396852 0.813164 -0.348462 -0.308019 0.288818 0.097202 -0.034834 0.027233 0.067870 0.173427
you -0.265440 0.745849 0.353489 0.611387 1.370947 0.358236 -0.853402 1.152912 -0.220478 -0.013994 0.837060 -0.794053 0.068922 -0.800100 0.593471 0.387123 0.128730 0.654508 -0.128016 -0.813968 0.166879 0.702458 -0.336671 0.035664 0.697914 -0.829509 -0.191661 -0.177825 -0.117593 -0.038556 0.410578 0.032907 -0.024659 0.767005 0.551483 -0.505568 -0.747919 0.676947 -1.086266 1.569593 -0.091487 -0.081568 0.869325 0.103845 0.332423 0.959648 0.327728 0.371094 0.597537 0.066684
travel -0.053902 -0.195035 0.827759 -0.108162 0.333868 0.358164 -0.091478 0.611181 -0.238064 -0.302962 0.450897 -0.241130 -0.429987 -0.062795 -0.005943 0.429540 0.442044 0.038965 -0.094558 0.255359 0.508693 0.018963 -0.338314 0.225451 0.333839 -0.428752 -0.216323 -0.239204 0.162991 -0.028546 0.565106 0.128626 -0.626800 -0.103207 -0.273289 0.362421 -0.413714 0.577281 -0.473773 -0.119730 -0.489916 0.672906 0.337504 0.004796 0.345846 0.044427 0.436487 0.396349 0.116393 0.035850
are 0.640477 -0.697457 -0.346243 -0.179697 0.540208 -0.184918 -0.769194 -0.758957 0.131492 -0.476005 -0.147581 0.232952 -0.224615 -0.267628 -0.071327 0.135611 0.795426 0.706403 0.132705 -0.036336 0.225275 0.634316 0.649944 0.034277 0.396473 -0.448331 0.520899 -0.190827 0.609709 -0.314892 0.051942 -0.641219 0.076368 -0.039651 -0.455792 0.666315 0.049836 1.102789 -0.422289 -0.397235 0.214949 -0.160228 -0.200157 -0.513466 0.086657 0.827140 1.058372 -0.420097 -0.184756 0.126804
cover 0.150040 0.182504 0.551248 0.316827 0.461893 0.234734 -0.442047 0.498156 -0.016499 -0.210076 0.172337 -0.465233 -0.010092 -0.318215 0.230586 0.442854 0.063108 0.065630 0.001953 -0.380845 0.182775 0.402901 -0.185762 -0.054021 0.168510 -0.264188 -0.185217 -0.102976 -0.020850 0.007051 0.276714 0.356599 -0.132563 0.324837 -0.078292 -0.143229 -0.376751 0.385293 -0.455976 0.502785 -0.535588 0.106055 0.529534 0.119589 0.114611 0.225012 0.261593 0.291938 0.348484 -0.070673
claim 0.156591 0.234079 0.249474 -0.020813 0.388922 0.070328 0.240169 0.281009 -0.326759 -0.116398 0.266075 -0.072256 0.101727 -0.344570 -0.256677 0.211367 0.063214 -0.240191 0.103450 0.430804 0.004674 -0.157753 0.110050 -0.403689 0.322049 -0.367606 0.104606 -0.155986 0.154981 -0.000428 0.266081 -0.170910 -0.122638 0.126217 0.102283 0.383996 -0.247068 0.481890 0.030108 -0.136508 -0.009205 0.488384 -0.577105 -0.379217 0.213275 0.054753 0.008357 -0.177212 0.089084 0.090281
will -0.123305 0.757776 -0.091893 0.100651 0.800039 0.057472 0.316231 0.757020 -0.381450 0.461154 0.200925 0.056213 0.256584 -0.598534 -0.566570 -0.264876 0.136564 0.096244 -0.053539 0.679775 0.290307 0.017465 -0.202679 -0.566577 0.976958 -0.957641 -0.217413 0.264677 0.443725 -0.516472 0.280875 -0.714397 -0.185475 0.457222 0.204108 0.163389 -0.149974 0.573520 -0.189595 0.568373 0.890756 0.334591 -0.711516 -0.363006 0.365824 0.509931 -0.197823 -0.096036 0.362799 0.106925
motor 0.325120 0.314133 0.470569 0.004491 0.297253 0.167755 0.219384 0.276245 -0.521236 -0.082562 0.490510 -0.373145 -0.187947 -0.309535 0.017206 0.687352 0.227026 -0.188285 0.041743 0.203236 0.116076 -0.452330 0.129510 -0.151033 0.238557 -0.441611 0.149727 -0.359269 0.014294 0.240245 0.538188 0.208402 -0.474968 0.280198 0.028790 0.499320 -0.352989 0.783611 -0.126931 -0.368591 -0.446850 0.731173 -0.269387 -0.377859 0.331271 0.066802 -0.009770 -0.003620 0.070645 0.014385
an -0.128342 0.563836 0.518073 -0.042078 0.192933 0.181717 0.186984 0.274957 -0.160878 0.549435 0.031184 0.143436 -0.100329 0.294424 -0.405342 -0.439013 0.382031 -0.300111 0.046186 0.297548 -0.460001 -0.661820 -0.111873 -0.051083 -0.310038 -0.265411 -0.081442 0.020320 0.392254 -0.182299 0.234754 -0.210277 -0.362324 -0.314999 -0.196781 0.410057 -0.059320 -0.198550 -0.045679 0.152417 0.088072 0.858489 -0.530359 -0.192320 0.365146 -0.245862 -0.208217 0.059556 0.268700 -0.198668
by 0.459351 0.330430 -0.682801 0.189661 0.588428 -0.120102 -0.959184 -0.181514 -0.100947 -0.029216 0.272535 -0.447349 0.446577 -0.595700 0.410680 0.158766 -0.058186 0.773390 0.219424 -0.756632 0.020770 0.752320 0.154968 0.029070 0.638735 -0.159164 0.401566 -0.145816 0.053847 -0.027723 -0.073396 -0.158120 0.343312 0.729545 0.396957 -0.174583 -0.194790 0.377315 -0.411308 0.651245 -0.108099 -0.474822 0.483147 -0.188495 0.177778 0.843896 0.105814 -0.308736 0.345099 -0.070242
be 0.136800 0.128615 0.065290 -0.048190 0.190530 -0.017425 0.121317 0.081128 -0.260757 -0.031181 0.074010 0.254292 -0.025033 0.003304 -0.218186 -0.439052 0.360601 0.127587 0.215063 0.566844 0.534373 0.136626 -0.269486 0.006615 0.708987 -0.517071 0.137205 -0.023171 0.733946 -0.400233 0.175894 -0.594625 -0.394114 0.168079 -0.280723 0.428685 0.177067 0.351172 -0.073093 0.021423 0.669840 0.432713 -0.261285 -0.466120 0.234167 0.352655 0.128914 -0.219391 0.219789 -0.213635
premium 0.147641 -0.073809 0.018111 -0.138093 0.280059 -0.054626 0.291880 -0.048735 -0.259373 0.126595 -0.465848 0.134478 -0.212041 0.137694 -0.044843 -0.119491 0.494832 -0.197185 0.171668 0.509412 -0.338299 -0.277871 0.287061 -0.431463 -0.178357 -0.530917 0.140346 0.140721 0.401051 -0.054204 0.438498 -0.627766 -0.159254 -0.210423 -0.321257 0.644293 0.041203 0.204958 0.127254 0.023233 0.198665 0.552601 -0.712868 -0.168170 0.072583 -0.073088 0.384191 -0.186380 -0.337206 0.024578
it -0.512530 -0.042737 0.500564 0.068953 0.354877 0.170127 -0.390170 0.815987 -0.533653 -0.748405 0.888163 0.380346 0.828650 0.268861 -0.294700 -1.367042 0.359751 0.355608 0.960400 1.054155 1.037836 0.583502 -1.065843 0.320316 1.144844 -0.248045 0.249758 -0.215976 1.279354 -0.696926 0.004044 -0.907350 -0.431611 0.263235 -0.344532 0.034779 -0.085604 0.019667 -0.028766 0.350174 0.256274 0.548275 0.940239 -0.124315 0.825659 0.362514 0.347157 -0.601780 0.651398 -0.337007
have -0.405992 0.448594 0.624630 0.240747 0.817493 0.396376 -0.285082 0.991325 -0.160191 0.076789 0.834982 -0.548471 -0.122171 -0.478877 0.072214 0.446957 0.170568 0.253342 -0.239098 -0.361881 0.166718 0.108232 -0.190577 0.096622 0.411103 -0.605954 -0.294804 -0.150935 -0.192125 0.065140 0.329067 0.198025 -0.199632 0.170374 0.443917 -0.131917 -0.593084 0.618524 -0.760873 0.711913 -0.069917 0.331706 0.459929 0.115975 0.316860 0.362490 0.005280 0.451156 0.422099 0.216745
take -0.613424 0.008333 0.782776 -0.091817 -0.011075 0.386563 0.344851 0.962184 -0.435456 -0.291862 0.801797 0.069912 -0.024289 0.214664 -0.134356 -0.315513 0.050026 -0.059268 0.076970 0.881062 0.881690 -0.172832 -0.970943 0.434096 0.572376 -0.231217 -0.365045 -0.171377 0.337476 -0.206091 0.386597 0.019846 -0.799952 -0.085619 -0.098772 0.087649 -0.270245 0.038244 -0.153675 -0.175125 -0.105581 0.729810 0.588334 0.043796 0.459007 -0.189033 -0.043790 0.329730 0.218110 -0.054408
should -0.181228 0.558038 -0.360171 0.054984 0.831697 -0.029501 -0.063859 0.474770 -0.228936 0.485179 0.227151 0.165198 0.046699 -0.539438 -0.202414 -0.366521 0.084252 0.640589 -0.195610 0.296379 0.411023 0.145188 -0.248314 -0.187453 0.861928 -0.724785 -0.185084 0.159241 0.188150 -0.485933 0.090379 -0.727258 -0.096063 0.451572 0.265838 0.059694 -0.031900 0.477537 -0.427918 0.778620 0.802248 -0.053582 -0.246180 -0.233933 0.292917 0.788814 -0.106884 0.031579 0.313856 0.115534
which 0.392647 -0.267143 -0.138272 -0.141114 0.404595 -0.066780 -0.370057 -0.338986 0.089295 -0.020780 -0.118574 0.080365 -0.355599 -0.278685 -0.076760 0.345984 0.486964 0.496428 -0.220456 -0.025335 0.262195 0.242344 0.384724 -0.033069 0.310747 -0.399910 0.115550 -0.108026 0.163403 -0.162311 0.156596 -0.284044 -0.124835 0.028060 -0.289447 0.435166 -0.022991 0.837448 -0.358730 -0.192365 0.233677 -0.044771 -0.273130 -0.336507 0.042078 0.540071 0.558860 0.002772 -0.158885 0.112229
pa 0.078802 -0.328933 0.721670 -0.102663 0.043735 0.271627 -0.098109 0.334104 -0.200122 -0.491106 0.308840 -0.226203 -0.257501 0.088702 0.133856 0.228914 0.280054 -0.016133 0.041544 0.287055 0.524849 0.078644 -0.338526 0.262001 0.204834 -0.214526 -0.141987 -0.227202 0.197957 -0.004355 0.472617 0.275318 -0.652376 -0.073160 -0.465442 0.263855 -0.369722 0.485130 -0.332903 -0.275659 -0.500508 0.549448 0.526614 0.009848 0.238181 0.027800 0.481898 0.265627 -0.020916 -0.114417
nia -0.293684 0.368418 1.042163 0.590591 0.745620 0.377302 -0.904810 1.060885 0.168508 -0.336873 0.730303 -0.565583 0.198801 -0.349157 0.298237 0.256299 -0.018940 0.240651 -0.033918 -0.753993 0.438058 0.818697 -0.586265 0.291527 0.352745 -0.217334 -0.252841 -0.242651 -0.032581 -0.109225 0.105884 0.462295 -0.038703 0.472493 0.076138 -0.706084 -0.597770 0.289093 -0.894179 1.059354 -0.543437 -0.008401 1.272745 0.401841 0.275701 0.332767 0.208405 0.447567 0.804668 -0.090391
NIA -0.018351 0.279892 0.869794 0.355104 0.525688 0.157044 -0.836995 0.565195 0.178100 -0.231055 0.240801 -0.368540 0.098284 -0.184151 0.230405 0.025953 -0.004040 -0.066957 0.058928 -0.609569 0.036707 0.614942 -0.251614 0.156805 -0.013236 -0.040340 -0.048787 -0.086598 0.192395 -0.140052 0.090188 0.326751 0.056694 0.214666 -0.111457 -0.406486 -0.326188 0.152518 -0.629548 0.793168 -0.594213 0.049344 0.705032 0.117327 0.150693 0.179298 0.195007 0.181076 0.649913 -0.206467
health 0.336642 0.071334 0.326206 -0.052981 -0.023899 0.109920 0.135763 0.006513 -0.229967 -0.059205 0.140662 -0.388505 -0.218203 -0.112452 0.062347 0.651947 0.165852 -0.164715 -0.131883 -0.026784 0.107895 -0.324848 0.180404 -0.012471 0.062308 -0.200715 -0.031595 -0.167294 -0.163122 0.276702 0.459346 0.469491 -0.387959 0.112998 -0.153646 0.271885 -0.236209 0.586464 -0.152180 -0.328847 -0.326136 0.421109 -0.062905 -0.155391 0.100159 0.023222 0.041779 0.186846 -0.063728 0.005790
mediclaim 0.535451 -0.378891 0.387295 -0.170391 -0.179779 0.029996 -0.088682 -0.235805 0.055771 -0.215913 0.080154 -0.210553 -0.289461 0.132191 0.138889 0.727444 0.253605 0.012840 -0.052136 -0.083889 0.251612 0.035393 0.101542 0.278994 -0.080000 -0.110885 -0.098901 -0.133304 -0.139184 0.070658 0.471541 0.560604 -0.509781 0.035664 -0.413419 0.374241 -0.156109 0.644020 -0.327665 -0.623133 -0.555966 0.298395 0.136695 -0.130357 -0.117000 0.024399 0.360073 0.260463 -0.146687 -0.077203
on -0.036162 0.116465 -0.104108 -0.106570 0.031214 0.032984 0.187416 0.080745 -0.023789 0.168543 -0.165783 -0.040159 -0.133691 -0.027879 -0.193620 0.150415 0.159625 -0.148069 -0.048889 0.198820 -0.168613 -0.273190 0.226588 -0.299337 -0.150838 -0.195063 0.020039 0.092123 0.016934 -0.053949 0.172096 -0.245529 -0.002496 -0.080635 0.063788 0.195723 0.046345 -0.016965 0.135479 0.051727 0.085172 0.262889 -0.439900 0.063396 0.113152 -0.058904 0.014530 0.027105 -0.101738 0.110499
mean -0.133889 0.618878 -0.388034 0.333360 0.891747 0.010347 -0.739534 0.477712 -0.092238 0.209265 0.393452 -0.239933 0.438619 -0.628454 0.112415 -0.238983 -0.066351 0.680373 0.066442 -0.466688 0.052323 0.636899 -0.146444 -0.083959 0.731451 -0.424045 0.057672 0.031858 0.098882 -0.266869 -0.102928 -0.418096 0.334020 0.572881 0.533672 -0.378905 -0.248739 0.170090 -0.470836 1.157134 0.364807 -0.340753 0.369149 -0.013526 0.265646 0.796705 -0.010441 -0.094410 0.494028 0.031433
covered 0.748216 -0.363315 -0.053472 -0.148018 -0.147026 -0.124700 -0.237112 -0.638847 -0.005080 -0.257240 -0.163376 0.001132 -0.023055 0.043185 -0.026540 0.279768 0.384851 0.291029 0.236006 -0.020596 0.233941 0.214130 0.239730 0.108231 0.186596 -0.142467 0.275674 -0.209775 0.333092 -0.075844 0.174145 0.056506 -0.250865 0.148906 -0.506285 0.445534 0.109199 0.494717 -0.045965 -0.619719 -0.092459 0.128306 -0.033021 -0.367435 -0.029099 0.279565 0.424900 -0.126676 -0.114838 -0.230280
from -0.014741 0.120650 0.096663 -0.036955 -0.051395 0.099814 0.468335 0.201629 -0.168714 0.154384 -0.064021 -0.041516 -0.162411 -0.068759 -0.190882 0.251916 0.039309 -0.323511 -0.159770 0.320796 0.114242 -0.357658 0.035049 -0.131828 0.077274 -0.304856 -0.168646 0.011696 0.001863 0.041805 0.313882 0.107865 -0.218359 0.035344 0.044924 0.221779 -0.014645 0.194407 0.107878 -0.296821 0.094287 0.264243 -0.384222 -0.135828 -0.032351 -0.193050 -0.154455 0.130095 -0.137811 0.138231
accident 0.324668 0.309907 0.222933 -0.019229 -0.106511 0.073840 0.194998 -0.229740 -0.061401 0.406986 -0.290168 -0.012279 -0.109413 0.162158 -0.168647 0.100818 0.182118 -0.199734 0.008270 -0.115241 -0.395260 -0.543289 0.155716 -0.183051 -0.390304 -0.024330 0.048738 -0.087193 0.074208 0.148933 0.072095 0.203167 -0.226326 -0.241240 -0.267573 0.297375 0.013827 -0.115725 0.121958 -0.190560 -0.035611 0.481030 -0.422260 -0.143255 0.103991 -0.264845 -0.159715 0.153584 0.024022 -0.210218
under 0.698847 -0.520835 0.185804 -0.186728 -0.130746 -0.075591 -0.205190 -0.530658 0.047802 -0.327118 -0.091336 -0.087698 -0.161292 0.092723 0.018776 0.529639 0.374952 0.150954 0.116717 0.005421 0.243831 0.163318 0.273199 0.176306 0.026254 -0.112292 0.137427 -0.196258 0.140077 -0.043950 0.338377 0.238889 -0.379160 0.090839 -0.575423 0.462546 -0.020744 0.676325 -0.207292 -0.703578 -0.451524 0.208244 0.036054 -0.289437 -0.042629 0.182232 0.524533 -0.033973 -0.180995 -0.130428
when -0.200985 0.532093 -0.278078 -0.099371 0.431513 0.105479 0.444984 0.465732 -0.306132 0.600943 0.053319 -0.011346 -0.055957 -0.359980 -0.396567 0.032436 0.083093 0.228977 -0.267189 0.409658 0.093561 -0.389633 -0.091873 -0.318733 0.502488 -0.610074 -0.268603 0.183299 -0.095517 -0.204099 0.245548 -0.398591 -0.190975 0.155558 0.257910 0.142125 -0.134161 0.269965 -0.069494 0.317923 0.730745 0.246105 -0.645151 -0.101888 0.247857 0.277843 -0.292422 0.177601 -0.004116 0.199249
am -0.512188 0.539519 -0.378713 -0.244943 0.002491 0.127576 0.694295 0.542754 -0.236646 0.860836 0.187776 0.051977 -0.061722 -0.125303 -0.450286 0.124358 -0.090081 0.387682 -0.495645 0.226125 -0.157375 -0.802998 -0.142222 -0.060550 0.156745 -0.157173 -0.567674 0.165267 -0.680128 -0.015956 -0.009258 -0.193807 -0.173818 -0.335336 0.582142 -0.078538 -0.158800 -0.444932 0.121600 0.220113 0.795182 0.092524 -0.375752 0.337524 0.124902 -0.059144 -0.581692 0.740208 -0.259515 0.259249
any -0.064531 0.005169 0.089594 0.216008 0.441904 0.136624 -0.454288 0.253082 0.260963 -0.205022 0.332991 -0.109004 -0.014574 -0.377478 -0.106422 0.125350 0.178583 0.253480 -0.004879 -0.409849 0.251623 0.645498 0.076323 0.159895 0.416291 -0.383307 0.043094 -0.074474 0.238379 -0.194875 -0.128700 -0.022408 0.209792 0.193182 0.294221 -0.136572 -0.131748 0.393107 -0.488581 0.175414 0.232048 -0.193703 0.207760 -0.046059 -0.006656 0.284450 0.177822 0.012914 0.261989 0.090072
not -0.180805 0.436656 -0.030975 -0.026813 0.483484 0.143519 -0.048114 0.558147 -0.213369 0.346279 0.374428 -0.240087 0.162687 -0.397068 -0.274679 0.205060 0.060749 0.539765 -0.203975 -0.010916 0.011827 -0.175367 -0.066510 -0.135537 0.503117 -0.414162 -0.230212 0.026234 -0.272186 -0.041409 0.115005 -0.169951 -0.051635 0.100833 0.407124 -0.055680 -0.306338 0.235337 -0.243834 0.554319 0.383580 0.162308 0.024043 0.125940 0.325664 0.407333 -0.173062 0.378631 0.198873 0.197963
there 0.201751 -0.218949 0.167394 0.012823 0.425870 0.071012 -0.480395 0.097187 0.045463 -0.543864 0.462762 -0.032607 0.070231 -0.362035 -0.214482 0.052924 0.381399 0.324902 0.223863 -0.048337 0.434896 0.652999 0.139842 0.133164 0.661182 -0.396919 0.321201 -0.193750 0.578889 -0.230509 -0.098785 -0.238817 0.061359 0.032695 0.141200 0.241223 -0.065107 0.628406 -0.425838 -0.215228 0.176725 0.103960 0.138642 -0.281562 0.231269 0.332858 0.400982 -0.142781 0.246129 0.017725
coverage 0.074373 -0.103223 0.254975 0.000129 0.648730 0.108871 -0.278340 0.316382 -0.193562 -0.260840 0.270267 -0.168883 -0.178375 -0.288552 0.043893 0.106776 0.505140 0.137732 0.138853 0.150259 0.104202 0.369504 0.079217 -0.024102 0.331734 -0.586822 -0.007856 -0.047940 0.389780 -0.207588 0.446338 -0.343040 -0.205454 -0.022186 0.020052 0.441883 -0.310756 0.560080 -0.464434 0.117322 -0.071644 0.346174 -0.028935 -0.222434 0.178096 0.356024 0.573414 -0.025344 -0.006715 0.080421
possible -0.429435 -0.093144 0.383163 0.040162 0.265601 0.116423 -0.281019 0.583461 -0.387697 -0.609528 0.601813 0.342530 0.601909 0.273002 -0.167243 -1.171574 0.300333 0.225478 0.770880 0.838314 0.780065 0.471894 -0.844734 0.268766 0.834902 -0.215120 0.196960 -0.119842 1.082974 -0.599780 0.014205 -0.773279 -0.335305 0.191766 -0.343044 0.061154 -0.071207 0.007853 -0.032765 0.304897 0.209575 0.425972 0.719438 -0.102558 0.632828 0.267323 0.326022 -0.557085 0.506523 -0.268133
medical -0.406102 -0.102010 -0.176338 -0.099666 -0.205524 -0.059282 0.395954 0.058548 -0.120793 0.037754 -0.045073 0.169649 -0.044374 0.152208 0.228390 -0.163703 -0.404344 -0.156482 -0.019242 0.090226 -0.227835 -0.339272 -0.066912 0.052872 -0.257437 0.324205 -0.129736 0.087496 -0.230384 0.192591 -0.188028 0.058357 0.196516 -0.125275 0.265000 -0.195471 0.143298 -0.338164 0.260747 -0.006604 0.094078 -0.333200 -0.038820 0.081960 -0.174531 -0.121720 -0.148277 0.050941 -0.308757 0.119901
treatment 0.127590 -0.250392 0.233421 0.107164 0.060367 0.048641 -0.206342 -0.069308 0.077082 -0.330928 -0.020791 -0.131087 -0.140283 -0.041680 0.228249 0.176338 0.118694 -0.198669 0.132366 -0.215871 -0.067151 0.247571 0.130094 0.048796 -0.253020 0.104936 0.097347 -0.087483 0.109974 0.123528 0.063852 0.144143 0.063805 -0.118878 -0.089838 0.122568 -0.051957 0.069433 -0.047663 -0.134710 -0.432396 0.013797 0.128212 -0.050670 -0.114520 -0.096077 0.299432 -0.060264 -0.067650 -0.040205
I -0.530724 0.485947 0.008855 -0.009795 -0.019160 0.180640 0.547260 0.623644 -0.173411 0.423034 0.221869 0.090007 0.073676 -0.000647 -0.291944 -0.071109 -0.187961 0.034977 -0.241905 0.373149 0.264934 -0.380611 -0.527542 0.066690 0.322600 -0.129125 -0.436472 0.077266 -0.086979 -0.122748 0.102334 -0.038756 -0.305258 -0.015080 0.396201 -0.148431 -0.055858 -0.332719 0.088527 0.150972 0.519820 0.231421 -0.116967 0.053839 0.099743 -0.155406 -0.487159 0.443559 0.054580 0.133057
pay -0.380669 0.266969 0.018393 0.124071 0.486888 0.063767 0.252258 0.496473 -0.323650 0.228326 0.192245 0.099051 0.055623 -0.067943 0.072080 -0.350540 0.003251 0.096823 -0.022677 0.324824 -0.007780 -0.272448 -0.246201 -0.164119 0.167208 -0.373225 -0.109426 0.068488 0.048540 -0.090813 0.187005 -0.498390 -0.183276 0.197196 0.037978 -0.066532 -0.071067 0.101289 -0.074537 0.547795 0.369227 0.170342 -0.085232 0.007485 0.195095 0.294942 0.036694 -0.048744 0.022039 0.088550
agent 0.147624 -0.031905 0.461571 0.024326 -0.050727 -0.005740 -0.407638 -0.194320 0.179810 -0.135992 -0.138250 0.018549 0.008198 0.274143 0.020651 -0.254655 0.143118 -0.316800 0.214049 -0.198014 -0.342442 0.122107 0.052425 0.154392 -0.456233 0.267807 0.170963 -0.009265 0.331578 -0.083373 -0.013592 0.124882 0.037752 -0.207981 -0.331234 0.091005 0.035983 -0.177628 -0.089070 0.039157 -0.512412 0.216407 0.049237 -0.117848 0.041023 -0.200975 0.115770 -0.162343 0.293609 -0.256502
amount 0.088474 -0.087628 -0.278796 -0.162479 0.317239 -0.120869 0.078426 -0.160907 -0.151105 0.101147 -0.436041 0.129544 -0.080385 -0.114418 -0.069770 -0.214030 0.322442 0.017738 0.088860 0.348880 -0.285920 0.008357 0.286491 -0.345920 -0.008267 -0.415645 0.113989 0.242382 0.301253 -0.165502 0.173284 -0.598402 0.127376 -0.108011 -0.154097 0.427750 0.080226 0.238370 0.037636 0.119748 0.300506 0.134297 -0.642204 -0.182472 0.097531 0.141744 0.282774 -0.317236 -0.221504 0.075628
cashless 0.059213 -0.133779 0.175781 0.009690 -0.197106 0.078071 0.061999 -0.055933 0.051737 -0.252745 0.064568 -0.128839 -0.141372 0.006858 0.135918 0.134637 -0.051639 -0.286066 0.129575 -0.032021 -0.051656 0.056210 0.045824 0.066531 -0.173937 0.139206 0.056882 -0.086093 0.006846 0.128337 -0.000346 0.278686 0.072770 -0.111366 0.013770 0.105043 -0.077531 -0.045324 0.093947 -0.286054 -0.336843 0.032847 0.045310 -0.073380 -0.165491 -0.280970 0.024045 -0.087792 -0.025072 -0.050486
insured 0.109284 -0.182085 -0.431542 -0.185703 0.073448 -0.131269 -0.084920 -0.389578 -0.016563 -0.026194 -0.383393 -0.026250 -0.104527 -0.124402 0.077411 -0.079044 0.187572 0.133551 -0.037499 0.043918 -0.219518 0.180000 0.252388 -0.124493 0.054991 -0.111167 0.242507 0.162825 0.061636 -0.064721 -0.027143 -0.332158 0.249293 -0.006118 -0.093207 0.239528 0.108733 0.174201 0.032618 0.002666 0.272800 -0.144398 -0.443982 -0.129585 0.066894 0.181055 0.163176 -0.368047 -0.171142 0.069767
online -0.007579 -0.007401 0.014670 -0.134450 -0.328357 0.014049 0.294905 -0.068211 -0.017753 0.147727 -0.095781 0.038065 -0.150664 0.227316 -0.071488 0.057315 -0.005568 -0.209970 -0.059862 0.204050 -0.029285 -0.315125 -0.017821 0.074427 -0.169558 0.066998 -0.143228 0.068944 -0.073656 0.073446 0.047870 0.183987 -0.173834 -0.136655 -0.048151 0.131356 0.087989 -0.145173 0.148228 -0.319084 -0.022029 0.147651 -0.157984 -0.017486 -0.082129 -0.277735 -0.180611 0.106732 -0.150833 -0.008844
period 0.112186 -0.560695 0.110006 -0.222551 0.179797 -0.005258 -0.079393 -0.079810 -0.091164 -0.329428 -0.029452 0.031102 -0.263165 0.069599 0.072501 -0.016179 0.317794 -0.017608 0.074585 0.300775 0.092015 0.149915 0.118935 -0.043697 -0.048253 -0.133516 0.036781 0.014720 0.169373 -0.031582 0.220556 -0.268456 -0.155223 -0.210177 -0.284556 0.377035 -0.045352 0.399237 -0.156735 -0.136991 -0.350312 0.137474 -0.013702 -0.096973 0.072307 0.138128 0.484807 -0.131603 -0.175364 0.137166
case 0.377164 0.182415 0.304661 -0.042549 0.111694 0.093014 0.208984 -0.012554 -0.341405 0.017877 -0.135767 -0.016144 -0.066046 -0.081291 -0.168502 0.192637 0.331539 -0.084494 0.147912 0.248619 -0.002172 -0.366115 0.080308 -0.292370 0.076969 -0.361319 0.217637 -0.173374 0.389228 0.132868 0.319612 -0.026582 -0.363525 -0.041845 -0.350171 0.421795 -0.071337 0.285778 0.090421 -0.227686 0.036376 0.612562 -0.375927 -0.315229 0.335212 -0.015209 0.104224 0.093154 0.060321 -0.190878
exam 0.061248 -0.369576 0.052603 -0.129010 -0.097559 -0.002839 0.146887 -0.230214 0.044609 -0.113855 -0.181797 0.144719 -0.278793 0.204943 0.037435 -0.021467 0.159529 -0.264705 0.005578 0.208195 -0.173791 -0.106026 0.179098 -0.041273 -0.294661 0.069500 0.072491 0.042691 0.042852 0.037612 0.114034 -0.162043 -0.077220 -0.261948 -0.254834 0.275101 0.058080 0.071961 0.039832 -0.243989 -0.195286 0.113544 -0.270197 -0.052301 -0.096131 -0.119173 0.245547 -0.104154 -0.265961 0.061383
much -0.135102 0.593437 -0.198426 0.272477 0.666697 -0.227388 -0.212107 0.486875 -0.135615 0.140611 0.225136 0.162002 0.743784 -0.639018 -0.407205 -0.704592 -0.359989 0.307015 0.149549 0.406805 0.189166 0.627630 -0.257857 -0.476212 0.943813 -0.423439 -0.116256 0.414572 0.431485 -0.633301 -0.219821 -0.622933 0.388775 0.633165 0.194813 -0.304182 -0.010512 0.271222 -0.133959 0.863747 0.593677 -0.319407 -0.122025 -0.179789 0.249526 0.617840 -0.261078 -0.466691 0.631617 0.038221
available 0.250867 -0.656704 0.027719 -0.049033 -0.042081 -0.117602 -0.416792 -0.526642 0.267638 -0.435264 -0.084663 0.030039 -0.292973 0.126653 0.248142 0.135103 0.291351 -0.013598 0.098345 -0.190176 -0.070043 0.435013 0.353942 0.209591 -0.299261 0.180573 0.188649 -0.086657 0.171326 0.014127 -0.066959 -0.006882 0.167384 -0.215359 -0.262997 0.232875 0.051291 0.270766 -0.163639 -0.362578 -0.425757 -0.225864 0.129182 -0.146800 -0.239636 0.078870 0.542089 -0.234943 -0.223143 0.041843
policies 0.187016 -0.292623 0.125441 0.080295 0.311427 -0.044767 -0.426043 -0.208879 0.091060 -0.296154 0.112936 -0.164369 -0.200865 -0.104681 0.218723 0.221856 0.291056 0.055151 0.045469 -0.233746 -0.048089 0.378270 0.317195 0.048196 -0.030062 -0.122356 0.171264 -0.108414 0.138282 0.033281 0.096229 -0.032576 0.103003 0.011817 -0.165209 0.174750 -0.141162 0.564374 -0.335042 0.010222 -0.329090 -0.101916 0.107354 -0.207109 -0.073458 0.299037 0.464333 -0.219399 -0.060734 0.072223
discount -0.203643 0.158410 -0.002383 -0.112836 -0.022186 0.131678 0.283325 0.320397 -0.062487 0.189188 0.118658 -0.009165 -0.099582 0.006500 -0.273994 0.060864 0.144774 -0.074637 -0.050654 0.248864 0.094400 -0.271940 -0.043458 -0.032419 0.102842 -0.286420 -0.152809 0.021828 0.069703 -0.054620 0.136119 -0.105599 -0.162771 -0.159707 0.250258 0.155841 0.016059 -0.087304 0.014854 -0.161763 0.308206 0.294348 -0.317978 0.016065 0.088076 -0.163217 -0.151086 0.221034 -0.114732 0.078507
age 0.377436 -0.609477 -0.177586 -0.129615 0.090034 -0.126370 -0.329666 -0.559200 0.023318 -0.489080 -0.335580 0.158210 0.026990 0.075585 0.104977 -0.218765 0.265973 -0.007985 0.327753 0.070647 -0.174870 0.328226 0.352211 -0.150598 -0.178030 0.051557 0.461605 -0.056001 0.415757 -0.006676 -0.029516 -0.344773 0.187953 -0.207606 -0.332301 0.340851 0.135662 0.176109 0.079979 -0.173298 -0.264751 0.043689 -0.060730 -0.152547 0.046706 0.060147 0.549094 -0.435809 -0.137507 -0.028694
allow -0.276558 0.263016 0.488922 0.418695 0.586048 0.175006 -0.733779 0.635157 0.024177 -0.357702 0.547498 -0.253351 0.328091 -0.208677 0.314920 -0.277853 -0.032116 0.279845 0.176201 -0.408304 0.314381 0.719162 -0.500163 0.256832 0.385467 -0.127742 0.034115 -0.145292 0.208282 -0.222125 -0.010400 0.026670 0.052557 0.432080 0.025856 -0.542672 -0.366205 0.101768 -0.566405 0.906448 -0.245079 -0.082383 1.005580 0.206086 0.332626 0.386565 0.194611 0.003580 0.650695 -0.136478
give -0.290124 0.375642 0.205163 0.350141 0.576876 0.175838 -0.361343 0.639037 -0.024146 0.013601 0.455486 -0.313147 0.048438 -0.319155 0.332479 0.098763 -0.053274 0.240916 -0.093298 -0.428200 0.071233 0.350262 -0.271424 0.112597 0.229555 -0.293728 -0.210126 -0.068839 -0.106586 -0.056081 0.123904 0.093668 0.028671 0.301228 0.356507 -0.366147 -0.375650 0.110321 -0.487394 0.779058 0.044115 -0.134450 0.511233 0.107085 0.057075 0.353333 0.080010 0.204137 0.291842 0.029249
time 0.226854 -0.167452 -0.166412 0.007995 0.375501 -0.193081 -0.365204 -0.111353 -0.125418 -0.266329 -0.109144 0.103573 0.291478 -0.212058 -0.020890 -0.404279 0.066323 0.263568 0.280586 0.246411 0.093832 0.461777 0.027357 -0.280897 0.332580 -0.177393 0.195950 0.152817 0.433499 -0.285081 -0.017590 -0.523335 0.155287 0.241714 -0.280626 0.076740 0.045012 0.311706 -0.087555 0.389670 -0.048944 -0.132008 0.050068 -0.143357 0.208073 0.494481 0.324953 -0.424559 0.222901 -0.017970
where -0.346401 0.635699 -0.023068 0.135242 0.496803 0.116472 0.126036 0.669279 -0.231016 0.419014 0.290727 -0.075205 0.146368 -0.381576 -0.183274 -0.067537 -0.107788 0.244079 -0.193490 0.142760 0.153577 -0.100017 -0.302800 -0.149859 0.499149 -0.475319 -0.293639 0.122317 -0.059886 -0.196263 0.134388 -0.202074 -0.068313 0.288775 0.416675 -0.167463 -0.180528 0.141311 -0.174154 0.621600 0.486924 0.106351 -0.087230 0.024014 0.246136 0.311816 -0.342823 0.187874 0.265724 0.117938
with -0.016657 0.112000 0.245991 -0.006119 -0.124411 0.139183 0.169207 0.185974 -0.067846 0.049584 0.207165 -0.163276 -0.157661 0.017265 0.051674 0.297286 -0.073134 -0.097859 -0.127425 -0.093895 0.112203 -0.224425 -0.102223 0.119806 -0.008321 -0.001826 -0.078729 -0.120233 -0.182404 0.182373 0.105192 0.319298 -0.229385 -0.075705 0.071662 -0.012376 -0.098778 0.018726 -0.076032 -0.186552 -0.147989 0.200008 0.087585 0.052675 0.035971 -0.217162 -0.149820 0.263964 0.002535 -0.007946
at -0.144897 0.171201 -0.663739 -0.230744 -0.210368 -0.188916 0.367777 -0.086183 0.067845 0.641250 -0.338427 0.174026 0.002220 0.082359 -0.215065 0.010967 -0.043452 0.248022 -0.341270 -0.037960 -0.466944 -0.509627 0.251921 -0.195331 -0.323219 0.208743 -0.229787 0.313079 -0.602107 -0.000373 -0.225648 -0.347831 0.121729 -0.307884 0.212703 -0.227125 0.081835 -0.619564 0.309930 0.212554 0.533890 -0.277161 -0.387414 0.381518 -0.146470 -0.008469 -0.288975 0.307602 -0.386856 0.098351
meant 0.195774 0.280683 -0.297290 0.120497 0.966010 -0.006812 -0.838597 0.274288 -0.256266 -0.134310 0.339016 -0.188385 0.431739 -0.564023 0.049939 -0.270985 0.294027 0.728679 0.334950 -0.130807 0.169373 0.746370 -0.041753 -0.140277 0.891722 -0.564294 0.313830 -0.051856 0.546224 -0.390891 0.098298 -0.717131 0.154577 0.522887 0.176408 0.093034 -0.241112 0.536587 -0.498585 0.844583 0.154417 -0.042385 0.277745 -0.238180 0.464926 0.913463 0.386100 -0.362938 0.407537 -0.033946
injury -0.177117 0.379113 -0.108270 -0.138422 -0.218930 0.034597 0.465805 0.030918 -0.021313 0.613419 -0.141625 0.193718 -0.073075 0.271660 -0.297995 -0.223126 0.038431 -0.151010 -0.107674 0.175904 -0.358830 -0.683335 -0.031248 -0.075627 -0.362449 0.063593 -0.158314 0.117180 -0.121581 -0.031981 -0.037683 -0.084923 -0.172232 -0.274628 0.044242 0.106766 0.097523 -0.493019 0.258965 -0.053395 0.390871 0.296331 -0.487434 0.072393 0.070935 -0.313946 -0.392477 0.151822 -0.076652 -0.059126
need -0.558541 0.513020 0.284321 0.083337 0.614366 0.242890 0.244325 0.924793 -0.484437 0.264032 0.505900 0.039080 0.115117 -0.175650 -0.156162 -0.348191 0.059298 0.236650 -0.046458 0.512487 0.338075 -0.332475 -0.578358 -0.063769 0.562897 -0.611653 -0.233726 0.015747 0.195650 -0.214363 0.327820 -0.434246 -0.402360 0.183960 0.117721 -0.000848 -0.255994 0.182734 -0.221486 0.626652 0.405421 0.503440 0.059839 0.019018 0.555005 0.286213 -0.109026 0.177152 0.294198 0.079503
floater 0.343243 -0.360313 0.264094 -0.197052 -0.667599 0.029021 0.265794 -0.344918 0.070825 -0.179172 -0.028070 -0.061353 -0.281740 0.312827 0.101742 0.563992 -0.013004 -0.153676 -0.130743 -0.034814 0.186109 -0.252328 -0.017440 0.309793 -0.283091 0.285373 -0.115319 -0.138292 -0.301599 0.276963 0.214158 0.714205 -0.440404 -0.182637 -0.315899 0.196411 -0.001208 0.069337 0.039818 -0.893161 -0.360844 0.187572 0.111004 0.034724 -0.228716 -0.384824 0.025480 0.369158 -0.241919 -0.110763
meaning 0.252129 -0.014286 0.105534 -0.053991 0.809091 0.002802 -0.293369 0.170503 -0.304578 -0.174151 -0.068410 0.033081 0.120602 -0.317393 -0.152419 -0.242147 0.537568 0.178237 0.281253 0.473656 0.008246 0.231381 0.158358 -0.441303 0.421593 -0.694785 0.262652 0.045477 0.686227 -0.318089 0.370393 -0.802669 -0.112035 0.087196 -0.262186 0.484874 -0.144477 0.644632 -0.233144 0.419467 0.056625 0.482015 -0.331838 -0.309923 0.486497 0.536523 0.553639 -0.316266 0.188841 0.013818
who 0.112619 -0.149631 -0.082500 -0.055986 0.210328 -0.078888 -0.197567 -0.071790 -0.036850 -0.188849 -0.064601 0.100403 0.143066 -0.076281 -0.118666 -0.203285 0.189667 0.134053 0.177597 0.215669 0.054139 0.254947 0.095534 -0.151853 0.238034 -0.140677 0.161251 0.080374 0.313149 -0.162043 0.016283 -0.408027 0.083931 0.005984 -0.104049 0.125077 0.007089 0.193531 -0.027225 0.121132 0.104110 0.016683 -0.073013 -0.111232 0.107806 0.216636 0.256563 -0.275568 0.053386 0.010204
required -0.144428 -0.258244 0.040418 -0.007954 0.224390 -0.010757 -0.291993 0.037681 -0.117606 -0.368956 0.250913 0.239775 0.198422 0.144429 -0.042245 -0.562063 0.295535 0.219971 0.355787 0.329501 0.239991 0.301482 -0.149130 0.181090 0.300075 -0.088970 0.241080 -0.097534 0.514515 -0.273022 -0.036877 -0.489823 -0.044454 -0.001123 -0.185898 0.168424 0.031298 0.142622 -0.076505 0.024915 0.098892 0.080503 0.270772 -0.107686 0.242436 0.235619 0.381288 -0.397949 0.106001 -0.034591
different 0.299420 -0.482084 0.058840 -0.058859 0.035569 -0.047619 -0.248829 -0.372843 0.077212 -0.372297 -0.056687 -0.008726 -0.262521 -0.016506 0.122667 0.229576 0.279634 -0.018184 0.067640 -0.084499 0.054582 0.236039 0.300977 0.067451 -0.061851 -0.022341 0.213360 -0.163038 0.143469 0.050791 0.105564 0.008543 0.011711 -0.131770 -0.236471 0.303722 0.012358 0.429772 -0.129618 -0.402792 -0.300156 -0.012165 -0.033268 -0.185824 -0.119232 0.107999 0.494838 -0.125707 -0.201350 0.048085
hospital 0.192851 -0.143570 -0.088379 0.059867 -0.035102 -0.120949 -0.299181 -0.266100 0.173975 -0.128095 -0.149271 -0.073533 0.044987 -0.048830 0.103233 0.104884 -0.042219 0.028635 0.023080 -0.350269 -0.091987 0.237265 0.180115 0.002136 -0.115141 0.196873 0.136690 -0.022423 -0.074303 0.052461 -0.128957 0.104515 0.192538 0.019270 -0.024417 -0.127065 0.018134 -0.064112 -0.041407 0.008954 -0.201751 -0.210120 0.124211 0.083600 -0.085250 -0.016981 0.089811 -0.055015 0.025114 -0.010886
injured -0.309381 0.549913 -0.564883 -0.230414 -0.366441 0.020816 0.732874 0.186362 -0.026266 0.988118 -0.133447 0.092995 -0.088508 0.048931 -0.407979 0.206625 -0.180980 0.231908 -0.517677 -0.020628 -0.332947 -0.884934 0.025115 -0.096942 -0.182582 0.105074 -0.499436 0.186576 -0.793210 0.083511 -0.167849 0.013591 -0.073838 -0.330151 0.475527 -0.211829 0.007567 -0.740005 0.336364 0.043777 0.801606 -0.083451 -0.486196 0.390580 -0.130181 -0.228311 -0.708901 0.719359 -0.389725 0.106372
sum 0.152279 -0.271230 -0.345792 -0.124620 0.062281 -0.170138 -0.198424 -0.452446 0.072428 -0.149995 -0.415739 -0.004616 -0.052919 -0.070593 0.130945 -0.119711 0.175512 0.117856 0.009449 -0.041265 -0.202978 0.319929 0.235251 -0.082748 -0.000508 -0.027623 0.293911 0.146084 0.124718 -0.095711 -0.081539 -0.303468 0.296031 0.011974 -0.178163 0.164816 0.128178 0.162213 0.002924 0.038000 0.172481 -0.212231 -0.299536 -0.106870 0.040970 0.172338 0.251221 -0.422436 -0.104187 0.040313
make -0.395058 0.363240 0.379937 0.170358 0.286120 0.246529 0.084217 0.670106 -0.147381 0.055370 0.496111 -0.008971 0.187490 -0.072812 -0.173219 -0.203182 -0.004391 0.041848 0.040951 0.179188 0.264383 -0.056933 -0.404927 0.030334 0.298424 -0.251586 -0.125809 -0.104890 0.077748 -0.074613 0.055563 -0.070639 -0.185397 0.087812 0.178336 -0.184004 -0.166125 -0.057769 -0.173575 0.283688 0.185370 0.283571 0.201019 0.098873 0.292738 0.003576 -0.186106 0.176379 0.314867 0.007244
up -0.119302 -0.142819 0.095190 -0.223217 -0.604317 0.037480 0.333819 0.000302 0.030534 0.024768 -0.139971 0.006904 -0.240416 0.257094 0.170680 0.213182 -0.520642 -0.357700 -0.167774 -0.049361 0.066703 -0.370169 -0.165520 0.265662 -0.380935 0.454886 -0.243290 0.001451 -0.337428 0.297199 -0.126940 0.675283 -0.052641 -0.156818 0.092015 -0.199832 0.157093 -0.335068 0.251919 -0.455003 -0.281395 -0.241671 0.162926 0.116336 -0.278247 -0.420217 -0.344296 0.387464 -0.248672 -0.009670
me -0.368715 0.219797 0.213514 0.210614 0.300333 0.134675 -0.116042 0.539997 -0.158800 -0.103737 0.468677 -0.063571 0.160284 -0.051411 0.221011 -0.265654 -0.092945 0.119712 0.055234 -0.030405 0.231849 0.141262 -0.454140 0.200397 0.261435 -0.102975 -0.079854 -0.069720 0.067997 -0.108901 0.066982 -0.070407 -0.134206 0.187919 0.125256 -0.305607 -0.210405 -0.027299 -0.249036 0.496410 0.057127 0.037364 0.549992 0.101848 0.219123 0.169142 -0.013418 0.043524 0.279849 -0.017912
settlement 0.232435 -0.095710 0.049080 -0.058007 -0.158896 -0.040183 0.098297 -0.276124 -0.037967 -0.115503 -0.275288 0.067010 -0.063177 0.067623 -0.043953 0.083283 0.077436 -0.202844 0.100355 0.052835 -0.136240 -0.076067 0.154648 -0.138809 -0.169578 0.049866 0.196760 -0.049768 0.188533 0.121902 0.015615 0.047203 0.032534 -0.141815 -0.186835 0.182479 0.081655 -0.062843 0.169719 -0.265173 -0.094238 0.124208 -0.256494 -0.140258 0.029121 -0.224059 0.057833 -0.058139 -0.040466 -0.107557
tpa -0.005307 0.093090 -0.169643 0.033261 -0.053635 -0.062160 0.115269 -0.084029 0.050904 0.176463 -0.179817 0.084082 -0.002267 -0.044790 -0.039001 0.022007 -0.155270 -0.057374 -0.084169 -0.040825 -0.069436 -0.111384 0.081987 -0.150045 -0.065955 0.023618 0.002991 0.080813 -0.129209 0.017967 -0.034986 0.013202 0.130222 0.015867 0.091538 -0.086466 0.097961 -0.069600 0.054798 0.059298 0.129548 -0.131101 -0.184031 0.027931 -0.057715 -0.032886 -0.144715 0.002441 -0.055577 0.030431
after -0.058027 0.036161 -0.002060 -0.114004 -0.088464 0.045409 0.329068 0.017278 -0.040800 0.204516 -0.161650 0.057323 -0.202589 0.051707 -0.134274 0.035383 0.072698 -0.090633 -0.119178 0.186835 -0.088783 -0.299808 0.023339 -0.078426 -0.086370 -0.117281 -0.140287 0.070909 -0.050175 0.031479 0.094740 -0.030783 -0.073437 -0.157319 -0.034348 0.150400 -0.006170 -0.071558 0.105339 -0.150143 0.108838 0.146468 -0.309545 0.016057 -0.031242 -0.168158 -0.037444 0.073834 -0.199436 0.024518
and 0.194200 -0.264523 -0.178896 -0.109277 -0.243018 -0.097352 -0.051733 -0.383211 0.082269 -0.093076 -0.285719 0.078973 0.039823 0.076112 0.011270 -0.001555 -0.096359 -0.057565 0.034754 -0.002882 -0.095509 0.033400 0.160157 -0.085713 -0.198078 0.199810 0.056023 0.033606 0.003224 0.047097 -0.099391 0.065608 0.135402 -0.072202 -0.142205 0.078825 0.129090 -0.079422 0.174264 -0.189761 -0.164030 -0.149991 -0.063567 -0.043278 -0.130744 -0.093136 0.028210 -0.112400 -0.099383 -0.014207
documents 0.295454 -0.125457 -0.531180 -0.040142 0.385438 -0.250367 -0.513334 -0.464931 0.227026 0.045891 -0.290267 0.196107 -0.025487 -0.272877 -0.053936 -0.102753 0.191633 0.566215 -0.110303 -0.160798 0.041876 0.466019 0.363168 -0.097843 0.292837 -0.175908 0.215917 0.058184 0.158907 -0.288196 -0.192019 -0.468005 0.336828 0.196360 -0.056743 0.133523 0.170414 0.418473 -0.228154 0.190776 0.355926 -0.482163 -0.207035 -0.225995 -0.052490 0.571869 0.348321 -0.247682 -0.021421 0.073123
family 0.022390 -0.059515 0.020433 -0.100118 -0.360907 0.045382 0.259962 -0.062650 -0.012004 0.004286 0.094234 -0.010348 -0.119605 0.103522 0.000074 0.281414 -0.084515 -0.019794 -0.150654 0.043285 0.127090 -0.222476 -0.083075 0.188471 -0.073394 0.148971 -0.133188 -0.072964 -0.230507 0.164105 0.064111 0.341872 -0.232210 -0.142934 0.069664 0.073970 -0.017025 -0.093693 0.069779 -0.496732 0.000479 0.091319 0.009108 0.058230 -0.115987 -0.252852 -0.146178 0.287880 -0.145212 0.011998
long -0.131198 0.000941 0.266047 0.301611 0.112874 -0.110365 -0.369359 0.265839 0.195661 -0.246764 0.421556 -0.103065 0.338307 -0.235176 0.042515 -0.143736 -0.416832 -0.052744 0.028890 -0.082841 0.174259 0.721627 -0.127468 0.064959 0.324822 0.171178 -0.043796 0.116284 -0.000506 -0.180308 -0.204526 0.228892 0.329745 0.291298 0.172596 -0.379719 -0.095532 0.101726 -0.201910 0.310659 -0.282371 -0.399036 0.496365 0.032915 -0.111766 0.071651 -0.126187 -0.162152 0.364370 0.010998
that -0.020751 -0.083223 -0.156037 -0.105701 0.219938 -0.029639 0.021093 0.009318 -0.094597 -0.006274 0.023244 0.258313 -0.053126 -0.021718 -0.216382 -0.195491 0.248847 0.215127 0.023135 0.386484 0.202525 -0.027720 0.014433 -0.071486 0.292751 -0.274412 0.041873 -0.004248 0.279118 -0.251150 0.059840 -0.473651 -0.098107 -0.008224 -0.092518 0.278567 0.038749 0.277286 -0.047836 -0.043219 0.329424 0.114623 -0.250853 -0.164329 0.158208 0.270544 0.219043 -0.129792 -0.065817 0.078598
while -0.213770 0.162276 -0.085747 -0.054027 -0.057574 0.038166 0.352470 0.186729 -0.091598 0.260736 0.069629 0.074419 -0.079992 0.051471 -0.094217 -0.037794 -0.061862 -0.042736 -0.136953 0.192540 -0.027931 -0.396386 -0.103088 -0.050143 -0.051524 -0.022877 -0.162023 0.045985 -0.191067 0.029451 0.049711 -0.013584 -0.093650 -0.057158 0.127935 -0.002084 0.024961 -0.151054 0.086698 0.003706 0.210341 0.111526 -0.175142 0.088570 0.072464 -0.115080 -0.208596 0.127175 -0.088840 0.072199
portability 0.182610 -0.262668 0.069765 0.027380 0.178362 -0.050913 -0.361852 -0.186741 0.089420 -0.264108 0.029512 -0.091355 -0.040474 -0.069399 0.156052 0.094767 0.141736 0.074392 0.119553 -0.151874 -0.013022 0.383730 0.187185 0.025397 -0.025287 -0.013013 0.127099 -0.038314 0.092874 -0.031537 0.064928 -0.018951 0.077734 0.031254 -0.136711 0.101700 -0.064540 0.249941 -0.202619 0.005424 -0.312839 -0.082051 0.162028 -0.083008 -0.023287 0.166508 0.349022 -0.165228 0.007974 -0.036620
taking 0.132897 -0.423849 0.409446 -0.086452 -0.102686 0.079765 -0.143364 -0.082574 0.064128 -0.384651 0.015287 -0.158634 -0.303972 0.140046 0.217625 0.262626 0.159487 -0.226220 0.002760 -0.046785 0.060236 0.160892 0.055660 0.161144 -0.200400 0.102227 0.011027 -0.101648 0.012294 0.108169 0.208077 0.270970 -0.167257 -0.150031 -0.252607 0.186025 -0.159556 0.217967 -0.165785 -0.298106 -0.594279 0.143868 0.223159 -0.000455 -0.054750 -0.103091 0.371420 0.048195 -0.123486 -0.048462
benefits 0.282732 -0.195134 -0.380702 -0.023977 -0.049889 -0.148451 -0.128657 -0.414264 0.188152 0.033581 -0.408889 0.031324 -0.068418 -0.097082 0.064802 0.203965 -0.027350 0.095377 -0.131138 -0.236282 -0.206344 0.117603 0.371855 -0.124007 -0.185607 0.057339 0.099538 0.063862 -0.150580 0.070548 -0.104208 -0.011588 0.260437 0.008083 -0.036056 -0.006026 0.108704 0.068335 0.073283 -0.063499 0.016128 -0.347897 -0.200873 -0.022395 -0.236678 0.066135 0.078012 -0.069239 -0.187329 0.129882
know -0.329715 0.367609 -0.451762 0.021131 0.327648 -0.079676 0.318569 0.314365 -0.128379 0.478992 -0.058307 0.270493 0.176188 -0.177292 -0.304031 -0.444025 -0.132552 0.324424 -0.188424 0.353157 0.055645 -0.270760 -0.142894 -0.256493 0.307253 -0.348749 -0.243236 0.243207 -0.032253 -0.272135 -0.040717 -0.582343 0.054941 0.117108 0.184970 -0.115784 -0.002960 -0.084888 0.052465 0.620766 0.711904 -0.078047 -0.337153 0.072970 0.192217 0.357245 -0.209712 0.014480 -0.034847 0.180102
payment 0.011463 0.030636 0.136248 0.081279 0.224774 0.025010 0.028117 0.076267 -0.079712 -0.054992 -0.149545 0.047022 0.054829 0.001850 0.010522 -0.126421 0.136370 -0.118202 0.120973 0.170681 -0.094873 0.019728 0.039314 -0.221580 -0.044886 -0.211809 0.097631 0.030790 0.211841 -0.004599 0.121196 -0.235661 -0.013420 -0.022532 -0.137882 0.117974 -0.011274 0.048785 0.036974 0.139827 0.023613 0.195665 -0.179455 -0.045445 0.071062 -0.018011 0.167959 -0.121619 0.032441 -0.002303
provide -0.185251 0.271565 0.271275 0.382287 0.411153 0.091616 -0.551050 0.437180 0.121234 -0.122193 0.317555 -0.325600 0.099807 -0.237975 0.360872 0.083946 -0.149857 0.148684 -0.047664 -0.635809 0.040586 0.529364 -0.217508 0.168607 0.101069 0.001222 -0.107092 -0.060724 -0.120741 -0.016183 -0.033231 0.238688 0.186398 0.292091 0.265736 -0.504550 -0.261561 0.010213 -0.463029 0.748240 -0.188194 -0.295763 0.660203 0.179957 -0.026595 0.240572 0.056466 0.150753 0.366139 -0.038091
this -0.023170 -0.014896 0.455522 -0.004578 0.031750 0.153372 -0.067903 0.371613 -0.025423 -0.127089 0.268528 -0.181095 -0.101064 -0.031634 0.046663 0.279165 0.011679 -0.028808 -0.087542 0.049634 0.345774 0.102286 -0.271167 0.169775 0.188662 -0.080165 -0.197775 -0.106877 -0.035233 -0.023026 0.203929 0.309847 -0.305673 0.064244 -0.066634 -0.024619 -0.210674 0.238899 -0.253215 -0.054225 -0.336274 0.180461 0.344069 0.050238 0.084581 -0.035781 0.037788 0.261930 0.147169 -0.017045
work -0.222753 0.272569 -0.604496 -0.157203 -0.479472 -0.164180 0.551492 -0.128519 0.129617 0.682879 -0.316055 0.132484 -0.035817 0.122395 -0.147553 0.137748 -0.274795 -0.008854 -0.411754 -0.157012 -0.453821 -0.605142 0.196847 -0.105971 -0.471368 0.421328 -0.298570 0.280982 -0.790517 0.168601 -0.318322 0.033263 0.166451 -0.255865 0.347094 -0.391144 0.142485 -0.806919 0.449835 0.002728 0.466443 -0.366839 -0.387901 0.390998 -0.311199 -0.281174 -0.592895 0.363035 -0.396670 0.082472
fire 0.073159 -0.231333 0.365215 -0.056547 -0.166717 0.068026 0.027486 0.012997 -0.012928 -0.248418 0.184474 -0.178699 -0.194645 0.123007 0.130838 0.330616 0.041788 -0.215333 -0.014466 -0.002544 0.145544 -0.029360 -0.006633 0.173996 -0.113273 0.079318 -0.014934 -0.163490 -0.057783 0.183100 0.148229 0.323140 -0.222740 -0.093645 -0.134923 0.100526 -0.108098 0.211742 -0.085117 -0.369174 -0.435658 0.183482 0.165972 -0.040248 -0.020769 -0.188338 0.107330 0.090542 -0.067249 -0.013740
mandatory -0.226650 -0.183112 0.099746 0.031523 -0.062455 -0.011841 -0.125618 0.077483 -0.095033 -0.337308 0.237460 0.204487 0.283251 0.229908 -0.010050 -0.586529 0.034054 0.000054 0.387678 0.273952 0.232306 0.227015 -0.267091 0.170850 0.185719 0.152168 0.140749 -0.037380 0.394590 -0.194161 -0.161097 -0.285584 0.017031 -0.006809 -0.105619 -0.047062 0.079124 -0.182984 0.119981 0.010441 0.010403 0.014214 0.373359 -0.011246 0.124476 0.011100 0.113036 -0.362789 0.133009 -0.131382
one 0.064679 0.103546 0.065275 0.119852 0.067967 -0.064917 -0.112340 0.009052 0.068782 0.047881 -0.125128 -0.089810 0.133075 -0.133504 -0.022511 0.017723 -0.170805 -0.042680 -0.037433 -0.123462 -0.002381 0.168835 0.015165 -0.149187 0.024010 0.007116 -0.027268 0.063815 -0.027410 -0.014202 -0.027691 0.103039 0.156687 0.140610 -0.011261 -0.182506 -0.002988 0.038619 -0.005777 0.248378 -0.048541 -0.153336 0.027839 0.032565 -0.029841 0.054587 -0.075639 -0.037305 0.133959 -0.002177
expenses 0.038953 -0.151791 -0.131503 0.041575 -0.176254 -0.082734 0.029592 -0.247500 0.117630 -0.058115 -0.270684 -0.011666 -0.023136 0.066144 0.179160 0.056053 -0.136442 -0.185219 0.016541 -0.189678 -0.240862 0.024916 0.180937 -0.040928 -0.325905 0.273990 0.065161 0.067170 -0.108632 0.163660 -0.116333 0.147894 0.234298 -0.041489 0.019391 -0.101872 0.132973 -0.193920 0.191637 -0.060764 -0.166584 -0.256516 -0.038490 0.035211 -0.192920 -0.135363 0.012200 -0.066950 -0.156531 0.008120
What 0.293066 -0.184828 -0.155488 -0.067402 0.259070 -0.101056 -0.357838 -0.219939 -0.026715 -0.219653 -0.095525 0.049076 0.118204 -0.119553 -0.048695 -0.096982 0.287743 0.262536 0.188681 0.072158 0.018021 0.307082 0.210134 -0.116585 0.212052 -0.171394 0.250585 -0.014139 0.321973 -0.158428 0.014746 -0.353340 0.075606 0.038601 -0.157756 0.219488 -0.012524 0.317318 -0.097572 0.047868 0.048038 -0.010735 -0.025281 -0.158989 0.120116 0.345395 0.385489 -0.221749 0.042923 -0.011327
claims 0.342161 -0.168488 -0.043875 -0.062586 -0.258997 -0.046217 -0.048678 -0.410169 0.111758 -0.095452 -0.270855 -0.046641 -0.041044 0.113450 0.107150 0.181506 0.024647 -0.052396 0.040381 -0.227747 -0.129818 -0.033024 0.174338 -0.000609 -0.278504 0.279357 0.117659 -0.069421 -0.075328 0.152721 -0.067146 0.231789 0.003359 -0.087803 -0.206749 0.051499 0.072709 -0.075259 0.152712 -0.306223 -0.182566 -0.036413 0.036398 0.041432 -0.130854 -0.119057 0.092226 0.011607 -0.107808 -0.078924
paid 0.178788 -0.083984 -0.108404 -0.081559 -0.098032 -0.101025 0.131705 -0.248914 -0.117043 -0.011847 -0.229381 0.172409 -0.048321 0.166415 -0.015748 -0.229074 0.205607 -0.035584 0.184184 0.256911 -0.009692 -0.066759 0.097995 -0.109296 0.027691 -0.095902 0.195245 0.017265 0.317379 -0.070610 0.039150 -0.340748 -0.072040 -0.058712 -0.240896 0.293227 0.194946 -0.004389 0.176532 -0.113918 0.242144 0.171783 -0.243491 -0.179087 -0.024445 0.010026 0.129022 -0.217622 -0.111698 -0.124205
renew -0.262954 0.377495 0.158242 -0.028951 0.141124 0.165361 0.451617 0.564951 -0.327004 0.218110 0.321246 0.015569 -0.088955 -0.028998 -0.182195 0.031820 0.039706 -0.085934 -0.105211 0.429190 0.233002 -0.447220 -0.318427 0.016681 0.272147 -0.287493 -0.190655 -0.060530 -0.019350 -0.038084 0.223401 -0.060775 -0.362318 0.125914 0.193851 0.115167 -0.150778 0.094615 0.017858 0.026938 0.176021 0.353824 -0.137674 -0.072338 0.205822 -0.045379 -0.259578 0.171280 0.030981 0.081237
want -0.531461 0.343843 -0.042830 0.048887 0.121068 0.083806 0.401440 0.501753 -0.263430 0.306504 0.296580 0.214003 0.208106 0.021330 -0.190579 -0.491428 -0.147290 0.130874 -0.030730 0.393050 0.225182 -0.362986 -0.435589 0.012748 0.282949 -0.174621 -0.195329 0.067308 0.020412 -0.172784 -0.022310 -0.318389 -0.186112 0.069799 0.155781 -0.174159 -0.031431 -0.230107 0.082522 0.361193 0.512015 0.151173 0.022757 0.109052 0.284104 0.070647 -0.318093 0.047908 0.100987 0.070340
allowed -0.215198 -0.007145 0.295571 0.071555 0.170953 0.111785 -0.221825 0.418293 -0.277139 -0.394820 0.456356 0.109414 0.383529 0.125977 -0.067644 -0.623158 0.181217 0.124810 0.486213 0.449674 0.495541 0.328417 -0.507202 0.168525 0.535124 -0.129359 0.145952 -0.130120 0.594278 -0.312672 0.048071 -0.363703 -0.223948 0.208125 -0.197272 -0.031559 -0.083267 0.027511 -0.044799 0.231597 0.004569 0.284378 0.570467 -0.034211 0.419047 0.188029 0.188860 -0.303857 0.345052 -0.193513
contact -0.187755 0.226547 -0.174420 0.047438 0.096810 -0.002557 0.130054 0.113418 -0.052773 0.292626 -0.118436 0.140168 0.030203 -0.053652 -0.061373 -0.156551 -0.095987 0.104868 -0.076280 0.073541 -0.011158 -0.184507 -0.090455 -0.159569 0.035569 -0.104272 -0.071686 0.103937 -0.086707 -0.054068 0.022418 -0.187103 0.022397 0.055694 0.051970 -0.116171 0.034179 -0.119829 0.022964 0.328416 0.297566 -0.066821 -0.149762 0.082246 0.056434 0.097317 -0.137984 0.050585 -0.008966 0.018900
job -0.067562 0.041988 -0.273994 -0.134104 -0.294882 -0.077480 0.334146 -0.140771 0.076667 0.291689 -0.256876 0.085966 -0.164166 0.141019 -0.079108 0.144472 -0.068828 -0.168049 -0.156821 0.095054 -0.243433 -0.430725 0.181024 -0.122173 -0.378174 0.175691 -0.074554 0.112640 -0.303558 0.096338 -0.038873 -0.019544 0.057671 -0.107131 0.108558 -0.019557 0.161984 -0.283355 0.307122 -0.133440 0.122612 -0.023447 -0.374320 0.154251 -0.119407 -0.222800 -0.188062 0.065958 -0.259133 0.096924
minimum 0.338038 -0.546934 -0.187938 -0.167436 0.077432 -0.127755 -0.223633 -0.441122 0.008447 -0.327413 -0.328006 0.148758 -0.041149 0.112388 0.078456 -0.103764 0.311096 0.057906 0.236463 0.158357 -0.077240 0.224593 0.292527 -0.139856 -0.079404 -0.043348 0.329638 -0.007106 0.343139 -0.069104 0.075620 -0.397776 0.060982 -0.157225 -0.355826 0.364635 0.103869 0.232165 0.044411 -0.163212 -0.142942 0.053082 -0.117534 -0.109634 0.023375 0.098277 0.513448 -0.341611 -0.192829 0.032146
products 0.136848 -0.222667 -0.152925 -0.042191 -0.074358 -0.085866 0.014738 -0.311419 0.069745 -0.046028 -0.151797 0.037673 -0.191177 0.011100 0.058746 0.165106 0.108158 -0.013118 -0.061615 -0.078565 -0.061331 -0.004303 0.234774 -0.026735 -0.116330 0.042877 0.085444 -0.053768 -0.062561 0.080179 0.004996 -0.022897 0.072625 -0.078067 -0.075153 0.134397 0.058351 0.151077 0.050170 -0.238000 0.003253 -0.109088 -0.184906 -0.069620 -0.158675 0.027978 0.180806 -0.060491 -0.239016 0.073469
refund 0.025975 0.068740 0.064645 -0.060012 0.134527 0.029918 0.237280 0.059302 -0.134951 0.142638 -0.217760 -0.013114 -0.151287 0.038242 -0.054364 0.082389 0.207577 -0.169050 0.018727 0.189271 -0.203941 -0.230558 0.155867 -0.216303 -0.134696 -0.292351 0.010988 0.074558 0.125582 0.040513 0.268654 -0.167936 -0.089585 -0.160530 -0.057156 0.343230 -0.031079 0.069156 0.053553 -0.008336 0.076721 0.355370 -0.432013 -0.065619 0.039735 -0.162484 0.077149 0.040185 -0.171349 0.033496
renewal 0.223438 -0.159912 0.276199 -0.064819 0.061368 0.082333 -0.138868 0.004873 -0.094492 -0.269466 0.001026 -0.169977 -0.094401 -0.001688 0.087125 0.190999 0.185665 -0.095973 0.127485 0.099624 0.145366 0.131620 -0.014038 -0.009720 0.049898 -0.130390 0.110779 -0.095645 0.197741 0.062497 0.220780 0.106742 -0.193683 0.013424 -0.229935 0.178931 -0.113523 0.294875 -0.113857 -0.107913 -0.385670 0.263508 0.113891 -0.092928 0.161863 -0.003394 0.261323 0.020731 0.057256 -0.069463
How -0.087592 0.182073 -0.139680 0.045128 0.165382 -0.007890 -0.035219 0.133921 -0.041428 0.109663 0.052425 0.031397 0.135319 -0.144146 -0.059857 -0.103868 -0.080845 0.151495 -0.031336 0.032378 0.028756 0.067528 -0.083434 -0.061539 0.204807 -0.093244 -0.053523 0.075788 -0.001993 -0.097762 -0.039429 -0.127675 0.093229 0.121528 0.162538 -0.102822 -0.017756 -0.018667 -0.016820 0.259162 0.198381 -0.087849 0.008474 0.017044 0.048973 0.141132 -0.104865 -0.007206 0.117761 0.034986
Insurance -0.004116 -0.087289 -0.234907 -0.005584 -0.549158 -0.128677 0.139632 -0.392591 0.255121 0.046080 -0.289062 0.113548 0.007018 0.283585 0.100495 -0.001104 -0.318358 -0.310994 -0.070110 -0.251607 -0.198001 -0.137040 0.120344 0.064785 -0.495410 0.524919 -0.005697 0.004006 -0.354121 0.222583 -0.310764 0.359160 0.285252 -0.176278 0.028809 -0.273074 0.224694 -0.518343 0.367014 -0.283702 -0.094451 -0.359933 -0.041650 0.185005 -0.372856 -0.395819 -0.272599 0.002704 -0.152224 -0.028333
before 0.018795 -0.093611 -0.033856 -0.065638 -0.307448 0.002006 0.104614 -0.185800 0.110149 0.050798 -0.130859 -0.036254 -0.135773 0.133673 0.059490 0.144131 -0.097035 -0.152502 -0.096312 -0.123367 -0.092504 -0.105850 0.051526 0.052577 -0.236300 0.239446 -0.009265 0.014030 -0.198958 0.130464 -0.086209 0.232256 0.022600 -0.086782 -0.002641 -0.005332 0.046524 -0.179800 0.108678 -0.242122 -0.147341 -0.077914 -0.051562 0.084572 -0.110066 -0.206788 -0.116926 0.046554 -0.114214 -0.014804
driver 0.155180 -0.185067 -0.131298 -0.014076 0.084422 -0.111539 -0.242865 -0.182365 0.153356 -0.064984 -0.175215 -0.044098 0.073019 -0.061479 -0.004523 0.075611 0.060463 0.147839 -0.030908 -0.126381 -0.093315 0.205835 0.213002 -0.129770 -0.039432 0.035756 0.070168 0.098230 -0.053345 -0.018016 -0.055294 -0.149401 0.172713 -0.012167 -0.087676 -0.092693 -0.000631 0.124790 -0.069712 0.170282 -0.032388 -0.181211 0.026486 0.078588 -0.046185 0.194929 0.172447 -0.093207 0.017728 0.050667
house 0.045682 -0.052823 0.009258 0.005455 -0.268879 -0.001892 0.120760 -0.134230 0.061767 0.011831 -0.057318 0.006969 -0.070937 0.123224 0.065600 0.158037 -0.103365 -0.220441 -0.026058 -0.078537 -0.106701 -0.203300 0.061697 0.058457 -0.273755 0.249840 0.006721 -0.066832 -0.187390 0.174790 -0.056210 0.262883 0.006880 -0.054983 0.042855 -0.031930 0.057950 -0.158976 0.167520 -0.233091 -0.207179 -0.012712 -0.030641 0.034276 -0.149766 -0.249351 -0.138444 0.024399 -0.095630 -0.002374
ncb 0.062261 -0.037343 -0.279103 0.040685 -0.179655 -0.125329 -0.147971 -0.302310 0.192157 -0.005257 -0.209322 0.016791 0.090067 0.043341 0.079685 -0.055760 -0.163547 0.000872 0.007094 -0.256102 -0.165296 0.140524 0.121712 0.011573 -0.203645 0.316257 0.064427 0.032183 -0.133774 0.072659 -0.271988 0.064078 0.292160 0.055790 0.060731 -0.176171 0.131786 -0.261390 0.141003 0.039556 -0.014378 -0.346084 0.077836 0.069698 -0.204707 -0.072392 -0.130628 -0.103179 -0.031644 -0.006076
process 0.207276 -0.277828 -0.024257 -0.034575 0.516092 -0.081341 -0.472833 -0.062657 -0.119192 -0.348858 -0.035832 0.077214 0.178986 -0.122478 0.058519 -0.340407 0.350835 0.268708 0.305231 0.202638 0.127391 0.461136 0.051181 -0.126687 0.300035 -0.323200 0.324740 0.003083 0.553563 -0.295214 0.116149 -0.600785 0.005159 0.125020 -0.335714 0.228401 -0.043228 0.453839 -0.224234 0.325624 -0.045715 0.093346 0.108767 -0.192984 0.326348 0.514163 0.598630 -0.387129 0.162372 -0.019882
Is 0.038478 -0.156985 -0.086095 0.005226 -0.229126 -0.048617 -0.118460 -0.220866 0.196013 -0.131710 -0.054274 0.007420 0.008285 0.061743 0.075257 0.000152 -0.067749 0.001276 0.058858 -0.198735 -0.052109 0.156034 0.069823 0.110338 -0.131994 0.248830 0.102092 -0.028487 -0.016442 0.048091 -0.229941 0.128049 0.175676 -0.064370 0.020776 -0.104798 0.086996 -0.157950 0.069902 -0.155022 -0.074508 -0.216916 0.119475 0.044407 -0.138899 -0.118594 -0.005191 -0.067979 -0.010758 -0.014513
company -0.003838 0.044095 0.064742 0.012930 0.013938 0.005957 0.249416 0.045167 -0.076044 0.121343 0.034916 -0.097590 -0.090143 -0.029608 0.011036 0.223135 -0.066241 -0.202228 -0.120465 0.068785 -0.018034 -0.279131 0.092537 -0.130118 -0.092674 -0.063436 -0.069763 -0.019211 -0.204939 0.139203 0.127327 0.044445 -0.107146 0.110254 -0.025854 0.007366 -0.024835 0.241518 0.027795 -0.082249 -0.072524 0.083590 -0.214744 -0.021004 -0.084777 -0.040508 -0.113315 -0.017199 -0.058921 0.125895
facility 0.183521 -0.324245 -0.080054 -0.002262 -0.384762 -0.074818 -0.193077 -0.457371 0.268132 -0.249040 -0.127790 -0.052177 -0.060115 0.121144 0.230011 0.072922 -0.113539 -0.115986 0.128482 -0.302887 -0.145773 0.216489 0.170227 0.176331 -0.353397 0.431215 0.157825 -0.036568 -0.086597 0.135549 -0.248000 0.310218 0.270263 -0.109809 -0.079001 -0.063254 0.081400 -0.182318 0.145720 -0.281632 -0.344912 -0.319698 0.219084 0.019848 -0.298408 -0.214201 0.043948 -0.179627 -0.052824 -0.073666
money -0.229077 0.549113 -0.166129 0.094891 0.288590 -0.030715 0.254689 0.397128 -0.123271 0.420741 0.085676 0.099867 0.205553 -0.322976 -0.343251 -0.265450 -0.156381 0.069980 -0.114676 0.301731 0.008415 -0.061306 -0.165374 -0.306485 0.415025 -0.346885 -0.266865 0.263044 0.046492 -0.261681 -0.004895 -0.292222 0.089087 0.202210 0.250441 -0.063067 -0.002630 -0.013844 0.025324 0.356364 0.569057 0.007957 -0.372010 -0.066249 0.111471 0.150684 -0.375452 -0.000798 0.202110 0.083266
or -0.005862 0.016966 -0.084070 0.002134 -0.221187 -0.068989 0.153610 -0.143114 0.080890 0.100242 -0.148252 0.077626 0.037457 0.094796 -0.043057 -0.047628 -0.135020 -0.209821 -0.023073 -0.001618 -0.132752 -0.144614 0.061198 -0.055256 -0.217955 0.221068 -0.011862 0.050747 -0.086697 0.060134 -0.125488 0.108797 0.089398 -0.097213 0.015624 -0.069540 0.114043 -0.240602 0.191302 -0.110665 0.017123 -0.072552 -0.164573 0.036104 -0.112398 -0.214077 -0.204084 -0.039896 -0.050484 -0.013131
Can -0.219632 0.181878 -0.098292 0.020870 -0.145372 0.017305 0.293422 0.111301 0.006667 0.220220 -0.050607 0.088932 0.040979 0.043298 -0.103773 -0.024327 -0.189335 -0.027962 -0.143700 0.071763 0.005289 -0.201283 -0.165738 -0.000134 0.004462 0.111410 -0.176213 0.079220 -0.126615 -0.003607 -0.055363 0.050066 -0.020288 -0.033800 0.196442 -0.159392 0.062261 -0.318639 0.150942 0.012650 0.212948 -0.039146 -0.085819 0.072550 -0.079655 -0.160834 -0.286452 0.171834 -0.012894 0.062303
check -0.141753 -0.201480 -0.226828 -0.185888 -0.653690 -0.125908 0.356356 -0.300768 0.105700 0.077741 -0.365617 0.174621 -0.107786 0.318918 0.173089 -0.022757 -0.520612 -0.277341 -0.099301 -0.108580 -0.255469 -0.380786 0.040857 0.103688 -0.540179 0.584286 -0.082127 0.084124 -0.351149 0.297113 -0.335368 0.382352 0.247433 -0.203706 0.100884 -0.273475 0.332522 -0.563326 0.438803 -0.334239 -0.051299 -0.451288 -0.021355 0.173528 -0.346925 -0.372918 -0.289854 0.149376 -0.347648 -0.005993
club 0.128353 -0.128579 -0.167147 -0.045977 -0.402361 -0.064676 -0.001898 -0.344625 0.201470 -0.042683 -0.198233 -0.012048 -0.046569 0.136950 0.124302 0.214741 -0.174299 -0.091510 -0.034554 -0.262756 -0.113432 -0.003212 0.135038 0.094979 -0.276896 0.364547 0.089177 -0.019314 -0.205778 0.179506 -0.188279 0.307427 0.150356 -0.072705 0.012887 -0.101113 0.151843 -0.218417 0.146358 -0.356522 -0.147703 -0.274640 0.059562 0.088842 -0.233201 -0.198086 -0.096410 0.042986 -0.138446 -0.030523
limit 0.319835 -0.489209 -0.093010 -0.094714 -0.002878 -0.082122 -0.244090 -0.435769 0.008127 -0.428897 -0.226983 0.105650 0.017098 0.094056 0.102834 -0.141190 0.226802 0.055255 0.246824 0.069251 0.000983 0.247218 0.184698 -0.033587 -0.058891 0.069982 0.354578 -0.083980 0.309047 -0.000878 -0.007415 -0.188550 0.031325 -0.094672 -0.357211 0.231697 0.088520 0.194201 0.049130 -0.204473 -0.208909 0.036179 0.074608 -0.098819 0.061328 0.096523 0.461155 -0.284769 -0.112469 -0.069892
pre -0.121877 -0.140398 -0.133072 0.007080 -0.346394 -0.083156 0.040167 -0.275027 0.266917 0.055793 -0.183112 0.033414 -0.061607 0.207437 0.185647 0.013100 -0.323371 -0.174997 -0.103233 -0.289790 -0.343104 -0.041822 0.120620 0.106543 -0.511249 0.454908 -0.059257 0.046643 -0.335480 0.188731 -0.298594 0.274894 0.365366 -0.163444 0.167382 -0.256798 0.162160 -0.401871 0.167852 -0.040845 -0.120321 -0.415298 0.009231 0.153846 -0.385123 -0.237495 -0.139408 0.041677 -0.197789 0.020315
top -0.026884 -0.082393 0.103044 -0.149397 -0.461961 0.048370 0.235352 -0.021367 0.059843 0.017989 -0.146703 -0.017511 -0.191815 0.164759 0.093244 0.196531 -0.374508 -0.316110 -0.138737 -0.056366 0.063790 -0.249128 -0.110482 0.168860 -0.293396 0.317198 -0.172225 0.015081 -0.224281 0.219821 -0.068718 0.554814 -0.046332 -0.112669 0.036961 -0.140680 0.116908 -0.252889 0.188592 -0.364160 -0.236361 -0.144959 0.068234 0.069424 -0.212406 -0.354317 -0.288585 0.297516 -0.126425 -0.026136
why -0.233625 0.295506 -0.167824 0.077314 0.168656 0.008674 0.044318 0.224296 -0.064079 0.220308 0.106686 0.044386 0.146382 -0.115354 -0.034290 -0.213078 -0.132057 0.196196 -0.070575 0.050087 0.077993 -0.003569 -0.196119 -0.073994 0.228131 -0.103868 -0.103535 0.086676 -0.029243 -0.110051 -0.041482 -0.164369 0.061202 0.166133 0.159406 -0.175979 0.024764 -0.127129 -0.018726 0.391878 0.320037 -0.099193 0.016409 0.032391 0.086468 0.160713 -0.194970 0.030705 0.133846 0.032264
abroad -0.195194 0.019794 -0.233009 -0.040769 -0.322016 -0.052404 0.313874 -0.145073 0.144928 0.302628 -0.161310 0.090348 -0.140123 0.102844 0.008119 0.092065 -0.241009 -0.129068 -0.244324 -0.111426 -0.312955 -0.282880 0.093612 0.047031 -0.406048 0.346860 -0.203910 0.101757 -0.486894 0.158095 -0.202863 0.175954 0.178635 -0.260019 0.254773 -0.144579 0.094043 -0.461335 0.234167 -0.106244 0.085482 -0.257434 -0.203320 0.176869 -0.286239 -0.335261 -0.301339 0.197425 -0.261457 0.110829
got -0.273075 0.496680 -0.269953 -0.095830 -0.076542 0.063631 0.448075 0.258324 -0.058764 0.680789 0.000005 0.074702 -0.037794 0.006963 -0.294407 0.015344 -0.114424 0.100081 -0.332573 0.046910 -0.211295 -0.605552 -0.071132 -0.087146 -0.072715 -0.076516 -0.331293 0.118735 -0.388074 0.014880 -0.064621 -0.029114 -0.066091 -0.182501 0.370233 -0.078820 -0.017434 -0.402305 0.126252 0.133138 0.548566 0.086914 -0.368956 0.170554 -0.005127 -0.141711 -0.514395 0.419626 -0.133733 0.065359
new -0.009736 -0.125788 0.045988 -0.007242 -0.291771 0.032966 0.100518 -0.127492 0.048020 -0.075472 -0.025240 0.041125 -0.041314 0.163553 0.078246 0.013300 -0.107428 -0.107531 -0.018633 -0.020174 0.041568 -0.130942 -0.050888 0.132519 -0.153520 0.188874 0.053563 -0.041750 -0.111552 0.109697 -0.068123 0.198028 -0.045125 -0.074275 -0.087585 -0.074725 0.065220 -0.148362 0.093278 -0.220442 -0.119672 -0.033993 0.119841 0.088161 -0.065653 -0.160888 -0.075487 0.022321 -0.076914 -0.048836
card 0.146705 -0.139717 -0.034105 -0.048687 -0.533421 -0.040291 0.207637 -0.392483 0.137513 -0.012851 -0.198633 -0.091208 -0.138328 0.234533 0.112723 0.292821 -0.171190 -0.290464 -0.132480 -0.230723 -0.106677 -0.267609 0.182544 0.135655 -0.379371 0.381993 -0.011263 -0.009971 -0.341328 0.301163 -0.032284 0.528136 0.018014 -0.104574 -0.045633 -0.048053 0.137048 -0.173220 0.187503 -0.399372 -0.202600 -0.097187 0.019975 0.075317 -0.241099 -0.336709 -0.182528 0.075186 -0.206627 -0.039076
discounts 0.037963 -0.052315 -0.206263 0.051265 0.043714 -0.078790 -0.158868 -0.172228 0.196168 -0.011619 -0.121985 0.061536 -0.019805 -0.072942 0.026623 -0.026999 -0.017623 0.069670 -0.031086 -0.210428 -0.110973 0.220199 0.159455 0.009807 -0.058779 0.047574 0.022721 0.073359 0.037041 -0.066533 -0.142367 -0.066703 0.252646 0.009657 0.108798 -0.058682 0.100085 -0.023569 -0.057530 0.075940 0.086164 -0.251748 -0.048087 0.005306 -0.124662 0.088806 0.029550 -0.062228 -0.006398 0.033219
during 0.001250 -0.141337 -0.060397 -0.010008 -0.273060 -0.071664 0.067252 -0.229111 0.167832 0.022232 -0.220593 0.029451 -0.024352 0.171010 0.068717 0.008203 -0.144819 -0.192533 -0.040998 -0.142539 -0.171279 -0.095900 0.081995 -0.011383 -0.348153 0.302429 -0.013987 0.025852 -0.159378 0.111106 -0.141889 0.133180 0.098612 -0.132953 -0.062639 -0.137937 0.121645 -0.303685 0.194232 -0.127999 -0.154258 -0.130178 -0.010758 0.128492 -0.167092 -0.258058 -0.084715 -0.010972 -0.094786 0.002481
employer -0.081394 0.141282 -0.054649 0.029437 0.124876 0.020058 0.118561 0.105775 -0.099228 0.114354 0.095885 0.039515 -0.012433 -0.024266 -0.054331 -0.019728 0.033947 -0.060495 -0.023398 0.155985 -0.060450 -0.160532 -0.017134 -0.024883 0.019475 -0.087492 -0.024678 -0.014862 0.008845 -0.008135 0.047697 -0.097409 -0.061968 0.058069 0.131650 0.086605 -0.001400 0.055377 0.048853 0.017360 0.087766 0.104607 -0.151897 -0.071106 0.016847 0.022626 -0.105367 -0.047782 0.016384 0.085902
given 0.229146 -0.074828 -0.209396 0.002174 0.134065 -0.091954 -0.367481 -0.210141 0.086841 -0.072074 -0.073763 -0.111514 0.050212 -0.132121 0.092952 0.096524 0.066241 0.197725 0.049388 -0.246539 -0.087811 0.279848 0.232724 -0.024565 0.094686 -0.033152 0.181093 -0.020065 0.061540 -0.003976 -0.011689 -0.066940 0.182899 0.091519 0.021966 0.052705 -0.017821 0.188692 -0.128239 0.095828 -0.078463 -0.158158 0.036092 -0.072981 -0.012863 0.231405 0.184438 -0.130246 0.008111 0.006460
illness 0.102434 -0.225690 -0.177355 0.020896 -0.377931 -0.156320 -0.110463 -0.452380 0.224158 -0.146360 -0.219443 0.065741 0.081383 0.200950 0.092743 -0.069544 -0.190030 -0.113451 0.106747 -0.276439 -0.149546 0.154479 0.127784 0.117378 -0.304352 0.454717 0.166466 -0.009829 -0.092396 0.117291 -0.302954 0.182118 0.288628 -0.083254 -0.044459 -0.186569 0.223938 -0.334928 0.228146 -0.199384 -0.154549 -0.376970 0.122086 0.084263 -0.248988 -0.204957 -0.059775 -0.175112 -0.097836 -0.076139
only -0.042369 -0.166192 0.005736 -0.097466 -0.540517 -0.023706 0.137795 -0.170665 0.152611 0.018057 -0.080071 -0.004016 -0.081026 0.261058 0.163148 0.153842 -0.294792 -0.166395 -0.101808 -0.116649 0.033071 -0.087265 -0.097895 0.236109 -0.290140 0.450431 -0.144996 0.046229 -0.324298 0.182321 -0.174328 0.499855 0.029907 -0.125701 -0.012851 -0.203270 0.090119 -0.353760 0.185795 -0.317814 -0.297911 -0.159308 0.274259 0.190422 -0.238501 -0.390073 -0.252472 0.174585 -0.142385 -0.020258
personal 0.181067 0.029724 -0.150048 -0.003563 -0.479173 -0.093770 0.207904 -0.489094 0.197754 0.267777 -0.408695 0.059151 -0.038311 0.255928 0.019626 0.061348 -0.211695 -0.253048 -0.056974 -0.307082 -0.365964 -0.302663 0.176876 -0.042556 -0.547610 0.469200 0.007396 0.028706 -0.240984 0.221082 -0.268197 0.359973 0.123503 -0.200750 -0.076757 -0.080172 0.202957 -0.454003 0.322786 -0.260653 -0.074331 -0.139725 -0.186396 0.090714 -0.261685 -0.392800 -0.280192 0.040272 -0.128686 -0.101968
place 0.100698 -0.163691 -0.059239 -0.039642 -0.159745 -0.101756 -0.105738 -0.241540 0.171183 -0.042044 -0.276869 0.002508 -0.014741 0.077493 0.069480 0.094992 -0.020904 -0.076665 -0.059263 -0.216469 -0.200222 0.043267 0.174299 -0.021609 -0.310599 0.289320 0.078690 0.066309 -0.168945 0.092601 -0.125545 0.061356 0.157884 -0.125923 -0.117737 -0.155094 0.037259 -0.222020 0.118579 0.025048 -0.193351 -0.174806 0.026750 0.157607 -0.094331 -0.089936 0.054168 0.019206 -0.088178 -0.041825
procedure 0.068401 -0.223772 0.041698 -0.045708 0.502528 -0.057757 -0.240555 0.069506 -0.165571 -0.262129 0.076741 0.109373 0.035626 -0.115613 -0.008363 -0.245311 0.356146 0.158351 0.222207 0.320521 0.127254 0.316097 0.050695 -0.077926 0.281961 -0.361290 0.164038 0.009610 0.472554 -0.281407 0.204019 -0.557012 -0.081492 0.035243 -0.217576 0.344498 -0.101550 0.453641 -0.232129 0.159112 0.029510 0.181310 -0.039505 -0.247132 0.226250 0.373856 0.495772 -0.313449 0.012145 0.027387
Int_Motr_Time_Settle -0.002109 -0.009939 0.001437 0.007699 0.003713 -0.005239 -0.005226 -0.004288 -0.005087 -0.000228 0.009309 -0.000989 0.001207 0.008551 0.000629 -0.009480 -0.003925 0.004638 -0.004151 -0.008610 -0.006508 0.013135 0.004502 0.009578 0.015749 -0.003326 0.014313 0.005666 -0.010882 0.010196 -0.000908 -0.004985 -0.000855 -0.016890 0.001223 -0.010217 0.013241 -0.004344 -0.013234 0.010551 -0.001155 0.014806 0.013929 -0.005666 -0.009305 -0.007645 -0.004755 -0.007936 -0.000991 -0.000786
Int_Motr_Want_Policy 0.002246 0.000368 0.001637 0.006190 -0.000211 -0.005334 0.002340 -0.001759 0.000968 -0.007136 -0.001204 0.009772 0.003608 0.007570 0.002526 0.010720 -0.001072 0.007678 -0.000375 -0.000272 -0.009366 -0.016044 0.001837 0.010707 0.011988 -0.003150 0.009102 -0.007328 -0.005971 -0.003086 0.001407 0.005142 0.001379 -0.006892 0.005983 0.003689 0.004084 0.015950 -0.006500 0.003768 -0.004262 -0.003923 -0.000802 -0.008361 -0.000924 -0.002698 -0.009255 0.004805 -0.008993 -0.008364
another -0.023713 -0.117769 0.182312 -0.027021 -0.248552 0.062868 0.113126 -0.005321 -0.022169 -0.127779 0.112007 -0.041728 -0.067361 0.147492 0.108434 0.078242 -0.095886 -0.143342 0.018945 0.036572 0.124454 -0.092254 -0.077135 0.149888 -0.104589 0.117158 0.023493 -0.070633 -0.042670 0.129926 0.071979 0.229286 -0.146746 -0.051356 -0.070176 0.006843 -0.002351 -0.022509 0.041077 -0.276606 -0.262101 0.091982 0.162827 0.020916 -0.014548 -0.195967 -0.012486 0.053455 -0.040394 -0.051431
cost -0.049311 -0.075432 0.055508 0.043500 -0.088608 -0.012457 -0.038506 0.008425 -0.028223 -0.170617 0.048450 0.089723 0.165962 0.107176 -0.030361 -0.211456 -0.017915 -0.025886 0.165299 0.120356 0.155941 0.100668 -0.162702 0.027118 0.065261 0.112596 0.049590 -0.025852 0.152482 -0.063587 -0.080499 -0.047938 -0.020017 0.031791 -0.122276 -0.073846 0.062479 -0.078482 0.084169 -0.017098 -0.044220 -0.036141 0.196442 0.045228 0.038049 -0.035732 0.045793 -0.108788 0.079287 -0.071869
due -0.299780 -0.137198 0.174690 0.052525 -0.138710 0.061438 0.056207 0.096252 -0.058256 -0.168535 0.192572 0.166699 0.093400 0.260038 0.079610 -0.426313 -0.063916 -0.093943 0.157721 0.140540 0.121733 -0.028853 -0.263182 0.211701 -0.099909 0.161013 0.046657 -0.055276 0.126938 -0.030862 -0.088209 -0.050407 -0.070131 -0.068567 -0.120985 -0.140093 0.083670 -0.262846 0.082286 -0.027350 -0.056967 0.026121 0.327611 0.101495 0.079607 -0.134157 0.007826 -0.165379 0.028545 -0.080395
file -0.287353 0.016042 0.250758 0.035009 -0.114519 0.153251 0.205796 0.372457 -0.152526 -0.108512 0.425857 -0.014273 0.028038 0.065844 0.009770 -0.071953 -0.121259 -0.033169 -0.000559 0.125190 0.368551 -0.186689 -0.338007 0.213521 0.184260 0.016689 -0.076220 -0.153118 -0.049227 0.085293 0.025973 0.161745 -0.234209 -0.072316 0.141890 -0.142048 -0.029535 -0.104191 -0.046352 -0.118140 0.030775 0.148825 0.275191 0.112237 0.154195 -0.183874 -0.152042 0.191192 0.072337 0.001681
having 0.049724 -0.253927 0.262707 -0.155169 -0.398253 0.078483 0.204410 -0.113584 0.028430 -0.131784 -0.024095 -0.114027 -0.216884 0.204907 0.080283 0.268770 -0.068273 -0.257394 -0.089271 0.064694 0.108194 -0.184671 -0.045328 0.148877 -0.215550 0.194653 -0.090605 -0.082900 -0.161030 0.212731 0.092848 0.441190 -0.245559 -0.191172 -0.160545 0.064104 -0.058007 -0.003556 0.082705 -0.478971 -0.368658 0.124186 0.113554 0.080041 -0.089686 -0.324460 0.002916 0.179967 -0.192143 -0.029246
many -0.228906 0.415316 -0.144390 0.280707 -0.001941 -0.099050 -0.041941 0.163509 0.214273 0.247209 0.001803 0.034189 0.422401 -0.254738 -0.175674 -0.282313 -0.569546 -0.021290 -0.146272 -0.116331 -0.104375 0.253476 -0.070724 -0.173631 0.204599 0.133981 -0.163110 0.275466 -0.139870 -0.162288 -0.357270 0.086329 0.427967 0.254777 0.316159 -0.586149 0.086428 -0.237622 0.089472 0.467869 0.299901 -0.473154 0.011830 0.141889 -0.138327 0.037733 -0.459911 -0.099364 0.281880 0.051202
no 0.209840 -0.148723 -0.196535 -0.034272 -0.078925 -0.126596 -0.069012 -0.331027 0.072303 -0.201527 -0.083459 0.051241 0.155949 -0.038046 -0.037382 0.012140 -0.060156 -0.074700 0.145806 -0.064333 -0.097501 0.163710 0.226276 -0.112696 -0.021581 0.184970 0.197402 -0.030574 -0.000376 -0.001164 -0.162360 -0.021679 0.201499 0.066992 -0.003726 0.011726 0.090801 0.000209 0.109803 -0.195357 -0.070577 -0.158785 -0.135598 -0.094486 -0.121724 0.003241 0.036966 -0.290125 -0.001788 0.013747
reimbursement -0.197366 -0.026380 0.273147 -0.068329 0.034592 0.136018 0.271076 0.268669 -0.058059 0.001202 0.213932 -0.044446 -0.256011 0.018076 -0.109051 0.171528 0.141806 -0.226094 -0.100105 0.207829 0.034373 -0.157035 -0.008484 0.081032 -0.048547 -0.196377 -0.200812 -0.031690 -0.013317 0.011628 0.194686 0.064696 -0.190113 -0.203130 0.156015 0.247943 -0.111291 0.080880 -0.050180 -0.286138 -0.029422 0.283258 -0.189918 -0.064567 -0.034225 -0.216504 -0.002838 0.180208 -0.163056 0.074085
agents -0.091176 -0.123785 0.172597 0.031337 -0.175015 0.034750 -0.044559 -0.022131 0.094138 -0.118522 0.068482 -0.038788 -0.102749 0.146735 0.144264 0.048805 -0.076624 -0.210078 -0.003154 -0.128281 -0.052959 0.050525 -0.010333 0.181581 -0.259223 0.229838 -0.019538 -0.044826 -0.083564 0.087333 -0.064443 0.249041 0.023935 -0.121963 0.018638 -0.071133 0.028704 -0.149083 -0.007636 -0.192169 -0.238326 -0.046580 0.172946 0.051066 -0.161551 -0.186723 -0.013855 0.034778 -0.061275 -0.057400
bonus 0.034555 -0.120564 -0.260986 -0.005215 -0.486796 -0.143497 0.189008 -0.420056 0.265688 0.030920 -0.251317 0.103589 0.062067 0.206630 0.055389 0.025622 -0.316731 -0.240445 -0.003491 -0.240438 -0.260113 -0.078679 0.183359 0.026308 -0.412209 0.495597 0.018792 0.014449 -0.325925 0.158378 -0.294935 0.290145 0.283767 -0.062527 0.086435 -0.180826 0.195935 -0.453311 0.305812 -0.312525 -0.063338 -0.350960 -0.144761 0.088047 -0.377112 -0.341779 -0.249178 -0.104694 -0.173852 -0.024639
commission -0.100477 0.017827 0.096890 0.057056 -0.049669 0.036712 0.027043 0.086899 0.036819 -0.046516 0.067501 -0.018942 0.011844 0.036635 0.042946 -0.011910 -0.063234 -0.086040 0.007569 -0.052118 0.039033 0.017590 -0.068199 0.047317 -0.043123 0.067495 -0.058902 -0.021790 -0.039661 0.017641 -0.014538 0.085270 0.014601 -0.002087 0.059875 -0.088602 -0.021621 -0.093488 0.015568 -0.004579 -0.040620 -0.035416 0.109966 0.039457 -0.050475 -0.087613 -0.053216 0.023836 0.018857 -0.006023
settle -0.211520 0.047021 0.098759 0.004890 -0.091381 0.053773 0.283983 0.159329 -0.202143 -0.015498 0.130563 0.167125 0.056734 0.191772 -0.015750 -0.288390 0.013681 -0.124868 0.142578 0.321912 0.123352 -0.272300 -0.251028 0.069145 -0.015605 -0.013251 0.047922 -0.050998 0.178124 0.005387 0.028969 -0.097383 -0.210829 0.028951 -0.098779 -0.002635 0.089671 -0.172079 0.189526 -0.072126 0.101566 0.188650 0.060487 -0.038370 0.142155 -0.103431 -0.096029 -0.089417 0.027920 -0.059073
submit -0.271337 0.244905 -0.133025 0.019441 -0.085611 0.010171 0.264152 0.168291 -0.028300 0.334583 0.033510 0.136282 0.030537 0.050079 -0.093264 -0.205087 -0.195433 0.049100 -0.126284 0.053732 0.014560 -0.270486 -0.193064 0.033891 -0.000358 0.040189 -0.183198 0.096998 -0.181427 -0.015953 -0.112701 -0.015718 -0.011413 0.012888 0.170484 -0.191140 0.078318 -0.301708 0.093689 0.127001 0.316272 -0.056509 -0.044585 0.134576 -0.016788 -0.084071 -0.348958 0.122082 0.010746 0.029948
taken 0.051951 -0.072732 0.089308 -0.074321 -0.118762 -0.009618 0.108989 -0.050136 -0.021829 -0.074257 0.056456 0.077721 -0.116753 0.118412 -0.020007 -0.064732 0.085096 -0.071431 0.035170 0.166886 0.212678 0.043220 -0.095177 0.124814 0.129468 -0.030312 0.029869 -0.049684 0.184165 -0.051025 0.028845 -0.049801 -0.167141 -0.025878 -0.086625 0.154520 0.103613 0.060028 -0.001035 -0.172803 0.096812 0.106242 -0.029917 -0.148642 -0.037407 -0.003594 0.008453 -0.031863 0.015601 -0.097448
term -0.005941 -0.287753 0.158662 0.124003 -0.370693 -0.115963 -0.092394 -0.212815 0.299352 -0.197274 0.064391 -0.045495 -0.017942 0.135557 0.183803 0.097792 -0.316120 -0.288884 -0.056086 -0.234133 -0.076573 0.300039 0.095990 0.182953 -0.270608 0.466349 0.012249 0.025505 -0.232181 0.140606 -0.184979 0.488573 0.254254 -0.056894 -0.005512 -0.202074 0.060795 -0.160762 0.062181 -0.238936 -0.456594 -0.355353 0.305385 0.080457 -0.348977 -0.306619 -0.095746 -0.040055 -0.032106 -0.017315
treatments 0.055931 -0.059905 -0.186694 0.034661 -0.266867 -0.070289 -0.031160 -0.270403 0.195102 0.030943 -0.240896 0.018854 0.084649 0.092432 0.098858 0.031392 -0.199873 -0.019875 -0.016131 -0.268286 -0.166929 0.037181 0.074568 -0.005811 -0.259688 0.301515 -0.012407 0.030384 -0.207269 0.108445 -0.208976 0.190477 0.224849 0.020080 0.035551 -0.199688 0.139071 -0.286206 0.176196 -0.026524 -0.070679 -0.310345 0.034381 0.126452 -0.202350 -0.133389 -0.099479 -0.010659 -0.049583 -0.004501
Policy -0.093895 0.029533 -0.064705 -0.001816 -0.363455 -0.020078 0.173729 -0.116094 0.113627 0.066340 -0.054096 0.052326 0.015782 0.196146 0.023982 -0.027026 -0.232605 -0.178372 -0.053749 -0.121822 -0.043401 -0.167876 -0.035541 0.086852 -0.244900 0.292445 -0.061553 -0.017477 -0.246380 0.156112 -0.179589 0.267289 0.099728 -0.118157 0.060177 -0.195785 0.106483 -0.380375 0.216288 -0.176229 -0.000708 -0.148965 0.029024 0.148194 -0.163629 -0.310896 -0.265634 0.093101 -0.056852 -0.030811
Will -0.172583 0.085209 -0.049655 0.047855 -0.163247 -0.018457 0.087073 0.051904 0.064436 0.055501 0.006956 0.068382 0.123293 0.109934 -0.024330 -0.163356 -0.172878 0.003501 -0.006557 -0.006504 0.042115 0.025542 -0.191042 0.071246 0.034262 0.185022 -0.085948 0.025803 -0.017483 -0.037434 -0.138589 0.036791 0.050977 0.015861 0.104401 -0.188804 0.068290 -0.303604 0.116975 0.057627 0.130039 -0.101106 0.115615 0.075290 -0.066159 -0.102534 -0.172925 0.027467 0.057994 -0.032222
back -0.151690 0.213362 -0.164106 -0.062500 0.007482 0.019117 0.333867 0.124389 -0.133754 0.317654 -0.064090 0.087013 -0.060469 0.002994 -0.149504 -0.032283 0.023792 -0.027685 -0.063457 0.217971 -0.160482 -0.362819 0.014799 -0.121081 -0.025816 -0.151803 -0.097062 0.080874 -0.080797 -0.001645 0.048612 -0.172337 -0.045052 -0.087857 0.158366 0.127164 0.052951 -0.107420 0.150590 -0.010161 0.287074 0.148674 -0.358601 0.020562 0.006629 -0.113407 -0.176112 0.068252 -0.148480 0.084551
change -0.114043 0.058188 -0.168275 0.021956 -0.092586 -0.046221 0.046987 -0.047176 0.061152 0.085264 -0.069892 0.075212 0.103900 0.058397 -0.021520 -0.185000 -0.129825 0.029177 -0.008733 -0.028748 -0.050923 -0.038237 -0.052952 -0.022751 -0.025321 0.103947 -0.002850 0.046244 -0.057875 -0.030644 -0.162970 -0.084731 0.112093 0.004376 0.064556 -0.177713 0.083837 -0.270308 0.129923 0.076952 0.161477 -0.120189 -0.013137 0.107776 -0.007492 -0.060630 -0.127609 -0.029470 0.017490 -0.008289
checkup -0.002502 -0.220691 -0.127995 -0.065545 -0.432451 -0.090556 0.153937 -0.348092 0.120140 -0.055800 -0.219864 0.071305 -0.054743 0.245666 0.162989 0.002164 -0.194215 -0.202244 -0.016343 -0.150184 -0.182162 -0.149872 0.104392 0.084376 -0.358531 0.440273 0.039948 0.016205 -0.207498 0.222300 -0.196406 0.257136 0.144315 -0.131698 -0.025485 -0.136810 0.173624 -0.295266 0.257416 -0.279845 -0.118881 -0.253024 0.001070 0.084851 -0.232573 -0.223310 -0.081435 -0.023969 -0.224465 -0.020330
coverages 0.196216 -0.132812 -0.228394 -0.032615 0.139369 -0.115730 -0.229299 -0.287580 0.072307 -0.055933 -0.204570 0.094185 0.001511 -0.089994 -0.021354 -0.066029 0.152389 0.141623 0.064820 -0.040404 -0.105830 0.171031 0.237437 -0.077517 0.012150 -0.071838 0.178181 0.028793 0.143046 -0.087499 -0.029414 -0.254232 0.167312 -0.019508 -0.094519 0.136612 0.092471 0.153099 -0.023378 0.019763 0.053995 -0.107304 -0.154731 -0.119876 -0.010450 0.219920 0.240065 -0.187623 -0.067314 0.024682
had -0.206575 0.488984 -0.212537 -0.100702 -0.158778 0.030199 0.445524 0.068733 -0.002097 0.713021 -0.129471 0.177628 -0.026213 0.155590 -0.300531 -0.169026 -0.072910 -0.039432 -0.225565 0.076953 -0.359525 -0.640579 -0.074353 -0.076234 -0.236533 0.035718 -0.227312 0.133151 -0.226707 0.003194 -0.096900 -0.020871 -0.050024 -0.226001 0.212274 0.032226 0.098977 -0.466295 0.204890 0.053940 0.483533 0.164288 -0.472667 0.068216 0.032471 -0.269949 -0.519557 0.240215 -0.046602 0.008657
include -0.117632 0.044355 -0.011695 -0.026382 -0.121680 0.042134 0.274609 0.042819 -0.136115 0.091932 0.006557 0.122996 0.014755 0.116959 -0.028254 -0.121103 -0.004806 -0.090826 0.012331 0.194068 0.011875 -0.297087 -0.117842 0.006002 -0.075938 0.030234 -0.024664 -0.017015 -0.016716 0.027267 0.004582 -0.034413 -0.136244 -0.032231 -0.064251 0.016648 0.069656 -0.139623 0.180046 -0.115068 0.159181 0.103704 -0.074938 0.025430 0.027373 -0.084895 -0.134974 -0.004181 -0.080005 -0.014316
liability 0.012611 -0.118573 -0.041679 -0.093208 -0.379464 -0.033783 0.053336 -0.167098 0.127719 0.022572 -0.070491 -0.027000 -0.052251 0.160470 0.120580 0.168199 -0.205413 -0.082349 -0.073776 -0.151462 0.003207 -0.022905 -0.016937 0.154549 -0.185090 0.324838 -0.070149 0.043497 -0.253767 0.143564 -0.136735 0.374025 0.059238 -0.069397 0.009511 -0.158512 0.060027 -0.223663 0.115849 -0.208770 -0.229807 -0.142031 0.198619 0.138639 -0.170358 -0.261248 -0.187519 0.129097 -0.105306 -0.011299
same 0.244416 -0.281511 0.104709 -0.133661 -0.127929 -0.010677 0.013126 -0.222121 -0.003179 -0.156814 -0.130953 -0.048844 -0.195655 0.100507 0.062459 0.205778 0.143959 -0.068308 -0.014444 0.083471 0.029260 -0.052926 0.120092 0.006589 -0.119760 0.015690 0.049548 -0.038519 0.032612 0.067590 0.164895 0.104670 -0.184319 -0.114095 -0.278938 0.261000 -0.021782 0.225709 -0.035336 -0.305875 -0.251269 0.152522 -0.039124 -0.088628 -0.019858 -0.042504 0.239251 0.006164 -0.162457 -0.017165
tax 0.009018 -0.031314 -0.128019 0.012697 -0.136699 -0.044000 0.043503 -0.154045 0.100278 0.023465 -0.135579 0.081596 0.095971 0.067656 -0.028104 -0.099680 -0.091641 -0.050222 0.006529 -0.049791 -0.047151 0.039371 0.027630 0.005566 -0.060808 0.111649 0.035925 0.042113 -0.011241 -0.023125 -0.141596 0.006948 0.130984 0.017585 -0.003676 -0.127156 0.118711 -0.169751 0.105370 -0.067262 0.070169 -0.140890 -0.021470 0.039288 -0.097562 -0.092167 -0.089173 -0.084316 0.005764 -0.028093
ttd 0.177954 -0.094020 -0.147797 0.018679 -0.151850 -0.071327 -0.217360 -0.249685 0.140740 -0.059031 -0.103797 -0.089240 0.045541 0.000771 0.156599 0.148255 -0.125480 0.046337 0.016324 -0.300655 -0.083714 0.196204 0.110463 0.068482 -0.128524 0.249150 0.064095 -0.006980 -0.137726 0.111535 -0.151769 0.202278 0.203464 0.048075 0.024686 -0.095576 0.044675 -0.093033 0.016823 -0.060728 -0.218145 -0.256535 0.160807 0.049468 -0.174941 -0.020095 -0.013882 -0.019803 -0.042967 -0.024398
NSEIT 0.080072 -0.206355 -0.007286 0.016041 -0.253527 -0.030911 -0.062453 -0.229231 0.173525 -0.128679 -0.106845 -0.003528 -0.033559 0.137520 0.128216 0.049071 -0.119061 -0.133500 0.014180 -0.179700 -0.108699 0.105162 0.052360 0.081092 -0.226405 0.304034 0.066611 -0.003077 -0.128922 0.108750 -0.131233 0.166906 0.121744 -0.057615 -0.064645 -0.110794 0.067010 -0.155643 0.056177 -0.115979 -0.256211 -0.181484 0.136346 0.114531 -0.174185 -0.139647 0.004683 -0.003835 -0.057309 -0.019371
about -0.079387 0.002894 -0.419527 -0.004341 0.126022 -0.157425 0.107690 -0.071734 0.023206 0.204154 -0.203788 0.223141 0.124895 -0.041092 -0.100899 -0.330971 -0.087190 0.225945 -0.069205 0.149487 -0.005571 -0.083733 0.035418 -0.162949 0.043938 -0.101778 -0.059257 0.156084 -0.006735 -0.145918 -0.112370 -0.413440 0.135102 0.040837 0.004022 -0.091889 0.067269 -0.072082 0.084346 0.331366 0.360848 -0.200246 -0.185995 0.061592 0.048551 0.267659 -0.007120 -0.117151 -0.113598 0.101128
advance -0.019424 0.044978 -0.099042 0.016961 -0.383750 -0.037923 0.155402 -0.199579 0.178403 0.201332 -0.170172 0.023569 -0.048325 0.170692 0.032433 0.031574 -0.188423 -0.155791 -0.102810 -0.197937 -0.185305 -0.162448 0.018694 0.044145 -0.328585 0.294596 -0.081932 0.051855 -0.216217 0.105818 -0.146230 0.291810 0.078717 -0.093843 0.035073 -0.138151 0.121073 -0.378496 0.181552 -0.167462 0.006826 -0.149475 -0.047102 0.090497 -0.203216 -0.250279 -0.228631 0.078738 -0.084078 -0.054660
applicable 0.093203 -0.128112 0.011382 -0.016083 -0.068592 -0.031862 -0.140710 -0.121900 0.054889 -0.137001 0.012259 -0.003922 0.054711 0.041023 0.051862 -0.012526 -0.006388 0.036452 0.105975 -0.071491 -0.015468 0.161588 0.041587 0.058616 -0.037228 0.126126 0.047635 -0.031719 0.012030 0.015960 -0.062691 0.062221 0.046147 -0.001531 -0.025877 -0.010250 0.007161 -0.044929 -0.000903 -0.072200 -0.111165 -0.067571 0.135775 -0.003971 -0.054859 -0.007287 0.042443 -0.055279 -0.009960 -0.061517
as -0.062545 0.044649 -0.101484 0.023403 -0.007324 -0.021495 0.075557 -0.054290 0.039891 0.121331 -0.157176 0.038199 0.008221 0.019393 -0.039780 -0.101896 -0.012773 -0.045631 -0.034730 -0.003324 -0.110036 -0.043364 0.029070 -0.077982 -0.071931 -0.010464 -0.008365 0.089830 -0.009667 -0.029358 -0.055390 -0.063881 0.108057 -0.039559 -0.010265 -0.034933 0.075179 -0.097634 0.064782 0.056441 0.154239 -0.064679 -0.148441 0.019716 -0.031004 -0.043814 -0.059492 -0.051104 -0.042601 0.010331
ayurveda 0.112264 -0.244009 -0.019670 0.077268 -0.289134 -0.071461 -0.140641 -0.337572 0.235822 -0.178318 -0.183127 -0.029183 -0.025883 0.117089 0.221739 0.066574 -0.135778 -0.190568 0.055389 -0.353484 -0.176026 0.154488 0.148830 0.093441 -0.395541 0.416577 0.099723 -0.022190 -0.106160 0.182172 -0.192920 0.272113 0.239970 -0.109157 -0.054356 -0.114507 0.134081 -0.246465 0.127612 -0.199980 -0.326475 -0.262388 0.160942 0.091216 -0.258814 -0.225854 0.035997 -0.090163 -0.087734 -0.066111
benefit 0.010378 -0.078400 -0.158183 0.040101 -0.353819 -0.082428 0.038108 -0.284353 0.198696 0.013332 -0.213320 0.065043 0.097137 0.158014 0.050583 -0.083194 -0.252708 -0.099514 -0.036261 -0.183095 -0.132068 0.020216 0.039028 0.064012 -0.228251 0.347549 0.035674 0.029176 -0.171968 0.072578 -0.268468 0.207990 0.238933 -0.020281 0.030966 -0.267948 0.197396 -0.361013 0.208050 -0.133687 -0.038582 -0.296695 0.083254 0.111112 -0.223948 -0.223420 -0.179728 -0.063265 -0.026190 -0.041384
buy -0.113352 0.284742 0.030534 0.026727 0.068283 0.063142 0.241283 0.232600 -0.113622 0.244384 0.145543 -0.075247 -0.046094 -0.111087 -0.077885 0.139926 -0.041523 -0.024500 -0.119607 0.046917 0.012664 -0.270211 -0.067900 -0.060385 0.044781 -0.148392 -0.129169 -0.001220 -0.162342 0.031432 0.091535 0.044505 -0.120598 0.048388 0.175855 0.008531 -0.091866 0.013376 -0.012120 0.041168 0.111383 0.159578 -0.156403 -0.000201 0.063325 -0.039593 -0.223143 0.158414 0.001367 0.048509
cancel -0.185404 0.253978 0.078294 -0.039011 0.044054 0.100357 0.275692 0.328762 -0.116320 0.234884 0.178154 -0.023238 -0.088022 -0.077898 -0.144896 0.092687 -0.079239 0.023786 -0.177567 0.155372 0.128608 -0.275796 -0.205099 0.005160 0.139175 -0.157733 -0.248452 0.030186 -0.159788 -0.000129 0.124541 0.073546 -0.186455 -0.009753 0.144925 0.006337 -0.115641 0.029004 -0.065502 0.051230 0.164043 0.160317 -0.112635 0.033709 0.089913 -0.057692 -0.235463 0.271650 0.019284 0.077862
employment 0.067051 -0.182706 -0.002829 -0.004038 -0.175369 -0.075427 -0.001081 -0.239379 0.116350 -0.103059 -0.118849 0.061465 -0.114318 0.121323 0.104137 0.023990 -0.041675 -0.157867 0.003140 -0.067775 -0.080503 0.065005 0.097776 0.059912 -0.191490 0.191469 0.045282 -0.007169 -0.020471 0.053854 -0.079943 0.091756 0.088505 -0.108518 -0.029277 0.031469 0.094863 -0.063445 0.050334 -0.192918 -0.106984 -0.124918 -0.053294 -0.064509 -0.187680 -0.137256 0.031208 -0.091223 -0.119137 -0.000292
exclusions 0.050715 -0.120113 -0.039192 0.037499 -0.117878 -0.000680 -0.100913 -0.147702 0.167630 -0.070376 -0.020170 0.001932 -0.047184 0.016868 0.022478 0.070186 -0.023947 0.038450 0.001285 -0.230999 -0.032178 0.132385 0.079271 0.104879 -0.085724 0.104457 0.043743 -0.041700 -0.070253 0.048319 -0.136577 0.155155 0.095418 -0.016266 0.023312 -0.095182 0.045216 -0.038786 -0.017985 -0.123404 0.003566 -0.162242 0.103128 0.053797 -0.141790 -0.046482 0.026846 0.022362 -0.026954 -0.025733
free 0.133676 -0.191893 -0.032660 -0.054584 -0.313383 -0.050696 0.114264 -0.286168 0.069348 -0.078899 -0.160366 -0.012399 -0.035733 0.153834 0.073799 0.119302 -0.120464 -0.212147 0.007808 -0.062905 -0.113099 -0.094038 0.119972 -0.008196 -0.286301 0.279667 0.051281 -0.041121 -0.163980 0.192565 -0.053837 0.242535 0.042040 -0.097908 -0.082693 -0.003885 0.072649 -0.102370 0.166391 -0.285635 -0.215830 -0.066172 -0.052310 0.017035 -0.136923 -0.230041 -0.032564 -0.048408 -0.114545 0.018954
happens 0.157143 0.250819 -0.340441 0.023334 0.534892 -0.036355 -0.297324 0.078596 -0.065554 0.185170 -0.009794 -0.086538 0.054122 -0.389831 -0.093551 0.037204 0.171129 0.472957 -0.072679 -0.129383 -0.095340 0.184005 0.125447 -0.145737 0.361759 -0.391510 0.013364 0.044714 0.033802 -0.188661 0.051401 -0.323446 0.114653 0.171427 0.178182 0.118651 -0.096694 0.319832 -0.284361 0.439823 0.278166 -0.072764 -0.113425 -0.094049 0.114452 0.497121 0.125606 0.044424 0.093469 0.121905
loss -0.025360 -0.049774 -0.163089 0.052354 -0.236336 -0.087560 -0.060676 -0.228132 0.135167 -0.056549 -0.070417 0.059962 0.124004 0.119397 0.082603 -0.123042 -0.219110 -0.030977 0.022246 -0.199448 -0.117100 0.097871 0.015474 0.083980 -0.146858 0.310739 0.071253 0.034188 -0.100625 0.069045 -0.260643 0.127063 0.252112 0.004645 0.056482 -0.220900 0.123368 -0.288827 0.163002 -0.020063 -0.013087 -0.257351 0.155961 0.073372 -0.133829 -0.145221 -0.125067 -0.108973 0.008817 -0.033812
spouse -0.188167 0.012549 0.009353 0.010863 -0.253623 0.027615 0.378657 0.022912 -0.060722 0.089885 0.029177 0.090932 -0.068605 0.182537 0.023448 -0.018140 -0.112710 -0.309460 -0.052857 0.166132 -0.069879 -0.406471 -0.079081 0.056235 -0.280416 0.216913 -0.082327 -0.031650 -0.210579 0.149075 -0.026257 0.130447 -0.078527 -0.058828 0.049588 -0.051065 0.087916 -0.270731 0.263338 -0.177409 -0.038524 0.047629 -0.084271 0.054721 -0.086341 -0.278668 -0.249509 -0.025326 -0.149644 0.040569
was -0.091918 0.122624 -0.213356 -0.038734 -0.090800 -0.003358 0.206699 -0.039776 0.041253 0.280057 -0.089650 0.094836 -0.080146 -0.028795 -0.112138 0.034542 -0.095816 0.048547 -0.169881 0.002649 -0.018029 -0.229791 0.039915 -0.029567 -0.026022 0.041893 -0.113560 0.064372 -0.189717 0.026005 -0.074939 -0.006033 0.014600 -0.045145 0.088449 -0.057070 0.073400 -0.137331 0.107266 -0.040136 0.268587 -0.112842 -0.207147 0.033561 -0.068355 -0.060569 -0.223477 0.097325 -0.103527 0.076900
Fire 0.018409 -0.037680 -0.147777 -0.044672 -0.361740 -0.081865 0.093556 -0.233852 0.127707 0.023950 -0.195381 0.077946 0.025376 0.192564 0.016634 -0.028386 -0.165506 -0.195893 -0.020506 -0.104196 -0.104656 -0.131396 0.075883 0.019023 -0.277772 0.295485 0.022517 -0.017775 -0.186425 0.126884 -0.173086 0.195103 0.152537 -0.137895 -0.020552 -0.143669 0.143163 -0.329608 0.249929 -0.203161 -0.023609 -0.170041 -0.064974 0.112701 -0.195758 -0.246802 -0.170506 0.015086 -0.086510 -0.029596
Int_Motr_How_Claim 0.011399 0.002609 0.008036 0.007389 0.007063 0.007050 0.010071 -0.011688 -0.007667 0.002979 -0.013514 -0.015158 -0.013028 0.001392 -0.014612 0.003996 0.006166 -0.016085 -0.007905 -0.007281 -0.001809 0.002431 -0.003745 -0.000221 -0.013188 0.005964 0.010531 0.012753 0.002431 -0.006406 0.003234 0.017212 -0.003434 -0.008693 0.009590 0.009578 -0.002671 -0.012745 0.009566 0.012293 0.003562 -0.003147 -0.002921 -0.016821 0.000602 -0.005073 -0.002798 0.002451 -0.013058 -0.006150
add -0.191149 0.092772 -0.148941 0.033390 -0.218389 -0.002356 0.218967 -0.020974 0.014844 0.127366 -0.011562 0.135658 0.062497 0.127951 0.002875 -0.152412 -0.179431 -0.110440 -0.029879 0.039168 -0.062687 -0.235161 -0.078534 0.048009 -0.160128 0.196439 -0.021325 0.036512 -0.171450 0.052778 -0.172329 0.024462 0.067392 0.005778 0.104368 -0.187771 0.133978 -0.329624 0.192803 0.001523 0.106936 -0.137944 0.006240 0.108174 -0.071484 -0.134593 -0.276068 -0.049577 -0.042289 0.029302
again -0.044773 -0.072468 -0.141863 0.013999 -0.047786 -0.039565 0.084670 -0.139301 0.055018 0.069893 -0.131217 0.106710 -0.012268 0.106090 0.044037 -0.129253 -0.053101 -0.044048 -0.022682 -0.040179 -0.127471 -0.071662 0.054572 -0.021208 -0.156579 0.105705 0.021489 0.059175 -0.075487 0.008661 -0.065936 -0.112916 0.072788 -0.040186 -0.062428 -0.066309 0.099389 -0.136078 0.079468 0.054947 0.058912 -0.128882 -0.066991 0.072662 -0.083065 -0.017883 0.007602 -0.089381 -0.094056 0.031657
agency 0.016923 -0.070481 -0.048579 -0.040306 -0.318747 -0.028904 0.129546 -0.251035 0.152587 0.083444 -0.188438 0.092241 -0.063893 0.196970 -0.017809 -0.062329 -0.060952 -0.158192 -0.014812 -0.083488 -0.158830 -0.125135 0.069227 0.077222 -0.298432 0.237336 -0.012352 0.031619 -0.063443 0.075418 -0.123093 0.146031 0.048155 -0.120941 -0.050751 -0.050962 0.138251 -0.259352 0.165128 -0.211309 -0.042540 -0.090309 -0.099401 0.020374 -0.168016 -0.253512 -0.121747 -0.034103 -0.105077 -0.047621
apply -0.252990 0.018761 0.131174 0.066592 0.025501 0.051212 0.101168 0.226619 -0.090368 -0.020264 0.195331 0.071496 0.001200 0.051140 -0.002011 -0.203864 -0.035231 -0.066042 0.024929 0.167165 0.109260 -0.046822 -0.183183 0.084018 0.034003 -0.038566 -0.095617 -0.002972 0.038470 -0.051577 0.005309 -0.062717 -0.079964 -0.015502 0.049286 -0.054365 -0.011241 -0.072746 0.013407 0.056401 0.049163 0.053809 0.104633 0.023082 0.035631 -0.022306 -0.058365 -0.011788 0.022515 0.013595
basic 0.057588 -0.269130 0.238689 -0.098679 -0.231260 0.061206 0.064124 -0.060771 -0.011076 -0.207907 0.078008 -0.038171 -0.132516 0.163702 0.083790 0.133649 0.004569 -0.156886 0.011290 0.114915 0.167667 -0.093054 -0.072081 0.159256 -0.098281 0.103706 0.001718 -0.124307 0.012103 0.118102 0.098558 0.224691 -0.225012 -0.090737 -0.177788 0.079212 -0.013994 0.091165 0.001476 -0.381604 -0.299734 0.135277 0.139422 -0.013247 -0.005015 -0.136300 0.102698 0.074701 -0.092822 -0.024423
