i -1.065629 -0.014534 0.761806 0.489027 -0.040004 -0.422420 0.223250 -0.844084 0.530386 0.433982 -0.482182 -0.130157 -0.027169 -1.206481 0.615768 1.010242 -1.773776 0.760333 -0.123699 0.123794 0.220946 -0.592905 -1.111071 -0.747450 0.300633 0.953578 -0.152859 -0.891810 -0.662590 0.985249 -0.613323 -0.087531 0.585263 0.300207 -1.614599 -0.212472 0.598146 0.098516 -0.458335 -1.291921 -0.242829 -0.216167 0.385752 0.101299 0.266919 -0.768777 -0.093384 0.005295 -0.048965 0.585197
policy -0.142784 -0.022780 -0.620355 0.135640 0.035749 0.525852 0.768711 -0.854376 0.587089 -0.467886 0.032979 0.662508 -0.022740 -0.284628 0.083772 0.152356 -0.675835 0.702478 -0.512865 -0.108950 -0.134152 0.106733 -0.096378 0.076760 0.565117 -0.371730 0.003295 -0.599622 -0.484134 -0.095278 -0.103240 -0.308090 -0.710304 1.300574 -0.508555 0.266565 1.223991 -0.007904 0.141737 -1.253104 0.963305 -0.797631 -0.526026 -0.229857 -0.967589 0.226992 0.179557 -0.552488 0.417597 0.970757
the -0.856519 0.712882 -0.509199 -0.454125 0.341110 0.191787 -0.655607 -0.880090 0.557852 -0.001300 0.193019 0.261738 0.125881 -0.537113 -0.030353 0.524840 -0.665906 0.330393 0.277694 -0.060620 -0.478841 -0.520479 -0.429490 0.466868 0.471013 -0.150044 -0.541398 -0.207882 -0.597335 -0.357797 -0.346425 -0.281327 -0.227808 -0.346057 -1.073400 0.412315 -0.166804 0.455054 0.282057 -0.788758 1.699098 -0.481297 1.071410 0.505562 -0.112881 -0.532705 0.728020 0.364252 -0.234774 0.930124
is -0.789424 0.970797 -0.490721 -0.003487 0.030831 0.163130 -0.519212 -1.113695 -0.307121 0.018852 0.364226 0.350735 0.474631 -0.288553 0.007876 0.320004 -0.195313 0.248238 -0.045704 -0.111945 -0.033718 -0.532920 -0.033311 0.616482 0.442373 -0.164464 -0.626747 0.023469 -0.052569 0.349654 0.344476 0.162355 -1.037570 0.012164 -0.384889 0.928723 -0.164818 0.905985 0.584942 -0.145812 1.485409 -0.509078 0.786815 0.757335 -0.749689 0.089803 0.547070 0.474493 -0.012970 0.548542
what -0.779819 0.724800 -0.825304 -0.491693 -0.116830 -0.439475 -0.793955 -0.953737 0.062690 0.427753 0.153481 0.417238 0.885427 -0.400867 0.244960 0.920921 -0.920299 -0.115451 0.486269 0.570017 -0.389992 -0.623450 -0.117982 0.342899 -0.380337 -0.217184 -0.982887 -0.171830 -0.205747 -0.327472 -0.128548 0.415766 -0.165571 -0.116975 -0.732554 0.874637 -0.265388 0.737050 0.140309 -0.999854 1.316736 -0.448540 0.107579 1.158341 -0.565556 -0.068010 0.639286 -0.030574 0.016289 0.427180
for -1.012473 0.248540 -0.290727 -0.076435 0.549473 0.672179 0.389747 -0.749289 0.287177 0.258159 0.083224 0.081569 0.253540 -0.093006 0.002169 0.421487 -0.027887 -0.063131 0.038791 0.133473 -0.120789 0.045481 -0.402170 0.791263 0.461589 -0.219549 -0.057529 0.630371 -0.538199 -0.422223 0.099387 -0.114812 -0.368950 0.317112 -0.315546 0.257327 0.666772 0.340684 -0.138269 -0.438612 0.975024 -0.685591 -0.003201 -0.079356 -0.495931 0.062855 0.194830 0.283183 -0.001281 1.000094
to -1.028359 0.349255 0.246055 0.540920 0.193561 0.094758 0.376539 -1.395703 -0.335121 -0.222739 0.021558 -0.156602 0.217454 -1.068828 0.100039 0.152305 -0.783920 0.535165 -0.532341 -0.882104 0.450754 0.032843 -0.804146 0.007775 0.662894 0.867915 0.221303 -0.163363 -0.301210 0.627516 0.268658 -0.227125 -0.629205 0.449199 -0.133937 1.115241 0.505123 0.839236 0.673188 0.331566 0.475413 -0.369387 0.654765 -0.202381 -0.164087 -0.800595 0.165519 0.437124 0.041190 -0.062196
a -0.467360 -0.067820 0.456482 0.539916 0.144527 0.516504 0.636439 -0.916876 0.161591 0.117286 -0.111067 0.398216 0.054762 -0.293609 0.241086 0.324247 -0.643822 0.609996 -0.514824 -0.206289 0.263960 -0.235893 -0.374899 -0.141809 0.376431 0.171101 0.169958 -0.281839 -0.328195 0.578710 -0.031208 -0.303391 -0.387383 0.900870 -0.583090 0.037682 0.533099 0.182205 -0.410997 -0.982964 0.250806 -0.458200 -0.015008 -0.141350 -0.589222 0.174874 -0.118367 0.026254 0.211999 1.001004
do -0.810433 0.216708 -0.164912 0.115745 -0.029038 -0.608423 0.030304 -1.288542 -0.259564 0.541804 -0.133320 0.141390 1.052410 -0.759141 0.578967 0.992377 -1.648139 -0.138756 0.093906 0.293768 0.278648 0.090998 -0.865746 -0.046912 -0.254373 0.243038 -0.441287 -0.399466 -0.427306 0.254375 0.059544 0.039968 0.270413 0.764661 -0.761909 0.865607 0.467251 0.466384 -0.667574 -1.066645 -0.208282 -0.316198 -0.549083 0.603610 -0.478831 -0.670388 0.328499 -0.235408 -0.088880 0.219070
of -0.223466 0.559160 -0.453059 -0.111314 0.341874 0.061901 -0.625619 -0.601260 -0.021903 -0.047280 0.558764 0.190026 -0.170626 -0.018608 -0.068016 0.091400 -0.325223 0.096636 -0.246046 -0.284386 -0.202166 0.100241 0.007743 0.396107 0.138465 -0.647607 -0.231654 -0.305558 -0.453932 -0.249984 0.305661 -0.849592 -0.276085 -0.039407 -0.743662 0.435043 -0.060642 0.049175 -0.011757 -0.831981 1.339959 -0.105534 0.851620 0.667331 -0.582429 -0.434052 0.450661 0.197006 -0.561912 0.957193
can -0.770492 0.305543 0.443263 0.372094 0.043037 -0.127335 0.137854 -0.906085 0.351202 0.128050 -0.133664 0.234402 0.050829 -0.697608 0.426299 0.613487 -1.237042 0.424226 -0.284832 0.070734 0.177887 -0.666622 -0.791086 -0.503125 0.361359 0.388693 0.111638 -0.608347 -0.395381 0.609125 -0.257882 -0.158996 0.066831 0.435437 -0.789078 0.072816 0.583961 0.062856 -0.202924 -0.738732 0.035965 -0.301756 0.244680 0.226946 -0.142622 -0.219620 0.067375 -0.203429 0.046810 0.818710
get -0.784183 0.249473 0.526655 0.192796 0.235322 0.099939 0.141006 -0.823905 0.517258 0.077571 -0.160973 0.094436 -0.271462 -0.608334 0.256573 0.579490 -1.064279 0.505976 -0.206401 -0.096636 0.192045 -0.659984 -0.735615 -0.278326 0.568299 0.219950 0.341050 -0.477345 -0.426192 0.438437 -0.295256 -0.489726 0.187916 0.257752 -0.909836 -0.221044 0.476946 -0.083098 -0.237116 -0.684829 0.181577 -0.444255 0.650078 -0.002129 0.058525 -0.278727 -0.034947 0.247527 -0.028294 0.920165
in 0.294909 0.020444 -0.422019 -0.206787 0.062118 0.238605 -0.028451 -0.537762 0.228801 -0.324640 0.275536 0.324559 -0.216271 -0.197681 0.064606 -0.043915 -0.569642 0.640027 -0.316939 -0.273193 -0.326784 0.076228 0.271614 0.073614 -0.007772 -0.312488 -0.233114 -0.808636 -0.132533 -0.135907 -0.282508 -0.539555 -0.285751 0.388332 -0.528695 0.330123 0.362064 0.089340 0.218546 -1.204049 1.119385 -0.447757 0.049677 0.183770 -0.684244 -0.063891 0.020185 -0.215279 -0.015170 0.493268
if -0.572524 -0.052991 0.398590 0.211552 -0.025968 -0.230034 -0.071953 -0.653029 0.399598 0.436114 -0.347524 -0.105185 0.201639 -0.691677 0.325999 0.589327 -1.078649 0.368490 0.025714 0.131509 0.028483 -0.481329 -0.710040 -0.278760 -0.181072 0.517036 -0.302487 -0.406604 -0.338096 0.493471 -0.359712 0.097040 0.370708 0.107300 -1.080936 0.024740 -0.030606 0.122980 -0.507907 -1.047681 -0.007001 -0.348100 0.177552 0.214214 0.007524 -0.394649 0.008302 0.155347 -0.080212 0.389255
how -0.963422 0.695364 0.280869 0.456508 -0.163551 -0.581170 -0.018920 -0.938298 -0.489912 0.504021 -0.091322 0.099218 0.769464 -0.554653 0.639598 0.949678 -1.067612 -0.228028 -0.018615 0.361611 0.440256 -0.633550 -0.714366 -0.470160 0.151258 0.316582 0.012224 -0.507348 -0.028054 0.757888 0.291651 0.096560 0.114743 0.265702 -0.114762 0.417283 0.248035 0.429599 -0.102636 0.144633 -0.486000 0.137878 0.291423 0.656668 -0.474473 -0.249438 0.299412 -0.121216 0.182278 0.312543
my -0.459447 0.156410 0.229394 0.315415 0.199922 0.050484 0.192588 -0.415970 0.149853 -0.039386 0.000656 -0.133788 -0.424474 -0.252829 0.095476 0.164243 -0.562680 0.543588 -0.306381 -0.099040 0.100778 0.096999 -0.180962 -0.102469 0.452896 0.123793 -0.127065 -0.153911 -0.592498 0.719997 0.174542 -0.443706 -0.374396 0.299605 -1.158964 -0.266882 0.760332 -0.178551 -0.194944 -0.801716 0.012996 0.002222 -0.018980 -0.004933 0.026091 -0.129194 -0.133839 -0.056996 -0.038035 0.551748
does -0.292724 0.175128 -0.984864 -0.064417 -0.224467 -0.415350 0.246172 -1.270791 -0.575847 0.241873 0.062956 0.318097 1.377667 -0.176715 0.319377 0.567041 -0.640873 -0.659987 0.066243 0.183302 -0.034126 0.473164 -0.415310 0.216464 -0.439222 -0.470512 0.122370 -0.286934 0.205799 -0.834138 0.662560 -0.116430 0.128978 0.984302 0.722556 1.301280 0.112238 0.522577 -0.059598 -0.137073 -0.045549 -0.477480 -0.814574 0.440625 -1.316739 -0.252236 0.539671 -0.455554 0.217650 0.191920
insurance -0.516002 0.054122 -0.241638 0.133763 0.212234 0.121253 0.332600 -0.424941 0.141014 0.038350 0.009137 0.083778 -0.117452 -0.171074 0.093047 0.248532 -0.655719 0.469817 -0.275953 0.087051 0.029025 0.277758 0.039244 0.091181 0.257163 -0.162899 -0.408839 -0.153573 -0.495166 0.385137 0.148856 -0.476840 -0.398593 0.602897 -1.093485 -0.160060 0.930746 -0.032042 -0.136915 -1.252242 0.487938 -0.185185 -0.479423 0.007506 -0.446457 -0.091955 -0.115963 -0.119143 0.209844 0.626362
you -0.494069 0.143794 -0.719937 -0.167407 -0.048491 -0.614654 0.136401 -1.335922 -0.592205 0.507850 -0.031337 0.287444 1.614653 -0.398250 0.486044 0.871254 -1.272256 -0.684643 0.230956 0.362576 0.229145 0.481514 -0.704011 0.318740 -0.570596 -0.131721 -0.335934 0.025945 -0.204417 -0.444604 0.375698 0.155211 0.292913 0.947444 0.166834 1.367995 0.289089 0.579673 -0.732896 -0.578475 -0.375394 -0.426281 -1.122170 0.568206 -0.772050 -0.458993 0.519982 -0.356685 -0.019650 -0.095655
travel -0.270472 0.005864 -0.392556 0.057129 0.106111 0.339182 0.541593 -0.811354 0.223088 -0.244542 0.029055 0.322275 0.137162 -0.224974 0.092223 0.096693 -0.434714 0.341873 -0.246189 -0.179283 -0.135645 0.231678 -0.243511 0.086188 0.332357 -0.166393 0.195260 -0.283231 -0.277309 -0.368937 0.012836 -0.386978 -0.308757 0.840638 -0.183020 0.365246 0.587156 0.118446 0.054461 -0.595889 0.606031 -0.560867 -0.192882 -0.211308 -0.656291 -0.085013 0.169619 -0.189438 0.125208 0.699882
are -0.617146 0.483028 -0.598999 -0.611860 0.205097 0.397453 -0.496737 -0.355840 0.273221 0.096513 0.156083 0.321216 0.325728 -0.049244 -0.091868 0.441864 0.310026 0.144420 0.346147 0.320500 -0.630162 -0.717006 0.387362 0.484391 -0.217961 -0.012032 -0.754771 0.327539 0.107874 -0.533750 -0.417893 0.415921 -0.455828 -0.564650 -0.065675 0.414248 -0.493558 0.807896 0.537901 -0.373810 1.669103 -0.411279 0.178365 0.614846 -0.307986 0.398220 0.159623 0.377575 0.325981 0.356234
cover 0.023289 0.027536 -0.599090 -0.091077 -0.062515 -0.161797 0.109689 -0.606976 -0.145642 0.010788 0.187557 0.206046 0.593042 0.009614 0.118145 0.253900 -0.445633 -0.344819 0.017795 0.089315 0.009583 0.433881 -0.149832 0.199898 -0.142687 -0.419280 0.098454 -0.207210 -0.019141 -0.518750 0.276222 -0.234649 0.037850 0.638184 0.167636 0.602445 0.244858 0.027971 -0.166680 -0.339721 0.013717 -0.222135 -0.443152 0.184392 -0.666723 -0.220928 0.315429 -0.386969 0.002729 0.198602
claim -0.396721 0.292516 0.152789 0.152950 0.111941 0.034008 -0.072170 -0.323974 -0.136895 0.198521 0.134604 0.042198 -0.054611 -0.126376 0.146048 0.286939 -0.288560 0.163266 -0.133580 0.135585 0.052827 -0.076681 -0.031314 0.074241 0.323956 -0.078639 -0.218133 -0.100842 -0.285685 0.565292 0.210101 -0.203175 -0.294079 0.160784 -0.740857 -0.118717 0.390682 0.125502 -0.224520 -0.583410 0.220844 0.030903 0.203435 0.293620 -0.209260 0.037713 0.004272 0.051392 -0.030956 0.611353
will -0.993080 0.657812 0.339755 0.159701 -0.002168 -0.406425 -0.255534 -0.901826 0.009113 0.337540 -0.095414 0.155237 0.407439 -0.740296 0.473188 0.890718 -1.143423 0.131331 -0.005296 0.207411 0.131511 -0.900910 -0.685447 -0.403936 0.184424 0.416160 -0.148147 -0.468294 -0.216076 0.651926 -0.079027 -0.046294 0.217558 0.037901 -0.564146 0.204885 0.138754 0.389567 -0.045179 -0.253345 -0.051700 -0.115034 0.525438 0.516585 -0.068627 -0.334944 0.271473 0.063343 0.052547 0.450396
motor -0.262087 0.134921 -0.255298 0.163376 0.161343 0.103991 0.199240 -0.399651 -0.033056 -0.000954 0.173973 0.168225 -0.104652 -0.009267 0.064959 0.126270 -0.450492 0.430154 -0.287499 0.013923 0.020747 0.283749 0.204527 0.137471 0.167900 -0.265505 -0.418951 -0.116684 -0.429515 0.423166 0.273493 -0.343079 -0.539596 0.522357 -0.938584 -0.037052 0.743621 -0.011309 -0.151346 -1.130919 0.483055 -0.142261 -0.382536 0.201458 -0.506334 0.133434 -0.098847 -0.153629 0.103678 0.591212
an -0.271819 -0.113538 0.320536 0.364024 0.228702 -0.133254 0.064434 -0.252914 0.010607 0.185771 -0.047718 -0.478118 -0.614486 -0.387035 0.123740 -0.115561 -0.394127 0.297464 -0.452328 -0.317520 0.339949 0.092495 -0.209995 -0.073440 -0.006233 0.085588 0.308051 -0.258430 -0.126301 0.250944 0.187469 -0.511773 0.131482 0.019561 -0.530112 0.055426 0.331084 -0.252275 -0.013322 -0.471459 0.374065 -0.176585 0.454266 -0.114042 -0.131030 -0.507057 -0.415024 0.171357 -0.337632 0.209082
by -0.076415 0.379234 -0.677344 -0.348066 -0.308325 -0.678688 -0.552728 -0.440250 -0.629907 0.355013 0.039159 0.317280 0.944743 0.025140 0.188988 0.383206 -0.352494 -0.420209 0.379605 0.469920 0.062207 0.047610 0.153337 0.230979 -0.409712 -0.140805 -0.852490 0.310194 0.075720 -0.028421 0.240136 0.704918 -0.199031 0.020182 0.187497 0.789265 -0.410622 0.529027 -0.192310 -0.039115 0.136080 -0.061910 -0.571147 0.869314 -0.229287 0.212394 0.366815 -0.129508 -0.045846 -0.522095
be -0.545643 0.545839 0.114153 0.053847 0.040819 -0.013867 -0.176572 -0.680188 0.091236 -0.164434 0.110795 0.322108 0.016507 -0.520205 0.189294 0.209366 -0.452653 0.370292 -0.215453 -0.176419 -0.092095 -0.835868 -0.320268 -0.295360 0.323940 0.270497 -0.073863 -0.245487 -0.046094 0.377410 -0.175571 -0.054727 -0.161472 -0.066491 -0.048925 0.295778 0.014416 0.441792 0.464673 0.006833 0.464692 -0.348714 0.566131 0.269091 -0.072703 -0.046122 0.154616 0.138568 0.082351 0.332955
premium -0.282620 0.282971 0.062870 -0.142479 0.262919 0.055268 -0.428772 -0.129585 0.370939 -0.139189 0.225880 -0.002214 -0.332148 -0.136732 -0.152060 0.058483 -0.249100 0.158113 -0.023059 -0.242200 -0.157811 -0.272572 -0.239898 0.159993 0.290564 -0.094778 -0.122977 -0.044018 -0.350024 0.075954 -0.326680 -0.457079 0.048400 -0.379483 -0.709381 -0.113787 -0.108495 -0.162038 -0.019704 -0.336021 0.606551 0.019937 0.880559 0.131784 0.329987 -0.334556 0.251125 0.314896 -0.382141 0.460675
it -1.020752 0.873620 -0.027572 0.569313 -0.090152 0.048332 0.222701 -1.502969 -0.633448 -0.292123 0.104090 0.178001 0.526500 -0.788295 0.137811 0.213636 -0.381333 0.257637 -0.490419 -0.700148 0.509500 -0.453876 -0.529254 0.080746 0.738546 0.555066 0.224409 -0.099955 0.258758 0.638461 0.575195 0.157916 -0.951959 0.520644 0.616747 1.378062 0.120902 1.182820 1.129523 0.981951 0.565739 -0.605707 0.692380 0.079978 -0.642537 -0.210643 0.335154 0.489560 0.256565 -0.059929
have -0.622186 -0.139373 -0.219263 0.171856 0.122472 -0.078795 0.582971 -0.951218 -0.171541 0.460373 -0.261443 0.070132 0.865895 -0.310522 0.327908 0.606841 -0.864990 -0.121823 0.013559 0.204197 0.109687 0.387847 -0.520543 0.107828 -0.338174 0.055090 -0.077336 -0.008824 -0.184233 -0.156989 0.140411 -0.152642 0.163537 0.903401 -0.140111 0.569134 0.503254 0.331405 -0.565684 -0.748602 -0.199027 -0.454338 -0.906198 0.002883 -0.728920 -0.308551 0.001778 -0.141751 0.256282 0.275858
take -0.433319 0.050497 0.173590 0.606185 0.004719 0.263503 0.833088 -0.909269 0.084980 -0.373246 -0.102232 0.215137 -0.033802 -0.507058 0.137682 -0.024865 -0.559786 0.470066 -0.609616 -0.485665 0.439681 0.022180 -0.552144 -0.295036 0.740040 0.383683 0.524370 -0.310502 -0.205464 0.402566 0.139596 -0.173834 -0.535684 0.978462 0.085534 0.470204 0.760984 0.207472 0.326386 0.039808 0.095307 -0.466645 0.043597 -0.452835 -0.417442 -0.128776 0.042262 -0.100646 0.231013 0.410935
should -0.939013 0.415086 0.147914 0.062128 -0.152105 -0.532322 -0.153387 -0.737797 -0.110886 0.383292 -0.187807 0.214950 0.657457 -0.720548 0.438924 0.842907 -0.967805 -0.030185 0.133403 0.320500 0.024195 -0.719240 -0.568343 -0.372359 -0.093890 0.671625 -0.350557 -0.186750 -0.092730 0.377895 -0.321288 0.525873 0.207552 0.012727 -0.243680 0.491959 0.030018 0.624703 0.128379 -0.179076 0.037503 -0.121948 0.062423 0.509703 -0.009542 -0.261015 0.243748 -0.060310 0.176534 0.016243
which -0.413041 0.166756 -0.383804 -0.372826 0.093043 0.173800 -0.146957 -0.225217 0.287000 0.042592 -0.036461 0.290852 0.186472 -0.172389 0.061079 0.402413 -0.056226 0.217389 0.141905 0.315412 -0.494480 -0.447954 0.211442 0.104653 -0.131678 0.052303 -0.436820 -0.022711 0.020469 -0.347648 -0.440975 0.243734 -0.121589 -0.151863 -0.202212 0.162612 -0.099013 0.435959 0.264204 -0.577855 1.005269 -0.285203 -0.056283 0.304018 -0.257847 0.192181 0.061301 0.012151 0.249073 0.368537
pa 0.071864 0.005421 -0.485225 0.064250 0.052481 0.414859 0.439848 -0.589690 0.235422 -0.428824 0.126037 0.344617 -0.009350 -0.102258 -0.058573 -0.132464 -0.189414 0.273048 -0.327543 -0.313713 -0.007450 0.275582 -0.007799 0.162746 0.397829 -0.315654 0.192912 -0.274741 -0.155339 -0.290320 0.071953 -0.318141 -0.512043 0.772608 0.041426 0.441283 0.557615 0.101479 0.249662 -0.378183 0.665970 -0.455114 -0.106755 -0.226968 -0.622573 -0.006628 0.209572 -0.237698 0.123967 0.438579
nia -0.127982 -0.075414 -0.732734 0.048365 -0.155158 -0.306627 0.557489 -1.131991 -0.558563 0.133504 -0.028701 0.186585 1.158209 -0.157512 0.291107 0.364813 -0.624560 -0.551998 -0.068299 -0.012610 0.088709 0.700496 -0.430942 0.124579 -0.396838 -0.297622 0.409888 -0.204640 0.196982 -0.747329 0.611369 -0.249527 0.191533 1.158792 0.798041 1.148525 0.255040 0.364425 -0.198301 -0.063624 -0.431641 -0.424779 -0.984834 0.029816 -1.119576 -0.292090 0.322430 -0.459969 0.218872 0.026554
NIA -0.033511 -0.011562 -0.530066 0.018909 -0.049871 -0.224629 0.175058 -0.639749 -0.411435 0.121202 0.132847 0.051434 0.645245 -0.069642 0.142027 0.111601 -0.214095 -0.491359 -0.152303 -0.061492 0.095427 0.524517 -0.195606 0.220984 -0.376779 -0.389750 0.278676 -0.090391 0.144495 -0.643375 0.619184 -0.249408 0.141647 0.619786 0.638016 0.837612 0.137992 0.152974 -0.071189 -0.012017 -0.065988 -0.287765 -0.498067 0.122756 -0.823413 -0.239013 0.189437 -0.272719 -0.048795 0.075299
health 0.192286 -0.102009 -0.329557 -0.075819 0.036807 0.176269 0.201668 -0.050705 0.136703 -0.173613 0.035964 0.189112 -0.185864 0.073074 0.003228 -0.079460 -0.258135 0.318956 -0.231190 -0.030383 -0.030533 0.262609 0.259724 0.031477 0.041276 -0.356118 -0.271027 -0.243016 -0.205779 -0.008718 0.023977 -0.289956 -0.264875 0.377274 -0.476806 -0.082112 0.475157 -0.155464 -0.139556 -0.864303 0.383078 -0.068150 -0.367255 0.031932 -0.377393 0.120475 -0.077488 -0.183796 0.058459 0.279184
mediclaim 0.440687 -0.120633 -0.613482 -0.279693 -0.114245 0.309757 0.187602 -0.037190 0.313301 -0.383686 0.262495 0.365755 -0.155259 0.204674 -0.157704 -0.188261 -0.000623 0.340970 -0.118708 -0.023225 -0.282153 0.171258 0.335731 0.242764 0.146580 -0.553161 -0.107200 -0.312891 -0.045753 -0.308673 -0.139887 -0.204179 -0.359489 0.366091 -0.113866 -0.017630 0.518749 -0.203826 0.258256 -0.613448 0.669019 -0.384643 -0.256121 -0.053899 -0.408760 0.358321 0.065158 -0.288353 0.173012 0.366344
on -0.115518 0.025216 0.138781 0.017125 0.189406 -0.016060 -0.145595 0.010659 0.179821 0.042072 -0.102700 -0.053876 -0.236602 0.025143 -0.083427 0.112957 -0.185086 0.067002 0.110364 0.001815 -0.048755 -0.030312 -0.170255 0.004871 0.083790 -0.013118 -0.011790 -0.074744 -0.151508 -0.004599 -0.005224 -0.249171 0.197346 -0.178157 -0.518800 -0.260025 -0.190499 -0.225943 -0.167729 -0.327476 -0.002398 0.009016 0.300392 -0.029446 0.137782 -0.248180 0.122888 0.098516 -0.127508 0.219067
mean -0.550042 0.359494 -0.229383 -0.055126 -0.197971 -0.701586 -0.325853 -0.797985 -0.566326 0.536763 -0.161303 0.099502 1.064206 -0.372509 0.366968 0.689030 -0.752478 -0.490003 0.335148 0.376107 0.246370 -0.142793 -0.448847 -0.002092 -0.412196 0.253016 -0.401289 0.139528 0.053573 0.023110 0.188996 0.531767 0.230809 0.103710 0.207762 0.891564 -0.349208 0.635921 -0.290748 0.153181 -0.294978 -0.113379 -0.321973 0.666081 -0.170191 -0.234313 0.323058 -0.020898 -0.067211 -0.379411
covered 0.278338 0.227279 -0.450767 -0.413995 -0.086840 0.190148 -0.291812 -0.082342 0.104398 -0.393812 0.303872 0.360164 -0.138635 0.086635 -0.097286 -0.151530 0.109232 0.372107 -0.010998 -0.025200 -0.392612 -0.303231 0.468239 0.213473 0.081731 -0.319788 -0.265074 -0.218089 0.127724 -0.158956 -0.209676 0.013968 -0.427317 -0.125551 -0.029386 0.121027 -0.021435 0.159254 0.571147 -0.275062 0.917844 -0.268734 0.200497 0.253028 -0.276709 0.352195 0.081321 0.010574 0.143632 0.168434
from -0.121677 -0.042058 0.216423 0.055642 0.105575 0.113197 0.075845 -0.045837 0.297296 -0.039983 -0.075855 0.038473 -0.300227 -0.060860 0.070653 0.116458 -0.238094 0.229826 -0.101686 0.009639 0.029688 -0.170199 -0.046658 -0.187530 0.208024 -0.058833 0.099379 -0.133854 -0.229593 0.165846 -0.084962 -0.283662 0.020227 0.126682 -0.443989 -0.366781 0.344638 -0.253882 -0.161215 -0.398038 -0.004197 -0.000703 0.069078 -0.060437 0.112584 0.015714 -0.117966 -0.050010 0.046361 0.382203
accident 0.349079 -0.200086 0.157770 0.109156 0.138510 -0.061162 -0.077364 0.218798 0.023575 0.039330 0.105971 -0.242789 -0.622750 -0.016885 0.002204 -0.252665 -0.091254 0.205236 -0.301665 -0.207712 0.075497 0.203038 0.240982 -0.123044 -0.193008 -0.164382 0.082837 -0.344026 -0.047609 0.067367 -0.000271 -0.459224 0.171391 -0.097248 -0.425873 -0.221998 0.101706 -0.388690 -0.089863 -0.575687 0.311810 0.067054 0.239774 -0.026952 -0.039056 -0.205095 -0.370884 -0.033886 -0.283109 0.120462
under 0.324198 0.065549 -0.618279 -0.418183 -0.086287 0.277563 -0.079657 -0.019174 0.235092 -0.420120 0.319523 0.354536 -0.174977 0.165464 -0.148818 -0.149750 0.113136 0.387555 -0.020202 0.004188 -0.389477 -0.078847 0.498939 0.282871 0.178060 -0.463307 -0.233543 -0.205856 0.053237 -0.299160 -0.157460 -0.079702 -0.477671 0.068948 -0.086369 0.054682 0.237899 0.021184 0.535633 -0.460151 0.965445 -0.299046 0.012740 0.068719 -0.335421 0.388524 0.091575 -0.101152 0.179180 0.274447
when -0.531810 0.139239 0.353234 0.121298 -0.046156 -0.296675 -0.078707 -0.327470 0.211639 0.294699 -0.256452 -0.009847 0.101324 -0.565434 0.329587 0.564122 -0.834740 0.261550 0.005964 0.157867 0.023861 -0.446501 -0.496957 -0.361410 0.116264 0.443042 -0.189823 -0.417002 -0.229610 0.505569 -0.321578 0.021836 0.310312 0.052344 -0.664151 -0.156732 0.101679 0.092432 -0.196565 -0.453328 -0.196208 -0.070418 0.148979 0.183378 0.224219 -0.326454 0.040596 -0.027631 0.045641 0.193798
am -0.062479 -0.469742 0.728679 0.299672 -0.211285 -0.225598 0.186562 0.117112 0.390474 0.318230 -0.542856 -0.351821 -0.154416 -0.515227 0.195622 0.268884 -0.754332 0.361040 0.143501 0.009411 0.109898 -0.119284 -0.611820 -0.508354 -0.042162 0.712646 0.114898 -0.471542 -0.131551 0.557535 -0.454087 0.159163 0.709106 -0.002609 -0.643028 -0.466029 0.057644 -0.149403 -0.401706 -0.370867 -0.792090 0.011140 0.062846 -0.354121 0.482729 -0.393805 -0.160816 -0.064091 -0.044600 -0.162975
any -0.491013 0.151258 -0.113466 -0.130829 0.155662 0.139891 0.161013 -0.522568 -0.018219 0.356163 -0.157880 0.209538 0.655101 0.017708 0.140285 0.532870 -0.115197 -0.249489 0.251257 0.296810 -0.090143 -0.323126 -0.138330 0.085636 -0.455117 -0.004622 -0.008893 0.272010 0.194617 -0.345683 -0.054001 0.149906 0.111043 0.232940 0.403172 0.361727 -0.135117 0.424668 -0.216376 -0.061061 0.101289 -0.340860 -0.405688 0.218370 -0.446523 0.221569 -0.055066 0.181327 0.360521 0.213481
not -0.315988 -0.075073 0.058684 0.141565 -0.149771 -0.243283 0.080512 -0.496616 -0.054131 0.375904 -0.255693 -0.023520 0.510638 -0.397352 0.299604 0.453666 -0.709002 0.087734 0.100955 0.170332 -0.005486 -0.040210 -0.406987 -0.136938 -0.181715 0.266245 -0.239302 -0.307612 -0.063351 0.255021 -0.101908 0.105091 0.258566 0.253120 -0.376294 0.186250 0.053968 0.199698 -0.311959 -0.489958 -0.261776 -0.165544 -0.232057 0.138218 -0.213361 -0.310705 0.038622 -0.085312 0.105980 0.006419
there -0.605631 0.390913 -0.113782 -0.030262 0.147236 0.396809 0.055319 -0.704272 -0.004809 0.262185 -0.015274 0.397673 0.537095 0.011073 0.072644 0.459918 0.028357 0.030695 0.076068 0.170006 -0.113757 -0.563442 -0.032986 0.202341 -0.167927 -0.004563 -0.158638 0.260151 0.164456 -0.062810 -0.008283 0.208381 -0.358200 0.180010 0.227359 0.418806 -0.190663 0.641664 0.026359 -0.164590 0.647352 -0.465983 -0.050723 0.342339 -0.641516 0.440873 0.024870 0.309045 0.388957 0.529527
coverage -0.555147 0.303412 -0.261573 -0.162697 0.181501 0.172059 -0.035321 -0.673754 0.116151 0.125922 0.083389 0.269473 0.372244 -0.170162 0.065616 0.363714 -0.403517 -0.010379 0.060678 0.096351 -0.069709 -0.184657 -0.247531 0.401323 0.183255 -0.188816 -0.157087 0.098928 -0.245591 -0.195034 0.010388 -0.044675 -0.199563 0.216119 -0.270828 0.417265 0.193890 0.349278 -0.100215 -0.395917 0.669819 -0.464041 0.102567 0.290544 -0.369549 0.028749 0.280598 0.155204 0.021901 0.538519
possible -0.821221 0.697232 -0.047410 0.397646 -0.034624 0.021318 0.140833 -1.182369 -0.464058 -0.269388 0.071002 0.148353 0.410704 -0.642954 0.057695 0.118548 -0.312487 0.170333 -0.335961 -0.583152 0.374207 -0.328338 -0.456529 0.056723 0.571159 0.423157 0.237154 -0.048964 0.173491 0.409254 0.413096 0.106450 -0.676130 0.347031 0.514049 1.087657 0.056151 0.934298 0.889838 0.838482 0.444525 -0.470151 0.607527 0.070654 -0.432605 -0.245378 0.266199 0.427968 0.187833 -0.077141
medical 0.069714 -0.148356 0.382511 0.116978 -0.009651 0.064887 0.140471 0.446449 0.099166 0.038620 0.031665 -0.276992 -0.054545 0.048818 -0.087297 -0.099688 0.241660 -0.115652 0.095192 -0.028265 0.191502 0.062554 -0.156512 0.103650 0.051728 0.250700 0.059156 0.301554 -0.060380 0.195155 -0.055196 0.309308 0.005170 -0.155235 0.036009 -0.351424 0.048817 -0.184882 -0.164860 0.278296 -0.577042 0.203239 -0.055053 -0.327869 0.418805 -0.091742 -0.095642 0.101574 -0.049045 -0.236819
treatment 0.055584 0.001125 -0.195363 -0.136754 0.152512 0.285834 0.023229 0.031846 0.017646 -0.043746 0.189916 0.060309 0.020905 0.291793 -0.110985 -0.096733 0.300480 -0.187574 0.068481 0.031205 -0.124882 0.234691 0.151590 0.364899 0.038919 -0.326040 0.070427 0.221403 -0.024270 -0.349480 0.090102 -0.141965 -0.160881 0.074737 0.135101 0.021910 0.043859 -0.061344 -0.104590 -0.008204 0.204980 -0.087373 -0.092636 0.036135 -0.208864 0.115459 0.070648 0.025800 -0.065841 0.194607
I -0.187232 -0.119816 0.508806 0.403840 -0.132822 -0.195009 0.340410 -0.244505 0.173245 0.039638 -0.281996 -0.078645 -0.075046 -0.352527 0.223931 0.128109 -0.637387 0.206095 -0.179721 -0.065683 0.344395 -0.264133 -0.556369 -0.602434 0.175191 0.490662 0.323117 -0.237052 -0.108594 0.426013 -0.181951 0.021635 0.274178 0.238060 -0.151858 -0.137894 0.235042 -0.161956 -0.209503 -0.020012 -0.689811 -0.062578 -0.061251 -0.188956 0.274375 -0.190452 -0.154341 -0.124933 -0.000735 0.093138
pay -0.463946 0.156180 0.176971 0.077087 0.072234 -0.209544 -0.018244 -0.458840 -0.099114 0.062175 -0.018502 -0.102526 0.250784 -0.462090 0.150331 0.290325 -0.605851 0.028554 -0.010778 -0.130457 0.128968 -0.041815 -0.495168 -0.065763 0.126693 0.433024 -0.129579 -0.078721 -0.207996 0.328228 -0.100898 -0.026935 0.047915 0.058868 -0.321021 0.312980 0.178971 0.217647 0.008290 -0.049164 -0.140997 0.050846 0.147957 0.012937 0.185821 -0.468505 0.171200 0.075157 -0.088583 -0.094335
agent 0.136224 -0.056478 -0.200108 0.013764 0.083701 0.054116 -0.052459 0.093577 -0.136705 -0.008617 0.194680 -0.198577 -0.243961 0.122790 -0.114685 -0.337756 0.354117 -0.115834 -0.245529 -0.185242 0.074682 0.261056 0.204469 0.276633 -0.123253 -0.335050 0.264251 0.114751 0.112199 -0.307141 0.413444 -0.237547 -0.064375 -0.004358 0.255341 0.216999 0.066293 -0.145521 0.189218 0.073135 0.402327 -0.129684 0.151263 -0.032944 -0.338595 -0.086873 -0.130018 0.078748 -0.232286 0.045116
amount -0.385618 0.300477 0.046999 -0.163814 0.179694 -0.039533 -0.503176 -0.093919 0.259739 0.095425 0.141397 -0.015194 -0.053968 -0.105422 -0.063980 0.245094 -0.078498 -0.012555 0.110578 -0.005560 -0.209876 -0.388676 -0.257637 0.145027 0.215308 0.073463 -0.239633 0.019605 -0.219754 0.038656 -0.275639 -0.101543 0.079575 -0.477434 -0.423549 -0.082402 -0.360434 0.018851 -0.031061 -0.000162 0.427533 0.051278 0.652061 0.349324 0.353461 -0.204403 0.279508 0.301332 -0.192112 0.310662
cashless 0.178785 -0.043402 -0.016826 0.014558 0.098127 0.218297 0.088173 0.166238 -0.013901 -0.066790 0.167635 0.024446 -0.149356 0.259453 -0.084174 -0.182489 0.322827 -0.092135 -0.037747 0.061365 0.016315 0.208263 0.159561 0.234057 0.195777 -0.321308 0.127606 0.136496 -0.063747 -0.018079 0.180396 -0.154727 -0.157873 0.127724 0.073095 -0.155059 0.177934 -0.162213 -0.137372 -0.032510 -0.016637 0.032198 -0.054105 -0.074164 -0.111669 0.204110 -0.020768 -0.004530 -0.042642 0.198484
insured -0.190372 0.210659 -0.074549 -0.232141 0.098756 -0.014897 -0.410070 0.108188 0.205092 0.093185 0.045080 0.031627 0.057987 -0.005588 -0.030108 0.124042 0.263984 -0.020500 0.083188 0.055207 -0.402151 -0.308802 -0.099662 0.113894 0.109311 0.058304 -0.307058 0.104889 -0.071024 -0.014407 -0.183316 0.076119 -0.007322 -0.369113 -0.124032 -0.159748 -0.521733 0.040547 -0.026399 0.128805 0.204637 0.032272 0.231883 0.347949 0.301703 0.025170 0.236925 0.167629 0.021080 0.101347
online 0.149003 -0.154856 0.137501 0.094245 0.015505 0.078624 0.094899 0.273146 0.198975 -0.130528 -0.056483 -0.041947 -0.376698 0.041621 -0.062691 -0.148638 0.078510 0.175060 -0.088139 -0.054984 0.046402 0.003873 0.048507 -0.085607 0.163283 -0.017175 0.108950 -0.098741 -0.040007 0.115265 -0.115658 -0.088418 0.005714 0.020138 -0.137426 -0.286921 0.138854 -0.289162 -0.010998 -0.065639 -0.015280 0.037895 0.084346 -0.214533 0.164475 0.045276 -0.151677 -0.074298 -0.064977 0.036344
period -0.237783 0.133220 -0.278172 -0.130753 0.145043 0.311164 0.012684 -0.173273 0.222810 -0.143666 0.098841 0.128061 0.009486 0.053929 -0.131528 0.027380 0.122783 0.150283 0.153967 0.003540 -0.193885 -0.010460 0.003929 0.306277 0.311994 -0.089783 -0.143170 0.131279 -0.195728 -0.296289 -0.136084 -0.063608 -0.315163 -0.047424 -0.130330 0.072867 0.126505 0.164123 0.220951 -0.060787 0.719436 -0.176134 0.260114 -0.017968 -0.068808 0.014033 0.248646 0.095691 -0.006007 0.311005
case 0.101302 0.135371 0.041148 0.059572 0.145253 0.066535 -0.163369 -0.288643 -0.034324 -0.121770 0.251183 0.077240 -0.380031 -0.109778 0.024730 -0.010742 -0.301986 0.381573 -0.370679 -0.256806 -0.052422 0.047773 0.142838 -0.067266 0.080231 -0.148893 -0.047332 -0.455108 -0.229899 0.183201 0.023916 -0.571083 -0.159817 0.064251 -0.547186 0.013566 0.166536 -0.042081 0.035322 -0.696952 0.582635 -0.045406 0.323294 0.230500 -0.261635 -0.161941 -0.065415 0.016598 -0.214274 0.459012
exam -0.029795 -0.024452 -0.024020 -0.128627 0.179009 0.230991 -0.043355 0.213716 0.290945 -0.097195 0.070488 -0.082350 -0.345263 0.088762 -0.146655 -0.164907 0.245174 0.078326 0.065111 -0.046032 -0.125446 0.003464 0.063870 0.177519 0.232085 -0.100101 0.024098 0.132674 -0.124615 -0.141406 -0.119672 -0.109380 -0.085943 -0.189149 -0.114498 -0.230590 0.021731 -0.140651 0.116434 -0.003423 0.383259 -0.023821 0.280663 -0.160932 0.178501 -0.007215 -0.005143 0.105783 -0.071794 0.178680
much -0.783678 0.745824 0.183031 0.221142 -0.235330 -0.597928 -0.322207 -0.678516 -0.588657 0.412480 -0.028021 0.136950 0.866815 -0.432590 0.469485 0.786294 -0.640959 -0.352347 0.192312 0.349877 0.270910 -0.733293 -0.494037 -0.325367 0.000599 0.412086 -0.194898 -0.232999 0.163612 0.585052 0.178812 0.439292 0.088583 -0.120761 0.187276 0.500624 -0.192317 0.583448 0.177810 0.598502 -0.360030 0.213515 0.406058 0.732639 -0.211452 -0.157009 0.411974 0.079137 0.188257 -0.094285
available -0.037762 0.118896 -0.410959 -0.315928 0.153649 0.392879 -0.063744 0.207218 0.185518 -0.076658 0.105400 0.072327 -0.023220 0.360385 -0.226128 -0.097836 0.612591 -0.126754 0.210579 0.141867 -0.301833 -0.004086 0.333221 0.497291 0.004550 -0.290046 -0.164149 0.433207 0.020010 -0.579203 -0.045664 0.146901 -0.282894 -0.203499 0.314775 0.039118 -0.116477 0.121784 0.229296 0.169019 0.712420 -0.214744 -0.100679 -0.045662 -0.114422 0.362222 0.052985 0.057636 0.095579 0.101260
policies -0.235726 0.183404 -0.477300 -0.258377 0.173820 0.212223 -0.011903 -0.096873 0.011858 0.090795 0.090098 0.098740 0.245105 0.153289 -0.078131 0.158351 0.192988 -0.159921 0.157221 0.215425 -0.184492 0.042783 0.188155 0.442036 -0.106428 -0.256455 -0.360560 0.337573 -0.075798 -0.398619 0.046162 0.080844 -0.216577 0.007695 0.073182 0.219538 0.054782 0.252348 0.046592 -0.186408 0.618575 -0.226350 -0.307816 0.125231 -0.304552 0.175980 0.097099 0.045331 0.118389 0.119889
discount -0.216869 -0.038825 0.389499 0.146627 0.119043 0.098587 0.118037 -0.141778 0.186777 0.120111 -0.181562 0.030288 -0.165351 -0.104029 0.030329 0.159419 -0.290138 0.161382 -0.051954 -0.033931 0.098648 -0.197842 -0.260099 -0.116659 0.141357 0.136608 0.179087 -0.093192 -0.102206 0.187937 -0.147325 -0.136882 0.164175 0.078204 -0.319844 -0.242614 -0.003201 -0.125207 -0.258413 -0.250231 -0.135222 -0.125420 0.210542 -0.140517 0.110764 -0.035453 -0.085992 0.076261 -0.035551 0.325236
age -0.052158 0.285266 -0.280601 -0.233185 0.169867 0.256591 -0.388826 0.062167 -0.010793 -0.089816 0.251503 0.104802 -0.052853 0.258686 -0.259120 -0.175340 0.468107 -0.054932 0.211908 -0.093226 -0.191432 -0.122777 0.292215 0.399851 0.056190 -0.243030 -0.237019 0.313120 -0.022961 -0.329808 0.008112 -0.022270 -0.332905 -0.429000 0.055427 0.145294 -0.387049 0.186090 0.280561 0.208861 0.805271 -0.028121 0.501313 0.190428 0.021131 0.115051 0.177539 0.273091 -0.181314 0.137807
allow -0.260365 0.173964 -0.535619 0.054852 -0.120420 -0.349523 0.227409 -0.904135 -0.611500 0.077907 0.048668 0.119451 0.929158 -0.226941 0.219140 0.257365 -0.424092 -0.445110 -0.050732 -0.106458 0.216901 0.352443 -0.349563 0.144158 -0.214010 -0.055889 0.163536 0.028105 0.136432 -0.365755 0.553013 0.017010 -0.022260 0.643383 0.708855 1.137646 -0.000020 0.537702 0.033114 0.288570 -0.194367 -0.241153 -0.470283 0.212236 -0.675480 -0.250524 0.351110 -0.127725 0.041732 -0.214217
give -0.222821 0.014499 -0.207833 -0.037594 0.019906 -0.270982 0.186850 -0.624874 -0.343619 0.272614 -0.088575 0.076841 0.760508 -0.197377 0.241525 0.374240 -0.575146 -0.389640 0.106319 0.150246 0.218037 0.275151 -0.408275 0.121178 -0.244785 -0.002936 -0.033837 0.070225 -0.071919 -0.198007 0.212175 0.079622 0.232715 0.453048 0.210719 0.622749 0.172436 0.252266 -0.413571 -0.096985 -0.394385 -0.212313 -0.559517 0.132766 -0.293536 -0.213404 0.180712 -0.154674 -0.027724 -0.123444
time -0.319768 0.501722 -0.252359 -0.088837 -0.066499 -0.155436 -0.370546 -0.341688 -0.280293 0.015961 0.191718 0.172003 0.374351 -0.097414 0.028901 0.211008 -0.107510 -0.131313 0.195621 0.063164 -0.016069 -0.277499 -0.033807 0.124322 0.077552 0.007819 -0.298078 0.004200 0.006475 -0.025472 0.071598 0.172618 -0.228512 -0.234420 0.058997 0.484119 -0.235734 0.467170 0.393546 0.333213 0.470571 0.063596 0.424872 0.469381 -0.115494 -0.117622 0.415045 0.139503 -0.041279 -0.027246
where -0.496643 0.115116 0.230543 0.232947 -0.110806 -0.422605 0.056644 -0.504725 -0.140690 0.286381 -0.180254 0.014666 0.438465 -0.458571 0.352891 0.492148 -0.822987 -0.055456 -0.001288 0.143966 0.215572 -0.168745 -0.528206 -0.301288 -0.068065 0.389495 -0.047631 -0.247158 -0.134933 0.373939 -0.035450 0.115059 0.276217 0.260534 -0.249317 0.239099 0.188309 0.170351 -0.243855 -0.213942 -0.479620 -0.019053 -0.152473 0.210747 -0.054181 -0.338330 0.061183 -0.110684 0.045772 -0.000045
with 0.158471 -0.218676 0.055399 0.117616 0.037344 0.104923 0.305789 -0.022103 0.034509 -0.035148 -0.037568 0.088149 -0.102680 0.031292 0.042476 -0.114014 -0.097700 0.122875 -0.184634 -0.088944 0.065849 0.184802 0.012550 -0.119228 0.009140 -0.087978 0.078173 -0.045305 -0.092537 0.033162 0.057484 -0.173191 -0.000364 0.367739 -0.099204 -0.111519 0.255685 -0.160619 -0.199364 -0.307764 -0.127977 -0.029524 -0.234145 -0.185169 -0.106654 0.095391 -0.134642 -0.153106 0.007015 0.177216
at 0.284920 -0.326927 0.398981 -0.072518 -0.223890 -0.346371 -0.261356 0.582806 0.328084 0.148232 -0.349575 -0.446205 -0.335620 -0.165358 -0.085942 -0.014883 -0.149074 0.089141 0.384041 0.053176 -0.044448 -0.021433 -0.253255 -0.273400 -0.214409 0.372443 0.028389 -0.280252 0.051819 0.157369 -0.334442 0.168368 0.738587 -0.535704 -0.353761 -0.414038 -0.443616 -0.194363 -0.119740 0.125080 -0.594172 0.230379 0.326215 -0.270086 0.665266 -0.362663 0.039783 0.092319 -0.246321 -0.445948
meant -0.685571 0.648065 -0.469029 -0.170814 -0.141268 -0.492743 -0.504150 -1.009379 -0.479725 0.388057 0.048446 0.286171 0.979320 -0.368612 0.254133 0.640874 -0.637553 -0.257347 0.262321 0.240191 0.069544 -0.311711 -0.332482 0.227441 -0.111021 0.106505 -0.605426 0.134123 -0.033866 0.042206 0.191903 0.451401 -0.221489 0.014654 0.007189 0.982679 -0.372909 0.781103 0.026760 0.022674 0.475461 -0.290614 0.061122 0.825586 -0.345018 -0.124612 0.487313 0.130064 -0.033922 -0.055071
injury 0.114807 -0.249040 0.480601 0.223111 0.032148 -0.173604 0.001471 0.252424 0.155108 0.069628 -0.195336 -0.412721 -0.623768 -0.184843 0.033041 -0.132609 -0.167144 0.284699 -0.154384 -0.169728 0.168758 0.058225 -0.141950 -0.252483 -0.029800 0.257888 0.280918 -0.259176 -0.045948 0.311763 -0.108656 -0.219497 0.359368 -0.221129 -0.417193 -0.336678 0.011993 -0.360404 -0.092444 -0.156416 -0.245556 0.091770 0.352306 -0.260357 0.322625 -0.361939 -0.312397 0.079172 -0.231088 -0.142640
need -0.705509 0.148953 0.248997 0.378816 0.022231 -0.221084 0.254544 -0.907041 -0.135051 0.092049 -0.121613 0.013805 0.353346 -0.714307 0.301333 0.416760 -1.019816 0.222560 -0.228706 -0.212326 0.333423 -0.058332 -0.704244 -0.270077 0.211283 0.543683 0.055305 -0.322517 -0.266911 0.457007 -0.005157 -0.114999 -0.002210 0.486527 -0.381065 0.539412 0.408640 0.363492 -0.048131 -0.252919 -0.143535 -0.156904 0.089820 0.062089 -0.110787 -0.559450 0.074657 0.018910 -0.010327 0.099789
floater 0.726335 -0.357937 -0.135745 -0.053513 -0.068556 0.405762 0.337037 0.396785 0.286519 -0.446161 0.137694 0.195445 -0.521742 0.331697 -0.168103 -0.529975 0.305174 0.366910 -0.238773 -0.161360 -0.139399 0.240086 0.444142 0.027792 0.134847 -0.339037 0.136515 -0.258460 0.000462 -0.082161 -0.166893 -0.214777 -0.230421 0.254231 0.025159 -0.381452 0.417697 -0.456882 0.150723 -0.362222 0.221755 -0.072286 -0.193884 -0.337589 -0.119702 0.414962 -0.186722 -0.272294 0.113236 0.189008
meaning -0.673314 0.603502 -0.261204 -0.085513 0.145592 -0.099110 -0.464817 -0.796943 -0.057011 0.171488 0.184701 0.160887 0.315942 -0.333210 0.105012 0.424506 -0.545706 0.049458 0.061042 -0.023403 -0.081924 -0.308504 -0.314820 0.216130 0.148747 -0.041452 -0.332704 -0.087219 -0.276298 -0.012427 0.052962 -0.168241 -0.189604 -0.115937 -0.445026 0.557888 -0.140542 0.470123 0.125973 -0.324181 0.898655 -0.205509 0.611029 0.551774 -0.276910 -0.349058 0.423866 0.252878 -0.176809 0.485016
who -0.294828 0.295128 -0.055412 -0.048184 0.034642 0.000860 -0.215011 -0.203878 -0.069577 0.038228 0.070457 0.093742 0.168347 -0.103861 0.006604 0.110804 -0.004884 -0.018751 0.085379 0.048937 -0.032978 -0.297228 -0.068576 0.128967 0.118924 0.016227 -0.157444 0.066742 0.026166 0.021074 0.012168 0.097248 -0.125665 -0.190562 0.017461 0.187687 -0.214089 0.272010 0.174942 0.175121 0.379280 -0.065379 0.344930 0.212391 -0.051769 -0.011214 0.207641 0.172173 -0.023953 0.120989
required -0.532814 0.349807 -0.068760 0.066464 0.078721 0.154678 -0.022643 -0.443245 -0.153579 -0.019738 0.033065 0.012562 0.232653 -0.224573 -0.022870 0.103524 0.065050 0.052914 -0.039259 -0.164865 0.061716 -0.252278 -0.066589 0.225589 0.161051 0.209919 -0.052343 0.246269 0.084719 0.073160 0.116813 0.205392 -0.422682 -0.061534 0.196458 0.512238 -0.075795 0.528778 0.427717 0.340114 0.489147 -0.215230 0.269162 0.103868 -0.163909 0.026736 0.075160 0.308887 0.130556 -0.001924
different -0.075666 0.064068 -0.291115 -0.230868 0.158056 0.380718 -0.058747 0.046028 0.177135 -0.033132 0.151059 0.165768 -0.035942 0.244860 -0.132922 -0.007887 0.375494 0.031883 0.071427 0.088965 -0.251780 -0.035724 0.306359 0.332011 0.010170 -0.268582 -0.160954 0.249086 -0.043298 -0.390540 -0.097136 0.019661 -0.313326 -0.123699 0.036509 0.007828 -0.018407 0.118650 0.132478 -0.187872 0.717139 -0.169562 -0.063763 0.071789 -0.170954 0.300444 0.036976 0.058417 0.110957 0.301254
hospital 0.206715 -0.054943 -0.170211 -0.149423 -0.036453 -0.001131 -0.121667 0.152212 -0.101987 0.061588 -0.003972 0.051629 0.079385 0.232053 -0.051061 -0.098609 0.270878 -0.181892 0.138494 0.094873 -0.074981 0.087682 0.199051 0.112151 -0.178177 -0.207202 -0.055021 0.132328 0.119412 -0.276840 0.059165 0.064610 0.037629 -0.092141 0.218543 0.039511 -0.266245 -0.043211 -0.052784 0.127632 0.047946 0.061885 -0.075021 0.098424 -0.065339 0.121053 0.020085 -0.020831 -0.014220 -0.093003
injured 0.393492 -0.569628 0.724211 0.147454 -0.263374 -0.313405 0.016262 0.593498 0.413317 0.203093 -0.498885 -0.450736 -0.467947 -0.286250 0.079705 0.013465 -0.451502 0.290343 0.175714 -0.001952 0.052135 -0.034436 -0.336560 -0.569045 -0.229866 0.540288 0.190712 -0.540703 0.024296 0.420361 -0.484881 0.096216 0.884382 -0.261661 -0.521763 -0.700742 -0.173296 -0.408523 -0.383702 -0.245089 -0.954400 0.193743 0.093245 -0.413091 0.649517 -0.318747 -0.268567 -0.063276 -0.169741 -0.389304
sum -0.128574 0.207022 -0.164378 -0.271185 0.086386 -0.001730 -0.414272 0.087434 0.120817 0.053498 0.104864 0.043545 0.105546 0.069561 -0.064575 0.068822 0.359488 -0.099785 0.099155 0.033865 -0.417576 -0.261712 -0.055188 0.153902 0.065488 -0.006972 -0.250839 0.133799 0.001457 -0.145141 -0.117290 0.043571 -0.024681 -0.379905 0.057926 -0.066650 -0.558489 0.066799 0.055831 0.238484 0.230293 0.040892 0.207368 0.346559 0.223579 0.038576 0.261176 0.169157 0.027564 0.066489
make -0.340034 -0.003077 0.234093 0.328323 0.003320 -0.098546 0.289905 -0.613921 -0.235825 0.136067 -0.132373 -0.035641 0.257768 -0.351907 0.218786 0.234813 -0.477810 0.044121 -0.222775 -0.171729 0.239316 0.082214 -0.390398 -0.158166 0.083344 0.277161 0.248740 -0.189441 0.008135 0.298691 0.185953 -0.132105 0.005033 0.461114 -0.026276 0.324615 0.264006 0.222778 -0.091417 -0.044008 -0.284730 -0.100896 -0.064415 -0.075216 -0.234518 -0.222789 -0.044689 -0.010853 0.097973 0.097639
up 0.575403 -0.375004 0.226369 0.243215 -0.093260 0.191420 0.323526 0.635535 0.300068 -0.236040 0.026289 -0.093140 -0.342102 0.192972 -0.167129 -0.377394 0.438461 0.006323 -0.210253 -0.132684 0.170889 0.192230 0.166799 -0.101403 -0.000538 -0.061869 0.297455 -0.071126 0.033487 -0.018902 -0.005093 0.139590 -0.035129 0.161431 0.233891 -0.458455 0.242456 -0.448538 -0.133398 0.104937 -0.522467 0.122510 -0.346078 -0.489621 0.161223 0.164262 -0.276650 -0.267321 0.069476 -0.171565
me -0.232070 0.046033 -0.082362 0.158302 -0.041670 -0.170945 0.253364 -0.560102 -0.313748 0.023437 -0.032685 0.027686 0.457043 -0.281177 0.141076 0.126643 -0.392429 -0.095194 -0.105934 -0.176090 0.256215 0.207337 -0.373730 -0.042606 0.034301 0.164863 0.115021 0.021738 -0.082108 0.051539 0.276184 -0.002594 -0.069484 0.385762 0.245340 0.562517 0.157561 0.310939 -0.058130 0.219037 -0.287992 -0.103398 -0.250826 0.004280 -0.168180 -0.190835 0.131066 -0.042458 0.018902 -0.178065
settlement 0.241968 0.012304 0.052865 -0.033434 0.083579 0.086592 -0.153968 0.182276 -0.004924 -0.062716 0.187147 0.007347 -0.334926 0.178189 -0.118644 -0.120436 0.242536 0.041315 -0.149390 -0.094437 -0.072961 0.026974 0.202852 0.035014 0.064802 -0.198739 0.070001 -0.069023 -0.071060 -0.020926 0.065357 -0.283951 -0.048044 -0.146965 -0.109954 -0.192154 -0.096581 -0.174586 -0.011053 -0.110138 0.230065 0.084660 0.243456 0.084081 0.023255 0.067444 -0.040156 0.056517 -0.160699 0.246325
tpa 0.032982 -0.080930 0.134950 -0.029646 -0.051007 -0.078457 -0.090827 0.211219 0.005452 0.099491 -0.011833 -0.048325 -0.043363 0.003194 0.023294 0.046611 0.009830 -0.050134 0.052438 0.045500 0.002207 -0.039436 0.009965 -0.112732 -0.088154 0.051449 -0.003736 -0.029788 0.000285 0.049128 -0.075219 0.015155 0.179504 -0.120260 -0.058281 -0.180973 -0.105714 -0.122103 -0.120214 0.026450 -0.199827 0.170005 0.039547 0.041174 0.181412 -0.033954 -0.036801 -0.028003 -0.044095 -0.051497
after 0.013927 -0.096457 0.176498 -0.011683 0.083631 0.037097 -0.015853 0.108775 0.245154 -0.073759 -0.032371 -0.077632 -0.274121 -0.084495 0.001309 -0.036471 -0.081345 0.153767 -0.018617 -0.034544 -0.037581 -0.067216 -0.113435 -0.093454 0.185596 0.051256 0.113983 -0.146231 -0.117726 0.075481 -0.176001 -0.132632 0.147337 -0.041332 -0.272216 -0.246510 0.056487 -0.230387 -0.063517 -0.128424 -0.012971 0.042482 0.193187 -0.139237 0.222754 -0.124126 -0.041202 0.016713 -0.074073 0.139775
and 0.218975 -0.018430 -0.084094 -0.065682 -0.009144 0.046413 -0.123128 0.339928 -0.011939 -0.108989 0.083112 -0.004056 -0.181720 0.213888 -0.113269 -0.235038 0.301883 -0.012854 0.109338 0.056772 -0.054714 -0.025689 0.257818 0.042468 0.013224 -0.141483 -0.042247 0.057064 0.036791 -0.126913 -0.042912 0.051484 -0.083576 -0.254994 0.053323 -0.180191 -0.106207 -0.108655 0.158074 0.144232 0.166735 0.115910 0.115322 -0.032180 0.137655 0.107802 -0.026573 0.001412 -0.011602 -0.063857
documents -0.401099 0.272274 -0.222247 -0.352086 -0.072357 -0.191642 -0.419174 -0.002337 -0.004802 0.234060 -0.025265 0.146610 0.412447 -0.113781 0.079345 0.456839 0.102638 -0.211292 0.325901 0.424339 -0.334522 -0.594548 0.158546 0.065758 -0.320056 0.210999 -0.449945 0.218428 0.210859 -0.220549 -0.283964 0.600853 0.073000 -0.493010 0.144219 0.227644 -0.479063 0.448707 0.267482 0.014389 0.496514 0.013597 0.055148 0.484066 0.019492 0.175474 0.134720 0.106891 0.174725 -0.104240
family 0.297357 -0.207395 0.133713 0.080851 -0.032077 0.191642 0.242671 0.204904 0.164427 -0.145825 -0.043279 0.081836 -0.280799 0.132206 -0.024623 -0.257302 0.058396 0.187401 -0.143245 -0.033704 0.032697 0.064139 0.135572 -0.099681 0.065152 -0.020985 0.086156 -0.070482 -0.042899 0.126499 -0.118427 -0.011718 -0.064411 0.151808 -0.069687 -0.300282 0.222014 -0.245929 -0.081775 -0.197232 -0.102459 0.003832 -0.161133 -0.194915 0.032602 0.272742 -0.164809 -0.131912 0.075741 0.103476
long -0.096276 0.202309 -0.188822 0.125188 -0.148725 -0.108136 0.210691 -0.150529 -0.378647 0.161530 -0.078568 0.115232 0.534799 0.122218 0.145449 0.203066 0.080059 -0.378676 0.099050 0.228046 0.140122 -0.038587 -0.065842 0.001261 -0.050472 -0.125335 0.123535 0.088353 0.202905 0.005919 0.272397 0.250648 -0.086100 0.254301 0.596122 0.237871 0.022194 0.227180 0.064191 0.507854 -0.365879 -0.011310 -0.326502 0.106529 -0.421105 0.264485 0.142995 -0.166870 0.257802 -0.110062
that -0.451619 0.216756 0.047809 -0.046737 0.056095 0.067880 -0.113043 -0.289967 0.146142 0.013678 -0.058976 0.033494 0.036582 -0.292638 0.037361 0.242504 -0.158395 0.211203 0.045914 0.010787 -0.094434 -0.380080 -0.148273 -0.045941 0.143537 0.288867 -0.157337 -0.029951 -0.055672 0.131282 -0.198798 0.147525 -0.101401 -0.149377 -0.210328 0.149323 -0.041475 0.322596 0.263614 -0.075860 0.428179 -0.145621 0.285692 0.124015 0.040640 -0.044653 0.034586 0.176881 0.095818 0.129650
while -0.033937 -0.141459 0.266396 0.143189 -0.013003 -0.056861 0.106676 0.065564 0.085326 0.017550 -0.148894 -0.116491 -0.180444 -0.160529 0.066775 0.056295 -0.185840 0.184549 -0.052095 -0.048892 0.101898 0.006732 -0.177698 -0.147089 0.067196 0.232565 0.080701 -0.128350 -0.125594 0.260575 -0.106745 -0.028912 0.113836 0.007422 -0.298238 -0.158695 0.124271 -0.140079 -0.105603 -0.113036 -0.271440 0.068418 0.040768 -0.162516 0.219736 -0.174149 -0.089531 -0.044936 -0.057062 -0.053245
portability -0.047021 0.118429 -0.391873 -0.211822 0.007067 0.069939 -0.089591 -0.054509 -0.049787 -0.013149 0.152896 0.123456 0.232670 0.152058 -0.068968 0.053625 0.153247 -0.119158 0.114414 0.114979 -0.156787 0.082226 0.166293 0.301652 -0.000089 -0.243185 -0.164147 0.172793 0.035122 -0.280791 0.075506 0.068599 -0.187619 -0.011456 0.139941 0.209964 -0.029533 0.158898 0.114928 0.000168 0.383376 -0.120658 -0.069437 0.134993 -0.226959 0.123692 0.151801 0.037053 0.034891 0.067373
taking 0.159473 -0.075686 -0.400424 -0.124476 0.099196 0.330556 0.208433 0.029344 0.199374 -0.232728 0.132460 0.135216 -0.116549 0.205050 -0.171166 -0.193358 0.260012 0.036741 -0.075808 -0.077182 -0.159182 0.284941 0.169694 0.295214 0.184937 -0.400693 0.070366 0.084800 -0.092125 -0.422374 0.058108 -0.181264 -0.261905 0.268874 0.124291 0.030989 0.269320 -0.100710 0.073027 -0.118709 0.454343 -0.221233 -0.105619 -0.174528 -0.270960 0.137631 0.110792 -0.116537 0.025926 0.257339
benefits 0.150459 -0.035995 -0.108475 -0.245799 0.015866 -0.030552 -0.302094 0.357899 0.134851 0.079909 0.017043 -0.028934 -0.023126 0.204882 -0.066287 0.030662 0.295354 -0.201186 0.283431 0.180433 -0.232751 -0.112714 0.228210 0.033967 -0.223111 -0.149188 -0.177633 0.128004 0.059915 -0.260544 -0.148279 0.123546 0.127823 -0.341673 -0.009344 -0.205073 -0.280035 -0.078491 -0.009337 -0.013132 0.114249 0.139674 -0.012012 0.152158 0.225631 0.105388 0.029973 -0.009545 -0.001767 -0.081829
know -0.365106 0.151819 0.419458 0.061790 -0.089985 -0.375976 -0.229532 -0.274907 0.007392 0.246158 -0.223539 -0.162163 0.210262 -0.599438 0.257377 0.402321 -0.614480 0.077828 0.136593 0.039097 0.114548 -0.378049 -0.510003 -0.417565 -0.018831 0.590869 -0.098232 -0.240532 -0.061213 0.421766 -0.231946 0.225209 0.284837 -0.280001 -0.277401 0.155282 -0.188411 0.200202 -0.054286 0.085024 -0.351918 0.144538 0.389644 0.165266 0.422555 -0.406945 0.078149 0.104307 -0.026164 -0.315743
payment -0.138459 0.167158 0.007087 -0.022649 0.123836 -0.014187 -0.175750 -0.182911 -0.040142 -0.016073 0.116639 -0.016481 -0.023985 -0.044295 -0.011005 0.039665 -0.124440 -0.060187 -0.041219 -0.132112 -0.015064 0.000836 -0.107125 0.056452 0.089946 -0.061109 0.001081 -0.023439 -0.090230 0.019103 0.033901 -0.269850 -0.018551 -0.097909 -0.164916 0.103108 -0.012948 0.034630 -0.054945 -0.005592 0.176226 0.070687 0.323791 0.127640 0.039895 -0.184283 0.116191 0.121488 -0.163214 0.167779
provide -0.025589 -0.052075 -0.334992 -0.069306 -0.075599 -0.261355 0.143351 -0.409017 -0.401256 0.179318 -0.008775 0.073400 0.746347 -0.037170 0.179177 0.196733 -0.236857 -0.522067 0.094352 0.125161 0.146617 0.367736 -0.239396 0.145060 -0.344958 -0.136183 0.035477 0.118783 0.089799 -0.391549 0.376786 0.068246 0.219323 0.405728 0.521906 0.611596 0.023168 0.211170 -0.281876 0.116033 -0.456042 -0.113505 -0.627953 0.139805 -0.337820 -0.116541 0.174500 -0.176949 -0.021797 -0.220477
this 0.003120 -0.052119 -0.245737 0.081684 -0.053940 0.055542 0.332058 -0.316723 0.077727 -0.160206 -0.000509 0.186701 0.122689 -0.031530 0.049987 0.032553 -0.200102 0.062265 -0.165268 -0.048730 0.004205 0.150576 -0.088271 -0.065566 0.128996 -0.141283 0.186176 -0.226834 -0.029397 -0.165566 0.099562 -0.125529 -0.135686 0.558000 0.123339 0.199729 0.347352 -0.033969 0.028181 -0.159027 0.049558 -0.225828 -0.280302 -0.162360 -0.388991 0.053065 0.092844 -0.274401 0.155974 0.208817
work 0.475216 -0.473718 0.522960 0.000806 -0.217788 -0.295274 -0.082804 0.877610 0.288990 0.106870 -0.342077 -0.462313 -0.477864 0.020815 -0.119412 -0.154888 0.041822 0.033900 0.258019 0.074548 0.020735 0.095561 -0.099842 -0.370674 -0.259754 0.331822 0.153235 -0.214181 0.074832 0.237871 -0.274496 0.137033 0.747451 -0.445371 -0.241494 -0.681222 -0.281912 -0.408947 -0.263218 0.186971 -0.968200 0.389123 0.068285 -0.391320 0.738735 -0.168687 -0.164961 -0.035570 -0.182433 -0.501868
fire 0.137658 -0.111591 -0.219030 0.031551 0.070591 0.295833 0.298563 0.035926 0.082927 -0.163161 0.061170 0.130671 -0.148860 0.164785 -0.096823 -0.195053 0.166555 0.115677 -0.170162 -0.058981 -0.037078 0.238055 0.187048 0.134843 0.149855 -0.264628 0.028419 0.065938 -0.100218 -0.128442 0.087061 -0.169643 -0.261431 0.339020 0.008046 -0.088720 0.334999 -0.104824 0.009286 -0.243931 0.234636 -0.160449 -0.286774 -0.240718 -0.270624 0.201599 -0.065923 -0.108654 0.094414 0.221160
mandatory -0.245388 0.229592 0.015331 0.168263 -0.021831 0.104655 0.085481 -0.204789 -0.234756 -0.110448 0.047242 -0.044625 0.087987 -0.098424 -0.059374 -0.083239 0.184136 -0.009797 -0.080317 -0.241409 0.192314 -0.047909 -0.047578 0.144922 0.223381 0.144101 0.098555 0.154240 0.170064 0.151405 0.218156 0.145028 -0.327782 0.001381 0.371202 0.341621 -0.001459 0.389487 0.433984 0.619241 0.115049 -0.120821 0.229297 -0.064627 -0.100845 0.013048 0.020511 0.244268 0.074876 -0.197172
one 0.067465 -0.003027 -0.062360 -0.024822 -0.064651 -0.149019 -0.080034 -0.007460 -0.139532 0.059233 0.014321 0.050600 0.149546 0.050011 0.046460 0.059170 -0.054867 -0.185851 0.037359 0.074787 0.005481 0.052285 0.011043 -0.073700 -0.122034 -0.094016 0.028234 -0.099563 0.036955 -0.076920 0.091159 -0.034166 0.138146 0.016015 0.104546 0.059965 -0.058250 -0.035839 -0.039068 0.085309 -0.170964 0.132392 -0.063004 0.136164 -0.100417 -0.061170 0.059894 -0.100989 -0.021099 -0.048950
expenses 0.235931 -0.095872 0.006451 -0.121381 0.032926 0.050830 -0.125077 0.396142 0.039141 -0.013470 0.109288 -0.090308 -0.107583 0.282051 -0.114654 -0.166475 0.350589 -0.200893 0.136298 0.053591 -0.039746 0.143843 0.135742 0.129544 -0.055851 -0.156974 0.018952 0.217618 0.045242 -0.184363 0.028331 -0.006675 0.051799 -0.211147 0.140288 -0.245929 -0.157815 -0.217968 -0.137750 0.177510 -0.173435 0.176800 -0.033698 -0.033553 0.208779 0.033037 0.003361 0.051939 -0.123375 -0.110707
What -0.201620 0.297047 -0.228941 -0.178863 0.024039 0.011913 -0.331558 -0.243692 -0.048761 0.066035 0.127109 0.108064 0.220672 -0.049745 -0.062363 0.152825 0.054055 -0.032883 0.132122 0.049806 -0.152056 -0.251646 0.068748 0.219796 -0.049885 -0.066682 -0.283126 0.053242 0.067191 -0.091292 -0.026197 0.128600 -0.194816 -0.236029 -0.048327 0.288949 -0.299149 0.320182 0.196927 0.007601 0.557271 -0.101740 0.265042 0.339992 -0.163054 0.027965 0.193373 0.176655 0.032807 0.103538
claims 0.486471 -0.115515 -0.141014 -0.148708 0.004694 0.102474 -0.132198 0.342427 0.062696 -0.170672 0.104862 -0.025143 -0.266953 0.245370 -0.125552 -0.328250 0.338668 0.038386 -0.029874 -0.085605 -0.167270 0.192809 0.339419 0.066783 -0.117934 -0.210921 -0.013691 -0.061988 0.071911 -0.191238 -0.037415 -0.100649 -0.018414 -0.134645 0.088133 -0.177447 -0.130199 -0.184504 0.083595 -0.057520 0.154319 0.078035 -0.010589 -0.017542 -0.012669 0.083547 -0.051197 -0.022367 -0.089392 -0.050477
paid -0.043282 0.211448 0.078386 -0.078363 0.073616 0.036205 -0.273304 -0.006510 0.114683 -0.177360 0.135904 0.033219 -0.225638 -0.084153 -0.088335 -0.100091 0.052353 0.146724 -0.042247 -0.158723 -0.124272 -0.306068 -0.007058 -0.015034 0.159837 0.019230 -0.053244 -0.030274 -0.022525 0.122556 -0.164628 -0.103857 -0.076484 -0.288841 -0.106959 -0.027867 -0.160732 0.027325 0.216180 0.088288 0.315857 -0.015078 0.485917 0.048551 0.178495 -0.024513 0.105723 0.143260 -0.112666 0.071031
renew -0.294349 0.010499 0.225315 0.263805 0.015349 -0.077086 0.258612 -0.398791 0.051518 -0.000784 -0.125988 -0.055115 -0.099908 -0.359783 0.188922 0.211025 -0.467621 0.254105 -0.207375 -0.074620 0.159690 -0.056138 -0.342715 -0.258698 0.257987 0.276311 0.058269 -0.222317 -0.253526 0.437922 0.015456 -0.119606 -0.044700 0.318925 -0.452160 -0.020405 0.435547 -0.061388 -0.083779 -0.305971 -0.246552 -0.070861 -0.084636 -0.095099 0.032491 -0.166434 -0.080293 -0.056904 0.017976 0.177829
want -0.393074 0.037550 0.437600 0.343655 -0.071084 -0.191152 0.192330 -0.384479 -0.117512 0.067122 -0.223605 -0.161591 0.129576 -0.548410 0.202459 0.193489 -0.565949 0.213206 -0.136613 -0.188817 0.298841 -0.100726 -0.455941 -0.370466 0.131991 0.579037 0.118721 -0.210788 -0.060776 0.528393 -0.044822 0.053513 0.077222 0.105116 -0.117496 0.189891 0.157808 0.223945 0.022731 0.164403 -0.426072 0.034529 0.148845 -0.084177 0.199650 -0.331105 -0.082980 0.071906 0.068895 -0.229326
allowed -0.437985 0.417612 -0.139660 0.251304 -0.057021 -0.031406 0.123208 -0.760829 -0.371384 -0.162636 0.057783 0.122006 0.314865 -0.365622 0.061397 0.079902 -0.207044 0.091185 -0.239471 -0.351184 0.262661 -0.071819 -0.228677 0.080378 0.337962 0.190440 0.092674 -0.049172 0.081045 0.253515 0.332007 0.034543 -0.467963 0.339304 0.335260 0.723360 0.099384 0.575940 0.490908 0.438685 0.269415 -0.292469 0.214154 0.074289 -0.381100 -0.125517 0.190447 0.184017 0.096477 -0.057936
contact -0.126031 -0.024974 0.180816 0.040255 -0.081761 -0.208295 -0.081040 0.000569 -0.025712 0.093238 -0.053799 -0.098469 0.053081 -0.246338 0.113756 0.145387 -0.281633 0.001277 0.056735 -0.036980 0.062543 -0.032027 -0.211146 -0.183959 -0.044556 0.243298 0.021285 -0.158770 -0.033755 0.114851 -0.127539 0.021722 0.248104 -0.068936 -0.099914 0.026311 -0.085106 0.021614 -0.050738 0.055633 -0.233892 0.126535 0.134688 0.042040 0.220722 -0.263596 0.019836 -0.009509 -0.105734 -0.147552
job 0.191994 -0.192139 0.216512 -0.005870 0.024118 -0.036472 -0.071736 0.434888 0.242484 -0.053416 -0.135993 -0.198076 -0.416410 0.109887 -0.111870 -0.082902 0.097366 0.095016 0.098066 0.028131 -0.061545 0.071127 -0.031589 -0.093051 -0.009063 0.090099 0.052161 -0.033404 -0.066273 0.081979 -0.125289 -0.044997 0.256779 -0.293749 -0.337732 -0.466189 -0.132106 -0.384837 -0.128621 -0.067355 -0.339799 0.200883 0.099950 -0.217827 0.398640 -0.120095 -0.064774 -0.010816 -0.109249 -0.118316
minimum -0.076745 0.284266 -0.275250 -0.251560 0.100537 0.183507 -0.358134 -0.005936 0.101685 -0.146407 0.197120 0.120936 -0.029264 0.143146 -0.227765 -0.084989 0.313642 0.028420 0.182740 -0.069861 -0.258492 -0.186338 0.168316 0.323799 0.129072 -0.168788 -0.211622 0.186269 -0.028928 -0.257712 -0.134294 -0.014998 -0.285736 -0.378394 -0.032778 0.103946 -0.339192 0.156128 0.290423 0.148100 0.743499 -0.039118 0.501524 0.158321 0.068562 0.049441 0.260929 0.244122 -0.085094 0.136361
products 0.016158 -0.043126 -0.051649 -0.171948 0.094365 0.154414 -0.083998 0.245138 0.157984 0.002838 0.019934 0.020291 -0.104655 0.142269 -0.088063 -0.008784 0.245734 0.030359 0.085650 0.112821 -0.161374 -0.056726 0.192664 0.107222 -0.040876 -0.062058 -0.131913 0.151554 -0.031202 -0.153557 -0.165945 0.041650 -0.040422 -0.228961 -0.082736 -0.192671 -0.087643 -0.025566 0.010666 -0.120684 0.238284 0.027131 -0.039293 0.009985 0.120954 0.127239 -0.037559 0.063855 0.046717 0.063552
refund -0.103980 0.049750 0.090102 -0.030418 0.148127 0.027660 -0.143928 -0.018219 0.225980 -0.013330 0.080825 0.002169 -0.234964 -0.026532 -0.055780 0.039168 -0.210720 0.058847 -0.054399 -0.111771 0.015554 -0.059640 -0.144932 0.032188 0.098683 -0.131668 0.009270 -0.034543 -0.234684 0.023757 -0.163807 -0.334729 0.132220 -0.107160 -0.438945 -0.157904 0.007903 -0.201122 -0.202439 -0.348681 0.195043 0.015504 0.378534 0.055608 0.147462 -0.181548 0.046263 0.151950 -0.275042 0.334628
renewal 0.049501 0.120776 -0.304006 -0.049050 0.050990 0.118307 0.001582 -0.191987 -0.004159 -0.163857 0.165314 0.212910 -0.023792 0.054149 -0.048059 -0.054240 -0.010123 0.070377 -0.121561 -0.100725 -0.053232 0.138190 0.097014 0.165435 0.128790 -0.292891 -0.024933 -0.079809 -0.136075 -0.176445 0.105941 -0.209235 -0.238816 0.249899 -0.033617 0.200866 0.115688 0.013611 0.054806 -0.226353 0.446756 -0.144982 0.030144 0.082316 -0.299215 0.024086 0.176998 -0.040674 -0.076439 0.273967
How -0.149637 0.093306 0.063308 0.058174 -0.070137 -0.175474 -0.077585 -0.109009 -0.098627 0.129182 -0.058969 -0.001337 0.214799 -0.119346 0.122185 0.154124 -0.203389 -0.078784 0.072275 0.102385 0.058815 -0.144019 -0.167256 -0.098252 -0.048371 0.148809 -0.055321 -0.055158 0.022688 0.138815 -0.008922 0.144269 0.089391 -0.029905 0.003496 0.101221 -0.082298 0.106082 -0.065981 0.072307 -0.182540 0.042245 -0.009004 0.142850 0.050035 -0.075718 0.059829 -0.011739 -0.003569 -0.082735
Insurance 0.491251 -0.260075 0.170837 -0.036672 -0.013945 0.069593 0.024522 0.718010 0.007629 -0.087736 0.008464 -0.148989 -0.357641 0.367658 -0.180416 -0.382548 0.635911 -0.119460 -0.014884 0.017719 -0.017113 0.230032 0.347142 -0.106362 -0.130435 -0.067571 0.173989 0.166359 0.163714 -0.036502 -0.022399 0.015432 0.121747 -0.236443 0.227805 -0.489676 -0.132498 -0.360319 -0.085638 0.369104 -0.478225 0.371418 -0.101472 -0.234521 0.313745 0.165293 -0.246112 -0.037867 -0.017685 -0.313766
before 0.234372 -0.173464 0.011408 -0.024839 0.018970 0.064656 0.076570 0.363132 0.122506 -0.094855 -0.048862 -0.047393 -0.236579 0.160231 -0.097502 -0.199528 0.273433 0.044054 -0.033313 -0.015266 -0.075235 0.134338 0.158311 -0.047832 0.001097 -0.073714 0.055553 0.019090 0.029460 -0.060991 -0.015103 -0.048755 0.026785 -0.040511 0.043167 -0.288346 -0.026951 -0.263133 -0.064680 0.048290 -0.117021 0.081272 -0.080703 -0.148250 0.129959 0.109731 -0.097803 -0.087594 0.026185 -0.083659
driver 0.013281 0.040078 -0.177922 -0.173447 -0.028863 -0.063234 -0.188356 0.056041 -0.021193 0.064317 -0.019779 0.033010 0.161069 0.052258 -0.039505 0.005314 0.072879 -0.116367 0.200336 0.124104 -0.132150 -0.031712 0.057658 0.106870 -0.112017 -0.089415 -0.156971 0.037466 0.078157 -0.215086 -0.050971 0.047183 0.107466 -0.186079 0.079694 0.038144 -0.285993 0.072261 0.094566 0.075856 0.180989 0.012140 0.026415 0.078110 -0.007773 -0.056310 0.163976 0.047450 0.028384 -0.065023
house 0.259051 -0.186764 0.054776 0.019588 0.008901 0.070943 0.093621 0.313023 0.026870 -0.049934 0.000036 -0.112622 -0.270623 0.219169 -0.072890 -0.229237 0.256936 0.029833 -0.035120 -0.018191 0.003454 0.191516 0.212746 0.011493 -0.015328 -0.122423 0.077802 0.086841 0.006498 0.015294 0.074166 -0.070143 -0.028038 -0.023096 -0.045497 -0.267191 0.102987 -0.256947 -0.077396 -0.027434 -0.161486 0.152798 -0.127857 -0.158250 0.070864 0.120551 -0.178892 -0.046547 -0.059339 -0.035131
ncb 0.246733 -0.041783 -0.028673 -0.110958 -0.109378 -0.118999 -0.175737 0.343112 -0.083375 0.004297 0.004682 -0.075957 -0.021183 0.185991 -0.104579 -0.142141 0.317925 -0.197901 0.148933 0.085506 -0.025991 0.037568 0.153184 -0.013835 -0.194840 -0.073114 -0.013963 0.156417 0.171622 -0.120834 0.027622 0.166965 0.113135 -0.239316 0.217833 -0.120104 -0.291562 -0.097201 0.004578 0.303360 -0.234001 0.179932 -0.050395 0.028956 0.204615 0.103642 -0.017696 -0.003176 -0.062704 -0.292356
process -0.430679 0.483083 -0.378888 -0.175476 0.053095 -0.043544 -0.369257 -0.569023 -0.181814 0.000511 0.192485 0.180263 0.386608 -0.200675 -0.029608 0.203344 -0.140628 -0.051049 0.097395 -0.081135 -0.093376 -0.233390 -0.084437 0.298949 0.085474 -0.019552 -0.285780 0.057509 -0.035031 -0.164566 0.083464 0.077952 -0.337427 -0.162103 0.059595 0.642731 -0.255508 0.510971 0.364443 0.135684 0.766883 -0.197529 0.406389 0.425835 -0.233229 -0.140258 0.402701 0.242189 -0.030035 0.106853
Is 0.175049 -0.033354 -0.019212 -0.068075 -0.032415 0.096011 -0.027267 0.245980 -0.041711 -0.008134 0.001891 0.010141 -0.031588 0.227788 -0.069533 -0.134808 0.352965 -0.115618 0.096046 0.037307 -0.034078 0.012724 0.195483 0.078027 -0.079231 -0.081931 0.028244 0.141377 0.130090 -0.106164 0.047489 0.093251 -0.004269 -0.121260 0.263404 -0.089405 -0.183891 -0.020371 0.024212 0.205018 -0.070546 0.040509 -0.072314 -0.041343 0.026586 0.192489 -0.082346 0.056881 0.030225 -0.116628
company -0.058869 -0.055754 -0.011855 -0.006813 0.024225 0.031008 0.094295 0.109828 0.080724 -0.000015 -0.029033 -0.004583 -0.103430 0.010277 0.014345 0.012839 -0.106418 0.110535 -0.056542 0.066990 -0.022131 0.109173 0.094851 -0.047151 0.085302 -0.010886 -0.163081 -0.018783 -0.105618 0.139177 -0.057347 -0.131166 -0.043871 0.097896 -0.307708 -0.269866 0.243208 -0.129389 -0.036601 -0.295992 -0.029138 0.071340 -0.228194 -0.101115 0.052752 -0.019597 -0.094774 -0.064026 0.102852 0.080525
facility 0.412540 -0.103830 -0.163584 -0.141162 -0.029952 0.150317 -0.066642 0.471524 -0.057058 -0.095960 0.125201 -0.019930 -0.133807 0.404203 -0.171494 -0.338050 0.631071 -0.192994 0.108260 0.091596 -0.085748 0.206321 0.391657 0.257006 -0.028466 -0.320355 0.035586 0.230460 0.141360 -0.227132 0.120989 0.058950 -0.107033 -0.161615 0.374566 -0.143530 -0.137216 -0.130738 0.058760 0.275027 -0.005170 0.127846 -0.118420 -0.071715 0.004989 0.290040 -0.049302 0.004271 -0.011334 -0.162916
money -0.424036 0.204340 0.410910 0.196988 -0.057939 -0.321029 -0.071554 -0.239472 -0.084403 0.276108 -0.152151 -0.026538 0.201184 -0.331936 0.309807 0.449399 -0.556828 -0.037891 0.052050 0.190267 0.165419 -0.445133 -0.427467 -0.393104 0.022326 0.355203 -0.011244 -0.253118 -0.058970 0.449820 -0.100710 0.082596 0.296017 -0.063802 -0.218910 -0.060922 0.015144 0.039243 -0.161855 0.060273 -0.422799 0.127700 0.260277 0.224814 0.135018 -0.191895 0.068076 0.002461 0.022684 0.052114
or 0.183840 -0.086614 0.172467 0.079984 0.008340 0.019820 -0.013191 0.305123 0.011476 0.025031 -0.016217 -0.121741 -0.247314 0.144312 -0.029383 -0.169001 0.177507 -0.008536 -0.044120 -0.013745 0.038952 0.012324 0.100326 -0.077650 -0.018865 0.002006 0.089776 0.013739 0.045842 0.072949 0.036430 -0.085253 0.089476 -0.181826 0.035317 -0.273584 -0.049034 -0.188142 -0.060046 0.110343 -0.214567 0.196207 0.082194 -0.099438 0.152241 0.001431 -0.126830 0.000105 -0.071809 -0.063049
Can 0.054257 -0.136352 0.276504 0.130301 -0.087024 -0.099060 0.111591 0.139297 0.086007 0.003537 -0.121916 -0.114719 -0.127301 -0.037830 0.048915 -0.021479 -0.116967 0.047696 -0.022935 -0.002681 0.132636 -0.119803 -0.148181 -0.294467 0.024769 0.215473 0.160497 -0.036081 0.015629 0.159658 -0.106739 0.040169 0.216056 -0.044119 0.001599 -0.197322 0.006214 -0.180849 -0.101885 0.111922 -0.428698 0.106416 -0.028554 -0.117283 0.276639 -0.047350 -0.108468 -0.051773 -0.025510 -0.061852
check 0.572561 -0.324857 0.354208 0.095333 -0.067455 0.103036 0.065776 0.877311 0.187975 -0.129290 0.060073 -0.271133 -0.359079 0.275676 -0.214853 -0.411839 0.621758 -0.100191 0.003032 -0.091527 0.113772 0.109641 0.199313 -0.008798 -0.084237 0.054772 0.188928 0.165796 0.115754 0.021384 -0.061958 0.236033 0.089556 -0.282544 0.252235 -0.571586 -0.125893 -0.441160 -0.088514 0.363482 -0.586187 0.326026 -0.073116 -0.428316 0.458351 0.071177 -0.236085 -0.021443 -0.039915 -0.377396
club 0.420372 -0.134209 0.033138 -0.074455 -0.032030 0.121305 0.001428 0.477590 0.030759 -0.115169 0.032802 0.026982 -0.194821 0.349729 -0.094333 -0.260639 0.436800 -0.065995 0.031108 0.073061 -0.060444 0.095235 0.344451 0.005724 -0.112203 -0.135635 -0.011542 0.155007 0.130187 -0.132467 -0.046654 0.063646 0.026769 -0.144731 0.182661 -0.339999 -0.127032 -0.216661 -0.042229 0.120679 -0.173691 0.170219 -0.160204 -0.116101 0.145668 0.277727 -0.126077 -0.069577 0.006676 -0.136454
limit 0.047823 0.195270 -0.269826 -0.194097 0.096879 0.230497 -0.252920 -0.006786 -0.008939 -0.157833 0.197834 0.137784 -0.048054 0.161500 -0.202611 -0.172772 0.362339 0.023160 0.087748 -0.128632 -0.154453 -0.083405 0.272273 0.283069 0.068697 -0.177913 -0.171101 0.141351 0.032689 -0.248786 -0.005980 -0.001245 -0.353016 -0.236656 0.131414 0.184655 -0.254226 0.172623 0.318435 0.149322 0.658047 -0.048664 0.325391 0.145175 -0.064628 0.113038 0.152984 0.145326 -0.063579 0.046605
pre 0.348616 -0.234879 0.152204 -0.100896 0.005976 0.023240 0.060857 0.615411 0.020596 0.071496 -0.012923 -0.189552 -0.154173 0.325689 -0.127701 -0.226551 0.462036 -0.251242 0.149047 0.133330 0.005921 0.170670 0.148458 0.096265 -0.140329 -0.072846 0.121253 0.300519 0.135191 -0.174637 -0.022407 0.149184 0.189270 -0.231566 0.308095 -0.348321 -0.121986 -0.308135 -0.152105 0.328800 -0.457628 0.207478 -0.200362 -0.282777 0.302682 0.095608 -0.117281 -0.042248 -0.050702 -0.307255
top 0.467603 -0.282746 0.155306 0.178694 -0.050936 0.131599 0.216795 0.485902 0.223963 -0.187917 0.034440 -0.027675 -0.294812 0.174333 -0.126451 -0.298234 0.326039 -0.008067 -0.195869 -0.101424 0.109091 0.153180 0.153785 -0.102043 -0.024044 -0.112668 0.260678 -0.127629 0.032614 -0.060389 0.010591 0.014259 0.006643 0.141910 0.178647 -0.341965 0.179403 -0.366309 -0.116906 0.030410 -0.335456 0.101605 -0.247326 -0.318729 0.080910 0.139590 -0.217188 -0.240026 0.041287 -0.057340
why -0.173862 0.072195 0.161088 0.113871 -0.088538 -0.264729 -0.046095 -0.136552 -0.141245 0.120338 -0.089543 -0.017390 0.214178 -0.216532 0.155379 0.219694 -0.301061 -0.103316 0.049008 0.065178 0.143518 -0.124512 -0.247357 -0.164533 -0.068137 0.268517 -0.031881 -0.041656 0.012228 0.199749 -0.026011 0.176210 0.183680 0.015742 0.009271 0.149963 -0.050681 0.115421 -0.039263 0.101499 -0.319864 0.041318 0.000555 0.125774 0.119408 -0.181103 0.045695 -0.032411 -0.024938 -0.174654
abroad 0.278902 -0.384396 0.312841 0.030831 -0.046125 0.042438 0.116645 0.616028 0.164640 0.104493 -0.187920 -0.260389 -0.285381 0.166402 -0.056656 -0.161080 0.211443 -0.005920 0.178116 0.079523 -0.004270 0.147163 0.041336 -0.100061 -0.025230 0.142509 0.119776 0.110261 0.044851 0.031021 -0.178309 0.103240 0.358553 -0.253231 -0.014862 -0.561181 0.014251 -0.299349 -0.223204 0.139054 -0.493543 0.196209 -0.092436 -0.298765 0.426943 0.043210 -0.215833 -0.070201 -0.078572 -0.215634
got 0.038299 -0.313466 0.533716 0.194467 -0.117326 -0.258011 0.033045 0.207433 0.199885 0.219883 -0.321947 -0.321777 -0.245503 -0.264931 0.140326 0.099770 -0.414471 0.171133 0.014759 0.026121 0.140939 -0.060482 -0.310060 -0.394627 -0.157055 0.397494 0.156337 -0.300513 -0.046637 0.360018 -0.262099 0.025386 0.527157 -0.077414 -0.431407 -0.362643 0.003622 -0.261851 -0.332160 -0.236162 -0.590171 0.116850 0.049657 -0.185415 0.363946 -0.243350 -0.238039 -0.022733 -0.113424 -0.162728
new 0.241794 -0.163076 0.022057 0.037116 0.015515 0.110317 0.118140 0.187211 0.000100 -0.160938 -0.002231 -0.021113 -0.213159 0.101813 -0.072424 -0.223830 0.236066 0.085284 -0.106962 -0.110112 -0.010128 0.147082 0.178169 -0.032300 0.028492 -0.037779 0.078242 0.010956 0.031326 0.004632 0.006739 -0.068376 -0.091403 0.048975 0.114274 -0.106507 0.059299 -0.112395 0.032312 0.089450 -0.061920 0.077074 -0.062566 -0.179024 0.028932 0.075701 -0.101123 -0.047094 0.010426 -0.112428
card 0.551693 -0.312056 -0.005425 -0.094256 -0.040798 0.168876 0.135748 0.626455 0.142955 -0.211114 -0.031151 -0.009975 -0.417702 0.334097 -0.164685 -0.400609 0.351134 0.101086 -0.109231 -0.081961 -0.031920 0.230323 0.377668 -0.077315 -0.058855 -0.222413 0.048122 -0.006043 0.051966 -0.110063 -0.045381 -0.078499 0.013543 -0.060635 0.030020 -0.433636 0.071438 -0.397831 -0.075874 -0.073455 -0.164785 0.240627 -0.211190 -0.227478 0.111184 0.228703 -0.218464 -0.094439 0.017001 -0.163488
discounts -0.069373 0.047129 -0.012109 -0.133707 0.006940 -0.030351 -0.131196 0.125991 0.041528 0.122481 -0.021145 -0.041494 0.118058 0.128209 0.007925 0.092220 0.136720 -0.197493 0.208463 0.174221 -0.065262 -0.139846 0.005329 0.025700 -0.191534 0.026050 -0.051570 0.190711 0.080821 -0.192696 -0.078932 0.173797 0.112993 -0.222275 0.185745 0.001045 -0.229191 0.019813 -0.044059 0.181243 -0.014703 0.025358 -0.039347 0.101574 0.115085 0.075901 -0.022822 0.070259 0.010426 -0.083640
during 0.289175 -0.153119 0.068976 -0.038989 0.012515 0.078261 0.011577 0.389154 0.034983 -0.064257 -0.015456 -0.096214 -0.243632 0.218982 -0.112430 -0.257569 0.331177 -0.081654 0.042277 -0.048170 -0.023656 0.167818 0.167682 -0.011604 -0.045569 -0.082950 0.126578 0.060970 0.076365 -0.142191 -0.013573 -0.058822 0.102330 -0.147336 0.123399 -0.237057 -0.128780 -0.260004 -0.034159 0.192984 -0.162108 0.165068 0.023961 -0.173026 0.158571 0.018253 -0.102764 -0.005886 -0.053563 -0.153059
employer -0.186997 0.053842 0.095861 0.078664 0.048658 -0.031327 -0.020958 -0.084984 0.003195 0.088777 -0.023453 -0.108949 -0.036414 -0.090350 0.058855 0.074376 -0.131688 0.059873 -0.025512 0.037824 0.024041 -0.047555 -0.101506 -0.035029 0.029044 0.116856 -0.060059 0.062974 -0.126377 0.183449 0.028115 -0.007722 -0.058466 -0.035568 -0.252218 -0.052847 0.097069 -0.043530 -0.092181 -0.091044 -0.059551 0.040523 -0.017835 0.045727 0.102186 -0.007535 -0.066365 0.003010 0.005438 0.052084
given -0.013649 0.115377 -0.237387 -0.196719 -0.004848 -0.078026 -0.238776 -0.018907 -0.098950 0.107496 0.026004 0.118995 0.204659 0.079035 -0.003424 0.091956 0.086245 -0.147152 0.163732 0.156247 -0.099065 -0.051399 0.125594 0.164454 -0.111089 -0.151444 -0.259867 0.141550 0.040691 -0.158510 0.028726 0.181560 -0.025955 -0.148023 0.049401 0.147535 -0.225304 0.132449 -0.053243 -0.018526 0.218537 -0.037152 -0.043483 0.265742 -0.057922 0.122823 0.121773 0.035326 -0.048956 -0.041523
illness 0.371334 -0.105256 -0.019065 -0.101309 -0.077050 0.063614 -0.058635 0.498298 -0.092864 -0.114257 0.062602 -0.047940 -0.144554 0.330530 -0.154484 -0.326179 0.566546 -0.170745 0.082734 0.018955 -0.044619 0.125163 0.341237 0.107818 -0.101076 -0.133582 0.055178 0.235670 0.225178 -0.132323 0.058871 0.128410 -0.010005 -0.240104 0.354594 -0.207506 -0.252511 -0.150234 0.137231 0.415230 -0.163075 0.198072 -0.040437 -0.092414 0.144709 0.212176 -0.087989 0.039656 -0.028707 -0.283857
only 0.505903 -0.309410 0.006897 0.064601 -0.066428 0.100341 0.233993 0.496618 0.117920 -0.205363 -0.089990 -0.029819 -0.244965 0.259117 -0.131752 -0.344964 0.434407 -0.017196 -0.111978 -0.026863 0.025638 0.276056 0.234789 -0.116166 0.002930 -0.083705 0.223458 0.030631 0.111447 -0.057412 -0.007191 0.041601 0.012583 0.109213 0.305674 -0.297118 0.115119 -0.324017 0.014091 0.181550 -0.298462 0.135379 -0.246504 -0.328677 0.071279 0.171564 -0.138389 -0.161303 0.047214 -0.234387
personal 0.629781 -0.292399 0.175291 -0.019638 0.009687 -0.040504 -0.055083 0.724004 0.007401 -0.051590 0.029182 -0.233859 -0.548461 0.281390 -0.107135 -0.402455 0.404888 -0.053233 -0.040932 -0.054279 0.026748 0.241291 0.380622 -0.128410 -0.195759 -0.151923 0.126938 -0.043442 0.135951 -0.060300 -0.036418 -0.117642 0.231925 -0.281930 0.051772 -0.457628 -0.123467 -0.473403 -0.061530 0.045622 -0.218083 0.296265 0.025751 -0.198692 0.282626 0.028094 -0.308497 -0.072589 -0.185757 -0.254014
place 0.314564 -0.104090 -0.102864 -0.132005 -0.052403 -0.033068 -0.121102 0.337723 0.025996 -0.080036 0.032970 -0.099884 -0.128471 0.173748 -0.171701 -0.207057 0.286023 -0.098255 0.114059 -0.028814 -0.119941 0.199698 0.128914 0.042082 -0.122919 -0.144650 0.063941 -0.031671 0.079573 -0.267033 0.047754 -0.073640 0.177633 -0.184615 0.136525 -0.085625 -0.249456 -0.107021 0.020006 0.175853 -0.065860 0.124756 0.084471 -0.081883 0.079329 -0.058019 0.082510 -0.010707 -0.132253 -0.132192
procedure -0.547474 0.423924 -0.229320 -0.100256 0.088569 0.040888 -0.182982 -0.516983 -0.014448 0.044751 0.116170 0.151321 0.297217 -0.212035 -0.000952 0.268353 -0.179936 0.021765 0.101723 -0.004826 -0.066952 -0.248768 -0.155163 0.292720 0.199672 0.022640 -0.215766 0.114246 -0.133131 -0.049116 0.023162 0.081930 -0.274479 -0.106467 -0.110840 0.414394 -0.059535 0.470496 0.280397 0.048141 0.671244 -0.254497 0.358991 0.287888 -0.153270 -0.076004 0.282219 0.238688 0.021471 0.240539
another 0.165862 -0.107116 -0.030409 0.052377 0.022538 0.161050 0.213519 0.074047 0.016329 -0.168015 0.043530 0.085297 -0.157114 0.109688 -0.074055 -0.232849 0.135713 0.113098 -0.146438 -0.104505 0.044347 0.202404 0.138737 -0.000584 0.141643 -0.119352 0.054980 0.057356 -0.029846 0.014034 0.075640 -0.096178 -0.176550 0.213168 0.055005 -0.065411 0.228374 -0.083173 0.027493 -0.002589 0.014181 0.002342 -0.130350 -0.168491 -0.054809 0.144716 -0.090492 -0.061475 0.028333 0.041800
cost -0.004345 0.099403 -0.038225 0.076431 -0.038820 0.047694 0.033117 -0.075035 -0.102821 -0.132700 0.050381 0.029075 0.018098 -0.028492 -0.027320 -0.069291 0.105081 0.019775 -0.055393 -0.119538 0.081986 -0.000560 0.049856 0.005093 0.092215 0.036828 0.102651 -0.017454 0.117746 0.023674 0.110434 0.005216 -0.124866 0.028275 0.201789 0.128239 -0.013590 0.128418 0.256616 0.271760 0.017898 -0.017364 0.102930 -0.041781 -0.056888 -0.013523 0.040015 0.073926 0.055080 -0.097297
due -0.068182 -0.015490 0.106671 0.147854 0.069042 0.144025 0.214317 -0.056583 -0.151136 -0.145848 0.005996 -0.092485 -0.036303 -0.072218 -0.052092 -0.195771 0.151158 0.028549 -0.145221 -0.275137 0.142280 0.146485 -0.009130 0.022210 0.149353 0.156356 0.193490 0.124204 0.081689 0.065825 0.110612 -0.042763 -0.199471 0.067213 0.299106 0.183045 0.095506 0.144427 0.208148 0.411385 -0.060234 0.023226 0.061590 -0.188395 0.044452 -0.061759 -0.052491 0.083553 0.037526 -0.202371
file -0.077855 -0.124297 0.235388 0.303018 -0.023309 0.183805 0.404178 -0.252748 -0.065876 -0.055863 -0.090959 0.085931 0.043553 -0.093330 0.073900 -0.043424 -0.102182 0.135291 -0.268663 -0.199086 0.214576 0.084826 -0.121008 -0.136798 0.138672 0.170628 0.232530 0.003222 -0.019765 0.243485 0.091542 -0.046969 -0.157489 0.409305 0.086575 0.080308 0.246713 0.105691 -0.047386 -0.007104 -0.244962 -0.096705 -0.171012 -0.256725 -0.116130 0.076045 -0.121526 -0.065416 0.133497 0.074976
having 0.371253 -0.226111 -0.080461 0.058004 0.026234 0.307189 0.270674 0.254036 0.217124 -0.280371 0.012893 0.090127 -0.351770 0.195451 -0.139961 -0.311933 0.261338 0.179653 -0.177777 -0.136685 -0.015262 0.270739 0.217449 -0.000169 0.199293 -0.234678 0.200047 -0.067588 -0.039698 -0.085841 -0.017873 -0.189862 -0.162549 0.243333 0.011428 -0.247927 0.280891 -0.285258 0.017420 -0.121630 0.066205 0.002914 -0.135122 -0.328170 -0.063126 0.118945 -0.095086 -0.170120 0.039272 0.128146
many -0.054461 0.042548 0.297975 0.160449 -0.170762 -0.362755 -0.036488 0.089542 -0.348439 0.286426 -0.147714 -0.126999 0.308121 -0.042912 0.246082 0.232242 -0.128353 -0.362689 0.099418 0.239740 0.251538 -0.153575 -0.173502 -0.296843 -0.241515 0.212089 0.105955 -0.063189 0.239044 0.260581 0.159091 0.242198 0.340011 -0.120122 0.332032 -0.053747 -0.195682 -0.012072 -0.179691 0.447213 -0.809834 0.361891 -0.074737 0.139089 0.070190 -0.046579 -0.020936 -0.078719 0.066868 -0.342994
no 0.063777 0.102889 -0.053460 -0.115364 -0.042103 0.035623 -0.203292 0.228515 -0.121607 0.069693 0.094704 -0.006386 -0.035636 0.222132 -0.075135 -0.035650 0.355817 -0.083670 0.109804 0.133343 -0.088514 -0.037388 0.263756 0.135519 0.012050 -0.120442 -0.152108 0.160253 0.097490 0.051851 0.079736 0.101171 -0.145968 -0.221458 0.024175 -0.141600 -0.177377 0.061787 0.016376 0.133957 0.078080 0.126071 0.058714 0.142016 0.038674 0.218715 -0.013907 0.108041 0.039220 0.014990
reimbursement -0.233312 -0.084004 0.202450 0.069427 0.176497 0.269480 0.267683 -0.078285 0.255303 0.074630 -0.087601 -0.003295 -0.181997 0.010637 0.023609 0.097116 -0.105524 0.123570 -0.069635 0.045331 0.033792 -0.044019 -0.135339 0.045427 0.218383 -0.010790 0.156744 0.083600 -0.172591 0.024371 -0.102524 -0.169107 -0.015032 0.183143 -0.237222 -0.229812 0.334778 -0.128297 -0.220743 -0.228646 0.046784 -0.173424 -0.018191 -0.196140 0.000662 0.108728 -0.115367 0.017783 0.033272 0.407870
agents 0.146858 -0.126231 0.011636 0.004045 0.049354 0.185971 0.182788 0.178061 0.024242 -0.059844 0.002866 -0.032429 -0.097266 0.201850 -0.078222 -0.187100 0.276660 -0.067119 -0.019713 -0.010573 0.017333 0.205403 0.124864 0.123604 0.019256 -0.121080 0.130583 0.205996 0.049984 -0.163111 0.073642 -0.027177 -0.031010 0.085286 0.203916 -0.123390 0.149870 -0.094449 -0.030249 0.145495 -0.096082 -0.030279 -0.185670 -0.208661 -0.015362 0.165697 -0.095153 -0.057283 0.014540 -0.003935
bonus 0.423533 -0.236330 0.186249 -0.092249 -0.065720 0.007318 -0.054382 0.720674 -0.023416 -0.000681 -0.005200 -0.192283 -0.326465 0.351549 -0.132248 -0.287652 0.563268 -0.137786 0.086046 0.095861 -0.021144 0.148031 0.333669 -0.015356 -0.060798 -0.115648 0.083839 0.175583 0.183184 0.000272 0.019182 0.073837 0.100540 -0.299835 0.158419 -0.472711 -0.147570 -0.286301 -0.121194 0.288750 -0.396010 0.305493 -0.083992 -0.166627 0.366601 0.248227 -0.230636 0.005488 -0.048020 -0.238055
commission 0.017383 -0.044445 0.047494 0.035614 0.018284 0.023813 0.105838 -0.003052 -0.032802 -0.011807 -0.013723 -0.023200 0.014657 0.039527 0.006115 -0.037640 0.037466 -0.035182 -0.029538 -0.036029 0.045377 0.083908 -0.024516 -0.014826 0.017517 -0.037587 0.096416 0.020115 0.018146 -0.034147 0.066966 -0.055081 -0.001870 0.060245 0.108627 -0.005869 0.061317 -0.032860 -0.039614 0.091345 -0.154893 0.001081 -0.074415 -0.085717 0.006775 0.017785 -0.018583 -0.024012 0.000823 -0.016130
settle -0.078038 0.041789 0.205603 0.183555 0.049940 0.040476 0.120378 -0.184821 -0.102911 -0.145183 0.041823 -0.092142 -0.208911 -0.156960 -0.023397 -0.110243 -0.093419 0.209463 -0.232892 -0.261810 0.132236 0.075132 -0.072387 -0.092921 0.198392 0.208236 0.137606 -0.051892 -0.080875 0.278180 0.081381 -0.184551 -0.192579 0.065532 -0.086854 0.077961 0.193312 0.032362 0.154921 0.138275 -0.053098 0.047714 0.119694 -0.127690 0.105812 -0.123592 -0.078887 0.025701 -0.023013 -0.057238
submit -0.028753 -0.132052 0.348337 0.163239 -0.075219 -0.154536 0.120215 0.105327 -0.025114 0.042865 -0.167406 -0.143418 -0.051601 -0.166160 0.093705 0.047620 -0.175774 0.051321 -0.039399 -0.044730 0.132638 -0.036414 -0.152283 -0.295230 -0.038460 0.327253 0.134796 -0.107567 0.035649 0.266129 -0.104241 0.082664 0.230226 -0.026018 -0.013146 -0.130423 0.064360 -0.034419 -0.038401 0.142302 -0.446109 0.124453 -0.018745 -0.158325 0.242185 -0.132870 -0.131308 -0.019555 0.015249 -0.247765
taken -0.069178 0.094355 0.033463 0.013859 0.048517 0.126133 0.058001 -0.079887 0.108845 -0.131738 0.032558 0.134706 -0.126781 -0.058715 -0.021816 -0.077455 0.006027 0.141444 -0.130082 -0.054122 -0.054201 -0.213302 -0.023732 -0.082589 0.154039 0.026352 0.041002 0.000839 -0.010992 0.085772 -0.056014 -0.020769 -0.114095 0.047481 0.093718 -0.015040 0.116690 0.021426 0.177248 0.040117 0.143516 -0.145814 0.087375 -0.080862 -0.033748 0.104905 0.003779 -0.028435 0.087590 0.133923
term 0.363795 -0.126667 -0.122872 -0.012949 -0.014834 0.155210 0.227218 0.480896 -0.051177 -0.068645 -0.039006 -0.016449 -0.086238 0.388292 -0.119141 -0.238145 0.548951 -0.194687 0.046214 0.098104 -0.033153 0.195900 0.291247 0.073403 -0.047813 -0.274099 0.180996 0.218165 0.128833 -0.174448 0.082929 0.060271 -0.043098 0.046188 0.447261 -0.257801 0.034425 -0.181619 0.029507 0.344181 -0.247226 0.072641 -0.318212 -0.240922 -0.075037 0.363537 -0.100567 -0.139086 0.128997 -0.150878
treatments 0.353006 -0.162360 0.000906 -0.089193 -0.064472 -0.066997 -0.061848 0.402409 -0.067420 -0.037673 0.042964 -0.083678 -0.089035 0.222506 -0.068041 -0.203458 0.303979 -0.172858 0.098185 0.060674 -0.011465 0.119542 0.187025 0.000596 -0.162613 -0.083602 0.038982 0.099283 0.149387 -0.139397 0.005064 0.083602 0.127321 -0.205941 0.190877 -0.198478 -0.184651 -0.194295 -0.022092 0.201379 -0.305914 0.200763 -0.064350 -0.072128 0.170568 0.050291 -0.078726 -0.033437 -0.026055 -0.240730
Policy 0.292576 -0.213536 0.186686 0.073257 -0.039996 0.031087 0.128082 0.374434 -0.003841 -0.064304 -0.027687 -0.087022 -0.220041 0.161309 -0.084186 -0.226661 0.302807 -0.021537 -0.086822 -0.046817 0.063440 0.167187 0.140316 -0.135533 -0.055467 0.002939 0.182420 0.041852 0.080044 0.072378 0.000107 -0.036157 0.088813 -0.013039 0.130312 -0.274592 0.001853 -0.232710 -0.078229 0.192262 -0.397189 0.199613 -0.099454 -0.220112 0.159559 0.075887 -0.183931 -0.050615 0.003496 -0.188869
Will 0.081112 -0.033831 0.137623 0.107766 -0.099558 -0.097641 0.055391 0.084286 -0.049932 -0.029272 -0.067113 -0.043503 -0.021161 -0.024782 0.018409 -0.086756 0.010267 -0.033100 -0.022544 -0.047918 0.097533 -0.073117 -0.085529 -0.177000 -0.001208 0.130710 0.160846 0.019464 0.089387 0.085597 0.014113 0.083378 0.103339 -0.023647 0.214861 -0.034908 -0.043687 -0.046666 0.059368 0.277935 -0.341804 0.039197 -0.032362 -0.097112 0.121329 -0.006826 -0.056252 -0.005301 0.023177 -0.155157
back -0.133075 -0.044185 0.292332 0.078705 0.025549 -0.085050 -0.066428 0.044598 0.173467 0.072830 -0.065514 -0.150972 -0.170097 -0.116493 0.035569 0.072655 -0.202565 0.116223 0.006687 0.008536 0.032538 -0.162796 -0.191597 -0.136263 0.050787 0.210684 -0.007868 -0.067034 -0.125543 0.258435 -0.184355 -0.045058 0.174462 -0.137114 -0.381915 -0.233992 -0.000262 -0.153954 -0.139199 -0.145955 -0.162402 0.100864 0.205262 -0.039213 0.311051 -0.130928 -0.059579 0.062939 -0.098286 0.060923
change 0.016102 -0.044545 0.160463 0.035303 -0.049633 -0.076626 -0.040126 0.120036 -0.062692 0.042930 -0.077557 -0.074192 -0.012708 -0.033851 0.008087 -0.041375 0.056700 -0.062143 0.029592 -0.038191 0.069383 -0.052925 -0.063650 -0.102061 -0.053791 0.135006 0.066308 0.017413 0.081990 0.065146 -0.014909 0.085570 0.116555 -0.117243 0.115917 -0.024582 -0.178214 -0.009498 -0.025517 0.241518 -0.233987 0.120851 0.093696 -0.041125 0.158401 -0.056386 -0.043440 0.056509 -0.004362 -0.197943
checkup 0.379367 -0.207843 0.067649 -0.069880 -0.019254 0.113907 0.042684 0.586993 0.050849 -0.144796 0.031834 -0.143136 -0.275202 0.253363 -0.178193 -0.320840 0.467482 -0.051398 0.028964 -0.057367 0.006988 0.158864 0.230535 0.038340 -0.047173 -0.059095 0.036070 0.173533 0.105529 -0.072664 -0.040355 0.085280 -0.026092 -0.192147 0.187622 -0.327006 -0.070105 -0.251429 0.018110 0.227565 -0.191331 0.197456 -0.043620 -0.228637 0.239617 0.111899 -0.149716 0.018699 -0.049910 -0.233419
coverages -0.134397 0.141389 -0.106593 -0.187393 0.047006 0.004540 -0.293883 0.017679 0.025257 0.092024 0.061816 0.009892 0.048963 0.016857 -0.060442 0.093838 0.120356 -0.075841 0.160254 0.098915 -0.145086 -0.196299 0.076105 0.125157 -0.100860 -0.026401 -0.213064 0.124000 0.038757 -0.138454 -0.078916 0.140693 -0.027682 -0.312509 -0.023086 0.089913 -0.254559 0.159319 0.096221 0.053198 0.364604 0.004832 0.163176 0.223638 0.065090 0.026642 0.117035 0.130844 -0.032521 0.003760
had 0.073494 -0.288303 0.550382 0.240575 -0.037965 -0.256335 0.015662 0.296062 0.134348 0.188525 -0.244081 -0.380413 -0.455992 -0.207519 0.124735 -0.038111 -0.234415 0.173001 -0.124272 -0.033352 0.175162 -0.052443 -0.186371 -0.362075 -0.158680 0.336373 0.204015 -0.225402 -0.020392 0.357766 -0.186696 -0.067679 0.448526 -0.185544 -0.391927 -0.382996 0.003206 -0.356149 -0.221484 -0.176393 -0.418998 0.141327 0.198931 -0.190687 0.367918 -0.278956 -0.356363 0.020740 -0.181382 -0.175245
include 0.000926 -0.045992 0.193387 0.085996 0.034673 0.040545 0.052761 0.032319 0.025067 -0.108556 -0.035047 -0.110258 -0.217049 -0.109212 -0.010082 -0.118074 -0.039905 0.194730 -0.115082 -0.165881 0.042307 0.049949 -0.020630 -0.115451 0.096432 0.174197 0.060552 -0.081006 -0.057785 0.222276 -0.041258 -0.108651 -0.042548 -0.023239 -0.140874 -0.094636 0.099807 -0.039897 0.052747 0.010991 -0.092417 0.059793 0.085265 -0.132542 0.167098 -0.099504 -0.097525 0.015275 0.001205 -0.085408
liability 0.399466 -0.219753 -0.024227 0.007579 -0.066250 0.043674 0.123466 0.377726 0.062030 -0.122391 -0.070208 -0.002227 -0.143763 0.209806 -0.075836 -0.230701 0.322768 -0.028987 -0.058641 0.025533 -0.007198 0.193510 0.196481 -0.073851 -0.036380 -0.093607 0.101261 0.026849 0.085472 -0.048271 -0.012954 0.052676 0.030804 0.049248 0.219871 -0.227726 0.038727 -0.226884 -0.018957 0.092077 -0.206757 0.104222 -0.205414 -0.192650 0.040095 0.151246 -0.085051 -0.103440 0.016704 -0.178313
same 0.176625 -0.025613 -0.210564 -0.107347 0.075245 0.222592 -0.002588 0.085188 0.196702 -0.191809 0.110339 0.105658 -0.196017 0.110555 -0.115629 -0.170559 0.168467 0.161640 -0.042808 -0.077965 -0.159368 0.059120 0.185119 0.124284 0.107158 -0.236642 -0.071436 -0.061553 -0.088802 -0.163798 -0.063038 -0.118155 -0.190642 0.021114 -0.108190 -0.052349 0.101303 -0.075798 0.140833 -0.216109 0.450223 -0.075683 0.058471 -0.050852 -0.086136 0.080311 0.040938 -0.064780 -0.026259 0.170119
tax 0.104489 0.004968 0.083856 -0.020601 -0.017062 -0.044491 -0.059779 0.172877 -0.036544 0.002050 0.011069 -0.050223 -0.068657 0.071146 -0.021497 -0.063236 0.159274 -0.031494 0.042936 0.010410 0.000053 -0.050704 0.077834 -0.064027 -0.037861 0.011880 0.044538 0.060815 0.087281 0.019838 -0.020907 0.038061 0.073205 -0.146515 0.136858 -0.104116 -0.145613 -0.058816 0.036949 0.243184 -0.143228 0.113850 0.060488 -0.029686 0.145729 0.050919 -0.046249 0.047685 0.028525 -0.123830
ttd 0.275958 -0.070937 -0.172243 -0.119202 -0.070553 -0.027424 -0.088823 0.242722 -0.056015 0.015680 0.019193 0.023754 0.061910 0.232960 -0.078169 -0.103103 0.306130 -0.179806 0.093597 0.127746 -0.047054 0.112904 0.236368 0.072832 -0.140134 -0.149856 -0.068240 0.143441 0.128781 -0.159480 0.041760 0.147397 -0.003343 -0.087139 0.222913 -0.040189 -0.141890 -0.090287 -0.034961 0.102838 -0.051408 0.094561 -0.196731 0.035749 -0.005030 0.156319 0.000955 -0.064669 -0.003334 -0.187894
NSEIT 0.274431 -0.112282 -0.088048 -0.090048 -0.012851 0.063823 0.003864 0.281783 0.026588 -0.096334 0.051372 -0.031491 -0.116858 0.232273 -0.116158 -0.243238 0.324654 -0.125808 0.066189 0.011075 -0.044455 0.162218 0.171686 0.064430 -0.032026 -0.168261 0.075756 0.111533 0.092931 -0.188091 0.044111 0.019539 -0.008821 -0.049300 0.259611 -0.102403 -0.094221 -0.136074 0.059037 0.200109 -0.048796 0.068648 -0.081977 -0.107500 0.062453 0.114832 -0.025309 -0.036244 -0.008478 -0.107257
about -0.082819 0.113527 0.174700 -0.096322 -0.063257 -0.210467 -0.286876 -0.003178 -0.004365 0.128291 -0.082782 -0.091486 0.115474 -0.266546 0.063862 0.150214 -0.156488 0.007161 0.160556 0.019800 -0.030755 -0.201358 -0.160384 -0.179890 -0.054656 0.317418 -0.132011 -0.056477 0.021995 0.153211 -0.180843 0.212498 0.114260 -0.368386 -0.042856 0.079569 -0.293788 0.123226 0.055371 0.201778 -0.101607 0.162465 0.311661 0.131601 0.344549 -0.192854 0.079942 0.110187 0.008957 -0.343118
advance 0.370724 -0.259119 0.167183 -0.013504 0.000672 -0.009308 0.062858 0.444523 0.039179 -0.060603 -0.074423 -0.148416 -0.281852 0.175648 -0.061680 -0.239293 0.229403 -0.024768 -0.003532 -0.008182 0.014272 0.128100 0.159198 -0.106925 -0.112858 -0.041566 0.148027 -0.023091 0.093602 -0.033655 -0.025450 -0.038515 0.182488 -0.123338 0.099582 -0.317309 -0.030226 -0.339791 -0.098540 0.096059 -0.305877 0.146611 -0.093619 -0.203415 0.206810 0.039061 -0.201410 -0.071970 -0.030591 -0.226206
applicable 0.076570 0.014756 -0.101056 -0.054597 -0.043208 0.028813 -0.034737 0.050591 -0.041165 -0.039522 0.029319 0.011525 0.024705 0.111058 -0.042822 -0.095879 0.184312 -0.033531 0.003991 0.011937 -0.026182 0.039097 0.121128 0.091274 0.000374 -0.101327 -0.036486 0.057533 0.093621 -0.046140 0.055056 0.065533 -0.107059 -0.032881 0.137376 0.038957 -0.055734 0.022304 0.079602 0.100596 0.081630 -0.029305 -0.025292 -0.001094 -0.055779 0.117737 0.007470 0.021357 0.011925 -0.056912
as -0.028564 -0.016845 0.104062 -0.014034 0.032737 -0.045832 -0.072158 0.077600 0.048141 0.045375 -0.021553 -0.080196 -0.047271 -0.014117 -0.023646 0.019412 0.006571 -0.053322 0.017832 -0.011594 -0.018798 -0.080436 -0.075224 -0.046842 -0.026367 0.059142 0.036362 -0.018280 0.007785 0.011015 -0.082025 -0.054126 0.144159 -0.139303 -0.005003 -0.099496 -0.143926 -0.052601 -0.052854 0.105675 -0.127372 0.075180 0.110793 0.014622 0.168398 -0.067639 -0.022839 0.060371 -0.033301 -0.036762
ayurveda 0.353467 -0.159531 -0.078341 -0.121719 0.017103 0.168835 -0.024180 0.458334 -0.059853 -0.080729 0.098000 -0.040832 -0.128931 0.391882 -0.163558 -0.282149 0.544046 -0.222057 0.091464 0.039332 -0.100771 0.240532 0.307556 0.190770 -0.099407 -0.225155 0.081960 0.250607 0.138848 -0.252071 0.061027 0.016671 -0.027556 -0.121732 0.326396 -0.184119 -0.135370 -0.184453 -0.022952 0.267572 -0.108067 0.125269 -0.150155 -0.083959 0.035932 0.178216 -0.067628 -0.008731 -0.026747 -0.168473
benefit 0.329539 -0.129546 0.087374 -0.016884 -0.054275 -0.039125 -0.026219 0.421385 -0.065885 -0.033413 0.013796 -0.108192 -0.137260 0.225337 -0.087649 -0.209722 0.384918 -0.130889 0.046258 0.018817 -0.005658 0.093174 0.192794 -0.073798 -0.094472 -0.015933 0.097353 0.119228 0.156542 -0.040240 0.017137 0.088832 0.104274 -0.177963 0.286591 -0.206074 -0.175806 -0.180376 0.025922 0.371893 -0.315386 0.213019 -0.070666 -0.131391 0.210015 0.109261 -0.121991 -0.021319 0.019602 -0.278372
buy -0.080924 -0.086398 0.153401 0.136583 -0.003481 -0.079953 0.129542 -0.063417 0.019891 0.077322 -0.103093 -0.029230 -0.023602 -0.106710 0.093294 0.092680 -0.292858 0.115526 -0.078958 0.027327 0.068720 0.080998 -0.142320 -0.168645 0.007190 0.123348 -0.001970 -0.128784 -0.135792 0.213429 -0.024149 -0.084931 0.111060 0.149707 -0.290716 -0.130535 0.204221 -0.094777 -0.178862 -0.286187 -0.239964 0.024059 -0.137701 -0.035825 0.044133 -0.082429 -0.104208 -0.083024 0.004784 0.054266
cancel -0.109343 -0.112498 0.179026 0.183170 -0.044030 -0.056873 0.214718 -0.119027 0.108050 0.046537 -0.142262 -0.022265 -0.014104 -0.220770 0.147663 0.149144 -0.328239 0.161127 -0.102768 0.020106 0.086326 0.001676 -0.222906 -0.220291 0.060507 0.192301 0.081220 -0.217921 -0.118634 0.191945 -0.083220 -0.037247 0.129524 0.236202 -0.209184 -0.085061 0.246381 -0.061659 -0.143927 -0.232099 -0.235992 -0.040814 -0.091476 -0.099867 -0.003643 -0.087017 -0.095118 -0.103567 0.056849 0.084360
employment 0.111018 -0.043015 0.004268 -0.041082 0.058161 0.144862 0.026236 0.267472 0.069471 -0.020998 0.052182 -0.002431 -0.134415 0.215967 -0.083795 -0.151865 0.297589 -0.045176 0.037479 0.051007 -0.106068 0.012587 0.165746 0.060474 0.021937 -0.104556 0.021157 0.187073 0.036277 -0.115667 -0.038426 0.016482 -0.026471 -0.143020 0.156783 -0.206047 0.028806 -0.073646 0.022447 0.149328 0.017578 0.040757 -0.015180 -0.074062 0.080085 0.148687 -0.065879 -0.001923 0.008549 0.016867
exclusions 0.117932 -0.102763 -0.011692 -0.082617 0.021056 0.106205 0.058028 0.153537 0.053779 -0.003623 -0.017999 0.009008 0.027299 0.138517 -0.060349 -0.041780 0.212902 -0.057121 0.065157 0.052432 -0.076877 -0.005975 0.132709 0.036175 -0.188513 -0.054536 0.039090 0.085543 0.137945 -0.164693 -0.079261 0.043521 0.047762 -0.014127 0.190468 -0.059839 -0.071021 -0.002746 0.002907 0.057964 -0.013061 0.000782 -0.159102 -0.064337 -0.027231 0.143767 -0.101644 0.029608 0.096786 -0.078426
free 0.327540 -0.133113 -0.027301 -0.038632 0.011445 0.103839 -0.007507 0.367077 0.001917 -0.156881 0.064884 -0.056000 -0.248356 0.231654 -0.144930 -0.267830 0.350633 0.014221 -0.022597 -0.016235 -0.048992 0.206603 0.287110 0.026501 0.047771 -0.166592 0.016491 0.062848 0.032831 -0.028802 0.055118 -0.070520 -0.097193 -0.069882 -0.006549 -0.277900 0.031739 -0.204520 0.012678 0.010951 -0.019809 0.164515 -0.021293 -0.117009 0.115304 0.140577 -0.075573 -0.041971 -0.030279 -0.035412
happens -0.343798 0.198779 -0.105066 -0.139274 -0.052822 -0.311404 -0.330818 -0.330648 0.011348 0.286241 -0.022425 0.042505 0.432972 -0.229598 0.139886 0.415896 -0.455105 -0.163517 0.220510 0.285172 -0.077936 -0.345506 -0.206302 0.002655 -0.302022 0.128985 -0.323643 -0.038430 -0.035525 -0.028235 -0.104207 0.268043 0.114615 -0.139347 -0.208499 0.304750 -0.229864 0.257634 -0.064328 -0.250267 0.174305 -0.101656 0.024839 0.441230 -0.028025 -0.093243 0.204323 0.014621 -0.005116 -0.007045
loss 0.230082 -0.066935 0.062213 0.006016 -0.052468 -0.045891 -0.050316 0.303664 -0.156002 -0.016167 -0.011186 -0.082702 -0.027554 0.177212 -0.081518 -0.182128 0.330671 -0.169856 0.044079 0.036779 0.030220 0.046894 0.139845 -0.013574 -0.119292 0.007309 0.034490 0.167773 0.162521 0.014477 0.075780 0.138571 0.053257 -0.144081 0.267019 -0.098633 -0.181720 -0.041528 0.002178 0.332557 -0.257879 0.182186 -0.046688 -0.033325 0.134547 0.100992 -0.050905 0.041789 -0.028216 -0.277430
spouse 0.156087 -0.160499 0.209448 0.146066 0.040419 0.075424 0.144911 0.244962 0.026703 -0.079783 -0.062589 -0.192969 -0.361255 0.063203 -0.071664 -0.210468 0.132991 0.129970 -0.104844 -0.105334 0.062428 0.190544 0.057339 -0.086315 0.115136 0.101114 0.129876 0.047993 -0.099949 0.198533 0.035948 -0.130192 -0.071786 -0.031988 -0.159706 -0.293028 0.200503 -0.232523 -0.052321 0.065634 -0.299857 0.188696 -0.059787 -0.267748 0.252995 -0.019291 -0.172370 -0.074234 -0.063570 -0.094837
was 0.004093 -0.148348 0.229731 0.053012 -0.044078 -0.073938 0.036621 0.237476 0.079308 0.081957 -0.155275 -0.080322 -0.121206 -0.077313 0.060445 0.041800 -0.061179 0.094121 0.019921 0.086033 -0.009105 -0.096214 -0.021869 -0.203449 -0.039226 0.194169 0.023276 -0.094183 0.022084 0.129218 -0.201729 0.074207 0.200993 -0.093570 -0.082847 -0.252010 -0.036764 -0.069449 -0.057636 -0.004752 -0.217838 0.109716 -0.020558 -0.101535 0.227020 -0.021439 -0.118473 -0.062112 0.033959 -0.077733
Fire 0.302575 -0.142382 0.134205 -0.006240 0.006335 0.066049 0.000130 0.417206 0.011370 -0.070896 0.016811 -0.074043 -0.257045 0.193200 -0.122931 -0.247358 0.399512 -0.027157 -0.061746 -0.032192 -0.008732 0.132633 0.222271 -0.092621 -0.079218 -0.035830 0.116335 0.059920 0.106118 0.025905 -0.016865 -0.015140 0.053491 -0.146142 0.098630 -0.298902 -0.098427 -0.207289 -0.035443 0.195470 -0.261659 0.241126 0.017636 -0.131124 0.159788 0.077544 -0.164257 0.008043 -0.018191 -0.176040
add 0.116458 -0.126946 0.212557 0.121178 -0.035188 -0.068890 0.060624 0.206682 -0.077818 -0.014063 -0.086409 -0.175794 -0.173206 0.015497 -0.027980 -0.114173 0.105594 0.022453 -0.021939 -0.044743 0.088156 0.068336 0.011013 -0.129958 -0.006657 0.178486 0.068159 0.026432 0.034785 0.183687 0.002710 0.030114 0.049675 -0.104529 0.026424 -0.170464 0.000951 -0.099728 -0.024165 0.230815 -0.382867 0.186510 -0.030289 -0.155801 0.250739 -0.047509 -0.134135 -0.017680 -0.034103 -0.249963
again 0.025094 -0.049321 0.056351 -0.087121 0.034487 -0.033717 -0.077451 0.164941 0.021505 -0.013536 -0.015268 -0.110072 -0.070645 -0.000171 -0.060594 -0.067787 0.103312 -0.048176 0.107535 -0.015322 -0.040126 0.017134 0.000722 0.003698 -0.025368 0.081977 -0.013354 0.087735 0.016246 -0.041451 -0.073388 0.040288 0.073883 -0.200503 0.032985 -0.061793 -0.107030 -0.029038 0.055687 0.159861 -0.075888 0.106659 0.101145 -0.075367 0.221310 -0.068497 -0.017084 0.040068 -0.038563 -0.160823
agency 0.234725 -0.174019 0.117748 -0.018569 0.049749 0.042277 0.017816 0.365216 0.053080 -0.084183 -0.018272 -0.131123 -0.306384 0.144796 -0.095571 -0.238773 0.264988 -0.004965 -0.040215 -0.035601 0.030491 0.059696 0.172249 -0.030270 -0.012954 -0.052100 0.129153 0.060281 0.062850 -0.037601 -0.027590 -0.050644 0.065151 -0.149517 0.075278 -0.264148 -0.042455 -0.240107 0.002343 0.109345 -0.090729 0.094185 0.041500 -0.171325 0.172487 0.055212 -0.182579 0.011471 -0.059384 -0.129917
apply -0.170060 -0.018031 0.123424 0.116781 0.038206 0.046725 0.162617 -0.119256 -0.043212 0.011409 -0.056682 -0.070348 0.027314 -0.123375 0.022791 0.033854 -0.087386 0.026699 -0.073880 -0.087478 0.112380 0.042734 -0.123901 -0.021711 0.097845 0.155545 0.127703 0.018949 -0.032474 0.099894 0.036242 -0.024201 -0.065405 0.123913 0.031103 0.093294 0.176299 0.084190 0.043278 0.139460 -0.108638 -0.036249 -0.013384 -0.112223 -0.000157 -0.044119 -0.037765 0.000014 0.054315 -0.025661
basic 0.177318 -0.066924 -0.095095 0.015826 0.040827 0.269219 0.200799 0.065212 0.102640 -0.239366 0.049142 0.096337 -0.206352 0.091230 -0.105241 -0.208606 0.176996 0.156760 -0.158940 -0.144579 -0.014448 0.161379 0.184876 0.074595 0.170946 -0.146138 0.079720 -0.008614 -0.016525 -0.056231 0.029360 -0.102352 -0.285413 0.204821 0.060603 -0.034263 0.249052 -0.096077 0.115239 -0.067532 0.210594 -0.081548 -0.101306 -0.207062 -0.119582 0.149441 -0.051848 -0.102652 0.089522 0.109334
compensation -0.044964 -0.023422 0.155407 0.034884 0.019141 -0.016951 0.056589 0.000823 0.068491 0.059251 -0.066287 -0.015211 -0.013855 -0.051627 0.060192 0.076514 -0.122248 0.015539 -0.008442 0.039068 0.032168 -0.086849 -0.097983 -0.099730 0.021763 0.061632 0.053945 -0.032360 -0.046830 0.091982 -0.053065 -0.010343 0.105430 0.039017 -0.071642 -0.145735 0.088686 -0.076021 -0.139670 -0.047017 -0.196208 0.009472 -0.007888 -0.055766 0.085842 0.004073 -0.073752 -0.028731 0.003314 0.063759
criteria -0.233999 0.228661 -0.069643 -0.034794 0.041856 -0.001187 -0.164921 -0.207067 -0.093400 -0.007959 0.064877 -0.013219 0.128242 -0.136662 -0.043011 0.042214 -0.014983 -0.014285 0.075130 -0.109331 0.008266 -0.111239 -0.066127 0.097124 0.114529 0.112606 -0.077168 0.061658 0.002841 -0.022956 0.030802 0.051191 -0.145314 -0.154873 0.045920 0.305602 -0.169856 0.277619 0.254933 0.254351 0.292855 -0.035159 0.319784 0.101874 0.042439 -0.131664 0.149630 0.174010 -0.054388 -0.056275
existing 0.498662 -0.240413 0.070676 -0.128626 0.016192 0.085327 -0.010842 0.676476 0.031219 -0.083570 0.021518 -0.119038 -0.301569 0.370485 -0.195937 -0.360637 0.604967 -0.128055 0.068470 0.044383 -0.041343 0.139144 0.355356 0.081356 -0.099078 -0.147914 0.110496 0.228032 0.195243 -0.191543 -0.032656 0.069118 0.084061 -0.269893 0.324748 -0.372967 -0.150895 -0.300315 -0.002471 0.336457 -0.235259 0.246795 -0.127518 -0.237051 0.250990 0.165576 -0.165188 -0.023944 -0.019180 -0.325434
